digraph Tree {
node [shape=box, fontname="helvetica"] ;
edge [fontname="helvetica"] ;
0 [label="X[5] <= 0.226\nsquared_error = 6.741\nsamples = 3752\nvalue = -3.021"] ;
1 [label="X[6] <= -0.23\nsquared_error = 6.357\nsamples = 3748\nvalue = -3.01"] ;
0 -> 1 [labeldistance=2.5, labelangle=45, headlabel="True"] ;
2 [label="X[6] <= -0.232\nsquared_error = 204.162\nsamples = 6\nvalue = -9.428"] ;
1 -> 2 ;
3 [label="X[48] <= 0.363\nsquared_error = 1.185\nsamples = 5\nvalue = -3.054"] ;
2 -> 3 ;
4 [label="X[44] <= 0.07\nsquared_error = 0.396\nsamples = 4\nvalue = -2.588"] ;
3 -> 4 ;
5 [label="X[15] <= -0.28\nsquared_error = 0.086\nsamples = 3\nvalue = -2.921"] ;
4 -> 5 ;
6 [label="squared_error = 0.0\nsamples = 1\nvalue = -3.323"] ;
5 -> 6 ;
7 [label="X[42] <= -0.35\nsquared_error = 0.008\nsamples = 2\nvalue = -2.72"] ;
5 -> 7 ;
8 [label="squared_error = 0.0\nsamples = 1\nvalue = -2.63"] ;
7 -> 8 ;
9 [label="squared_error = 0.0\nsamples = 1\nvalue = -2.809"] ;
7 -> 9 ;
10 [label="squared_error = 0.0\nsamples = 1\nvalue = -1.59"] ;
4 -> 10 ;
11 [label="squared_error = -0.0\nsamples = 1\nvalue = -4.917"] ;
3 -> 11 ;
12 [label="squared_error = 0.0\nsamples = 1\nvalue = -41.301"] ;
2 -> 12 ;
13 [label="X[6] <= 0.118\nsquared_error = 5.974\nsamples = 3742\nvalue = -3.0"] ;
1 -> 13 ;
14 [label="X[34] <= -0.283\nsquared_error = 6.978\nsamples = 1619\nvalue = -3.219"] ;
13 -> 14 ;
15 [label="X[1] <= 0.192\nsquared_error = 4.175\nsamples = 838\nvalue = -2.995"] ;
14 -> 15 ;
16 [label="X[26] <= -0.117\nsquared_error = 4.062\nsamples = 832\nvalue = -2.973"] ;
15 -> 16 ;
17 [label="X[22] <= 0.098\nsquared_error = 3.862\nsamples = 661\nvalue = -2.847"] ;
16 -> 17 ;
18 [label="X[9] <= -0.2\nsquared_error = 3.711\nsamples = 570\nvalue = -2.72"] ;
17 -> 18 ;
19 [label="X[44] <= 0.1\nsquared_error = 1.75\nsamples = 12\nvalue = -0.426"] ;
18 -> 19 ;
20 [label="X[26] <= -0.182\nsquared_error = 0.29\nsamples = 4\nvalue = -1.904"] ;
19 -> 20 ;
21 [label="X[0] <= -0.015\nsquared_error = 0.006\nsamples = 2\nvalue = -1.381"] ;
20 -> 21 ;
22 [label="squared_error = 0.0\nsamples = 1\nvalue = -1.301"] ;
21 -> 22 ;
23 [label="squared_error = 0.0\nsamples = 1\nvalue = -1.462"] ;
21 -> 23 ;
24 [label="X[38] <= 0.258\nsquared_error = 0.027\nsamples = 2\nvalue = -2.427"] ;
20 -> 24 ;
25 [label="squared_error = 0.0\nsamples = 1\nvalue = -2.261"] ;
24 -> 25 ;
26 [label="squared_error = 0.0\nsamples = 1\nvalue = -2.592"] ;
24 -> 26 ;
27 [label="X[9] <= -0.223\nsquared_error = 0.842\nsamples = 8\nvalue = 0.312"] ;
19 -> 27 ;
28 [label="X[3] <= -0.229\nsquared_error = 0.023\nsamples = 2\nvalue = -1.112"] ;
27 -> 28 ;
29 [label="squared_error = 0.0\nsamples = 1\nvalue = -0.96"] ;
28 -> 29 ;
30 [label="squared_error = -0.0\nsamples = 1\nvalue = -1.263"] ;
28 -> 30 ;
31 [label="X[3] <= -0.188\nsquared_error = 0.214\nsamples = 6\nvalue = 0.787"] ;
27 -> 31 ;
32 [label="X[23] <= 0.033\nsquared_error = 0.042\nsamples = 4\nvalue = 0.495"] ;
31 -> 32 ;
33 [label="squared_error = 0.0\nsamples = 1\nvalue = 0.837"] ;
32 -> 33 ;
34 [label="X[42] <= -0.553\nsquared_error = 0.004\nsamples = 3\nvalue = 0.381"] ;
32 -> 34 ;
35 [label="squared_error = 0.0\nsamples = 1\nvalue = 0.458"] ;
34 -> 35 ;
36 [label="X[24] <= -0.207\nsquared_error = 0.001\nsamples = 2\nvalue = 0.342"] ;
34 -> 36 ;
37 [label="squared_error = 0.0\nsamples = 1\nvalue = 0.307"] ;
36 -> 37 ;
38 [label="squared_error = 0.0\nsamples = 1\nvalue = 0.377"] ;
36 -> 38 ;
39 [label="X[13] <= 0.278\nsquared_error = 0.046\nsamples = 2\nvalue = 1.372"] ;
31 -> 39 ;
40 [label="squared_error = 0.0\nsamples = 1\nvalue = 1.158"] ;
39 -> 40 ;
41 [label="squared_error = 0.0\nsamples = 1\nvalue = 1.585"] ;
39 -> 41 ;
42 [label="X[46] <= 0.308\nsquared_error = 3.638\nsamples = 558\nvalue = -2.77"] ;
18 -> 42 ;
43 [label="X[24] <= -0.46\nsquared_error = 3.583\nsamples = 454\nvalue = -2.913"] ;
42 -> 43 ;
44 [label="X[33] <= 0.134\nsquared_error = 5.305\nsamples = 12\nvalue = -4.795"] ;
43 -> 44 ;
45 [label="X[4] <= 0.085\nsquared_error = 1.687\nsamples = 10\nvalue = -3.912"] ;
44 -> 45 ;
46 [label="X[47] <= -0.121\nsquared_error = 0.8\nsamples = 8\nvalue = -4.401"] ;
45 -> 46 ;
47 [label="X[39] <= -0.036\nsquared_error = 0.116\nsamples = 4\nvalue = -5.213"] ;
46 -> 47 ;
48 [label="X[32] <= -0.057\nsquared_error = 0.023\nsamples = 3\nvalue = -5.032"] ;
47 -> 48 ;
49 [label="squared_error = 0.0\nsamples = 1\nvalue = -5.243"] ;
48 -> 49 ;
50 [label="X[29] <= -0.237\nsquared_error = 0.002\nsamples = 2\nvalue = -4.926"] ;
48 -> 50 ;
51 [label="squared_error = 0.0\nsamples = 1\nvalue = -4.884"] ;
50 -> 51 ;
52 [label="squared_error = -0.0\nsamples = 1\nvalue = -4.968"] ;
50 -> 52 ;
53 [label="squared_error = -0.0\nsamples = 1\nvalue = -5.756"] ;
47 -> 53 ;
54 [label="X[3] <= -0.248\nsquared_error = 0.165\nsamples = 4\nvalue = -3.589"] ;
46 -> 54 ;
55 [label="X[26] <= -0.341\nsquared_error = 0.037\nsamples = 3\nvalue = -3.375"] ;
54 -> 55 ;
56 [label="X[30] <= 0.127\nsquared_error = 0.005\nsamples = 2\nvalue = -3.505"] ;
55 -> 56 ;
57 [label="squared_error = 0.0\nsamples = 1\nvalue = -3.574"] ;
56 -> 57 ;
58 [label="squared_error = -0.0\nsamples = 1\nvalue = -3.436"] ;
56 -> 58 ;
59 [label="squared_error = 0.0\nsamples = 1\nvalue = -3.116"] ;
55 -> 59 ;
60 [label="squared_error = 0.0\nsamples = 1\nvalue = -4.231"] ;
54 -> 60 ;
61 [label="X[10] <= 0.098\nsquared_error = 0.447\nsamples = 2\nvalue = -1.954"] ;
45 -> 61 ;
62 [label="squared_error = 0.0\nsamples = 1\nvalue = -2.623"] ;
61 -> 62 ;
63 [label="squared_error = 0.0\nsamples = 1\nvalue = -1.286"] ;
61 -> 63 ;
64 [label="X[22] <= -0.083\nsquared_error = 0.0\nsamples = 2\nvalue = -9.21"] ;
44 -> 64 ;
65 [label="squared_error = 0.0\nsamples = 1\nvalue = -9.21"] ;
64 -> 65 ;
66 [label="squared_error = 0.0\nsamples = 1\nvalue = -9.21"] ;
64 -> 66 ;
67 [label="X[45] <= -0.009\nsquared_error = 3.438\nsamples = 442\nvalue = -2.862"] ;
43 -> 67 ;
68 [label="X[5] <= -0.152\nsquared_error = 3.945\nsamples = 246\nvalue = -3.121"] ;
67 -> 68 ;
69 [label="X[22] <= -0.036\nsquared_error = 3.308\nsamples = 122\nvalue = -2.743"] ;
68 -> 69 ;
70 [label="X[18] <= -0.149\nsquared_error = 3.458\nsamples = 58\nvalue = -2.09"] ;
69 -> 70 ;
71 [label="X[31] <= 0.244\nsquared_error = 2.767\nsamples = 8\nvalue = -4.112"] ;
70 -> 71 ;
72 [label="X[33] <= -0.059\nsquared_error = 0.974\nsamples = 5\nvalue = -5.216"] ;
71 -> 72 ;
73 [label="X[31] <= 0.097\nsquared_error = 0.288\nsamples = 2\nvalue = -6.274"] ;
72 -> 73 ;
74 [label="squared_error = 0.0\nsamples = 1\nvalue = -5.737"] ;
73 -> 74 ;
75 [label="squared_error = -0.0\nsamples = 1\nvalue = -6.811"] ;
73 -> 75 ;
76 [label="X[4] <= 0.123\nsquared_error = 0.188\nsamples = 3\nvalue = -4.511"] ;
72 -> 76 ;
77 [label="X[28] <= -0.241\nsquared_error = 0.003\nsamples = 2\nvalue = -4.206"] ;
76 -> 77 ;
78 [label="squared_error = 0.0\nsamples = 1\nvalue = -4.153"] ;
77 -> 78 ;
79 [label="squared_error = -0.0\nsamples = 1\nvalue = -4.258"] ;
77 -> 79 ;
80 [label="squared_error = 0.0\nsamples = 1\nvalue = -5.122"] ;
76 -> 80 ;
81 [label="X[44] <= 0.208\nsquared_error = 0.343\nsamples = 3\nvalue = -2.273"] ;
71 -> 81 ;
82 [label="X[34] <= -0.374\nsquared_error = 0.029\nsamples = 2\nvalue = -1.871"] ;
81 -> 82 ;
83 [label="squared_error = 0.0\nsamples = 1\nvalue = -1.7"] ;
82 -> 83 ;
84 [label="squared_error = 0.0\nsamples = 1\nvalue = -2.042"] ;
82 -> 84 ;
85 [label="squared_error = -0.0\nsamples = 1\nvalue = -3.077"] ;
81 -> 85 ;
86 [label="X[19] <= 0.017\nsquared_error = 2.809\nsamples = 50\nvalue = -1.767"] ;
70 -> 86 ;
87 [label="X[19] <= -0.067\nsquared_error = 2.387\nsamples = 29\nvalue = -2.434"] ;
86 -> 87 ;
88 [label="X[30] <= 0.149\nsquared_error = 1.717\nsamples = 12\nvalue = -1.546"] ;
87 -> 88 ;
89 [label="X[2] <= 0.141\nsquared_error = 1.09\nsamples = 9\nvalue = -1.007"] ;
88 -> 89 ;
90 [label="X[19] <= -0.109\nsquared_error = 0.52\nsamples = 4\nvalue = -1.919"] ;
89 -> 90 ;
91 [label="squared_error = 0.0\nsamples = 1\nvalue = -0.751"] ;
90 -> 91 ;
92 [label="X[2] <= 0.066\nsquared_error = 0.086\nsamples = 3\nvalue = -2.309"] ;
90 -> 92 ;
93 [label="squared_error = 0.0\nsamples = 1\nvalue = -1.895"] ;
92 -> 93 ;
94 [label="X[11] <= -0.107\nsquared_error = 0.001\nsamples = 2\nvalue = -2.516"] ;
92 -> 94 ;
95 [label="squared_error = 0.0\nsamples = 1\nvalue = -2.485"] ;
94 -> 95 ;
96 [label="squared_error = 0.0\nsamples = 1\nvalue = -2.547"] ;
94 -> 96 ;
97 [label="X[31] <= 0.061\nsquared_error = 0.348\nsamples = 5\nvalue = -0.277"] ;
89 -> 97 ;
98 [label="squared_error = 0.0\nsamples = 1\nvalue = -1.313"] ;
97 -> 98 ;
99 [label="X[24] <= -0.331\nsquared_error = 0.099\nsamples = 4\nvalue = -0.018"] ;
97 -> 99 ;
100 [label="X[29] <= -0.043\nsquared_error = 0.001\nsamples = 2\nvalue = -0.319"] ;
99 -> 100 ;
101 [label="squared_error = 0.0\nsamples = 1\nvalue = -0.343"] ;
100 -> 101 ;
102 [label="squared_error = -0.0\nsamples = 1\nvalue = -0.295"] ;
100 -> 102 ;
103 [label="X[37] <= 0.173\nsquared_error = 0.016\nsamples = 2\nvalue = 0.284"] ;
99 -> 103 ;
104 [label="squared_error = 0.0\nsamples = 1\nvalue = 0.156"] ;
103 -> 104 ;
105 [label="squared_error = -0.0\nsamples = 1\nvalue = 0.411"] ;
103 -> 105 ;
106 [label="X[8] <= -0.113\nsquared_error = 0.114\nsamples = 3\nvalue = -3.161"] ;
88 -> 106 ;
107 [label="squared_error = 0.0\nsamples = 1\nvalue = -3.6"] ;
106 -> 107 ;
108 [label="X[25] <= -0.27\nsquared_error = 0.027\nsamples = 2\nvalue = -2.942"] ;
106 -> 108 ;
109 [label="squared_error = 0.0\nsamples = 1\nvalue = -2.778"] ;
108 -> 109 ;
110 [label="squared_error = 0.0\nsamples = 1\nvalue = -3.105"] ;
108 -> 110 ;
111 [label="X[37] <= 0.115\nsquared_error = 1.909\nsamples = 17\nvalue = -3.062"] ;
87 -> 111 ;
112 [label="X[20] <= 0.044\nsquared_error = 0.473\nsamples = 3\nvalue = -0.759"] ;
111 -> 112 ;
113 [label="X[28] <= -0.18\nsquared_error = 0.105\nsamples = 2\nvalue = -0.31"] ;
112 -> 113 ;
114 [label="squared_error = 0.0\nsamples = 1\nvalue = 0.014"] ;
113 -> 114 ;
115 [label="squared_error = 0.0\nsamples = 1\nvalue = -0.634"] ;
113 -> 115 ;
116 [label="squared_error = 0.0\nsamples = 1\nvalue = -1.656"] ;
112 -> 116 ;
117 [label="X[15] <= 0.006\nsquared_error = 0.837\nsamples = 14\nvalue = -3.555"] ;
111 -> 117 ;
118 [label="X[9] <= -0.044\nsquared_error = 0.378\nsamples = 7\nvalue = -2.831"] ;
117 -> 118 ;
119 [label="X[12] <= -0.081\nsquared_error = 0.095\nsamples = 3\nvalue = -3.459"] ;
118 -> 119 ;
120 [label="squared_error = 0.0\nsamples = 1\nvalue = -3.047"] ;
119 -> 120 ;
121 [label="X[48] <= 0.02\nsquared_error = 0.015\nsamples = 2\nvalue = -3.665"] ;
119 -> 121 ;
122 [label="squared_error = 0.0\nsamples = 1\nvalue = -3.789"] ;
121 -> 122 ;
123 [label="squared_error = 0.0\nsamples = 1\nvalue = -3.541"] ;
121 -> 123 ;
124 [label="X[9] <= -0.004\nsquared_error = 0.072\nsamples = 4\nvalue = -2.36"] ;
118 -> 124 ;
125 [label="squared_error = 0.0\nsamples = 1\nvalue = -2.771"] ;
124 -> 125 ;
126 [label="X[0] <= -0.134\nsquared_error = 0.022\nsamples = 3\nvalue = -2.224"] ;
124 -> 126 ;
127 [label="squared_error = 0.0\nsamples = 1\nvalue = -2.015"] ;
126 -> 127 ;
128 [label="X[4] <= -0.014\nsquared_error = 0.0\nsamples = 2\nvalue = -2.328"] ;
126 -> 128 ;
129 [label="squared_error = 0.0\nsamples = 1\nvalue = -2.327"] ;
128 -> 129 ;
130 [label="squared_error = 0.0\nsamples = 1\nvalue = -2.329"] ;
128 -> 130 ;
131 [label="X[45] <= -0.059\nsquared_error = 0.248\nsamples = 7\nvalue = -4.279"] ;
117 -> 131 ;
132 [label="X[43] <= -0.044\nsquared_error = 0.052\nsamples = 4\nvalue = -3.903"] ;
131 -> 132 ;
133 [label="X[43] <= -0.075\nsquared_error = 0.008\nsamples = 2\nvalue = -3.684"] ;
132 -> 133 ;
134 [label="squared_error = 0.0\nsamples = 1\nvalue = -3.596"] ;
133 -> 134 ;
135 [label="squared_error = 0.0\nsamples = 1\nvalue = -3.773"] ;
133 -> 135 ;
136 [label="X[32] <= -0.192\nsquared_error = 0.001\nsamples = 2\nvalue = -4.122"] ;
132 -> 136 ;
137 [label="squared_error = 0.0\nsamples = 1\nvalue = -4.091"] ;
136 -> 137 ;
138 [label="squared_error = 0.0\nsamples = 1\nvalue = -4.154"] ;
136 -> 138 ;
139 [label="X[3] <= -0.214\nsquared_error = 0.069\nsamples = 3\nvalue = -4.78"] ;
131 -> 139 ;
140 [label="squared_error = 0.0\nsamples = 1\nvalue = -4.445"] ;
139 -> 140 ;
141 [label="X[38] <= 0.311\nsquared_error = 0.02\nsamples = 2\nvalue = -4.947"] ;
139 -> 141 ;
142 [label="squared_error = 0.0\nsamples = 1\nvalue = -4.805"] ;
141 -> 142 ;
143 [label="squared_error = 0.0\nsamples = 1\nvalue = -5.089"] ;
141 -> 143 ;
144 [label="X[20] <= -0.034\nsquared_error = 1.929\nsamples = 21\nvalue = -0.845"] ;
86 -> 144 ;
145 [label="X[41] <= 0.409\nsquared_error = 1.393\nsamples = 8\nvalue = 0.391"] ;
144 -> 145 ;
146 [label="X[10] <= 0.251\nsquared_error = 0.207\nsamples = 4\nvalue = -0.657"] ;
145 -> 146 ;
147 [label="X[15] <= 0.094\nsquared_error = 0.019\nsamples = 2\nvalue = -1.062"] ;
146 -> 147 ;
148 [label="squared_error = 0.0\nsamples = 1\nvalue = -0.925"] ;
147 -> 148 ;
149 [label="squared_error = 0.0\nsamples = 1\nvalue = -1.198"] ;
147 -> 149 ;
150 [label="X[5] <= -0.213\nsquared_error = 0.067\nsamples = 2\nvalue = -0.252"] ;
146 -> 150 ;
151 [label="squared_error = 0.0\nsamples = 1\nvalue = -0.512"] ;
150 -> 151 ;
152 [label="squared_error = -0.0\nsamples = 1\nvalue = 0.007"] ;
150 -> 152 ;
153 [label="X[33] <= 0.084\nsquared_error = 0.381\nsamples = 4\nvalue = 1.44"] ;
145 -> 153 ;
154 [label="X[49] <= -0.33\nsquared_error = 0.03\nsamples = 3\nvalue = 1.094"] ;
153 -> 154 ;
155 [label="squared_error = 0.0\nsamples = 1\nvalue = 1.331"] ;
154 -> 155 ;
156 [label="X[20] <= -0.119\nsquared_error = 0.003\nsamples = 2\nvalue = 0.975"] ;
154 -> 156 ;
157 [label="squared_error = 0.0\nsamples = 1\nvalue = 0.92"] ;
156 -> 157 ;
158 [label="squared_error = 0.0\nsamples = 1\nvalue = 1.03"] ;
156 -> 158 ;
159 [label="squared_error = -0.0\nsamples = 1\nvalue = 2.477"] ;
153 -> 159 ;
160 [label="X[1] <= 0.028\nsquared_error = 0.738\nsamples = 13\nvalue = -1.606"] ;
144 -> 160 ;
161 [label="X[24] <= -0.156\nsquared_error = 0.334\nsamples = 7\nvalue = -2.168"] ;
160 -> 161 ;
162 [label="X[36] <= 0.528\nsquared_error = 0.06\nsamples = 5\nvalue = -2.507"] ;
161 -> 162 ;
163 [label="X[13] <= 0.28\nsquared_error = 0.026\nsamples = 4\nvalue = -2.605"] ;
162 -> 163 ;
164 [label="squared_error = 0.0\nsamples = 1\nvalue = -2.871"] ;
163 -> 164 ;
165 [label="X[24] <= -0.263\nsquared_error = 0.004\nsamples = 3\nvalue = -2.517"] ;
163 -> 165 ;
166 [label="squared_error = 0.0\nsamples = 1\nvalue = -2.428"] ;
165 -> 166 ;
167 [label="X[42] <= -0.368\nsquared_error = 0.0\nsamples = 2\nvalue = -2.561"] ;
165 -> 167 ;
168 [label="squared_error = 0.0\nsamples = 1\nvalue = -2.554"] ;
167 -> 168 ;
169 [label="squared_error = -0.0\nsamples = 1\nvalue = -2.569"] ;
167 -> 169 ;
170 [label="squared_error = -0.0\nsamples = 1\nvalue = -2.113"] ;
162 -> 170 ;
171 [label="X[41] <= 0.366\nsquared_error = 0.011\nsamples = 2\nvalue = -1.319"] ;
161 -> 171 ;
172 [label="squared_error = 0.0\nsamples = 1\nvalue = -1.424"] ;
171 -> 172 ;
173 [label="squared_error = 0.0\nsamples = 1\nvalue = -1.215"] ;
171 -> 173 ;
174 [label="X[36] <= 0.547\nsquared_error = 0.413\nsamples = 6\nvalue = -0.952"] ;
160 -> 174 ;
175 [label="X[6] <= 0.023\nsquared_error = 0.112\nsamples = 5\nvalue = -1.204"] ;
174 -> 175 ;
176 [label="squared_error = 0.0\nsamples = 1\nvalue = -1.805"] ;
175 -> 176 ;
177 [label="X[24] <= -0.071\nsquared_error = 0.028\nsamples = 4\nvalue = -1.054"] ;
175 -> 177 ;
178 [label="X[23] <= 0.163\nsquared_error = 0.0\nsamples = 3\nvalue = -1.15"] ;
177 -> 178 ;
179 [label="X[6] <= 0.093\nsquared_error = 0.0\nsamples = 2\nvalue = -1.165"] ;
178 -> 179 ;
180 [label="squared_error = 0.0\nsamples = 1\nvalue = -1.172"] ;
179 -> 180 ;
181 [label="squared_error = 0.0\nsamples = 1\nvalue = -1.158"] ;
179 -> 181 ;
182 [label="squared_error = -0.0\nsamples = 1\nvalue = -1.12"] ;
178 -> 182 ;
183 [label="squared_error = 0.0\nsamples = 1\nvalue = -0.767"] ;
177 -> 183 ;
184 [label="squared_error = 0.0\nsamples = 1\nvalue = 0.313"] ;
174 -> 184 ;
185 [label="X[7] <= -0.088\nsquared_error = 2.435\nsamples = 64\nvalue = -3.335"] ;
69 -> 185 ;
186 [label="X[41] <= 0.512\nsquared_error = 2.062\nsamples = 62\nvalue = -3.216"] ;
185 -> 186 ;
187 [label="X[5] <= -0.181\nsquared_error = 1.68\nsamples = 36\nvalue = -2.706"] ;
186 -> 187 ;
188 [label="X[29] <= 0.146\nsquared_error = 1.289\nsamples = 29\nvalue = -3.042"] ;
187 -> 188 ;
189 [label="X[1] <= 0.008\nsquared_error = 0.906\nsamples = 28\nvalue = -2.921"] ;
188 -> 189 ;
190 [label="X[37] <= 0.356\nsquared_error = 0.596\nsamples = 17\nvalue = -3.313"] ;
189 -> 190 ;
191 [label="X[15] <= 0.019\nsquared_error = 0.379\nsamples = 13\nvalue = -3.029"] ;
190 -> 191 ;
192 [label="X[18] <= -0.014\nsquared_error = 0.203\nsamples = 10\nvalue = -2.774"] ;
191 -> 192 ;
193 [label="X[15] <= 0.007\nsquared_error = 0.077\nsamples = 6\nvalue = -3.07"] ;
192 -> 193 ;
194 [label="X[16] <= 0.202\nsquared_error = 0.02\nsamples = 4\nvalue = -3.244"] ;
193 -> 194 ;
195 [label="X[32] <= -0.025\nsquared_error = 0.007\nsamples = 2\nvalue = -3.366"] ;
194 -> 195 ;
196 [label="squared_error = 0.0\nsamples = 1\nvalue = -3.28"] ;
195 -> 196 ;
197 [label="squared_error = -0.0\nsamples = 1\nvalue = -3.452"] ;
195 -> 197 ;
198 [label="X[5] <= -0.219\nsquared_error = 0.004\nsamples = 2\nvalue = -3.122"] ;
194 -> 198 ;
199 [label="squared_error = 0.0\nsamples = 1\nvalue = -3.062"] ;
198 -> 199 ;
200 [label="squared_error = 0.0\nsamples = 1\nvalue = -3.182"] ;
198 -> 200 ;
201 [label="X[21] <= 0.125\nsquared_error = 0.009\nsamples = 2\nvalue = -2.722"] ;
193 -> 201 ;
202 [label="squared_error = 0.0\nsamples = 1\nvalue = -2.819"] ;
201 -> 202 ;
203 [label="squared_error = 0.0\nsamples = 1\nvalue = -2.624"] ;
201 -> 203 ;
204 [label="X[5] <= -0.245\nsquared_error = 0.063\nsamples = 4\nvalue = -2.33"] ;
192 -> 204 ;
205 [label="X[38] <= 0.174\nsquared_error = 0.021\nsamples = 2\nvalue = -2.111"] ;
204 -> 205 ;
206 [label="squared_error = 0.0\nsamples = 1\nvalue = -2.254"] ;
205 -> 206 ;
207 [label="squared_error = 0.0\nsamples = 1\nvalue = -1.968"] ;
205 -> 207 ;
208 [label="X[4] <= -0.112\nsquared_error = 0.01\nsamples = 2\nvalue = -2.548"] ;
204 -> 208 ;
209 [label="squared_error = 0.0\nsamples = 1\nvalue = -2.449"] ;
208 -> 209 ;
210 [label="squared_error = -0.0\nsamples = 1\nvalue = -2.648"] ;
208 -> 210 ;
211 [label="X[24] <= -0.29\nsquared_error = 0.023\nsamples = 3\nvalue = -3.879"] ;
191 -> 211 ;
212 [label="squared_error = 0.0\nsamples = 1\nvalue = -3.664"] ;
211 -> 212 ;
213 [label="X[31] <= 0.082\nsquared_error = 0.0\nsamples = 2\nvalue = -3.986"] ;
211 -> 213 ;
214 [label="squared_error = 0.0\nsamples = 1\nvalue = -4.002"] ;
213 -> 214 ;
215 [label="squared_error = 0.0\nsamples = 1\nvalue = -3.971"] ;
213 -> 215 ;
216 [label="X[2] <= 0.147\nsquared_error = 0.188\nsamples = 4\nvalue = -4.237"] ;
190 -> 216 ;
217 [label="squared_error = 0.0\nsamples = 1\nvalue = -3.554"] ;
216 -> 217 ;
218 [label="X[22] <= -0.011\nsquared_error = 0.043\nsamples = 3\nvalue = -4.465"] ;
216 -> 218 ;
219 [label="squared_error = 0.0\nsamples = 1\nvalue = -4.208"] ;
218 -> 219 ;
220 [label="X[33] <= -0.076\nsquared_error = 0.015\nsamples = 2\nvalue = -4.594"] ;
218 -> 220 ;
221 [label="squared_error = 0.0\nsamples = 1\nvalue = -4.717"] ;
220 -> 221 ;
222 [label="squared_error = 0.0\nsamples = 1\nvalue = -4.47"] ;
220 -> 222 ;
223 [label="X[19] <= -0.002\nsquared_error = 0.778\nsamples = 11\nvalue = -2.314"] ;
189 -> 223 ;
224 [label="X[46] <= 0.239\nsquared_error = 0.46\nsamples = 7\nvalue = -1.796"] ;
223 -> 224 ;
225 [label="X[40] <= -0.019\nsquared_error = 0.013\nsamples = 3\nvalue = -1.117"] ;
224 -> 225 ;
226 [label="squared_error = 0.0\nsamples = 1\nvalue = -0.965"] ;
225 -> 226 ;
227 [label="X[8] <= -0.092\nsquared_error = 0.002\nsamples = 2\nvalue = -1.193"] ;
225 -> 227 ;
228 [label="squared_error = 0.0\nsamples = 1\nvalue = -1.146"] ;
227 -> 228 ;
229 [label="squared_error = 0.0\nsamples = 1\nvalue = -1.24"] ;
227 -> 229 ;
230 [label="X[40] <= -0.104\nsquared_error = 0.19\nsamples = 4\nvalue = -2.305"] ;
224 -> 230 ;
231 [label="squared_error = 0.0\nsamples = 1\nvalue = -3.028"] ;
230 -> 231 ;
232 [label="X[27] <= -0.128\nsquared_error = 0.021\nsamples = 3\nvalue = -2.064"] ;
230 -> 232 ;
233 [label="X[11] <= -0.07\nsquared_error = 0.007\nsamples = 2\nvalue = -1.972"] ;
232 -> 233 ;
234 [label="squared_error = 0.0\nsamples = 1\nvalue = -1.889"] ;
233 -> 234 ;
235 [label="squared_error = 0.0\nsamples = 1\nvalue = -2.055"] ;
233 -> 235 ;
236 [label="squared_error = -0.0\nsamples = 1\nvalue = -2.247"] ;
232 -> 236 ;
237 [label="X[11] <= -0.1\nsquared_error = 0.042\nsamples = 4\nvalue = -3.222"] ;
223 -> 237 ;
238 [label="X[13] <= 0.312\nsquared_error = 0.008\nsamples = 3\nvalue = -3.113"] ;
237 -> 238 ;
239 [label="squared_error = 0.0\nsamples = 1\nvalue = -2.99"] ;
238 -> 239 ;
240 [label="X[17] <= -0.397\nsquared_error = 0.001\nsamples = 2\nvalue = -3.174"] ;
238 -> 240 ;
241 [label="squared_error = 0.0\nsamples = 1\nvalue = -3.207"] ;
240 -> 241 ;
242 [label="squared_error = 0.0\nsamples = 1\nvalue = -3.141"] ;
240 -> 242 ;
243 [label="squared_error = 0.0\nsamples = 1\nvalue = -3.548"] ;
237 -> 243 ;
244 [label="squared_error = -0.0\nsamples = 1\nvalue = -6.449"] ;
188 -> 244 ;
245 [label="X[11] <= -0.099\nsquared_error = 0.891\nsamples = 7\nvalue = -1.314"] ;
187 -> 245 ;
246 [label="X[8] <= -0.022\nsquared_error = 0.393\nsamples = 6\nvalue = -1.618"] ;
245 -> 246 ;
247 [label="X[46] <= 0.203\nsquared_error = 0.145\nsamples = 5\nvalue = -1.384"] ;
246 -> 247 ;
248 [label="X[17] <= -0.32\nsquared_error = 0.005\nsamples = 2\nvalue = -1.817"] ;
247 -> 248 ;
249 [label="squared_error = 0.0\nsamples = 1\nvalue = -1.889"] ;
248 -> 249 ;
250 [label="squared_error = -0.0\nsamples = 1\nvalue = -1.745"] ;
248 -> 250 ;
251 [label="X[21] <= 0.072\nsquared_error = 0.03\nsamples = 3\nvalue = -1.096"] ;
247 -> 251 ;
252 [label="squared_error = 0.0\nsamples = 1\nvalue = -1.334"] ;
251 -> 252 ;
253 [label="X[14] <= 0.025\nsquared_error = 0.003\nsamples = 2\nvalue = -0.977"] ;
251 -> 253 ;
254 [label="squared_error = 0.0\nsamples = 1\nvalue = -1.029"] ;
253 -> 254 ;
255 [label="squared_error = 0.0\nsamples = 1\nvalue = -0.925"] ;
253 -> 255 ;
256 [label="squared_error = -0.0\nsamples = 1\nvalue = -2.785"] ;
246 -> 256 ;
257 [label="squared_error = -0.0\nsamples = 1\nvalue = 0.509"] ;
245 -> 257 ;
258 [label="X[32] <= -0.102\nsquared_error = 1.732\nsamples = 26\nvalue = -3.923"] ;
186 -> 258 ;
259 [label="X[36] <= 0.519\nsquared_error = 0.682\nsamples = 9\nvalue = -2.905"] ;
258 -> 259 ;
260 [label="X[42] <= -0.675\nsquared_error = 0.226\nsamples = 7\nvalue = -3.279"] ;
259 -> 260 ;
261 [label="squared_error = 0.0\nsamples = 1\nvalue = -4.349"] ;
260 -> 261 ;
262 [label="X[26] <= -0.153\nsquared_error = 0.041\nsamples = 6\nvalue = -3.1"] ;
260 -> 262 ;
263 [label="X[39] <= 0.154\nsquared_error = 0.01\nsamples = 5\nvalue = -3.019"] ;
262 -> 263 ;
264 [label="X[5] <= -0.176\nsquared_error = 0.001\nsamples = 3\nvalue = -3.095"] ;
263 -> 264 ;
265 [label="squared_error = 0.0\nsamples = 1\nvalue = -3.136"] ;
264 -> 265 ;
266 [label="X[23] <= 0.235\nsquared_error = 0.0\nsamples = 2\nvalue = -3.074"] ;
264 -> 266 ;
267 [label="squared_error = 0.0\nsamples = 1\nvalue = -3.064"] ;
266 -> 267 ;
268 [label="squared_error = 0.0\nsamples = 1\nvalue = -3.084"] ;
266 -> 268 ;
269 [label="X[46] <= 0.144\nsquared_error = 0.001\nsamples = 2\nvalue = -2.906"] ;
263 -> 269 ;
270 [label="squared_error = 0.0\nsamples = 1\nvalue = -2.943"] ;
269 -> 270 ;
271 [label="squared_error = -0.0\nsamples = 1\nvalue = -2.869"] ;
269 -> 271 ;
272 [label="squared_error = -0.0\nsamples = 1\nvalue = -3.504"] ;
262 -> 272 ;
273 [label="X[32] <= -0.128\nsquared_error = 0.078\nsamples = 2\nvalue = -1.596"] ;
259 -> 273 ;
274 [label="squared_error = 0.0\nsamples = 1\nvalue = -1.874"] ;
273 -> 274 ;
275 [label="squared_error = 0.0\nsamples = 1\nvalue = -1.317"] ;
273 -> 275 ;
276 [label="X[26] <= -0.311\nsquared_error = 1.449\nsamples = 17\nvalue = -4.462"] ;
258 -> 276 ;
277 [label="X[14] <= -0.093\nsquared_error = 0.528\nsamples = 3\nvalue = -2.658"] ;
276 -> 277 ;
278 [label="squared_error = 0.0\nsamples = 1\nvalue = -1.688"] ;
277 -> 278 ;
279 [label="X[16] <= 0.271\nsquared_error = 0.087\nsamples = 2\nvalue = -3.142"] ;
277 -> 279 ;
280 [label="squared_error = 0.0\nsamples = 1\nvalue = -3.438"] ;
279 -> 280 ;
281 [label="squared_error = 0.0\nsamples = 1\nvalue = -2.847"] ;
279 -> 281 ;
282 [label="X[1] <= 0.053\nsquared_error = 0.799\nsamples = 14\nvalue = -4.849"] ;
276 -> 282 ;
283 [label="X[20] <= -0.079\nsquared_error = 0.419\nsamples = 10\nvalue = -5.226"] ;
282 -> 283 ;
284 [label="X[17] <= -0.374\nsquared_error = 0.226\nsamples = 2\nvalue = -4.193"] ;
283 -> 284 ;
285 [label="squared_error = 0.0\nsamples = 1\nvalue = -4.669"] ;
284 -> 285 ;
286 [label="squared_error = -0.0\nsamples = 1\nvalue = -3.717"] ;
284 -> 286 ;
287 [label="X[17] <= -0.441\nsquared_error = 0.134\nsamples = 8\nvalue = -5.484"] ;
283 -> 287 ;
288 [label="X[23] <= 0.129\nsquared_error = 0.038\nsamples = 3\nvalue = -5.899"] ;
287 -> 288 ;
289 [label="squared_error = 0.0\nsamples = 1\nvalue = -5.657"] ;
288 -> 289 ;
290 [label="X[27] <= -0.268\nsquared_error = 0.014\nsamples = 2\nvalue = -6.019"] ;
288 -> 290 ;
291 [label="squared_error = 0.0\nsamples = 1\nvalue = -6.137"] ;
290 -> 291 ;
292 [label="squared_error = 0.0\nsamples = 1\nvalue = -5.902"] ;
290 -> 292 ;
293 [label="X[22] <= 0.009\nsquared_error = 0.026\nsamples = 5\nvalue = -5.236"] ;
287 -> 293 ;
294 [label="X[1] <= 0.022\nsquared_error = 0.0\nsamples = 3\nvalue = -5.112"] ;
293 -> 294 ;
295 [label="X[10] <= 0.188\nsquared_error = 0.0\nsamples = 2\nvalue = -5.099"] ;
294 -> 295 ;
296 [label="squared_error = 0.0\nsamples = 1\nvalue = -5.101"] ;
295 -> 296 ;
297 [label="squared_error = 0.0\nsamples = 1\nvalue = -5.097"] ;
295 -> 297 ;
298 [label="squared_error = 0.0\nsamples = 1\nvalue = -5.138"] ;
294 -> 298 ;
299 [label="X[34] <= -0.37\nsquared_error = 0.007\nsamples = 2\nvalue = -5.422"] ;
293 -> 299 ;
300 [label="squared_error = 0.0\nsamples = 1\nvalue = -5.341"] ;
299 -> 300 ;
301 [label="squared_error = -0.0\nsamples = 1\nvalue = -5.504"] ;
299 -> 301 ;
302 [label="X[12] <= -0.141\nsquared_error = 0.501\nsamples = 4\nvalue = -3.905"] ;
282 -> 302 ;
303 [label="X[21] <= 0.146\nsquared_error = 0.052\nsamples = 2\nvalue = -4.585"] ;
302 -> 303 ;
304 [label="squared_error = 0.0\nsamples = 1\nvalue = -4.358"] ;
303 -> 304 ;
305 [label="squared_error = 0.0\nsamples = 1\nvalue = -4.812"] ;
303 -> 305 ;
306 [label="X[38] <= 0.293\nsquared_error = 0.024\nsamples = 2\nvalue = -3.224"] ;
302 -> 306 ;
307 [label="squared_error = 0.0\nsamples = 1\nvalue = -3.069"] ;
306 -> 307 ;
308 [label="squared_error = 0.0\nsamples = 1\nvalue = -3.38"] ;
306 -> 308 ;
309 [label="X[27] <= -0.186\nsquared_error = 0.108\nsamples = 2\nvalue = -7.005"] ;
185 -> 309 ;
310 [label="squared_error = 0.0\nsamples = 1\nvalue = -7.333"] ;
309 -> 310 ;
311 [label="squared_error = 0.0\nsamples = 1\nvalue = -6.676"] ;
309 -> 311 ;
312 [label="X[26] <= -0.201\nsquared_error = 4.293\nsamples = 124\nvalue = -3.493"] ;
68 -> 312 ;
313 [label="X[30] <= 0.065\nsquared_error = 4.384\nsamples = 56\nvalue = -4.189"] ;
312 -> 313 ;
314 [label="X[29] <= 0.038\nsquared_error = 5.22\nsamples = 24\nvalue = -5.118"] ;
313 -> 314 ;
315 [label="X[26] <= -0.234\nsquared_error = 4.676\nsamples = 13\nvalue = -6.41"] ;
314 -> 315 ;
316 [label="X[21] <= 0.125\nsquared_error = 1.277\nsamples = 8\nvalue = -4.895"] ;
315 -> 316 ;
317 [label="X[9] <= -0.049\nsquared_error = 0.401\nsamples = 5\nvalue = -5.622"] ;
316 -> 317 ;
318 [label="X[33] <= -0.02\nsquared_error = 0.069\nsamples = 3\nvalue = -6.063"] ;
317 -> 318 ;
319 [label="squared_error = 0.0\nsamples = 1\nvalue = -5.71"] ;
318 -> 319 ;
320 [label="X[46] <= 0.191\nsquared_error = 0.01\nsamples = 2\nvalue = -6.24"] ;
318 -> 320 ;
321 [label="squared_error = 0.0\nsamples = 1\nvalue = -6.338"] ;
320 -> 321 ;
322 [label="squared_error = 0.0\nsamples = 1\nvalue = -6.142"] ;
320 -> 322 ;
323 [label="X[19] <= 0.012\nsquared_error = 0.168\nsamples = 2\nvalue = -4.96"] ;
317 -> 323 ;
324 [label="squared_error = 0.0\nsamples = 1\nvalue = -4.55"] ;
323 -> 324 ;
325 [label="squared_error = -0.0\nsamples = 1\nvalue = -5.37"] ;
323 -> 325 ;
326 [label="X[47] <= -0.361\nsquared_error = 0.389\nsamples = 3\nvalue = -3.683"] ;
316 -> 326 ;
327 [label="X[12] <= -0.077\nsquared_error = 0.007\nsamples = 2\nvalue = -4.121"] ;
326 -> 327 ;
328 [label="squared_error = 0.0\nsamples = 1\nvalue = -4.205"] ;
327 -> 328 ;
329 [label="squared_error = 0.0\nsamples = 1\nvalue = -4.038"] ;
327 -> 329 ;
330 [label="squared_error = -0.0\nsamples = 1\nvalue = -2.807"] ;
326 -> 330 ;
331 [label="X[32] <= -0.151\nsquared_error = 0.567\nsamples = 5\nvalue = -8.834"] ;
315 -> 331 ;
332 [label="squared_error = 0.0\nsamples = 1\nvalue = -7.327"] ;
331 -> 332 ;
333 [label="squared_error = 0.0\nsamples = 4\nvalue = -9.21"] ;
331 -> 333 ;
334 [label="X[46] <= 0.227\nsquared_error = 1.559\nsamples = 11\nvalue = -3.591"] ;
314 -> 334 ;
335 [label="X[17] <= -0.292\nsquared_error = 0.298\nsamples = 5\nvalue = -4.818"] ;
334 -> 335 ;
336 [label="X[11] <= -0.124\nsquared_error = 0.066\nsamples = 3\nvalue = -5.214"] ;
335 -> 336 ;
337 [label="squared_error = 0.0\nsamples = 1\nvalue = -4.854"] ;
336 -> 337 ;
338 [label="X[12] <= -0.064\nsquared_error = 0.003\nsamples = 2\nvalue = -5.393"] ;
336 -> 338 ;
339 [label="squared_error = 0.0\nsamples = 1\nvalue = -5.341"] ;
338 -> 339 ;
340 [label="squared_error = 0.0\nsamples = 1\nvalue = -5.446"] ;
338 -> 340 ;
341 [label="X[12] <= -0.0\nsquared_error = 0.056\nsamples = 2\nvalue = -4.224"] ;
335 -> 341 ;
342 [label="squared_error = 0.0\nsamples = 1\nvalue = -3.987"] ;
341 -> 342 ;
343 [label="squared_error = -0.0\nsamples = 1\nvalue = -4.461"] ;
341 -> 343 ;
344 [label="X[28] <= -0.131\nsquared_error = 0.31\nsamples = 6\nvalue = -2.568"] ;
334 -> 344 ;
345 [label="X[22] <= -0.068\nsquared_error = 0.127\nsamples = 4\nvalue = -2.236"] ;
344 -> 345 ;
346 [label="X[47] <= -0.278\nsquared_error = 0.048\nsamples = 2\nvalue = -1.914"] ;
345 -> 346 ;
347 [label="squared_error = 0.0\nsamples = 1\nvalue = -2.132"] ;
346 -> 347 ;
348 [label="squared_error = 0.0\nsamples = 1\nvalue = -1.696"] ;
346 -> 348 ;
349 [label="X[22] <= -0.054\nsquared_error = 0.001\nsamples = 2\nvalue = -2.557"] ;
345 -> 349 ;
350 [label="squared_error = 0.0\nsamples = 1\nvalue = -2.582"] ;
349 -> 350 ;
351 [label="squared_error = 0.0\nsamples = 1\nvalue = -2.532"] ;
349 -> 351 ;
352 [label="X[41] <= 0.412\nsquared_error = 0.011\nsamples = 2\nvalue = -3.233"] ;
344 -> 352 ;
353 [label="squared_error = 0.0\nsamples = 1\nvalue = -3.338"] ;
352 -> 353 ;
354 [label="squared_error = -0.0\nsamples = 1\nvalue = -3.129"] ;
352 -> 354 ;
355 [label="X[19] <= -0.144\nsquared_error = 2.624\nsamples = 32\nvalue = -3.492"] ;
313 -> 355 ;
356 [label="X[7] <= -0.232\nsquared_error = 0.308\nsamples = 2\nvalue = -6.983"] ;
355 -> 356 ;
357 [label="squared_error = 0.0\nsamples = 1\nvalue = -6.428"] ;
356 -> 357 ;
358 [label="squared_error = 0.0\nsamples = 1\nvalue = -7.538"] ;
356 -> 358 ;
359 [label="X[25] <= -0.013\nsquared_error = 1.912\nsamples = 30\nvalue = -3.259"] ;
355 -> 359 ;
360 [label="X[22] <= -0.141\nsquared_error = 1.426\nsamples = 27\nvalue = -3.006"] ;
359 -> 360 ;
361 [label="X[32] <= -0.052\nsquared_error = 0.92\nsamples = 2\nvalue = -0.6"] ;
360 -> 361 ;
362 [label="squared_error = 0.0\nsamples = 1\nvalue = 0.359"] ;
361 -> 362 ;
363 [label="squared_error = 0.0\nsamples = 1\nvalue = -1.559"] ;
361 -> 363 ;
364 [label="X[1] <= -0.076\nsquared_error = 0.966\nsamples = 25\nvalue = -3.199"] ;
360 -> 364 ;
365 [label="X[28] <= -0.141\nsquared_error = 0.212\nsamples = 3\nvalue = -4.722"] ;
364 -> 365 ;
366 [label="X[15] <= 0.006\nsquared_error = 0.04\nsamples = 2\nvalue = -4.418"] ;
365 -> 366 ;
367 [label="squared_error = 0.0\nsamples = 1\nvalue = -4.217"] ;
366 -> 367 ;
368 [label="squared_error = 0.0\nsamples = 1\nvalue = -4.619"] ;
366 -> 368 ;
369 [label="squared_error = -0.0\nsamples = 1\nvalue = -5.331"] ;
365 -> 369 ;
370 [label="X[3] <= -0.468\nsquared_error = 0.709\nsamples = 22\nvalue = -2.991"] ;
364 -> 370 ;
371 [label="X[44] <= 0.114\nsquared_error = 0.201\nsamples = 2\nvalue = -4.445"] ;
370 -> 371 ;
372 [label="squared_error = 0.0\nsamples = 1\nvalue = -4.894"] ;
371 -> 372 ;
373 [label="squared_error = 0.0\nsamples = 1\nvalue = -3.996"] ;
371 -> 373 ;
374 [label="X[38] <= 0.265\nsquared_error = 0.527\nsamples = 20\nvalue = -2.846"] ;
370 -> 374 ;
375 [label="X[35] <= -0.012\nsquared_error = 0.419\nsamples = 14\nvalue = -3.111"] ;
374 -> 375 ;
376 [label="X[1] <= -0.015\nsquared_error = 0.008\nsamples = 2\nvalue = -1.932"] ;
375 -> 376 ;
377 [label="squared_error = 0.0\nsamples = 1\nvalue = -2.02"] ;
376 -> 377 ;
378 [label="squared_error = 0.0\nsamples = 1\nvalue = -1.844"] ;
376 -> 378 ;
379 [label="X[12] <= 0.019\nsquared_error = 0.217\nsamples = 12\nvalue = -3.308"] ;
375 -> 379 ;
380 [label="X[4] <= 0.009\nsquared_error = 0.088\nsamples = 11\nvalue = -3.419"] ;
379 -> 380 ;
381 [label="X[16] <= 0.164\nsquared_error = 0.023\nsamples = 5\nvalue = -3.694"] ;
380 -> 381 ;
382 [label="X[2] <= 0.188\nsquared_error = 0.006\nsamples = 3\nvalue = -3.807"] ;
381 -> 382 ;
383 [label="X[17] <= -0.264\nsquared_error = 0.001\nsamples = 2\nvalue = -3.752"] ;
382 -> 383 ;
384 [label="squared_error = 0.0\nsamples = 1\nvalue = -3.726"] ;
383 -> 384 ;
385 [label="squared_error = -0.0\nsamples = 1\nvalue = -3.779"] ;
383 -> 385 ;
386 [label="squared_error = 0.0\nsamples = 1\nvalue = -3.916"] ;
382 -> 386 ;
387 [label="X[36] <= 0.488\nsquared_error = 0.0\nsamples = 2\nvalue = -3.523"] ;
381 -> 387 ;
388 [label="squared_error = 0.0\nsamples = 1\nvalue = -3.543"] ;
387 -> 388 ;
389 [label="squared_error = 0.0\nsamples = 1\nvalue = -3.504"] ;
387 -> 389 ;
390 [label="X[14] <= 0.136\nsquared_error = 0.027\nsamples = 6\nvalue = -3.191"] ;
380 -> 390 ;
391 [label="X[23] <= 0.008\nsquared_error = 0.012\nsamples = 5\nvalue = -3.132"] ;
390 -> 391 ;
392 [label="squared_error = 0.0\nsamples = 1\nvalue = -2.929"] ;
391 -> 392 ;
393 [label="X[29] <= 0.069\nsquared_error = 0.002\nsamples = 4\nvalue = -3.183"] ;
391 -> 393 ;
394 [label="X[24] <= -0.27\nsquared_error = 0.0\nsamples = 3\nvalue = -3.161"] ;
393 -> 394 ;
395 [label="X[35] <= 0.129\nsquared_error = 0.0\nsamples = 2\nvalue = -3.148"] ;
394 -> 395 ;
396 [label="squared_error = 0.0\nsamples = 1\nvalue = -3.154"] ;
395 -> 396 ;
397 [label="squared_error = -0.0\nsamples = 1\nvalue = -3.143"] ;
395 -> 397 ;
398 [label="squared_error = 0.0\nsamples = 1\nvalue = -3.186"] ;
394 -> 398 ;
399 [label="squared_error = -0.0\nsamples = 1\nvalue = -3.25"] ;
393 -> 399 ;
400 [label="squared_error = 0.0\nsamples = 1\nvalue = -3.483"] ;
390 -> 400 ;
401 [label="squared_error = 0.0\nsamples = 1\nvalue = -2.084"] ;
379 -> 401 ;
402 [label="X[36] <= 0.563\nsquared_error = 0.231\nsamples = 6\nvalue = -2.226"] ;
374 -> 402 ;
403 [label="X[32] <= -0.023\nsquared_error = 0.088\nsamples = 5\nvalue = -2.049"] ;
402 -> 403 ;
404 [label="X[25] <= -0.163\nsquared_error = 0.01\nsamples = 2\nvalue = -1.698"] ;
403 -> 404 ;
405 [label="squared_error = 0.0\nsamples = 1\nvalue = -1.795"] ;
404 -> 405 ;
406 [label="squared_error = 0.0\nsamples = 1\nvalue = -1.6"] ;
404 -> 406 ;
407 [label="X[36] <= 0.447\nsquared_error = 0.003\nsamples = 3\nvalue = -2.283"] ;
403 -> 407 ;
408 [label="squared_error = 0.0\nsamples = 1\nvalue = -2.36"] ;
407 -> 408 ;
409 [label="X[49] <= -0.192\nsquared_error = 0.0\nsamples = 2\nvalue = -2.244"] ;
407 -> 409 ;
410 [label="squared_error = 0.0\nsamples = 1\nvalue = -2.241"] ;
409 -> 410 ;
411 [label="squared_error = 0.0\nsamples = 1\nvalue = -2.246"] ;
409 -> 411 ;
412 [label="squared_error = -0.0\nsamples = 1\nvalue = -3.114"] ;
402 -> 412 ;
413 [label="X[5] <= -0.033\nsquared_error = 0.537\nsamples = 3\nvalue = -5.535"] ;
359 -> 413 ;
414 [label="X[26] <= -0.246\nsquared_error = 0.17\nsamples = 2\nvalue = -5.995"] ;
413 -> 414 ;
415 [label="squared_error = 0.0\nsamples = 1\nvalue = -6.407"] ;
414 -> 415 ;
416 [label="squared_error = -0.0\nsamples = 1\nvalue = -5.583"] ;
414 -> 416 ;
417 [label="squared_error = 0.0\nsamples = 1\nvalue = -4.614"] ;
413 -> 417 ;
418 [label="X[48] <= 0.032\nsquared_error = 3.492\nsamples = 68\nvalue = -2.92"] ;
312 -> 418 ;
419 [label="X[45] <= -0.044\nsquared_error = 2.994\nsamples = 14\nvalue = -1.546"] ;
418 -> 419 ;
420 [label="X[24] <= -0.187\nsquared_error = 0.587\nsamples = 7\nvalue = -2.749"] ;
419 -> 420 ;
421 [label="X[22] <= -0.076\nsquared_error = 0.197\nsamples = 4\nvalue = -3.319"] ;
420 -> 421 ;
422 [label="X[0] <= -0.097\nsquared_error = 0.043\nsamples = 2\nvalue = -2.925"] ;
421 -> 422 ;
423 [label="squared_error = 0.0\nsamples = 1\nvalue = -3.133"] ;
422 -> 423 ;
424 [label="squared_error = -0.0\nsamples = 1\nvalue = -2.717"] ;
422 -> 424 ;
425 [label="X[15] <= 0.005\nsquared_error = 0.039\nsamples = 2\nvalue = -3.714"] ;
421 -> 425 ;
426 [label="squared_error = 0.0\nsamples = 1\nvalue = -3.517"] ;
425 -> 426 ;
427 [label="squared_error = 0.0\nsamples = 1\nvalue = -3.911"] ;
425 -> 427 ;
428 [label="X[32] <= -0.137\nsquared_error = 0.096\nsamples = 3\nvalue = -1.989"] ;
420 -> 428 ;
429 [label="squared_error = 0.0\nsamples = 1\nvalue = -1.564"] ;
428 -> 429 ;
430 [label="X[32] <= -0.092\nsquared_error = 0.008\nsamples = 2\nvalue = -2.202"] ;
428 -> 430 ;
431 [label="squared_error = 0.0\nsamples = 1\nvalue = -2.293"] ;
430 -> 431 ;
432 [label="squared_error = -0.0\nsamples = 1\nvalue = -2.111"] ;
430 -> 432 ;
433 [label="X[24] <= -0.257\nsquared_error = 2.506\nsamples = 7\nvalue = -0.343"] ;
419 -> 433 ;
434 [label="X[13] <= 0.293\nsquared_error = 0.825\nsamples = 2\nvalue = 1.716"] ;
433 -> 434 ;
435 [label="squared_error = 0.0\nsamples = 1\nvalue = 2.625"] ;
434 -> 435 ;
436 [label="squared_error = -0.0\nsamples = 1\nvalue = 0.808"] ;
434 -> 436 ;
437 [label="X[28] <= -0.138\nsquared_error = 0.805\nsamples = 5\nvalue = -1.166"] ;
433 -> 437 ;
438 [label="X[5] <= 0.011\nsquared_error = 0.074\nsamples = 3\nvalue = -0.467"] ;
437 -> 438 ;
439 [label="X[32] <= -0.106\nsquared_error = 0.022\nsamples = 2\nvalue = -0.639"] ;
438 -> 439 ;
440 [label="squared_error = 0.0\nsamples = 1\nvalue = -0.49"] ;
439 -> 440 ;
441 [label="squared_error = 0.0\nsamples = 1\nvalue = -0.787"] ;
439 -> 441 ;
442 [label="squared_error = 0.0\nsamples = 1\nvalue = -0.123"] ;
438 -> 442 ;
443 [label="X[31] <= 0.168\nsquared_error = 0.067\nsamples = 2\nvalue = -2.216"] ;
437 -> 443 ;
444 [label="squared_error = 0.0\nsamples = 1\nvalue = -1.957"] ;
443 -> 444 ;
445 [label="squared_error = 0.0\nsamples = 1\nvalue = -2.474"] ;
443 -> 445 ;
446 [label="X[5] <= -0.124\nsquared_error = 3.004\nsamples = 54\nvalue = -3.277"] ;
418 -> 446 ;
447 [label="X[43] <= -0.134\nsquared_error = 2.312\nsamples = 9\nvalue = -1.599"] ;
446 -> 447 ;
448 [label="X[39] <= -0.015\nsquared_error = 0.357\nsamples = 3\nvalue = 0.121"] ;
447 -> 448 ;
449 [label="squared_error = 0.0\nsamples = 1\nvalue = 0.966"] ;
448 -> 449 ;
450 [label="X[45] <= -0.077\nsquared_error = 0.0\nsamples = 2\nvalue = -0.301"] ;
448 -> 450 ;
451 [label="squared_error = 0.0\nsamples = 1\nvalue = -0.318"] ;
450 -> 451 ;
452 [label="squared_error = 0.0\nsamples = 1\nvalue = -0.285"] ;
450 -> 452 ;
453 [label="X[36] <= 0.503\nsquared_error = 1.072\nsamples = 6\nvalue = -2.459"] ;
447 -> 453 ;
454 [label="X[28] <= -0.15\nsquared_error = 0.067\nsamples = 4\nvalue = -1.77"] ;
453 -> 454 ;
455 [label="X[44] <= 0.166\nsquared_error = 0.018\nsamples = 2\nvalue = -2.01"] ;
454 -> 455 ;
456 [label="squared_error = 0.0\nsamples = 1\nvalue = -1.877"] ;
455 -> 456 ;
457 [label="squared_error = 0.0\nsamples = 1\nvalue = -2.144"] ;
455 -> 457 ;
458 [label="X[30] <= 0.064\nsquared_error = 0.002\nsamples = 2\nvalue = -1.531"] ;
454 -> 458 ;
459 [label="squared_error = 0.0\nsamples = 1\nvalue = -1.575"] ;
458 -> 459 ;
460 [label="squared_error = 0.0\nsamples = 1\nvalue = -1.487"] ;
458 -> 460 ;
461 [label="X[44] <= 0.124\nsquared_error = 0.241\nsamples = 2\nvalue = -3.835"] ;
453 -> 461 ;
462 [label="squared_error = 0.0\nsamples = 1\nvalue = -4.325"] ;
461 -> 462 ;
463 [label="squared_error = 0.0\nsamples = 1\nvalue = -3.344"] ;
461 -> 463 ;
464 [label="X[4] <= 0.029\nsquared_error = 2.466\nsamples = 45\nvalue = -3.612"] ;
446 -> 464 ;
465 [label="X[9] <= 0.015\nsquared_error = 1.418\nsamples = 27\nvalue = -3.115"] ;
464 -> 465 ;
466 [label="X[21] <= 0.128\nsquared_error = 1.029\nsamples = 25\nvalue = -3.3"] ;
465 -> 466 ;
467 [label="X[15] <= 0.024\nsquared_error = 0.519\nsamples = 8\nvalue = -2.481"] ;
466 -> 467 ;
468 [label="X[22] <= -0.035\nsquared_error = 0.213\nsamples = 6\nvalue = -2.827"] ;
467 -> 468 ;
469 [label="X[19] <= 0.01\nsquared_error = 0.052\nsamples = 2\nvalue = -3.443"] ;
468 -> 469 ;
470 [label="squared_error = 0.0\nsamples = 1\nvalue = -3.67"] ;
469 -> 470 ;
471 [label="squared_error = 0.0\nsamples = 1\nvalue = -3.216"] ;
469 -> 471 ;
472 [label="X[3] <= -0.157\nsquared_error = 0.009\nsamples = 4\nvalue = -2.519"] ;
468 -> 472 ;
473 [label="X[31] <= -0.014\nsquared_error = 0.002\nsamples = 2\nvalue = -2.61"] ;
472 -> 473 ;
474 [label="squared_error = 0.0\nsamples = 1\nvalue = -2.654"] ;
473 -> 474 ;
475 [label="squared_error = -0.0\nsamples = 1\nvalue = -2.566"] ;
473 -> 475 ;
476 [label="X[27] <= -0.141\nsquared_error = 0.0\nsamples = 2\nvalue = -2.428"] ;
472 -> 476 ;
477 [label="squared_error = 0.0\nsamples = 1\nvalue = -2.413"] ;
476 -> 477 ;
478 [label="squared_error = -0.0\nsamples = 1\nvalue = -2.443"] ;
476 -> 478 ;
479 [label="X[31] <= 0.143\nsquared_error = 0.0\nsamples = 2\nvalue = -1.443"] ;
467 -> 479 ;
480 [label="squared_error = 0.0\nsamples = 1\nvalue = -1.442"] ;
479 -> 480 ;
481 [label="squared_error = 0.0\nsamples = 1\nvalue = -1.444"] ;
479 -> 481 ;
482 [label="X[26] <= -0.155\nsquared_error = 0.804\nsamples = 17\nvalue = -3.686"] ;
466 -> 482 ;
483 [label="X[44] <= 0.098\nsquared_error = 0.356\nsamples = 7\nvalue = -2.932"] ;
482 -> 483 ;
484 [label="X[10] <= 0.101\nsquared_error = 0.132\nsamples = 4\nvalue = -3.384"] ;
483 -> 484 ;
485 [label="X[11] <= -0.065\nsquared_error = 0.006\nsamples = 3\nvalue = -3.178"] ;
484 -> 485 ;
486 [label="X[5] <= -0.09\nsquared_error = 0.0\nsamples = 2\nvalue = -3.124"] ;
485 -> 486 ;
487 [label="squared_error = 0.0\nsamples = 1\nvalue = -3.104"] ;
486 -> 487 ;
488 [label="squared_error = 0.0\nsamples = 1\nvalue = -3.144"] ;
486 -> 488 ;
489 [label="squared_error = 0.0\nsamples = 1\nvalue = -3.284"] ;
485 -> 489 ;
490 [label="squared_error = 0.0\nsamples = 1\nvalue = -4.002"] ;
484 -> 490 ;
491 [label="X[0] <= 0.042\nsquared_error = 0.019\nsamples = 3\nvalue = -2.33"] ;
483 -> 491 ;
492 [label="X[8] <= -0.075\nsquared_error = 0.005\nsamples = 2\nvalue = -2.24"] ;
491 -> 492 ;
493 [label="squared_error = 0.0\nsamples = 1\nvalue = -2.169"] ;
492 -> 493 ;
494 [label="squared_error = 0.0\nsamples = 1\nvalue = -2.312"] ;
492 -> 494 ;
495 [label="squared_error = 0.0\nsamples = 1\nvalue = -2.509"] ;
491 -> 495 ;
496 [label="X[18] <= -0.119\nsquared_error = 0.441\nsamples = 10\nvalue = -4.214"] ;
482 -> 496 ;
497 [label="X[46] <= 0.192\nsquared_error = 0.086\nsamples = 3\nvalue = -5.064"] ;
496 -> 497 ;
498 [label="X[44] <= 0.096\nsquared_error = 0.014\nsamples = 2\nvalue = -4.868"] ;
497 -> 498 ;
499 [label="squared_error = 0.0\nsamples = 1\nvalue = -4.985"] ;
498 -> 499 ;
500 [label="squared_error = 0.0\nsamples = 1\nvalue = -4.751"] ;
498 -> 500 ;
501 [label="squared_error = -0.0\nsamples = 1\nvalue = -5.455"] ;
497 -> 501 ;
502 [label="X[10] <= 0.086\nsquared_error = 0.151\nsamples = 7\nvalue = -3.849"] ;
496 -> 502 ;
503 [label="X[3] <= -0.119\nsquared_error = 0.053\nsamples = 4\nvalue = -3.561"] ;
502 -> 503 ;
504 [label="X[28] <= -0.085\nsquared_error = 0.005\nsamples = 2\nvalue = -3.767"] ;
503 -> 504 ;
505 [label="squared_error = 0.0\nsamples = 1\nvalue = -3.696"] ;
504 -> 505 ;
506 [label="squared_error = 0.0\nsamples = 1\nvalue = -3.838"] ;
504 -> 506 ;
507 [label="X[44] <= 0.131\nsquared_error = 0.015\nsamples = 2\nvalue = -3.354"] ;
503 -> 507 ;
508 [label="squared_error = 0.0\nsamples = 1\nvalue = -3.231"] ;
507 -> 508 ;
509 [label="squared_error = 0.0\nsamples = 1\nvalue = -3.476"] ;
507 -> 509 ;
510 [label="X[28] <= -0.104\nsquared_error = 0.023\nsamples = 3\nvalue = -4.234"] ;
502 -> 510 ;
511 [label="squared_error = 0.0\nsamples = 1\nvalue = -4.425"] ;
510 -> 511 ;
512 [label="X[4] <= -0.026\nsquared_error = 0.008\nsamples = 2\nvalue = -4.139"] ;
510 -> 512 ;
513 [label="squared_error = 0.0\nsamples = 1\nvalue = -4.05"] ;
512 -> 513 ;
514 [label="squared_error = -0.0\nsamples = 1\nvalue = -4.228"] ;
512 -> 514 ;
515 [label="X[11] <= -0.009\nsquared_error = 0.456\nsamples = 2\nvalue = -0.793"] ;
465 -> 515 ;
516 [label="squared_error = 0.0\nsamples = 1\nvalue = -1.469"] ;
515 -> 516 ;
517 [label="squared_error = 0.0\nsamples = 1\nvalue = -0.118"] ;
515 -> 517 ;
518 [label="X[29] <= 0.063\nsquared_error = 3.111\nsamples = 18\nvalue = -4.358"] ;
464 -> 518 ;
519 [label="X[21] <= 0.116\nsquared_error = 1.766\nsamples = 15\nvalue = -3.908"] ;
518 -> 519 ;
520 [label="X[0] <= -0.077\nsquared_error = 0.676\nsamples = 5\nvalue = -5.235"] ;
519 -> 520 ;
521 [label="X[43] <= -0.045\nsquared_error = 0.025\nsamples = 3\nvalue = -4.575"] ;
520 -> 521 ;
522 [label="X[46] <= 0.214\nsquared_error = 0.003\nsamples = 2\nvalue = -4.682"] ;
521 -> 522 ;
523 [label="squared_error = 0.0\nsamples = 1\nvalue = -4.623"] ;
522 -> 523 ;
524 [label="squared_error = -0.0\nsamples = 1\nvalue = -4.741"] ;
522 -> 524 ;
525 [label="squared_error = -0.0\nsamples = 1\nvalue = -4.36"] ;
521 -> 525 ;
526 [label="X[34] <= -0.291\nsquared_error = 0.015\nsamples = 2\nvalue = -6.226"] ;
520 -> 526 ;
527 [label="squared_error = 0.0\nsamples = 1\nvalue = -6.104"] ;
526 -> 527 ;
528 [label="squared_error = 0.0\nsamples = 1\nvalue = -6.348"] ;
526 -> 528 ;
529 [label="X[1] <= 0.041\nsquared_error = 0.99\nsamples = 10\nvalue = -3.245"] ;
519 -> 529 ;
530 [label="X[0] <= -0.055\nsquared_error = 0.439\nsamples = 7\nvalue = -2.736"] ;
529 -> 530 ;
531 [label="X[13] <= 0.228\nsquared_error = 0.045\nsamples = 3\nvalue = -3.404"] ;
530 -> 531 ;
532 [label="squared_error = 0.0\nsamples = 1\nvalue = -3.141"] ;
531 -> 532 ;
533 [label="X[10] <= 0.162\nsquared_error = 0.016\nsamples = 2\nvalue = -3.535"] ;
531 -> 533 ;
534 [label="squared_error = 0.0\nsamples = 1\nvalue = -3.662"] ;
533 -> 534 ;
535 [label="squared_error = 0.0\nsamples = 1\nvalue = -3.409"] ;
533 -> 535 ;
536 [label="X[37] <= 0.128\nsquared_error = 0.148\nsamples = 4\nvalue = -2.235"] ;
530 -> 536 ;
537 [label="squared_error = 0.0\nsamples = 1\nvalue = -1.629"] ;
536 -> 537 ;
538 [label="X[28] <= -0.096\nsquared_error = 0.034\nsamples = 3\nvalue = -2.437"] ;
536 -> 538 ;
539 [label="X[35] <= 0.052\nsquared_error = 0.003\nsamples = 2\nvalue = -2.563"] ;
538 -> 539 ;
540 [label="squared_error = 0.0\nsamples = 1\nvalue = -2.511"] ;
539 -> 540 ;
541 [label="squared_error = 0.0\nsamples = 1\nvalue = -2.615"] ;
539 -> 541 ;
542 [label="squared_error = -0.0\nsamples = 1\nvalue = -2.184"] ;
538 -> 542 ;
543 [label="X[38] <= 0.172\nsquared_error = 0.264\nsamples = 3\nvalue = -4.431"] ;
529 -> 543 ;
544 [label="X[23] <= 0.086\nsquared_error = 0.034\nsamples = 2\nvalue = -4.084"] ;
543 -> 544 ;
545 [label="squared_error = 0.0\nsamples = 1\nvalue = -4.269"] ;
544 -> 545 ;
546 [label="squared_error = 0.0\nsamples = 1\nvalue = -3.899"] ;
544 -> 546 ;
547 [label="squared_error = 0.0\nsamples = 1\nvalue = -5.126"] ;
543 -> 547 ;
548 [label="X[1] <= -0.014\nsquared_error = 3.752\nsamples = 3\nvalue = -6.611"] ;
518 -> 548 ;
549 [label="X[41] <= 0.33\nsquared_error = 0.559\nsamples = 2\nvalue = -5.311"] ;
548 -> 549 ;
550 [label="squared_error = 0.0\nsamples = 1\nvalue = -6.059"] ;
549 -> 550 ;
551 [label="squared_error = -0.0\nsamples = 1\nvalue = -4.563"] ;
549 -> 551 ;
552 [label="squared_error = 0.0\nsamples = 1\nvalue = -9.21"] ;
548 -> 552 ;
553 [label="X[29] <= 0.068\nsquared_error = 2.612\nsamples = 196\nvalue = -2.537"] ;
67 -> 553 ;
554 [label="X[43] <= -0.147\nsquared_error = 2.658\nsamples = 163\nvalue = -2.337"] ;
553 -> 554 ;
555 [label="X[23] <= 0.065\nsquared_error = 1.874\nsamples = 21\nvalue = -1.21"] ;
554 -> 555 ;
556 [label="X[11] <= -0.191\nsquared_error = 1.107\nsamples = 3\nvalue = -3.539"] ;
555 -> 556 ;
557 [label="squared_error = 0.0\nsamples = 1\nvalue = -2.111"] ;
556 -> 557 ;
558 [label="X[8] <= -0.151\nsquared_error = 0.13\nsamples = 2\nvalue = -4.254"] ;
556 -> 558 ;
559 [label="squared_error = 0.0\nsamples = 1\nvalue = -4.613"] ;
558 -> 559 ;
560 [label="squared_error = -0.0\nsamples = 1\nvalue = -3.894"] ;
558 -> 560 ;
561 [label="X[44] <= 0.174\nsquared_error = 0.947\nsamples = 18\nvalue = -0.822"] ;
555 -> 561 ;
562 [label="X[31] <= 0.113\nsquared_error = 0.688\nsamples = 14\nvalue = -0.503"] ;
561 -> 562 ;
563 [label="X[32] <= 0.017\nsquared_error = 0.563\nsamples = 9\nvalue = -0.921"] ;
562 -> 563 ;
564 [label="X[29] <= -0.042\nsquared_error = 0.13\nsamples = 7\nvalue = -1.27"] ;
563 -> 564 ;
565 [label="X[23] <= 0.174\nsquared_error = 0.016\nsamples = 3\nvalue = -0.911"] ;
564 -> 565 ;
566 [label="X[27] <= -0.252\nsquared_error = 0.0\nsamples = 2\nvalue = -0.821"] ;
565 -> 566 ;
567 [label="squared_error = 0.0\nsamples = 1\nvalue = -0.841"] ;
566 -> 567 ;
568 [label="squared_error = 0.0\nsamples = 1\nvalue = -0.802"] ;
566 -> 568 ;
569 [label="squared_error = 0.0\nsamples = 1\nvalue = -1.092"] ;
565 -> 569 ;
570 [label="X[13] <= 0.369\nsquared_error = 0.047\nsamples = 4\nvalue = -1.538"] ;
564 -> 570 ;
571 [label="X[45] <= 0.008\nsquared_error = 0.001\nsamples = 3\nvalue = -1.415"] ;
570 -> 571 ;
572 [label="squared_error = 0.0\nsamples = 1\nvalue = -1.369"] ;
571 -> 572 ;
573 [label="X[22] <= -0.152\nsquared_error = 0.0\nsamples = 2\nvalue = -1.438"] ;
571 -> 573 ;
574 [label="squared_error = 0.0\nsamples = 1\nvalue = -1.452"] ;
573 -> 574 ;
575 [label="squared_error = 0.0\nsamples = 1\nvalue = -1.424"] ;
573 -> 575 ;
576 [label="squared_error = -0.0\nsamples = 1\nvalue = -1.908"] ;
570 -> 576 ;
577 [label="X[26] <= -0.243\nsquared_error = 0.168\nsamples = 2\nvalue = 0.297"] ;
563 -> 577 ;
578 [label="squared_error = 0.0\nsamples = 1\nvalue = -0.113"] ;
577 -> 578 ;
579 [label="squared_error = 0.0\nsamples = 1\nvalue = 0.707"] ;
577 -> 579 ;
580 [label="X[26] <= -0.211\nsquared_error = 0.029\nsamples = 5\nvalue = 0.251"] ;
562 -> 580 ;
581 [label="X[27] <= -0.144\nsquared_error = 0.007\nsamples = 2\nvalue = 0.06"] ;
580 -> 581 ;
582 [label="squared_error = 0.0\nsamples = 1\nvalue = -0.022"] ;
581 -> 582 ;
583 [label="squared_error = 0.0\nsamples = 1\nvalue = 0.141"] ;
581 -> 583 ;
584 [label="X[27] <= -0.191\nsquared_error = 0.004\nsamples = 3\nvalue = 0.379"] ;
580 -> 584 ;
585 [label="squared_error = 0.0\nsamples = 1\nvalue = 0.297"] ;
584 -> 585 ;
586 [label="X[24] <= -0.189\nsquared_error = 0.0\nsamples = 2\nvalue = 0.419"] ;
584 -> 586 ;
587 [label="squared_error = 0.0\nsamples = 1\nvalue = 0.438"] ;
586 -> 587 ;
588 [label="squared_error = 0.0\nsamples = 1\nvalue = 0.4"] ;
586 -> 588 ;
589 [label="X[45] <= 0.099\nsquared_error = 0.244\nsamples = 4\nvalue = -1.941"] ;
561 -> 589 ;
590 [label="X[3] <= -0.15\nsquared_error = 0.08\nsamples = 3\nvalue = -1.693"] ;
589 -> 590 ;
591 [label="X[10] <= 0.237\nsquared_error = 0.025\nsamples = 2\nvalue = -1.871"] ;
590 -> 591 ;
592 [label="squared_error = 0.0\nsamples = 1\nvalue = -1.711"] ;
591 -> 592 ;
593 [label="squared_error = 0.0\nsamples = 1\nvalue = -2.03"] ;
591 -> 593 ;
594 [label="squared_error = -0.0\nsamples = 1\nvalue = -1.338"] ;
590 -> 594 ;
595 [label="squared_error = -0.0\nsamples = 1\nvalue = -2.684"] ;
589 -> 595 ;
596 [label="X[37] <= 0.323\nsquared_error = 2.558\nsamples = 142\nvalue = -2.504"] ;
554 -> 596 ;
597 [label="X[45] <= 0.089\nsquared_error = 2.228\nsamples = 124\nvalue = -2.311"] ;
596 -> 597 ;
598 [label="X[33] <= -0.067\nsquared_error = 2.068\nsamples = 106\nvalue = -2.506"] ;
597 -> 598 ;
599 [label="X[16] <= 0.192\nsquared_error = 1.636\nsamples = 15\nvalue = -3.502"] ;
598 -> 599 ;
600 [label="X[9] <= 0.006\nsquared_error = 0.417\nsamples = 3\nvalue = -5.299"] ;
599 -> 600 ;
601 [label="X[41] <= 0.43\nsquared_error = 0.001\nsamples = 2\nvalue = -5.755"] ;
600 -> 601 ;
602 [label="squared_error = 0.0\nsamples = 1\nvalue = -5.726"] ;
601 -> 602 ;
603 [label="squared_error = -0.0\nsamples = 1\nvalue = -5.784"] ;
601 -> 603 ;
604 [label="squared_error = 0.0\nsamples = 1\nvalue = -4.386"] ;
600 -> 604 ;
605 [label="X[34] <= -0.31\nsquared_error = 0.933\nsamples = 12\nvalue = -3.053"] ;
599 -> 605 ;
606 [label="X[34] <= -0.377\nsquared_error = 0.443\nsamples = 9\nvalue = -3.498"] ;
605 -> 606 ;
607 [label="X[39] <= -0.018\nsquared_error = 0.063\nsamples = 2\nvalue = -4.611"] ;
606 -> 607 ;
608 [label="squared_error = 0.0\nsamples = 1\nvalue = -4.36"] ;
607 -> 608 ;
609 [label="squared_error = 0.0\nsamples = 1\nvalue = -4.862"] ;
607 -> 609 ;
610 [label="X[35] <= 0.046\nsquared_error = 0.096\nsamples = 7\nvalue = -3.18"] ;
606 -> 610 ;
611 [label="X[11] <= -0.138\nsquared_error = 0.042\nsamples = 2\nvalue = -3.565"] ;
610 -> 611 ;
612 [label="squared_error = 0.0\nsamples = 1\nvalue = -3.361"] ;
611 -> 612 ;
613 [label="squared_error = 0.0\nsamples = 1\nvalue = -3.768"] ;
611 -> 613 ;
614 [label="X[9] <= 0.02\nsquared_error = 0.035\nsamples = 5\nvalue = -3.026"] ;
610 -> 614 ;
615 [label="X[34] <= -0.327\nsquared_error = 0.014\nsamples = 2\nvalue = -2.824"] ;
614 -> 615 ;
616 [label="squared_error = 0.0\nsamples = 1\nvalue = -2.941"] ;
615 -> 616 ;
617 [label="squared_error = 0.0\nsamples = 1\nvalue = -2.707"] ;
615 -> 617 ;
618 [label="X[7] <= -0.24\nsquared_error = 0.004\nsamples = 3\nvalue = -3.161"] ;
614 -> 618 ;
619 [label="X[44] <= 0.073\nsquared_error = 0.001\nsamples = 2\nvalue = -3.118"] ;
618 -> 619 ;
620 [label="squared_error = 0.0\nsamples = 1\nvalue = -3.089"] ;
619 -> 620 ;
621 [label="squared_error = -0.0\nsamples = 1\nvalue = -3.146"] ;
619 -> 621 ;
622 [label="squared_error = 0.0\nsamples = 1\nvalue = -3.248"] ;
618 -> 622 ;
623 [label="X[48] <= -0.01\nsquared_error = 0.028\nsamples = 3\nvalue = -1.719"] ;
605 -> 623 ;
624 [label="squared_error = 0.0\nsamples = 1\nvalue = -1.489"] ;
623 -> 624 ;
625 [label="X[2] <= 0.135\nsquared_error = 0.002\nsamples = 2\nvalue = -1.834"] ;
623 -> 625 ;
626 [label="squared_error = 0.0\nsamples = 1\nvalue = -1.878"] ;
625 -> 626 ;
627 [label="squared_error = 0.0\nsamples = 1\nvalue = -1.789"] ;
625 -> 627 ;
628 [label="X[36] <= 0.419\nsquared_error = 1.948\nsamples = 91\nvalue = -2.341"] ;
598 -> 628 ;
629 [label="X[13] <= 0.317\nsquared_error = 1.786\nsamples = 47\nvalue = -2.75"] ;
628 -> 629 ;
630 [label="X[3] <= -0.059\nsquared_error = 1.548\nsamples = 42\nvalue = -2.545"] ;
629 -> 630 ;
631 [label="X[17] <= -0.317\nsquared_error = 1.206\nsamples = 41\nvalue = -2.64"] ;
630 -> 631 ;
632 [label="X[41] <= 0.397\nsquared_error = 0.761\nsamples = 3\nvalue = -0.718"] ;
631 -> 632 ;
633 [label="squared_error = 0.0\nsamples = 1\nvalue = -1.951"] ;
632 -> 633 ;
634 [label="X[16] <= 0.157\nsquared_error = 0.001\nsamples = 2\nvalue = -0.102"] ;
632 -> 634 ;
635 [label="squared_error = 0.0\nsamples = 1\nvalue = -0.138"] ;
634 -> 635 ;
636 [label="squared_error = 0.0\nsamples = 1\nvalue = -0.066"] ;
634 -> 636 ;
637 [label="X[25] <= -0.177\nsquared_error = 0.927\nsamples = 38\nvalue = -2.792"] ;
631 -> 637 ;
638 [label="X[39] <= -0.044\nsquared_error = 1.064\nsamples = 5\nvalue = -3.994"] ;
637 -> 638 ;
639 [label="X[24] <= -0.3\nsquared_error = 0.004\nsamples = 2\nvalue = -2.836"] ;
638 -> 639 ;
640 [label="squared_error = 0.0\nsamples = 1\nvalue = -2.777"] ;
639 -> 640 ;
641 [label="squared_error = 0.0\nsamples = 1\nvalue = -2.895"] ;
639 -> 641 ;
642 [label="X[31] <= -0.015\nsquared_error = 0.28\nsamples = 3\nvalue = -4.767"] ;
638 -> 642 ;
643 [label="squared_error = 0.0\nsamples = 1\nvalue = -4.019"] ;
642 -> 643 ;
644 [label="X[32] <= -0.067\nsquared_error = 0.0\nsamples = 2\nvalue = -5.141"] ;
642 -> 644 ;
645 [label="squared_error = 0.0\nsamples = 1\nvalue = -5.136"] ;
644 -> 645 ;
646 [label="squared_error = 0.0\nsamples = 1\nvalue = -5.146"] ;
644 -> 646 ;
647 [label="X[37] <= 0.107\nsquared_error = 0.654\nsamples = 33\nvalue = -2.61"] ;
637 -> 647 ;
648 [label="squared_error = 0.0\nsamples = 1\nvalue = -4.888"] ;
647 -> 648 ;
649 [label="X[38] <= 0.225\nsquared_error = 0.507\nsamples = 32\nvalue = -2.539"] ;
647 -> 649 ;
650 [label="X[15] <= -0.028\nsquared_error = 0.462\nsamples = 25\nvalue = -2.727"] ;
649 -> 650 ;
651 [label="X[3] <= -0.153\nsquared_error = 0.336\nsamples = 8\nvalue = -2.144"] ;
650 -> 651 ;
652 [label="X[12] <= 0.012\nsquared_error = 0.118\nsamples = 5\nvalue = -1.766"] ;
651 -> 652 ;
653 [label="X[27] <= -0.073\nsquared_error = 0.015\nsamples = 3\nvalue = -2.024"] ;
652 -> 653 ;
654 [label="X[37] <= 0.155\nsquared_error = 0.0\nsamples = 2\nvalue = -1.937"] ;
653 -> 654 ;
655 [label="squared_error = 0.0\nsamples = 1\nvalue = -1.938"] ;
654 -> 655 ;
656 [label="squared_error = 0.0\nsamples = 1\nvalue = -1.936"] ;
654 -> 656 ;
657 [label="squared_error = 0.0\nsamples = 1\nvalue = -2.197"] ;
653 -> 657 ;
658 [label="X[29] <= -0.022\nsquared_error = 0.024\nsamples = 2\nvalue = -1.379"] ;
652 -> 658 ;
659 [label="squared_error = 0.0\nsamples = 1\nvalue = -1.533"] ;
658 -> 659 ;
660 [label="squared_error = 0.0\nsamples = 1\nvalue = -1.225"] ;
658 -> 660 ;
661 [label="X[30] <= -0.007\nsquared_error = 0.063\nsamples = 3\nvalue = -2.775"] ;
651 -> 661 ;
662 [label="X[40] <= 0.045\nsquared_error = 0.002\nsamples = 2\nvalue = -2.95"] ;
661 -> 662 ;
663 [label="squared_error = 0.0\nsamples = 1\nvalue = -2.991"] ;
662 -> 663 ;
664 [label="squared_error = 0.0\nsamples = 1\nvalue = -2.909"] ;
662 -> 664 ;
665 [label="squared_error = 0.0\nsamples = 1\nvalue = -2.424"] ;
661 -> 665 ;
666 [label="X[36] <= 0.364\nsquared_error = 0.285\nsamples = 17\nvalue = -3.002"] ;
650 -> 666 ;
667 [label="X[45] <= 0.025\nsquared_error = 0.092\nsamples = 8\nvalue = -3.378"] ;
666 -> 667 ;
668 [label="X[31] <= 0.078\nsquared_error = 0.019\nsamples = 5\nvalue = -3.189"] ;
667 -> 668 ;
669 [label="X[28] <= -0.041\nsquared_error = 0.005\nsamples = 2\nvalue = -3.045"] ;
668 -> 669 ;
670 [label="squared_error = 0.0\nsamples = 1\nvalue = -3.117"] ;
669 -> 670 ;
671 [label="squared_error = -0.0\nsamples = 1\nvalue = -2.973"] ;
669 -> 671 ;
672 [label="X[22] <= -0.01\nsquared_error = 0.005\nsamples = 3\nvalue = -3.284"] ;
668 -> 672 ;
673 [label="squared_error = 0.0\nsamples = 1\nvalue = -3.195"] ;
672 -> 673 ;
674 [label="X[42] <= -0.47\nsquared_error = 0.001\nsamples = 2\nvalue = -3.329"] ;
672 -> 674 ;
675 [label="squared_error = 0.0\nsamples = 1\nvalue = -3.296"] ;
674 -> 675 ;
676 [label="squared_error = 0.0\nsamples = 1\nvalue = -3.362"] ;
674 -> 676 ;
677 [label="X[23] <= -0.015\nsquared_error = 0.053\nsamples = 3\nvalue = -3.695"] ;
667 -> 677 ;
678 [label="squared_error = 0.0\nsamples = 1\nvalue = -4.018"] ;
677 -> 678 ;
679 [label="X[16] <= 0.17\nsquared_error = 0.002\nsamples = 2\nvalue = -3.533"] ;
677 -> 679 ;
680 [label="squared_error = 0.0\nsamples = 1\nvalue = -3.493"] ;
679 -> 680 ;
681 [label="squared_error = -0.0\nsamples = 1\nvalue = -3.573"] ;
679 -> 681 ;
682 [label="X[3] <= -0.191\nsquared_error = 0.219\nsamples = 9\nvalue = -2.667"] ;
666 -> 682 ;
683 [label="X[42] <= -0.455\nsquared_error = 0.062\nsamples = 3\nvalue = -3.212"] ;
682 -> 683 ;
684 [label="squared_error = 0.0\nsamples = 1\nvalue = -2.871"] ;
683 -> 684 ;
685 [label="X[17] <= -0.201\nsquared_error = 0.006\nsamples = 2\nvalue = -3.382"] ;
683 -> 685 ;
686 [label="squared_error = 0.0\nsamples = 1\nvalue = -3.302"] ;
685 -> 686 ;
687 [label="squared_error = 0.0\nsamples = 1\nvalue = -3.462"] ;
685 -> 687 ;
688 [label="X[44] <= 0.111\nsquared_error = 0.074\nsamples = 6\nvalue = -2.394"] ;
682 -> 688 ;
689 [label="X[21] <= 0.117\nsquared_error = 0.004\nsamples = 2\nvalue = -2.718"] ;
688 -> 689 ;
690 [label="squared_error = 0.0\nsamples = 1\nvalue = -2.78"] ;
689 -> 690 ;
691 [label="squared_error = 0.0\nsamples = 1\nvalue = -2.657"] ;
689 -> 691 ;
692 [label="X[7] <= -0.14\nsquared_error = 0.031\nsamples = 4\nvalue = -2.232"] ;
688 -> 692 ;
693 [label="X[15] <= -0.0\nsquared_error = 0.002\nsamples = 3\nvalue = -2.331"] ;
692 -> 693 ;
694 [label="squared_error = 0.0\nsamples = 1\nvalue = -2.392"] ;
693 -> 694 ;
695 [label="X[29] <= -0.017\nsquared_error = 0.0\nsamples = 2\nvalue = -2.3"] ;
693 -> 695 ;
696 [label="squared_error = 0.0\nsamples = 1\nvalue = -2.289"] ;
695 -> 696 ;
697 [label="squared_error = -0.0\nsamples = 1\nvalue = -2.311"] ;
695 -> 697 ;
698 [label="squared_error = -0.0\nsamples = 1\nvalue = -1.935"] ;
692 -> 698 ;
699 [label="X[49] <= -0.065\nsquared_error = 0.088\nsamples = 7\nvalue = -1.865"] ;
649 -> 699 ;
700 [label="X[46] <= 0.181\nsquared_error = 0.012\nsamples = 4\nvalue = -2.091"] ;
699 -> 700 ;
701 [label="X[43] <= -0.061\nsquared_error = 0.002\nsamples = 2\nvalue = -1.996"] ;
700 -> 701 ;
702 [label="squared_error = 0.0\nsamples = 1\nvalue = -2.044"] ;
701 -> 702 ;
703 [label="squared_error = 0.0\nsamples = 1\nvalue = -1.947"] ;
701 -> 703 ;
704 [label="X[47] <= -0.184\nsquared_error = 0.004\nsamples = 2\nvalue = -2.187"] ;
700 -> 704 ;
705 [label="squared_error = 0.0\nsamples = 1\nvalue = -2.249"] ;
704 -> 705 ;
706 [label="squared_error = -0.0\nsamples = 1\nvalue = -2.126"] ;
704 -> 706 ;
707 [label="X[35] <= 0.097\nsquared_error = 0.029\nsamples = 3\nvalue = -1.563"] ;
699 -> 707 ;
708 [label="X[28] <= -0.207\nsquared_error = 0.01\nsamples = 2\nvalue = -1.668"] ;
707 -> 708 ;
709 [label="squared_error = 0.0\nsamples = 1\nvalue = -1.77"] ;
708 -> 709 ;
710 [label="squared_error = -0.0\nsamples = 1\nvalue = -1.566"] ;
708 -> 710 ;
711 [label="squared_error = -0.0\nsamples = 1\nvalue = -1.354"] ;
707 -> 711 ;
712 [label="squared_error = 0.0\nsamples = 1\nvalue = 1.355"] ;
630 -> 712 ;
713 [label="X[4] <= -0.027\nsquared_error = 0.466\nsamples = 5\nvalue = -4.472"] ;
629 -> 713 ;
714 [label="X[36] <= 0.355\nsquared_error = 0.003\nsamples = 2\nvalue = -5.267"] ;
713 -> 714 ;
715 [label="squared_error = 0.0\nsamples = 1\nvalue = -5.325"] ;
714 -> 715 ;
716 [label="squared_error = 0.0\nsamples = 1\nvalue = -5.208"] ;
714 -> 716 ;
717 [label="X[17] <= -0.296\nsquared_error = 0.072\nsamples = 3\nvalue = -3.941"] ;
713 -> 717 ;
718 [label="squared_error = 0.0\nsamples = 1\nvalue = -3.598"] ;
717 -> 718 ;
719 [label="X[22] <= -0.092\nsquared_error = 0.02\nsamples = 2\nvalue = -4.113"] ;
717 -> 719 ;
720 [label="squared_error = 0.0\nsamples = 1\nvalue = -3.971"] ;
719 -> 720 ;
721 [label="squared_error = 0.0\nsamples = 1\nvalue = -4.254"] ;
719 -> 721 ;
722 [label="X[43] <= -0.008\nsquared_error = 1.753\nsamples = 44\nvalue = -1.905"] ;
628 -> 722 ;
723 [label="X[3] <= -0.357\nsquared_error = 0.974\nsamples = 38\nvalue = -2.177"] ;
722 -> 723 ;
724 [label="X[48] <= 0.086\nsquared_error = 0.509\nsamples = 7\nvalue = -1.232"] ;
723 -> 724 ;
725 [label="X[2] <= 0.218\nsquared_error = 0.066\nsamples = 5\nvalue = -1.657"] ;
724 -> 725 ;
726 [label="X[48] <= -0.024\nsquared_error = 0.014\nsamples = 3\nvalue = -1.473"] ;
725 -> 726 ;
727 [label="X[38] <= 0.249\nsquared_error = 0.001\nsamples = 2\nvalue = -1.391"] ;
726 -> 727 ;
728 [label="squared_error = 0.0\nsamples = 1\nvalue = -1.428"] ;
727 -> 728 ;
729 [label="squared_error = 0.0\nsamples = 1\nvalue = -1.354"] ;
727 -> 729 ;
730 [label="squared_error = 0.0\nsamples = 1\nvalue = -1.637"] ;
726 -> 730 ;
731 [label="X[40] <= -0.114\nsquared_error = 0.018\nsamples = 2\nvalue = -1.933"] ;
725 -> 731 ;
732 [label="squared_error = 0.0\nsamples = 1\nvalue = -1.799"] ;
731 -> 732 ;
733 [label="squared_error = 0.0\nsamples = 1\nvalue = -2.067"] ;
731 -> 733 ;
734 [label="X[35] <= 0.048\nsquared_error = 0.035\nsamples = 2\nvalue = -0.169"] ;
724 -> 734 ;
735 [label="squared_error = 0.0\nsamples = 1\nvalue = -0.358"] ;
734 -> 735 ;
736 [label="squared_error = 0.0\nsamples = 1\nvalue = 0.019"] ;
734 -> 736 ;
737 [label="X[33] <= 0.102\nsquared_error = 0.832\nsamples = 31\nvalue = -2.39"] ;
723 -> 737 ;
738 [label="X[6] <= -0.021\nsquared_error = 0.512\nsamples = 20\nvalue = -2.739"] ;
737 -> 738 ;
739 [label="X[23] <= 0.125\nsquared_error = 0.031\nsamples = 2\nvalue = -4.253"] ;
738 -> 739 ;
740 [label="squared_error = 0.0\nsamples = 1\nvalue = -4.43"] ;
739 -> 740 ;
741 [label="squared_error = 0.0\nsamples = 1\nvalue = -4.077"] ;
739 -> 741 ;
742 [label="X[9] <= -0.078\nsquared_error = 0.283\nsamples = 18\nvalue = -2.571"] ;
738 -> 742 ;
743 [label="X[44] <= 0.095\nsquared_error = 0.01\nsamples = 2\nvalue = -3.822"] ;
742 -> 743 ;
744 [label="squared_error = 0.0\nsamples = 1\nvalue = -3.921"] ;
743 -> 744 ;
745 [label="squared_error = 0.0\nsamples = 1\nvalue = -3.723"] ;
743 -> 745 ;
746 [label="X[49] <= -0.183\nsquared_error = 0.096\nsamples = 16\nvalue = -2.414"] ;
742 -> 746 ;
747 [label="X[34] <= -0.311\nsquared_error = 0.053\nsamples = 6\nvalue = -2.677"] ;
746 -> 747 ;
748 [label="X[48] <= 0.014\nsquared_error = 0.011\nsamples = 4\nvalue = -2.824"] ;
747 -> 748 ;
749 [label="X[17] <= -0.318\nsquared_error = 0.003\nsamples = 3\nvalue = -2.877"] ;
748 -> 749 ;
750 [label="X[30] <= 0.109\nsquared_error = 0.0\nsamples = 2\nvalue = -2.915"] ;
749 -> 750 ;
751 [label="squared_error = 0.0\nsamples = 1\nvalue = -2.926"] ;
750 -> 751 ;
752 [label="squared_error = 0.0\nsamples = 1\nvalue = -2.903"] ;
750 -> 752 ;
753 [label="squared_error = -0.0\nsamples = 1\nvalue = -2.802"] ;
749 -> 753 ;
754 [label="squared_error = -0.0\nsamples = 1\nvalue = -2.664"] ;
748 -> 754 ;
755 [label="X[41] <= 0.326\nsquared_error = 0.009\nsamples = 2\nvalue = -2.384"] ;
747 -> 755 ;
756 [label="squared_error = 0.0\nsamples = 1\nvalue = -2.481"] ;
755 -> 756 ;
757 [label="squared_error = 0.0\nsamples = 1\nvalue = -2.288"] ;
755 -> 757 ;
758 [label="X[16] <= 0.179\nsquared_error = 0.056\nsamples = 10\nvalue = -2.257"] ;
746 -> 758 ;
759 [label="X[49] <= -0.132\nsquared_error = 0.022\nsamples = 4\nvalue = -2.486"] ;
758 -> 759 ;
760 [label="X[47] <= -0.164\nsquared_error = 0.008\nsamples = 3\nvalue = -2.413"] ;
759 -> 760 ;
761 [label="X[9] <= 0.021\nsquared_error = 0.0\nsamples = 2\nvalue = -2.475"] ;
760 -> 761 ;
762 [label="squared_error = 0.0\nsamples = 1\nvalue = -2.483"] ;
761 -> 762 ;
763 [label="squared_error = 0.0\nsamples = 1\nvalue = -2.466"] ;
761 -> 763 ;
764 [label="squared_error = -0.0\nsamples = 1\nvalue = -2.291"] ;
760 -> 764 ;
765 [label="squared_error = 0.0\nsamples = 1\nvalue = -2.704"] ;
759 -> 765 ;
766 [label="X[18] <= -0.152\nsquared_error = 0.021\nsamples = 6\nvalue = -2.104"] ;
758 -> 766 ;
767 [label="squared_error = 0.0\nsamples = 1\nvalue = -2.389"] ;
766 -> 767 ;
768 [label="X[4] <= 0.052\nsquared_error = 0.005\nsamples = 5\nvalue = -2.047"] ;
766 -> 768 ;
769 [label="X[47] <= -0.259\nsquared_error = 0.001\nsamples = 4\nvalue = -2.082"] ;
768 -> 769 ;
770 [label="X[24] <= -0.174\nsquared_error = 0.0\nsamples = 2\nvalue = -2.103"] ;
769 -> 770 ;
771 [label="squared_error = 0.0\nsamples = 1\nvalue = -2.09"] ;
770 -> 771 ;
772 [label="squared_error = -0.0\nsamples = 1\nvalue = -2.116"] ;
770 -> 772 ;
773 [label="X[1] <= 0.027\nsquared_error = 0.0\nsamples = 2\nvalue = -2.061"] ;
769 -> 773 ;
774 [label="squared_error = 0.0\nsamples = 1\nvalue = -2.055"] ;
773 -> 774 ;
775 [label="squared_error = 0.0\nsamples = 1\nvalue = -2.068"] ;
773 -> 775 ;
776 [label="squared_error = -0.0\nsamples = 1\nvalue = -1.905"] ;
768 -> 776 ;
777 [label="X[33] <= 0.174\nsquared_error = 0.79\nsamples = 11\nvalue = -1.756"] ;
737 -> 777 ;
778 [label="X[27] <= -0.081\nsquared_error = 0.501\nsamples = 8\nvalue = -1.374"] ;
777 -> 778 ;
779 [label="X[12] <= 0.104\nsquared_error = 0.152\nsamples = 6\nvalue = -1.04"] ;
778 -> 779 ;
780 [label="X[25] <= -0.173\nsquared_error = 0.049\nsamples = 5\nvalue = -0.891"] ;
779 -> 780 ;
781 [label="X[38] <= 0.218\nsquared_error = 0.0\nsamples = 3\nvalue = -1.071"] ;
780 -> 781 ;
782 [label="X[3] <= -0.258\nsquared_error = 0.0\nsamples = 2\nvalue = -1.062"] ;
781 -> 782 ;
783 [label="squared_error = 0.0\nsamples = 1\nvalue = -1.064"] ;
782 -> 783 ;
784 [label="squared_error = 0.0\nsamples = 1\nvalue = -1.06"] ;
782 -> 784 ;
785 [label="squared_error = -0.0\nsamples = 1\nvalue = -1.089"] ;
781 -> 785 ;
786 [label="X[15] <= 0.012\nsquared_error = 0.002\nsamples = 2\nvalue = -0.62"] ;
780 -> 786 ;
787 [label="squared_error = 0.0\nsamples = 1\nvalue = -0.581"] ;
786 -> 787 ;
788 [label="squared_error = 0.0\nsamples = 1\nvalue = -0.659"] ;
786 -> 788 ;
789 [label="squared_error = 0.0\nsamples = 1\nvalue = -1.784"] ;
779 -> 789 ;
790 [label="X[0] <= -0.074\nsquared_error = 0.208\nsamples = 2\nvalue = -2.376"] ;
778 -> 790 ;
791 [label="squared_error = 0.0\nsamples = 1\nvalue = -2.833"] ;
790 -> 791 ;
792 [label="squared_error = -0.0\nsamples = 1\nvalue = -1.92"] ;
790 -> 792 ;
793 [label="X[27] <= -0.009\nsquared_error = 0.134\nsamples = 3\nvalue = -2.775"] ;
777 -> 793 ;
794 [label="X[11] <= -0.076\nsquared_error = 0.035\nsamples = 2\nvalue = -3.01"] ;
793 -> 794 ;
795 [label="squared_error = 0.0\nsamples = 1\nvalue = -3.198"] ;
794 -> 795 ;
796 [label="squared_error = -0.0\nsamples = 1\nvalue = -2.823"] ;
794 -> 796 ;
797 [label="squared_error = -0.0\nsamples = 1\nvalue = -2.305"] ;
793 -> 797 ;
798 [label="X[9] <= 0.014\nsquared_error = 3.239\nsamples = 6\nvalue = -0.18"] ;
722 -> 798 ;
799 [label="X[36] <= 0.469\nsquared_error = 0.253\nsamples = 4\nvalue = 0.993"] ;
798 -> 799 ;
800 [label="X[22] <= -0.015\nsquared_error = 0.087\nsamples = 2\nvalue = 0.538"] ;
799 -> 800 ;
801 [label="squared_error = 0.0\nsamples = 1\nvalue = 0.244"] ;
800 -> 801 ;
802 [label="squared_error = 0.0\nsamples = 1\nvalue = 0.833"] ;
800 -> 802 ;
803 [label="X[32] <= -0.019\nsquared_error = 0.005\nsamples = 2\nvalue = 1.448"] ;
799 -> 803 ;
804 [label="squared_error = 0.0\nsamples = 1\nvalue = 1.377"] ;
803 -> 804 ;
805 [label="squared_error = 0.0\nsamples = 1\nvalue = 1.519"] ;
803 -> 805 ;
806 [label="X[47] <= -0.13\nsquared_error = 0.95\nsamples = 2\nvalue = -2.527"] ;
798 -> 806 ;
807 [label="squared_error = 0.0\nsamples = 1\nvalue = -1.552"] ;
806 -> 807 ;
808 [label="squared_error = -0.0\nsamples = 1\nvalue = -3.502"] ;
806 -> 808 ;
809 [label="X[16] <= 0.055\nsquared_error = 1.63\nsamples = 18\nvalue = -1.162"] ;
597 -> 809 ;
810 [label="squared_error = 0.0\nsamples = 1\nvalue = 2.35"] ;
809 -> 810 ;
811 [label="X[10] <= 0.145\nsquared_error = 0.957\nsamples = 17\nvalue = -1.369"] ;
809 -> 811 ;
812 [label="X[35] <= 0.049\nsquared_error = 0.007\nsamples = 3\nvalue = -2.901"] ;
811 -> 812 ;
813 [label="X[6] <= 0.003\nsquared_error = 0.0\nsamples = 2\nvalue = -2.96"] ;
812 -> 813 ;
814 [label="squared_error = 0.0\nsamples = 1\nvalue = -2.963"] ;
813 -> 814 ;
815 [label="squared_error = -0.0\nsamples = 1\nvalue = -2.957"] ;
813 -> 815 ;
816 [label="squared_error = 0.0\nsamples = 1\nvalue = -2.782"] ;
812 -> 816 ;
817 [label="X[19] <= 0.042\nsquared_error = 0.55\nsamples = 14\nvalue = -1.041"] ;
811 -> 817 ;
818 [label="X[12] <= 0.131\nsquared_error = 0.293\nsamples = 12\nvalue = -1.261"] ;
817 -> 818 ;
819 [label="X[42] <= -0.548\nsquared_error = 0.107\nsamples = 6\nvalue = -0.839"] ;
818 -> 819 ;
820 [label="X[24] <= -0.305\nsquared_error = 0.021\nsamples = 2\nvalue = -0.447"] ;
819 -> 820 ;
821 [label="squared_error = 0.0\nsamples = 1\nvalue = -0.301"] ;
820 -> 821 ;
822 [label="squared_error = -0.0\nsamples = 1\nvalue = -0.593"] ;
820 -> 822 ;
823 [label="X[43] <= -0.051\nsquared_error = 0.035\nsamples = 4\nvalue = -1.034"] ;
819 -> 823 ;
824 [label="X[10] <= 0.165\nsquared_error = 0.001\nsamples = 2\nvalue = -0.865"] ;
823 -> 824 ;
825 [label="squared_error = 0.0\nsamples = 1\nvalue = -0.835"] ;
824 -> 825 ;
826 [label="squared_error = -0.0\nsamples = 1\nvalue = -0.894"] ;
824 -> 826 ;
827 [label="X[45] <= 0.141\nsquared_error = 0.012\nsamples = 2\nvalue = -1.204"] ;
823 -> 827 ;
828 [label="squared_error = 0.0\nsamples = 1\nvalue = -1.092"] ;
827 -> 828 ;
829 [label="squared_error = -0.0\nsamples = 1\nvalue = -1.316"] ;
827 -> 829 ;
830 [label="X[32] <= -0.168\nsquared_error = 0.122\nsamples = 6\nvalue = -1.684"] ;
818 -> 830 ;
831 [label="X[38] <= 0.263\nsquared_error = 0.012\nsamples = 2\nvalue = -2.159"] ;
830 -> 831 ;
832 [label="squared_error = 0.0\nsamples = 1\nvalue = -2.051"] ;
831 -> 832 ;
833 [label="squared_error = -0.0\nsamples = 1\nvalue = -2.266"] ;
831 -> 833 ;
834 [label="X[2] <= 0.158\nsquared_error = 0.008\nsamples = 4\nvalue = -1.447"] ;
830 -> 834 ;
835 [label="X[11] <= -0.227\nsquared_error = 0.0\nsamples = 2\nvalue = -1.531"] ;
834 -> 835 ;
836 [label="squared_error = 0.0\nsamples = 1\nvalue = -1.524"] ;
835 -> 836 ;
837 [label="squared_error = -0.0\nsamples = 1\nvalue = -1.537"] ;
835 -> 837 ;
838 [label="X[15] <= -0.005\nsquared_error = 0.003\nsamples = 2\nvalue = -1.364"] ;
834 -> 838 ;
839 [label="squared_error = 0.0\nsamples = 1\nvalue = -1.31"] ;
838 -> 839 ;
840 [label="squared_error = 0.0\nsamples = 1\nvalue = -1.417"] ;
838 -> 840 ;
841 [label="X[19] <= 0.05\nsquared_error = 0.046\nsamples = 2\nvalue = 0.284"] ;
817 -> 841 ;
842 [label="squared_error = 0.0\nsamples = 1\nvalue = 0.498"] ;
841 -> 842 ;
843 [label="squared_error = -0.0\nsamples = 1\nvalue = 0.069"] ;
841 -> 843 ;
844 [label="X[2] <= 0.147\nsquared_error = 2.796\nsamples = 18\nvalue = -3.836"] ;
596 -> 844 ;
845 [label="X[12] <= 0.106\nsquared_error = 1.293\nsamples = 8\nvalue = -5.232"] ;
844 -> 845 ;
846 [label="X[48] <= -0.153\nsquared_error = 0.24\nsamples = 5\nvalue = -4.411"] ;
845 -> 846 ;
847 [label="squared_error = 0.0\nsamples = 1\nvalue = -3.534"] ;
846 -> 847 ;
848 [label="X[23] <= 0.094\nsquared_error = 0.059\nsamples = 4\nvalue = -4.631"] ;
846 -> 848 ;
849 [label="X[35] <= 0.048\nsquared_error = 0.009\nsamples = 2\nvalue = -4.846"] ;
848 -> 849 ;
850 [label="squared_error = 0.0\nsamples = 1\nvalue = -4.753"] ;
849 -> 850 ;
851 [label="squared_error = -0.0\nsamples = 1\nvalue = -4.939"] ;
849 -> 851 ;
852 [label="X[5] <= -0.123\nsquared_error = 0.018\nsamples = 2\nvalue = -4.416"] ;
848 -> 852 ;
853 [label="squared_error = 0.0\nsamples = 1\nvalue = -4.549"] ;
852 -> 853 ;
854 [label="squared_error = 0.0\nsamples = 1\nvalue = -4.283"] ;
852 -> 854 ;
855 [label="X[41] <= 0.334\nsquared_error = 0.052\nsamples = 3\nvalue = -6.601"] ;
845 -> 855 ;
856 [label="squared_error = 0.0\nsamples = 1\nvalue = -6.292"] ;
855 -> 856 ;
857 [label="X[16] <= 0.289\nsquared_error = 0.006\nsamples = 2\nvalue = -6.756"] ;
855 -> 857 ;
858 [label="squared_error = 0.0\nsamples = 1\nvalue = -6.835"] ;
857 -> 858 ;
859 [label="squared_error = 0.0\nsamples = 1\nvalue = -6.676"] ;
857 -> 859 ;
860 [label="X[5] <= -0.171\nsquared_error = 1.191\nsamples = 10\nvalue = -2.72"] ;
844 -> 860 ;
861 [label="X[36] <= 0.544\nsquared_error = 0.124\nsamples = 5\nvalue = -3.619"] ;
860 -> 861 ;
862 [label="X[23] <= 0.176\nsquared_error = 0.033\nsamples = 3\nvalue = -3.375"] ;
861 -> 862 ;
863 [label="X[43] <= -0.033\nsquared_error = 0.006\nsamples = 2\nvalue = -3.496"] ;
862 -> 863 ;
864 [label="squared_error = 0.0\nsamples = 1\nvalue = -3.573"] ;
863 -> 864 ;
865 [label="squared_error = 0.0\nsamples = 1\nvalue = -3.419"] ;
863 -> 865 ;
866 [label="squared_error = -0.0\nsamples = 1\nvalue = -3.132"] ;
862 -> 866 ;
867 [label="X[24] <= -0.266\nsquared_error = 0.035\nsamples = 2\nvalue = -3.985"] ;
861 -> 867 ;
868 [label="squared_error = 0.0\nsamples = 1\nvalue = -3.797"] ;
867 -> 868 ;
869 [label="squared_error = -0.0\nsamples = 1\nvalue = -4.173"] ;
867 -> 869 ;
870 [label="X[47] <= -0.249\nsquared_error = 0.641\nsamples = 5\nvalue = -1.82"] ;
860 -> 870 ;
871 [label="X[47] <= -0.273\nsquared_error = 0.143\nsamples = 3\nvalue = -1.22"] ;
870 -> 871 ;
872 [label="X[45] <= 0.046\nsquared_error = 0.009\nsamples = 2\nvalue = -0.959"] ;
871 -> 872 ;
873 [label="squared_error = 0.0\nsamples = 1\nvalue = -0.862"] ;
872 -> 873 ;
874 [label="squared_error = 0.0\nsamples = 1\nvalue = -1.055"] ;
872 -> 874 ;
875 [label="squared_error = 0.0\nsamples = 1\nvalue = -1.743"] ;
871 -> 875 ;
876 [label="X[7] <= -0.211\nsquared_error = 0.036\nsamples = 2\nvalue = -2.721"] ;
870 -> 876 ;
877 [label="squared_error = 0.0\nsamples = 1\nvalue = -2.532"] ;
876 -> 877 ;
878 [label="squared_error = -0.0\nsamples = 1\nvalue = -2.91"] ;
876 -> 878 ;
879 [label="X[8] <= -0.077\nsquared_error = 1.211\nsamples = 33\nvalue = -3.526"] ;
553 -> 879 ;
880 [label="X[4] <= 0.012\nsquared_error = 0.823\nsamples = 11\nvalue = -2.624"] ;
879 -> 880 ;
881 [label="X[38] <= 0.338\nsquared_error = 0.134\nsamples = 6\nvalue = -1.964"] ;
880 -> 881 ;
882 [label="X[12] <= -0.01\nsquared_error = 0.026\nsamples = 4\nvalue = -2.186"] ;
881 -> 882 ;
883 [label="X[32] <= -0.077\nsquared_error = 0.008\nsamples = 2\nvalue = -2.333"] ;
882 -> 883 ;
884 [label="squared_error = 0.0\nsamples = 1\nvalue = -2.245"] ;
883 -> 884 ;
885 [label="squared_error = -0.0\nsamples = 1\nvalue = -2.42"] ;
883 -> 885 ;
886 [label="X[47] <= -0.202\nsquared_error = 0.002\nsamples = 2\nvalue = -2.04"] ;
882 -> 886 ;
887 [label="squared_error = 0.0\nsamples = 1\nvalue = -2.087"] ;
886 -> 887 ;
888 [label="squared_error = 0.0\nsamples = 1\nvalue = -1.993"] ;
886 -> 888 ;
889 [label="X[21] <= 0.11\nsquared_error = 0.051\nsamples = 2\nvalue = -1.519"] ;
881 -> 889 ;
890 [label="squared_error = 0.0\nsamples = 1\nvalue = -1.293"] ;
889 -> 890 ;
891 [label="squared_error = 0.0\nsamples = 1\nvalue = -1.746"] ;
889 -> 891 ;
892 [label="X[13] <= 0.215\nsquared_error = 0.501\nsamples = 5\nvalue = -3.416"] ;
880 -> 892 ;
893 [label="X[29] <= 0.128\nsquared_error = 0.137\nsamples = 3\nvalue = -2.934"] ;
892 -> 893 ;
894 [label="X[26] <= -0.291\nsquared_error = 0.03\nsamples = 2\nvalue = -3.176"] ;
893 -> 894 ;
895 [label="squared_error = 0.0\nsamples = 1\nvalue = -3.349"] ;
894 -> 895 ;
896 [label="squared_error = -0.0\nsamples = 1\nvalue = -3.004"] ;
894 -> 896 ;
897 [label="squared_error = -0.0\nsamples = 1\nvalue = -2.45"] ;
893 -> 897 ;
898 [label="X[24] <= -0.316\nsquared_error = 0.177\nsamples = 2\nvalue = -4.138"] ;
892 -> 898 ;
899 [label="squared_error = 0.0\nsamples = 1\nvalue = -4.559"] ;
898 -> 899 ;
900 [label="squared_error = 0.0\nsamples = 1\nvalue = -3.717"] ;
898 -> 900 ;
901 [label="X[29] <= 0.071\nsquared_error = 0.795\nsamples = 22\nvalue = -3.977"] ;
879 -> 901 ;
902 [label="X[3] <= -0.175\nsquared_error = 0.142\nsamples = 3\nvalue = -5.379"] ;
901 -> 902 ;
903 [label="X[49] <= -0.059\nsquared_error = 0.044\nsamples = 2\nvalue = -5.616"] ;
902 -> 903 ;
904 [label="squared_error = 0.0\nsamples = 1\nvalue = -5.826"] ;
903 -> 904 ;
905 [label="squared_error = 0.0\nsamples = 1\nvalue = -5.406"] ;
903 -> 905 ;
906 [label="squared_error = -0.0\nsamples = 1\nvalue = -4.905"] ;
902 -> 906 ;
907 [label="X[4] <= -0.128\nsquared_error = 0.539\nsamples = 19\nvalue = -3.756"] ;
901 -> 907 ;
908 [label="X[41] <= 0.225\nsquared_error = 0.279\nsamples = 4\nvalue = -4.86"] ;
907 -> 908 ;
909 [label="X[20] <= 0.014\nsquared_error = 0.108\nsamples = 2\nvalue = -5.333"] ;
908 -> 909 ;
910 [label="squared_error = 0.0\nsamples = 1\nvalue = -5.661"] ;
909 -> 910 ;
911 [label="squared_error = -0.0\nsamples = 1\nvalue = -5.005"] ;
909 -> 911 ;
912 [label="X[19] <= -0.024\nsquared_error = 0.001\nsamples = 2\nvalue = -4.386"] ;
908 -> 912 ;
913 [label="squared_error = 0.0\nsamples = 1\nvalue = -4.358"] ;
912 -> 913 ;
914 [label="squared_error = -0.0\nsamples = 1\nvalue = -4.415"] ;
912 -> 914 ;
915 [label="X[25] <= -0.122\nsquared_error = 0.197\nsamples = 15\nvalue = -3.461"] ;
907 -> 915 ;
916 [label="X[18] <= -0.087\nsquared_error = 0.084\nsamples = 10\nvalue = -3.699"] ;
915 -> 916 ;
917 [label="X[34] <= -0.338\nsquared_error = 0.011\nsamples = 6\nvalue = -3.485"] ;
916 -> 917 ;
918 [label="X[15] <= -0.011\nsquared_error = 0.004\nsamples = 4\nvalue = -3.548"] ;
917 -> 918 ;
919 [label="X[48] <= 0.01\nsquared_error = 0.001\nsamples = 2\nvalue = -3.606"] ;
918 -> 919 ;
920 [label="squared_error = 0.0\nsamples = 1\nvalue = -3.644"] ;
919 -> 920 ;
921 [label="squared_error = 0.0\nsamples = 1\nvalue = -3.568"] ;
919 -> 921 ;
922 [label="X[46] <= 0.255\nsquared_error = 0.0\nsamples = 2\nvalue = -3.491"] ;
918 -> 922 ;
923 [label="squared_error = 0.0\nsamples = 1\nvalue = -3.481"] ;
922 -> 923 ;
924 [label="squared_error = -0.0\nsamples = 1\nvalue = -3.501"] ;
922 -> 924 ;
925 [label="X[12] <= -0.033\nsquared_error = 0.0\nsamples = 2\nvalue = -3.36"] ;
917 -> 925 ;
926 [label="squared_error = 0.0\nsamples = 1\nvalue = -3.351"] ;
925 -> 926 ;
927 [label="squared_error = 0.0\nsamples = 1\nvalue = -3.368"] ;
925 -> 927 ;
928 [label="X[35] <= 0.046\nsquared_error = 0.022\nsamples = 4\nvalue = -4.02"] ;
916 -> 928 ;
929 [label="X[9] <= -0.086\nsquared_error = 0.004\nsamples = 2\nvalue = -3.878"] ;
928 -> 929 ;
930 [label="squared_error = 0.0\nsamples = 1\nvalue = -3.812"] ;
929 -> 930 ;
931 [label="squared_error = 0.0\nsamples = 1\nvalue = -3.944"] ;
929 -> 931 ;
932 [label="X[46] <= 0.203\nsquared_error = 0.0\nsamples = 2\nvalue = -4.161"] ;
928 -> 932 ;
933 [label="squared_error = 0.0\nsamples = 1\nvalue = -4.147"] ;
932 -> 933 ;
934 [label="squared_error = -0.0\nsamples = 1\nvalue = -4.176"] ;
932 -> 934 ;
935 [label="X[3] <= -0.155\nsquared_error = 0.084\nsamples = 5\nvalue = -2.986"] ;
915 -> 935 ;
936 [label="X[0] <= -0.203\nsquared_error = 0.014\nsamples = 2\nvalue = -3.318"] ;
935 -> 936 ;
937 [label="squared_error = 0.0\nsamples = 1\nvalue = -3.435"] ;
936 -> 937 ;
938 [label="squared_error = -0.0\nsamples = 1\nvalue = -3.2"] ;
936 -> 938 ;
939 [label="X[35] <= 0.039\nsquared_error = 0.008\nsamples = 3\nvalue = -2.765"] ;
935 -> 939 ;
940 [label="squared_error = 0.0\nsamples = 1\nvalue = -2.882"] ;
939 -> 940 ;
941 [label="X[49] <= -0.109\nsquared_error = 0.001\nsamples = 2\nvalue = -2.706"] ;
939 -> 941 ;
942 [label="squared_error = 0.0\nsamples = 1\nvalue = -2.742"] ;
941 -> 942 ;
943 [label="squared_error = -0.0\nsamples = 1\nvalue = -2.67"] ;
941 -> 943 ;
944 [label="X[40] <= 0.2\nsquared_error = 3.39\nsamples = 104\nvalue = -2.141"] ;
42 -> 944 ;
945 [label="X[19] <= -0.133\nsquared_error = 3.166\nsamples = 101\nvalue = -2.238"] ;
944 -> 945 ;
946 [label="X[18] <= -0.086\nsquared_error = 3.939\nsamples = 10\nvalue = -3.934"] ;
945 -> 946 ;
947 [label="X[35] <= 0.278\nsquared_error = 0.702\nsamples = 4\nvalue = -6.043"] ;
946 -> 947 ;
948 [label="X[24] <= -0.31\nsquared_error = 0.196\nsamples = 3\nvalue = -5.613"] ;
947 -> 948 ;
949 [label="X[24] <= -0.498\nsquared_error = 0.056\nsamples = 2\nvalue = -5.894"] ;
948 -> 949 ;
950 [label="squared_error = 0.0\nsamples = 1\nvalue = -5.657"] ;
949 -> 950 ;
951 [label="squared_error = 0.0\nsamples = 1\nvalue = -6.131"] ;
949 -> 951 ;
952 [label="squared_error = -0.0\nsamples = 1\nvalue = -5.05"] ;
948 -> 952 ;
953 [label="squared_error = 0.0\nsamples = 1\nvalue = -7.333"] ;
947 -> 953 ;
954 [label="X[6] <= -0.029\nsquared_error = 1.158\nsamples = 6\nvalue = -2.529"] ;
946 -> 954 ;
955 [label="X[42] <= -0.628\nsquared_error = 0.252\nsamples = 3\nvalue = -1.522"] ;
954 -> 955 ;
956 [label="squared_error = 0.0\nsamples = 1\nvalue = -0.84"] ;
955 -> 956 ;
957 [label="X[21] <= 0.065\nsquared_error = 0.03\nsamples = 2\nvalue = -1.862"] ;
955 -> 957 ;
958 [label="squared_error = 0.0\nsamples = 1\nvalue = -2.036"] ;
957 -> 958 ;
959 [label="squared_error = 0.0\nsamples = 1\nvalue = -1.689"] ;
957 -> 959 ;
960 [label="X[6] <= -0.004\nsquared_error = 0.035\nsamples = 3\nvalue = -3.536"] ;
954 -> 960 ;
961 [label="squared_error = 0.0\nsamples = 1\nvalue = -3.288"] ;
960 -> 961 ;
962 [label="X[36] <= 0.629\nsquared_error = 0.006\nsamples = 2\nvalue = -3.66"] ;
960 -> 962 ;
963 [label="squared_error = 0.0\nsamples = 1\nvalue = -3.582"] ;
962 -> 963 ;
964 [label="squared_error = -0.0\nsamples = 1\nvalue = -3.738"] ;
962 -> 964 ;
965 [label="X[8] <= -0.072\nsquared_error = 2.73\nsamples = 91\nvalue = -2.051"] ;
945 -> 965 ;
966 [label="X[5] <= -0.123\nsquared_error = 2.637\nsamples = 33\nvalue = -1.33"] ;
965 -> 966 ;
967 [label="X[4] <= -0.039\nsquared_error = 1.646\nsamples = 26\nvalue = -1.741"] ;
966 -> 967 ;
968 [label="X[40] <= -0.042\nsquared_error = 0.237\nsamples = 2\nvalue = -4.413"] ;
967 -> 968 ;
969 [label="squared_error = 0.0\nsamples = 1\nvalue = -3.927"] ;
968 -> 969 ;
970 [label="squared_error = -0.0\nsamples = 1\nvalue = -4.9"] ;
968 -> 970 ;
971 [label="X[44] <= 0.05\nsquared_error = 1.119\nsamples = 24\nvalue = -1.518"] ;
967 -> 971 ;
972 [label="X[44] <= -0.043\nsquared_error = 0.072\nsamples = 3\nvalue = -3.083"] ;
971 -> 972 ;
973 [label="squared_error = 0.0\nsamples = 1\nvalue = -2.731"] ;
972 -> 973 ;
974 [label="X[39] <= 0.179\nsquared_error = 0.016\nsamples = 2\nvalue = -3.258"] ;
972 -> 974 ;
975 [label="squared_error = 0.0\nsamples = 1\nvalue = -3.385"] ;
974 -> 975 ;
976 [label="squared_error = -0.0\nsamples = 1\nvalue = -3.131"] ;
974 -> 976 ;
977 [label="X[49] <= -0.289\nsquared_error = 0.869\nsamples = 21\nvalue = -1.295"] ;
971 -> 977 ;
978 [label="X[20] <= -0.071\nsquared_error = 0.909\nsamples = 5\nvalue = -2.346"] ;
977 -> 978 ;
979 [label="X[38] <= 0.126\nsquared_error = 0.145\nsamples = 3\nvalue = -1.613"] ;
978 -> 979 ;
980 [label="squared_error = 0.0\nsamples = 1\nvalue = -1.075"] ;
979 -> 980 ;
981 [label="X[17] <= -0.4\nsquared_error = 0.001\nsamples = 2\nvalue = -1.882"] ;
979 -> 981 ;
982 [label="squared_error = 0.0\nsamples = 1\nvalue = -1.851"] ;
981 -> 982 ;
983 [label="squared_error = 0.0\nsamples = 1\nvalue = -1.914"] ;
981 -> 983 ;
984 [label="X[47] <= -0.337\nsquared_error = 0.039\nsamples = 2\nvalue = -3.446"] ;
978 -> 984 ;
985 [label="squared_error = 0.0\nsamples = 1\nvalue = -3.644"] ;
984 -> 985 ;
986 [label="squared_error = 0.0\nsamples = 1\nvalue = -3.248"] ;
984 -> 986 ;
987 [label="X[20] <= -0.073\nsquared_error = 0.404\nsamples = 16\nvalue = -0.966"] ;
977 -> 987 ;
988 [label="X[7] <= -0.169\nsquared_error = 0.21\nsamples = 8\nvalue = -0.496"] ;
987 -> 988 ;
989 [label="X[28] <= -0.217\nsquared_error = 0.025\nsamples = 5\nvalue = -0.825"] ;
988 -> 989 ;
990 [label="X[40] <= -0.194\nsquared_error = 0.001\nsamples = 4\nvalue = -0.747"] ;
989 -> 990 ;
991 [label="squared_error = 0.0\nsamples = 1\nvalue = -0.691"] ;
990 -> 991 ;
992 [label="X[9] <= -0.081\nsquared_error = 0.0\nsamples = 3\nvalue = -0.765"] ;
990 -> 992 ;
993 [label="squared_error = 0.0\nsamples = 1\nvalue = -0.785"] ;
992 -> 993 ;
994 [label="X[4] <= 0.193\nsquared_error = 0.0\nsamples = 2\nvalue = -0.755"] ;
992 -> 994 ;
995 [label="squared_error = 0.0\nsamples = 1\nvalue = -0.746"] ;
994 -> 995 ;
996 [label="squared_error = -0.0\nsamples = 1\nvalue = -0.765"] ;
994 -> 996 ;
997 [label="squared_error = 0.0\nsamples = 1\nvalue = -1.138"] ;
989 -> 997 ;
998 [label="X[37] <= 0.388\nsquared_error = 0.037\nsamples = 3\nvalue = 0.051"] ;
988 -> 998 ;
999 [label="X[0] <= -0.126\nsquared_error = 0.0\nsamples = 2\nvalue = -0.085"] ;
998 -> 999 ;
1000 [label="squared_error = 0.0\nsamples = 1\nvalue = -0.099"] ;
999 -> 1000 ;
1001 [label="squared_error = -0.0\nsamples = 1\nvalue = -0.072"] ;
999 -> 1001 ;
1002 [label="squared_error = 0.0\nsamples = 1\nvalue = 0.324"] ;
998 -> 1002 ;
1003 [label="X[27] <= -0.029\nsquared_error = 0.155\nsamples = 8\nvalue = -1.436"] ;
987 -> 1003 ;
1004 [label="X[40] <= -0.035\nsquared_error = 0.05\nsamples = 6\nvalue = -1.243"] ;
1003 -> 1004 ;
1005 [label="X[6] <= -0.017\nsquared_error = 0.012\nsamples = 3\nvalue = -1.451"] ;
1004 -> 1005 ;
1006 [label="X[34] <= -0.362\nsquared_error = 0.0\nsamples = 2\nvalue = -1.527"] ;
1005 -> 1006 ;
1007 [label="squared_error = 0.0\nsamples = 1\nvalue = -1.505"] ;
1006 -> 1007 ;
1008 [label="squared_error = -0.0\nsamples = 1\nvalue = -1.549"] ;
1006 -> 1008 ;
1009 [label="squared_error = -0.0\nsamples = 1\nvalue = -1.3"] ;
1005 -> 1009 ;
1010 [label="X[21] <= 0.243\nsquared_error = 0.001\nsamples = 3\nvalue = -1.034"] ;
1004 -> 1010 ;
1011 [label="X[41] <= 0.59\nsquared_error = 0.0\nsamples = 2\nvalue = -1.018"] ;
1010 -> 1011 ;
1012 [label="squared_error = 0.0\nsamples = 1\nvalue = -1.022"] ;
1011 -> 1012 ;
1013 [label="squared_error = -0.0\nsamples = 1\nvalue = -1.014"] ;
1011 -> 1013 ;
1014 [label="squared_error = 0.0\nsamples = 1\nvalue = -1.067"] ;
1010 -> 1014 ;
1015 [label="X[13] <= 0.414\nsquared_error = 0.022\nsamples = 2\nvalue = -2.017"] ;
1003 -> 1015 ;
1016 [label="squared_error = 0.0\nsamples = 1\nvalue = -2.167"] ;
1015 -> 1016 ;
1017 [label="squared_error = -0.0\nsamples = 1\nvalue = -1.868"] ;
1015 -> 1017 ;
1018 [label="X[10] <= 0.161\nsquared_error = 3.361\nsamples = 7\nvalue = 0.196"] ;
966 -> 1018 ;
1019 [label="X[42] <= -0.39\nsquared_error = 1.724\nsamples = 4\nvalue = -1.058"] ;
1018 -> 1019 ;
1020 [label="X[3] <= -0.338\nsquared_error = 0.65\nsamples = 3\nvalue = -0.416"] ;
1019 -> 1020 ;
1021 [label="X[45] <= -0.024\nsquared_error = 0.016\nsamples = 2\nvalue = -0.981"] ;
1020 -> 1021 ;
1022 [label="squared_error = 0.0\nsamples = 1\nvalue = -1.109"] ;
1021 -> 1022 ;
1023 [label="squared_error = 0.0\nsamples = 1\nvalue = -0.853"] ;
1021 -> 1023 ;
1024 [label="squared_error = 0.0\nsamples = 1\nvalue = 0.715"] ;
1020 -> 1024 ;
1025 [label="squared_error = -0.0\nsamples = 1\nvalue = -2.983"] ;
1019 -> 1025 ;
1026 [label="X[37] <= 0.258\nsquared_error = 0.656\nsamples = 3\nvalue = 1.867"] ;
1018 -> 1026 ;
1027 [label="X[48] <= 0.048\nsquared_error = 0.025\nsamples = 2\nvalue = 1.302"] ;
1026 -> 1027 ;
1028 [label="squared_error = 0.0\nsamples = 1\nvalue = 1.145"] ;
1027 -> 1028 ;
1029 [label="squared_error = 0.0\nsamples = 1\nvalue = 1.459"] ;
1027 -> 1029 ;
1030 [label="squared_error = 0.0\nsamples = 1\nvalue = 2.998"] ;
1026 -> 1030 ;
1031 [label="X[46] <= 0.312\nsquared_error = 2.319\nsamples = 58\nvalue = -2.461"] ;
965 -> 1031 ;
1032 [label="X[21] <= 0.167\nsquared_error = 1.445\nsamples = 6\nvalue = -0.857"] ;
1031 -> 1032 ;
1033 [label="X[40] <= -0.149\nsquared_error = 0.326\nsamples = 5\nvalue = -1.341"] ;
1032 -> 1033 ;
1034 [label="squared_error = 0.0\nsamples = 1\nvalue = -2.383"] ;
1033 -> 1034 ;
1035 [label="X[14] <= -0.021\nsquared_error = 0.068\nsamples = 4\nvalue = -1.081"] ;
1033 -> 1035 ;
1036 [label="squared_error = 0.0\nsamples = 1\nvalue = -0.686"] ;
1035 -> 1036 ;
1037 [label="X[45] <= -0.057\nsquared_error = 0.021\nsamples = 3\nvalue = -1.213"] ;
1035 -> 1037 ;
1038 [label="X[12] <= 0.007\nsquared_error = 0.003\nsamples = 2\nvalue = -1.114"] ;
1037 -> 1038 ;
1039 [label="squared_error = 0.0\nsamples = 1\nvalue = -1.168"] ;
1038 -> 1039 ;
1040 [label="squared_error = 0.0\nsamples = 1\nvalue = -1.06"] ;
1038 -> 1040 ;
1041 [label="squared_error = -0.0\nsamples = 1\nvalue = -1.41"] ;
1037 -> 1041 ;
1042 [label="squared_error = -0.0\nsamples = 1\nvalue = 1.566"] ;
1032 -> 1042 ;
1043 [label="X[5] <= -0.288\nsquared_error = 2.089\nsamples = 52\nvalue = -2.646"] ;
1031 -> 1043 ;
1044 [label="X[16] <= 0.543\nsquared_error = 0.362\nsamples = 4\nvalue = -4.387"] ;
1043 -> 1044 ;
1045 [label="X[19] <= -0.006\nsquared_error = 0.057\nsamples = 2\nvalue = -4.947"] ;
1044 -> 1045 ;
1046 [label="squared_error = 0.0\nsamples = 1\nvalue = -5.186"] ;
1045 -> 1046 ;
1047 [label="squared_error = 0.0\nsamples = 1\nvalue = -4.709"] ;
1045 -> 1047 ;
1048 [label="X[15] <= 0.081\nsquared_error = 0.038\nsamples = 2\nvalue = -3.826"] ;
1044 -> 1048 ;
1049 [label="squared_error = 0.0\nsamples = 1\nvalue = -4.02"] ;
1048 -> 1049 ;
1050 [label="squared_error = 0.0\nsamples = 1\nvalue = -3.632"] ;
1048 -> 1050 ;
1051 [label="X[9] <= 0.02\nsquared_error = 1.959\nsamples = 48\nvalue = -2.501"] ;
1043 -> 1051 ;
1052 [label="X[0] <= 0.025\nsquared_error = 1.812\nsamples = 33\nvalue = -2.117"] ;
1051 -> 1052 ;
1053 [label="X[27] <= -0.123\nsquared_error = 1.314\nsamples = 30\nvalue = -1.89"] ;
1052 -> 1053 ;
1054 [label="X[19] <= -0.064\nsquared_error = 1.073\nsamples = 21\nvalue = -2.355"] ;
1053 -> 1054 ;
1055 [label="X[9] <= -0.091\nsquared_error = 0.316\nsamples = 5\nvalue = -3.439"] ;
1054 -> 1055 ;
1056 [label="squared_error = 0.0\nsamples = 1\nvalue = -4.533"] ;
1055 -> 1056 ;
1057 [label="X[2] <= 0.026\nsquared_error = 0.022\nsamples = 4\nvalue = -3.166"] ;
1055 -> 1057 ;
1058 [label="squared_error = 0.0\nsamples = 1\nvalue = -3.406"] ;
1057 -> 1058 ;
1059 [label="X[35] <= 0.1\nsquared_error = 0.003\nsamples = 3\nvalue = -3.086"] ;
1057 -> 1059 ;
1060 [label="X[3] <= -0.208\nsquared_error = 0.001\nsamples = 2\nvalue = -3.05"] ;
1059 -> 1060 ;
1061 [label="squared_error = 0.0\nsamples = 1\nvalue = -3.024"] ;
1060 -> 1061 ;
1062 [label="squared_error = 0.0\nsamples = 1\nvalue = -3.076"] ;
1060 -> 1062 ;
1063 [label="squared_error = -0.0\nsamples = 1\nvalue = -3.158"] ;
1059 -> 1063 ;
1064 [label="X[39] <= 0.056\nsquared_error = 0.827\nsamples = 16\nvalue = -2.016"] ;
1054 -> 1064 ;
1065 [label="X[14] <= 0.01\nsquared_error = 0.392\nsamples = 13\nvalue = -2.299"] ;
1064 -> 1065 ;
1066 [label="X[26] <= -0.236\nsquared_error = 0.175\nsamples = 10\nvalue = -2.031"] ;
1065 -> 1066 ;
1067 [label="X[19] <= -0.016\nsquared_error = 0.078\nsamples = 7\nvalue = -2.254"] ;
1066 -> 1067 ;
1068 [label="X[48] <= 0.051\nsquared_error = 0.002\nsamples = 3\nvalue = -2.559"] ;
1067 -> 1068 ;
1069 [label="X[20] <= -0.167\nsquared_error = 0.001\nsamples = 2\nvalue = -2.527"] ;
1068 -> 1069 ;
1070 [label="squared_error = 0.0\nsamples = 1\nvalue = -2.55"] ;
1069 -> 1070 ;
1071 [label="squared_error = 0.0\nsamples = 1\nvalue = -2.503"] ;
1069 -> 1071 ;
1072 [label="squared_error = 0.0\nsamples = 1\nvalue = -2.624"] ;
1068 -> 1072 ;
1073 [label="X[44] <= 0.152\nsquared_error = 0.013\nsamples = 4\nvalue = -2.025"] ;
1067 -> 1073 ;
1074 [label="X[0] <= -0.131\nsquared_error = 0.003\nsamples = 3\nvalue = -2.084"] ;
1073 -> 1074 ;
1075 [label="X[34] <= -0.432\nsquared_error = 0.001\nsamples = 2\nvalue = -2.049"] ;
1074 -> 1075 ;
1076 [label="squared_error = 0.0\nsamples = 1\nvalue = -2.024"] ;
1075 -> 1076 ;
1077 [label="squared_error = -0.0\nsamples = 1\nvalue = -2.074"] ;
1075 -> 1077 ;
1078 [label="squared_error = -0.0\nsamples = 1\nvalue = -2.155"] ;
1074 -> 1078 ;
1079 [label="squared_error = 0.0\nsamples = 1\nvalue = -1.846"] ;
1073 -> 1079 ;
1080 [label="X[13] <= 0.38\nsquared_error = 0.013\nsamples = 3\nvalue = -1.51"] ;
1066 -> 1080 ;
1081 [label="squared_error = 0.0\nsamples = 1\nvalue = -1.666"] ;
1080 -> 1081 ;
1082 [label="X[2] <= 0.162\nsquared_error = 0.001\nsamples = 2\nvalue = -1.432"] ;
1080 -> 1082 ;
1083 [label="squared_error = 0.0\nsamples = 1\nvalue = -1.455"] ;
1082 -> 1083 ;
1084 [label="squared_error = 0.0\nsamples = 1\nvalue = -1.409"] ;
1082 -> 1084 ;
1085 [label="X[6] <= 0.052\nsquared_error = 0.08\nsamples = 3\nvalue = -3.192"] ;
1065 -> 1085 ;
1086 [label="X[39] <= -0.072\nsquared_error = 0.014\nsamples = 2\nvalue = -3.381"] ;
1085 -> 1086 ;
1087 [label="squared_error = 0.0\nsamples = 1\nvalue = -3.498"] ;
1086 -> 1087 ;
1088 [label="squared_error = -0.0\nsamples = 1\nvalue = -3.264"] ;
1086 -> 1088 ;
1089 [label="squared_error = -0.0\nsamples = 1\nvalue = -2.815"] ;
1085 -> 1089 ;
1090 [label="X[40] <= 0.053\nsquared_error = 0.862\nsamples = 3\nvalue = -0.791"] ;
1064 -> 1090 ;
1091 [label="X[28] <= -0.163\nsquared_error = 0.017\nsamples = 2\nvalue = -0.139"] ;
1090 -> 1091 ;
1092 [label="squared_error = 0.0\nsamples = 1\nvalue = -0.008"] ;
1091 -> 1092 ;
1093 [label="squared_error = 0.0\nsamples = 1\nvalue = -0.269"] ;
1091 -> 1093 ;
1094 [label="squared_error = 0.0\nsamples = 1\nvalue = -2.096"] ;
1090 -> 1094 ;
1095 [label="X[14] <= 0.046\nsquared_error = 0.197\nsamples = 9\nvalue = -0.806"] ;
1053 -> 1095 ;
1096 [label="X[25] <= -0.108\nsquared_error = 0.039\nsamples = 8\nvalue = -0.948"] ;
1095 -> 1096 ;
1097 [label="X[11] <= -0.17\nsquared_error = 0.007\nsamples = 5\nvalue = -1.079"] ;
1096 -> 1097 ;
1098 [label="X[44] <= 0.182\nsquared_error = 0.003\nsamples = 3\nvalue = -1.142"] ;
1097 -> 1098 ;
1099 [label="squared_error = 0.0\nsamples = 1\nvalue = -1.209"] ;
1098 -> 1099 ;
1100 [label="X[10] <= 0.356\nsquared_error = 0.001\nsamples = 2\nvalue = -1.108"] ;
1098 -> 1100 ;
1101 [label="squared_error = 0.0\nsamples = 1\nvalue = -1.131"] ;
1100 -> 1101 ;
1102 [label="squared_error = 0.0\nsamples = 1\nvalue = -1.085"] ;
1100 -> 1102 ;
1103 [label="X[42] <= -0.462\nsquared_error = 0.0\nsamples = 2\nvalue = -0.986"] ;
1097 -> 1103 ;
1104 [label="squared_error = 0.0\nsamples = 1\nvalue = -0.978"] ;
1103 -> 1104 ;
1105 [label="squared_error = -0.0\nsamples = 1\nvalue = -0.993"] ;
1103 -> 1105 ;
1106 [label="X[26] <= -0.325\nsquared_error = 0.016\nsamples = 3\nvalue = -0.729"] ;
1096 -> 1106 ;
1107 [label="squared_error = 0.0\nsamples = 1\nvalue = -0.552"] ;
1106 -> 1107 ;
1108 [label="X[47] <= -0.311\nsquared_error = 0.0\nsamples = 2\nvalue = -0.818"] ;
1106 -> 1108 ;
1109 [label="squared_error = 0.0\nsamples = 1\nvalue = -0.799"] ;
1108 -> 1109 ;
1110 [label="squared_error = 0.0\nsamples = 1\nvalue = -0.837"] ;
1108 -> 1110 ;
1111 [label="squared_error = 0.0\nsamples = 1\nvalue = 0.332"] ;
1095 -> 1111 ;
1112 [label="X[26] <= -0.175\nsquared_error = 1.149\nsamples = 3\nvalue = -4.382"] ;
1052 -> 1112 ;
1113 [label="squared_error = 0.0\nsamples = 1\nvalue = -5.707"] ;
1112 -> 1113 ;
1114 [label="X[28] <= -0.134\nsquared_error = 0.407\nsamples = 2\nvalue = -3.719"] ;
1112 -> 1114 ;
1115 [label="squared_error = 0.0\nsamples = 1\nvalue = -3.081"] ;
1114 -> 1115 ;
1116 [label="squared_error = -0.0\nsamples = 1\nvalue = -4.358"] ;
1114 -> 1116 ;
1117 [label="X[26] <= -0.385\nsquared_error = 1.241\nsamples = 15\nvalue = -3.348"] ;
1051 -> 1117 ;
1118 [label="X[40] <= 0.004\nsquared_error = 0.445\nsamples = 3\nvalue = -1.59"] ;
1117 -> 1118 ;
1119 [label="X[32] <= -0.011\nsquared_error = 0.075\nsamples = 2\nvalue = -2.034"] ;
1118 -> 1119 ;
1120 [label="squared_error = 0.0\nsamples = 1\nvalue = -1.76"] ;
1119 -> 1120 ;
1121 [label="squared_error = -0.0\nsamples = 1\nvalue = -2.309"] ;
1119 -> 1121 ;
1122 [label="squared_error = 0.0\nsamples = 1\nvalue = -0.701"] ;
1118 -> 1122 ;
1123 [label="X[30] <= 0.001\nsquared_error = 0.474\nsamples = 12\nvalue = -3.787"] ;
1117 -> 1123 ;
1124 [label="X[2] <= 0.188\nsquared_error = 0.101\nsamples = 5\nvalue = -3.139"] ;
1123 -> 1124 ;
1125 [label="X[17] <= -0.266\nsquared_error = 0.005\nsamples = 2\nvalue = -3.495"] ;
1124 -> 1125 ;
1126 [label="squared_error = 0.0\nsamples = 1\nvalue = -3.421"] ;
1125 -> 1126 ;
1127 [label="squared_error = -0.0\nsamples = 1\nvalue = -3.569"] ;
1125 -> 1127 ;
1128 [label="X[33] <= -0.323\nsquared_error = 0.025\nsamples = 3\nvalue = -2.902"] ;
1124 -> 1128 ;
1129 [label="squared_error = 0.0\nsamples = 1\nvalue = -3.106"] ;
1128 -> 1129 ;
1130 [label="X[28] <= -0.277\nsquared_error = 0.006\nsamples = 2\nvalue = -2.8"] ;
1128 -> 1130 ;
1131 [label="squared_error = 0.0\nsamples = 1\nvalue = -2.725"] ;
1130 -> 1131 ;
1132 [label="squared_error = 0.0\nsamples = 1\nvalue = -2.876"] ;
1130 -> 1132 ;
1133 [label="X[43] <= -0.111\nsquared_error = 0.226\nsamples = 7\nvalue = -4.25"] ;
1123 -> 1133 ;
1134 [label="X[40] <= -0.204\nsquared_error = 0.042\nsamples = 4\nvalue = -3.903"] ;
1133 -> 1134 ;
1135 [label="squared_error = 0.0\nsamples = 1\nvalue = -4.228"] ;
1134 -> 1135 ;
1136 [label="X[15] <= -0.075\nsquared_error = 0.009\nsamples = 3\nvalue = -3.795"] ;
1134 -> 1136 ;
1137 [label="squared_error = 0.0\nsamples = 1\nvalue = -3.662"] ;
1136 -> 1137 ;
1138 [label="X[33] <= 0.051\nsquared_error = 0.0\nsamples = 2\nvalue = -3.862"] ;
1136 -> 1138 ;
1139 [label="squared_error = 0.0\nsamples = 1\nvalue = -3.858"] ;
1138 -> 1139 ;
1140 [label="squared_error = 0.0\nsamples = 1\nvalue = -3.866"] ;
1138 -> 1140 ;
1141 [label="X[1] <= 0.004\nsquared_error = 0.098\nsamples = 3\nvalue = -4.713"] ;
1133 -> 1141 ;
1142 [label="X[47] <= -0.297\nsquared_error = 0.013\nsamples = 2\nvalue = -4.502"] ;
1141 -> 1142 ;
1143 [label="squared_error = 0.0\nsamples = 1\nvalue = -4.618"] ;
1142 -> 1143 ;
1144 [label="squared_error = -0.0\nsamples = 1\nvalue = -4.387"] ;
1142 -> 1144 ;
