TTGT 0.100921 0.471097 -0.205005 -0.044713 0.015598 0.218023 -0.580892 -0.481259 0.041882 0.912500 -0.827962 0.482559 0.412382 0.120982 -0.342841 0.256844 -0.893669 -0.218695 0.131437 0.524064 -0.564947 -0.992177 0.185660 -0.420599 0.007323 -0.024746 -0.051838 -0.430233 -0.209628 -0.259291 -0.382883 0.080454 0.101943 0.382938 0.275338 0.059331 -0.178557 -0.575493 -0.201383 -0.706658 0.462862 -0.520197 0.336848 -0.613176 -0.525298 -0.996167 0.546622 0.396048 -0.155689 0.484076
AAAAAA 0.424871 0.958839 0.653118 -0.047660 -0.326998 -1.048054 0.000429 0.838918 -0.022982 0.562125 0.103104 0.543864 0.306086 0.205820 -0.284914 -0.122930 -0.070449 0.258415 0.553837 -0.213066 -0.537292 -0.839934 0.432121 -0.495304 0.481908 -0.207781 -0.788994 -0.860234 0.317802 -0.223903 -0.204420 0.385562 -0.195920 0.223028 0.504832 -0.697187 -0.317466 -0.487403 0.754345 0.291027 0.715357 -0.290263 0.543978 -0.005638 -0.487987 0.475627 0.149564 0.294186 -0.620883 -0.239986
TTTTTT -0.424904 0.605275 -1.053230 0.211957 -0.572646 -0.276637 -0.901054 0.236716 0.456792 1.170729 -0.701169 0.275774 -0.413575 0.215040 -0.362053 0.180718 -0.670380 -0.198804 0.313780 0.794218 -0.957726 -1.147551 -0.513548 -0.361517 0.049155 0.478941 0.312163 -0.687797 -0.397967 0.571688 -0.069030 0.094068 -0.232280 0.812606 0.565890 -0.163351 -0.595930 -0.829975 0.186581 -0.482062 0.938331 -0.735305 0.519155 -0.719007 -0.566532 -1.035640 0.333550 0.144273 0.716545 -0.111434
TATATA 0.462677 -0.167060 0.098029 0.542336 -0.384425 -0.323112 0.117999 -0.340532 -0.751198 0.003091 0.556077 0.553921 0.274065 -0.158677 -0.693649 0.836812 -0.790213 1.224530 0.095705 0.161635 -0.339555 -1.312894 0.039629 0.108554 -0.411427 0.659504 0.344388 -0.129831 0.237657 -0.222452 -0.846598 0.468642 -0.736110 0.610763 -0.443427 -0.114264 -0.582129 -0.454566 1.143822 0.248312 1.728601 -1.248941 0.243955 -0.238345 0.022736 -0.331962 0.886464 0.921806 -0.739871 0.588905
AATAAA 0.296445 1.373552 0.334487 -0.771312 -0.260644 -1.323776 0.591812 0.445827 -0.192020 0.594328 0.416107 0.050821 0.352200 -0.360122 -0.462540 0.518329 0.319677 0.791886 0.891160 -0.791799 -1.083477 -0.733245 0.299267 -0.244134 0.388987 -0.309820 -0.698820 -0.323021 0.028561 -0.088585 0.197718 0.674975 0.285325 1.242012 0.088246 -0.503344 -0.450297 -0.680541 1.114835 0.115067 1.184149 -0.410559 0.889885 0.155533 -0.768706 0.295093 0.052348 0.106519 -1.387191 0.655848
TTTTTTT -0.246704 0.378627 -1.151386 0.228273 -0.565404 -0.254828 -1.003193 0.150552 0.473405 1.184474 -0.777713 0.120137 -0.469397 0.081896 -0.426629 -0.019508 -0.821729 -0.184657 0.287563 0.884917 -1.127832 -1.413466 -0.508986 -0.554259 0.273055 0.437062 0.195851 -0.673513 -0.466457 0.457158 -0.107976 0.005326 -0.540250 0.938491 0.478169 -0.097541 -0.492901 -0.966541 0.262234 -0.658073 0.752683 -0.713952 0.456102 -0.669489 -0.614083 -1.065575 0.288802 0.058213 0.571491 -0.065326
ATTTTT 0.008856 0.358707 -1.016446 0.665379 -0.451136 -0.605932 -0.088329 -0.507027 0.361703 1.329824 -0.548385 -0.168857 -0.557586 -0.272151 0.007879 -0.442540 -0.854414 -0.047925 -0.552237 0.694666 -1.182032 -1.922622 -0.655774 -0.824563 0.418308 -0.426894 -0.422770 -0.313680 -0.249730 0.450570 -0.165715 0.026943 -0.985421 0.678537 -0.246701 -0.063707 -0.517431 -0.528604 0.527465 -1.079224 0.471704 -0.572141 0.498587 -0.301649 -0.737650 -0.493678 -0.068188 0.237945 -0.069605 -0.447939
TTTATT -0.041053 0.472400 -0.777959 0.132606 -0.738439 0.309903 -0.765998 0.430278 -0.053472 1.045861 -0.568627 0.085824 -0.241776 0.407219 -0.370152 0.310235 -0.813395 -0.335509 0.195192 0.703115 -0.868002 -1.196327 -0.202320 -0.253204 -0.155994 0.951634 0.366107 -0.560119 -0.447555 0.485355 0.044408 -0.053230 -0.268445 0.976331 0.292633 -0.084380 -0.644530 -1.379094 0.322925 -0.703225 1.252669 -0.631282 -0.113168 -0.347020 -0.172999 -1.242845 0.390929 0.396928 0.724283 -0.419480
TAAAAA 0.219985 1.161794 0.392360 -0.639295 -0.238349 -0.939722 -0.002993 0.396558 -0.075555 0.498116 0.064758 0.226437 0.135596 -0.292237 -0.122827 0.512990 0.090511 0.536949 0.908094 -0.453011 -0.824109 -0.363812 -0.073677 -0.601548 0.629517 -0.284739 -0.622132 -0.444048 0.436863 0.168639 0.378292 0.249425 0.503128 1.370752 -0.086683 -0.425563 -0.362847 -0.374660 0.903606 0.388204 1.143202 -0.540840 0.795972 -0.300868 -0.433482 0.096223 -0.061541 0.075499 -1.165293 0.723836
TTTTTAT 0.136289 0.161644 -1.096500 0.595246 -0.770413 -0.658802 -0.653123 0.455254 0.341034 0.953674 -0.195935 0.364098 -0.237912 -0.078752 -0.641803 0.451742 -1.207664 -0.193334 0.104216 0.843022 -0.963062 -1.368119 -0.688956 -0.038212 0.507210 0.697762 0.423868 -0.423115 -0.444120 0.780047 0.075351 -0.234004 -0.772844 0.980579 0.223458 -0.293135 -0.143226 -1.416705 0.130083 -0.697938 1.105189 -0.676288 0.252115 -0.764081 -0.236166 -1.032528 0.452174 0.585052 0.976895 0.087158
TTTTTTTT -0.380567 0.356279 -1.176725 0.173157 -0.544485 -0.346062 -0.969650 -0.007836 0.397711 1.274658 -0.803743 0.003024 -0.613415 0.107665 -0.350217 0.011121 -0.677161 -0.219544 0.280022 0.923130 -1.259190 -1.320031 -0.659641 -0.507682 0.163434 0.540100 0.287512 -0.640430 -0.357765 0.560870 0.063315 0.015986 -0.634106 0.837963 0.495597 -0.261399 -0.585372 -0.896778 0.135772 -0.665142 0.731533 -0.631393 0.357605 -0.664329 -0.558985 -0.999358 0.231489 0.000556 0.724130 -0.275055
TTCTTT -0.316176 0.694871 -1.078691 0.509515 -0.043201 0.264356 -1.153017 -0.351078 -0.744678 0.649255 -0.629038 -0.134774 -0.406269 -0.229531 -0.062116 -0.417082 -0.395459 0.088934 -0.104543 1.221006 -0.638321 -1.060414 -0.929585 -0.629427 -0.247701 0.332931 0.391721 -0.995778 -0.203685 0.183868 -0.490238 -0.208111 0.200889 0.638813 0.178471 -0.854224 -1.229276 -0.382689 0.124750 -1.394434 0.228706 -0.103895 -0.233437 -0.694114 -0.881696 -0.412559 0.530850 -0.235954 0.224388 0.259268
TTATTT 0.136042 1.063822 -0.708446 0.444825 -0.586728 0.913442 -0.375619 0.451901 -0.223966 0.545177 -0.655951 0.060340 0.229213 0.083700 -0.185022 0.571275 -0.930971 -0.164673 -0.160340 0.758611 0.064344 -0.894464 -0.174243 -0.253486 0.085332 1.192789 0.413170 -0.645819 0.699558 0.352702 -0.865767 -0.855143 -0.478295 0.840061 -0.264600 0.137230 -0.971052 -0.906054 0.394348 -0.691218 0.901138 -0.090870 0.136352 -0.168341 -0.421766 -1.315874 0.564732 -0.190162 -0.384059 -0.384002
CTTTTT 0.116953 -0.068923 -1.468965 -0.647004 0.133340 0.299229 -1.291286 0.564952 0.347984 0.740265 -0.982224 0.723980 -0.523615 0.444664 -0.334129 -0.606090 -1.079394 0.204136 0.814918 0.729771 -1.338020 -1.256068 -0.593436 -0.788381 0.403643 0.851765 0.579322 -0.105945 -0.092873 -0.166354 -0.402174 -0.000654 -0.602517 0.994108 0.508199 -0.140254 0.093297 -0.992775 0.506484 -0.403973 -0.071989 -0.377736 -0.599272 0.039301 -0.148668 -0.508752 0.431354 -0.310311 0.204620 -0.082357
TTTCTT -0.301009 0.907922 -0.557663 0.424443 -0.634709 0.017493 -0.956150 -0.102305 -0.043631 0.623317 -0.724781 -0.057521 -0.305856 0.493637 -0.055483 -0.032554 -0.424123 -0.512821 -0.408926 0.687650 -0.841536 -1.070907 -0.746949 -0.472678 -0.048956 -0.194580 0.414074 -0.687660 -0.539105 0.646728 -0.617199 -0.196645 -0.371123 0.899158 0.804852 -0.063739 -0.799162 0.048473 0.015890 -0.584646 0.954887 -0.087535 0.401402 -0.251077 -0.349147 -1.480322 0.002119 -0.360668 0.403480 0.222955
AAGAAA -0.080828 0.707337 1.038996 -0.341888 -0.542512 -0.964456 -0.559224 0.563231 -0.185925 0.702984 0.152262 0.357550 0.252191 -0.230047 -0.057884 -0.437911 -0.107965 0.044993 1.012528 0.058041 -0.746228 -0.506027 0.811525 -0.687576 0.610946 0.128898 -0.932763 -0.553073 0.980651 0.003980 0.091686 0.442470 -0.161135 0.627827 0.143769 -1.051984 -0.740262 -1.058219 -0.160135 0.461264 0.834265 -0.214752 1.208702 0.532873 0.285476 1.075165 0.013248 0.367230 -1.231582 -0.080462
GAAAAA 0.840196 0.937437 0.486254 -0.194277 -0.670712 -1.051302 0.282755 0.450237 0.405056 0.163377 0.140279 0.882070 0.384462 -0.037572 0.503077 -0.545731 1.052744 0.157271 1.020200 0.068357 -0.241164 -0.738640 0.375383 -1.002294 0.163652 -0.349638 -1.658539 -0.706834 0.013434 -0.386266 -0.361613 0.208804 -0.277104 -0.078461 0.655200 -0.980943 0.060491 -1.054277 0.676152 0.692529 0.900951 0.670057 0.613736 -0.091099 -0.326060 -0.017126 0.559841 -0.092737 0.008591 0.438384
TCTTTT -0.461331 0.467991 -1.512645 0.023480 -0.003845 -0.479149 -0.673677 0.444026 0.042146 0.567144 0.074029 -0.366850 -0.524724 0.208110 0.461605 0.403996 -0.769187 -0.310586 0.319610 2.115199 -0.191117 -0.527108 0.116647 -0.272153 -0.230170 0.671430 -0.316045 -0.744263 -0.475757 0.084871 0.031452 0.041513 -0.556882 1.117929 0.507071 1.017537 -1.086907 -0.764418 -0.399798 -0.898214 0.605762 0.154961 0.065373 -0.717999 -0.261546 -0.704007 0.361668 0.244763 -0.318169 0.087881
TTCAAA -0.722902 0.759974 -1.010809 -0.851336 0.205254 -0.370094 -0.259364 0.492334 -0.023627 0.620150 0.217050 -0.269964 0.614342 0.141580 0.177370 -1.338210 -1.447577 -0.136872 -0.470624 0.125728 -1.171240 0.171941 0.644127 -0.459886 0.053800 0.469176 0.545073 -1.071160 0.069213 -0.477568 -0.488937 0.366674 -0.573685 1.715058 0.673617 -1.210780 -0.666520 -0.139038 -0.093046 -0.436770 0.500361 0.188875 0.817248 -0.259981 -1.525074 1.227256 1.008090 0.227000 -0.268819 0.427598
TATTTT 0.525536 0.350014 -0.723956 0.336552 -0.746446 -0.100424 -1.165938 0.345304 -0.220860 0.143665 -0.154077 -0.490978 -0.431144 -0.436609 -0.304717 0.316012 -0.753387 -0.215248 -0.374963 0.598020 -0.132059 -1.320557 -0.353545 -0.389000 0.920712 0.547288 0.303129 -0.613729 -0.150212 0.550276 -0.850264 -1.032210 -0.478258 1.198056 0.392225 -0.216834 -0.729885 0.425621 0.600011 0.150980 0.731384 -0.098012 0.277791 -1.390713 -0.220391 -0.568256 0.787655 -0.070868 -0.010322 0.747402
CATTTT -1.713930 0.459603 -1.123192 -0.118103 -0.985256 -0.246687 -0.406531 0.450408 0.103871 0.488568 -0.552942 0.998034 0.839445 0.623749 0.256500 -0.591894 0.477856 -0.179427 0.178847 0.752881 -0.367144 -0.848373 -0.665912 -0.143495 -0.546128 0.437878 0.707384 -1.168009 -0.447904 1.156464 -0.079533 -0.536088 0.374122 0.810145 0.339654 -0.193925 -1.173723 -0.500637 0.415635 -0.084690 0.789667 -1.060750 0.486216 -0.464151 -0.250352 -1.388690 -0.172749 0.733235 0.346465 -0.340055
GTTTTT 0.069332 -0.180739 -0.212553 0.403240 -0.732263 0.383626 -1.264016 -1.071531 -0.364271 0.814342 -0.977370 -0.152977 -0.075089 -0.181636 -0.894956 0.112266 -0.435316 -0.817986 0.436695 0.363942 -1.140945 -1.187850 0.010951 -0.625420 0.287181 0.239637 -0.127365 -0.693682 0.058818 -0.091142 0.432030 -0.466319 -0.430480 0.575273 0.685127 -0.176751 -0.008858 -1.197215 0.287340 -0.964361 0.536199 0.048575 -0.309089 -0.479827 -0.843752 -1.218102 0.702286 -0.090601 0.528057 0.188081
AATTTT 0.167620 1.545436 -0.628103 0.322521 -0.457616 -0.560886 -1.038285 0.264246 0.189652 0.862655 -0.156203 -0.139825 0.536508 0.591857 0.195629 0.352442 -0.132354 0.354434 0.114625 0.198969 -0.908596 -0.931382 -0.046633 -0.282043 -0.345798 0.168386 -0.244587 -0.558639 -0.775450 0.963240 -0.564817 0.584226 -0.178969 0.577773 1.141478 -0.744640 -0.363655 -0.977475 0.545590 -0.187069 1.494785 -0.376677 0.397960 0.063911 -0.545838 -0.251778 -0.292713 -0.583242 1.084939 0.693521
TGAAAA 1.033410 0.909665 1.009282 0.533408 -0.161352 -1.330416 -0.261542 1.359801 -0.167396 1.367163 -0.355227 0.459762 0.258938 1.731490 0.012938 -0.169516 -0.029520 0.311930 0.679159 -0.733321 0.105597 -1.205692 0.364979 0.074162 1.071763 -0.286708 -0.876970 -0.770103 0.286452 0.105132 -0.553643 0.306197 -0.671636 -0.001817 0.666648 -0.358203 -1.064023 0.547687 0.599882 -0.647745 -0.362068 -1.339093 -0.056161 0.223364 0.015412 0.831777 -0.275904 0.120806 -0.393992 -0.477606
TTGAAA 1.157952 0.779056 -0.715164 -0.545749 -0.781202 -0.392864 0.098172 -0.007171 0.155838 1.177624 -0.197160 0.785342 0.278211 -0.084741 0.480704 -0.213115 0.864540 -0.937062 1.424118 0.818327 -0.453481 -1.149155 0.887405 -0.876843 -0.222369 -0.406400 -1.564496 -0.892856 -0.013665 0.337981 -0.534015 -0.673090 -0.295249 -0.223373 0.599641 -0.684136 -0.080262 -0.483094 0.335267 0.638108 0.739198 1.300537 0.867581 -0.044630 -0.522863 -0.735925 0.664361 0.003898 -0.022944 1.152316
ATATTT -0.084688 0.219704 -0.168650 0.304899 -0.801891 -0.213440 -0.081668 -0.347868 -0.105438 0.214932 -0.356537 0.414647 -0.196564 -0.029087 0.152718 0.458008 -0.913084 0.108286 0.489895 -0.050679 -0.698390 -1.624476 -0.290926 0.658811 -1.028671 0.516476 0.397323 -0.518483 -0.717979 0.247216 -0.654073 0.975790 -0.942767 0.871376 -0.024249 0.088364 -0.546018 -0.571884 0.675529 0.229178 1.366042 -1.365573 0.424656 0.453812 0.243658 -0.744416 0.806635 0.564192 0.290606 0.318162
AGAAAA 0.202905 1.320879 0.728999 0.554387 0.222369 -0.379690 -0.953425 0.315560 -0.350039 0.366719 0.440873 0.593995 0.249108 -0.180552 -0.161541 0.037964 0.155520 0.839788 0.453687 -0.396461 -0.638092 -0.877282 1.162997 -0.030894 -0.842790 -0.142619 -0.477368 -0.129482 0.498602 0.097095 0.357832 0.178178 -0.388279 0.442565 0.959983 -0.740905 -0.421147 -0.511010 0.398824 0.695260 1.245677 0.780964 0.896558 -0.223361 0.062504 0.563616 -0.810937 0.530012 -0.634580 -0.989029
TTTTATA 0.025184 -0.370095 -0.621724 0.585926 -0.906247 -1.187274 -0.329105 0.536509 0.236496 0.671284 0.021339 0.394874 0.225795 -0.401098 -0.682667 0.525277 -0.788936 0.305269 -0.772701 0.726476 -1.079612 -1.966445 -0.294264 -0.377709 0.762476 0.528362 0.310128 -0.394795 0.074608 0.646471 -0.035635 0.069130 -0.512486 0.840564 0.469203 0.008510 0.191903 -0.976493 0.395148 0.058868 1.199836 -0.917887 -0.453735 -0.974388 -0.223718 -0.342060 0.521158 0.493803 0.466892 0.837841
TAAATA -0.049070 0.631398 0.305860 -0.638165 -0.376723 -0.421583 0.425232 -0.237087 -0.642001 0.043354 0.324310 0.020092 -0.107497 -0.619894 -0.395786 0.767725 -0.010260 0.813068 0.872873 -0.449177 -0.835779 -0.999343 -0.027497 -0.218750 -0.160407 0.292760 -0.136336 0.163056 0.660412 -0.002695 -0.150443 0.864005 0.326049 1.235343 -0.216429 0.160669 -0.390324 0.014929 1.284322 0.429372 1.608719 -1.007876 0.792184 -0.269206 -0.352757 -0.176861 0.346739 0.220976 -1.493253 0.794619
TTTCAT -0.117245 0.753693 0.084871 0.895082 -1.381096 0.047635 -0.701987 -1.049045 -0.053022 0.035618 -0.343413 0.140117 -0.591869 1.287412 -0.435623 -0.528334 -1.021330 -0.665368 0.148719 0.132580 -0.582909 -1.145558 -0.750456 -0.045764 -0.706343 -1.095732 0.038988 -0.240720 -0.093874 0.887949 -0.723484 0.334534 -0.408125 0.773540 0.692065 -0.180728 0.916860 -0.001952 0.822085 -1.256755 1.362699 -1.170734 0.346502 -0.247711 -0.530979 -1.191541 -0.169609 -0.439735 -0.647388 -0.222359
TTCAAT -0.758605 0.797490 -1.106685 -0.568188 0.846152 -0.436027 0.699914 -0.044884 -0.862738 0.071621 -0.688488 -0.445225 -0.506845 0.633807 0.799966 -0.944649 -1.036282 0.267523 -0.563683 -0.103861 -0.832330 -1.251728 0.511984 -0.063601 -0.241453 0.176640 0.277222 -1.289919 -0.617544 -0.778233 -0.835706 -0.294020 -0.017107 1.678387 -0.797422 0.223797 -1.047122 -0.057175 0.710050 -0.790216 -0.262624 0.258412 0.964313 0.386371 -1.050617 0.158717 0.672580 0.233633 0.086376 1.143057
GCATTT -1.162035 -0.488138 -0.157448 0.077149 -1.315732 -0.547770 -0.495826 0.279102 -0.189585 0.488917 0.163889 1.013008 0.944720 0.655135 0.505741 -0.841772 0.334037 0.199438 0.244827 0.638118 -0.505931 -1.006602 -1.146288 0.037554 -0.158812 0.585435 0.191553 -0.504885 -0.942206 1.007106 0.127998 -0.920230 0.494556 0.278523 0.771499 -0.030044 -1.440599 -0.680027 0.762930 -0.850582 0.589695 -0.981647 0.681592 -0.425037 0.396773 -1.278208 -0.829572 0.654317 0.288549 -0.567639
TCATTT 0.235301 0.499214 -0.908612 0.680354 -0.663952 -0.369131 -0.277070 -1.120163 1.003708 0.754283 -0.123059 0.073601 -0.613553 0.766704 -0.144158 -0.669461 -1.323635 -0.487389 -0.321122 0.798940 -0.434744 -1.431673 -1.080741 -0.370341 0.053024 -1.151532 -0.424301 0.098332 0.253029 0.843757 -0.268934 0.202098 -0.351161 0.923509 -0.023682 -0.015023 0.627777 0.039149 0.355669 -1.714714 0.636857 -0.715877 0.261792 -0.404361 -0.622453 -0.264110 -0.489005 -0.178953 -1.312797 -0.211463
CAAAAA -0.437342 0.394941 -0.166719 -0.720899 0.216048 -0.456163 -0.385501 0.239399 0.111804 0.047352 0.297220 -0.056345 0.530481 0.090036 0.089983 -0.900838 -0.404874 0.396583 -0.204447 -0.694928 -0.955050 0.641439 0.765629 -0.304317 0.537796 0.234518 0.122886 -0.985638 -0.010671 -0.011962 -0.148439 0.363927 -0.558523 1.140628 0.815061 -1.464604 -0.459636 -0.950116 0.398069 0.326709 0.393255 -0.014125 0.680054 0.391757 -1.202769 0.999409 0.341725 0.553536 -0.376429 0.318762
ACTTTT -0.134225 0.879642 -0.166409 -0.517288 -0.480278 0.017000 0.364454 0.890737 0.599034 1.594918 -0.476815 0.510576 -1.037371 0.011509 -0.743327 0.379304 -0.487413 -0.513401 -0.140864 1.320930 -0.569545 -0.873802 -0.534654 -0.051001 -0.843086 0.856322 0.871535 -0.476704 -0.274960 0.848864 -0.530257 0.317002 1.006253 0.302580 0.275897 -0.228684 -0.501442 0.425914 0.215372 -0.015644 1.702717 -0.252499 0.586871 -0.301946 -1.681418 -0.671737 0.125979 0.059487 0.833060 -0.593701
ATAATA 0.122969 0.226424 0.431668 -0.146011 0.446863 -0.300548 1.021158 -0.758029 -0.767591 -0.064977 0.833119 -0.084931 -0.325230 -0.355582 -0.171101 0.223535 -0.062228 0.746752 0.479087 -0.558343 -0.334253 -1.711477 0.607791 -0.201540 -0.479766 0.205041 0.073891 0.148191 0.277779 -0.036021 -0.290126 0.761688 -0.593124 1.131521 -0.875815 -0.070130 -0.514374 -0.499183 1.450286 0.252309 1.125709 -1.388742 -0.020098 0.491673 0.325392 -0.208702 0.582331 0.492555 -1.098885 0.578764
AACTTT -0.162695 0.589508 -0.900100 -0.183356 0.867828 -0.047981 -1.411544 0.795727 -0.157957 0.414670 -0.740346 1.626963 -0.200272 0.352042 0.321393 -0.857719 -0.407717 0.388407 1.187564 0.392195 -0.678275 -0.833128 0.189823 -0.910882 0.432996 1.260695 0.915105 0.097091 0.469283 -0.709130 -0.008016 -0.825926 -0.469393 1.381710 0.889103 -0.559650 0.159439 -1.215952 0.546648 -0.086819 -0.246318 -1.017657 -0.480526 0.831577 -0.814709 0.537463 0.431150 0.268504 -0.607062 0.008798
TTTCAA -0.466671 1.267881 0.835502 0.871814 -0.722242 -0.864522 -1.410928 -0.213235 -0.217312 -0.419706 -0.149213 -0.190348 -0.430864 1.740801 -0.327250 0.089200 -0.392413 -1.463989 -0.478617 -0.021146 -0.785353 -1.148733 0.240883 0.189187 0.346583 -1.076331 0.341996 -0.353455 -0.260729 0.407954 -0.633705 -0.075478 0.161242 1.040875 0.963133 -0.527980 -0.629228 -0.271316 0.924498 -0.694679 0.906140 0.584744 0.622750 0.115065 -0.904063 -0.577975 -0.025897 0.035473 0.038983 0.204038
TAAAAT 0.251737 1.297354 -0.288103 -0.743943 -0.045580 -0.703674 -0.024675 0.256367 -0.338375 0.216289 0.306414 -0.573350 -0.130420 -0.033090 -0.188235 0.654076 0.096247 0.871364 0.683977 -0.387816 -0.940395 -0.677421 -0.344343 -0.189642 0.545779 -0.238508 -0.854974 -0.331809 0.022269 0.399731 -0.233209 0.284952 0.879041 1.259878 0.003537 -0.390395 -0.043272 -0.419537 0.831034 -0.291525 1.353532 -0.472687 0.865914 -0.046734 -0.548407 -0.143000 -0.464357 -0.517352 -0.804785 1.284659
TGCATT -1.251023 -0.482813 0.199176 -0.200156 -0.898925 0.209691 -0.500658 0.727519 -0.587057 0.356867 -0.097422 1.505167 1.368471 1.075918 0.172998 0.133291 0.283589 0.344854 0.146024 0.783137 0.099881 -1.587382 -1.031175 -0.149926 -0.616678 0.303178 -0.290004 -0.265932 -0.642749 0.912793 -0.286646 -1.263323 0.480245 -0.266247 0.302837 -0.097007 -1.373083 -0.987030 0.808744 -1.057665 -0.471725 -1.285204 0.980664 -0.700997 0.039259 -0.841685 -0.083682 0.279254 -0.720816 -0.520601
AATAAT 0.459678 1.114384 -0.237159 -0.209059 0.239840 -0.945611 0.050686 0.216227 -0.324951 0.439561 0.650012 -0.560433 0.186193 0.226040 -0.050265 0.360756 0.105574 1.086493 0.113102 -0.587341 -1.084648 -0.617679 0.661852 0.095678 -0.546763 -0.308267 -0.850684 -0.025571 -0.614318 0.584195 -0.110812 0.689011 0.373883 0.311465 0.129649 -0.491324 -0.029115 -1.412310 0.817460 -0.517899 1.346339 0.209757 0.450498 0.652997 -1.049059 0.199314 -0.585618 -0.284012 -0.295064 1.211522
TTCATT -1.164967 0.931019 -1.548184 -0.443420 -0.847123 -0.033237 -0.157799 0.261559 -0.726144 0.109156 -0.690111 0.057768 1.441619 0.953218 0.562077 -1.341161 -0.128169 -0.650839 -0.501798 0.973633 -0.574949 -0.955630 -0.103279 -0.613457 -0.427218 0.451724 0.369919 -0.992043 0.042339 0.468420 -0.434020 -0.580989 -0.522850 1.208748 -0.599789 -0.036324 -1.438135 -0.226303 0.090629 -0.831676 0.025830 -0.664517 -0.035890 -0.690250 -0.342385 -0.857187 0.301635 0.619830 -0.215262 -0.100423
CAATTT -0.510274 0.031731 -0.699031 0.776936 0.434201 -0.311685 0.493873 -0.665527 -0.166521 0.913289 -0.656216 -0.530755 -0.656065 -0.521479 0.416509 -0.721418 -0.682005 0.358861 -1.313687 -0.101617 -1.180677 -1.615881 -0.397842 -0.474701 0.985867 -0.639161 -0.335400 -0.741631 -1.215308 0.167756 -0.554351 -0.690427 -0.380582 1.264731 -0.477714 -0.022085 -0.983935 -0.307830 0.639342 -0.617145 -0.830941 0.433082 1.578909 0.635692 -1.131114 -0.122431 -0.053195 0.553182 -0.221308 0.186012
AATATT 0.626920 1.012251 -0.716655 0.345962 0.314562 -0.762067 0.122652 -0.304837 -0.013730 0.682785 0.306167 -0.529967 0.834143 0.218093 0.337864 0.065256 -0.107977 0.399192 -0.471149 0.443517 -0.847654 -1.555976 0.046239 -0.515635 0.016031 -0.501571 -1.355852 0.086448 -0.689053 1.065312 -0.371849 0.909804 -0.548753 0.509368 -0.107430 -0.487061 -0.178493 -1.253048 0.883066 -0.660686 1.103594 -0.378762 -0.007434 0.130265 -1.437353 0.739745 -0.658034 -0.100440 -0.307177 0.470007
ATTCAT -0.434330 0.127227 -0.496101 0.784319 -0.878201 0.138475 0.294849 -0.283890 -0.251849 -0.656074 -0.163911 0.328706 0.186234 1.449990 0.182608 -0.245650 -0.728695 -0.296009 0.222451 0.346899 0.350828 -0.991029 -0.580585 -0.368610 -0.460434 -0.545436 -1.017248 -0.003283 0.568932 1.023556 -0.886826 1.298585 -0.207078 0.615239 -0.931990 -0.082578 0.641851 -0.190289 0.941005 -1.244058 1.045336 -1.178544 -0.270964 -0.821510 -0.714912 -0.281805 -0.231278 0.359928 -1.561021 -0.880477
ATAAAA 0.268839 0.369624 0.697402 0.182038 0.464551 -0.493828 0.070436 -0.167828 -0.332787 0.017751 0.815513 0.492368 0.088435 -0.298788 -0.356537 -0.179076 -0.378242 0.666386 0.597158 -0.128822 0.057155 -1.461281 0.764792 -0.547563 -0.309068 -0.445075 -0.093304 -0.133131 0.005934 0.234374 -0.271807 1.146165 -0.879931 0.371690 0.246509 -1.141577 -0.415711 -0.859809 0.693937 0.206485 0.976562 -1.005430 -0.229162 0.510763 -0.003414 0.171325 0.633335 0.716006 -0.839776 0.298990
AAAGAA -0.397673 0.813209 1.093420 -0.084922 -0.011613 -1.341618 0.290071 1.347974 0.024848 0.991082 0.435223 0.121478 0.414489 -0.336593 -0.663881 -0.052818 -0.542193 0.494062 0.261723 -0.682907 -0.635262 -0.791204 0.735559 -0.471376 0.927784 -0.060072 -0.064886 -0.875541 0.380469 -0.114029 0.275363 0.674271 -0.432711 0.377992 0.706172 -0.746932 -0.719648 -0.582761 0.334569 -0.029087 0.339896 -0.431325 0.019484 0.458090 -0.415506 0.501643 0.199526 0.176823 -0.903938 -0.873502
GTATATA 0.684832 -0.239476 0.982244 0.782871 0.277877 -0.409650 -0.127832 -1.224068 -0.215066 0.345686 0.488550 0.766213 0.772743 0.346187 -0.209267 0.492682 -0.828804 1.216728 -0.223100 -0.446967 0.032558 -0.720730 -0.186555 0.260479 -0.768884 0.887466 0.924142 -0.095775 -0.277042 -0.600681 -0.456548 0.315562 -0.595311 0.530299 -0.078700 -0.025864 -0.635794 0.020237 0.724585 0.640627 1.722707 -0.752349 0.175717 -0.346814 0.371184 -0.742485 1.007775 0.829789 -0.310184 0.553047
TATTAT 0.970552 0.251991 -0.329404 0.630105 -0.403341 -0.446371 -0.744964 0.519633 -0.183675 -0.369468 0.278703 -0.336473 -0.176017 -0.539783 -0.793913 0.563685 -0.934121 -0.122725 -0.539308 0.484130 0.543042 -1.131207 -0.065598 -0.001587 1.200523 0.391791 -0.157722 -0.227610 -0.138994 0.731206 -1.024020 -1.435725 -0.411493 1.074273 -0.034862 -0.088901 0.050538 0.459290 0.747767 0.114412 1.212426 -0.352055 0.347302 -1.401361 -0.224181 -0.064857 1.022744 0.198297 -0.353422 0.991327
ATACAT -1.158998 0.374870 0.027513 0.733475 -0.671809 0.184928 1.096953 -0.955396 -0.207871 -0.010858 0.877702 -0.396033 -0.255663 -0.078209 -0.288547 1.047804 -0.429506 1.246334 -0.277367 0.564975 -0.264464 -1.101825 -0.675398 -0.432918 -0.946680 0.238849 -0.061323 -0.226815 0.284303 -0.128100 -1.121622 0.243228 -0.507866 -0.308918 -0.258557 -0.378534 -0.372366 -0.752572 0.825984 0.859893 1.215808 -1.177592 -0.094008 -0.245945 -0.742263 -0.245823 0.723658 0.852235 -1.130786 0.494538
TGTATAT 0.197984 -0.456849 0.590611 0.641570 0.752770 -0.222376 0.161395 -0.406590 -0.181489 0.444087 -0.132910 1.251767 0.464382 0.540125 -0.373800 0.967508 -0.354455 0.821612 -0.520803 -0.566827 0.847162 -0.211561 -0.553012 0.022367 -0.502427 0.157453 0.712196 -0.600677 -0.452982 -0.421423 -0.579460 -0.111238 -1.074919 0.822399 -0.164186 0.298108 -0.453177 -0.637155 -0.073423 0.375522 1.992236 -0.944160 1.024922 -0.965312 -0.138411 -1.152694 0.587480 0.945389 -0.085836 0.399289
TTATTA 0.489069 1.092948 -0.505391 0.505593 -0.185742 1.007211 0.193614 0.387170 -0.613379 0.161289 -0.630832 -0.110458 0.507193 -0.102389 -0.255444 0.750793 -0.835053 0.121603 -0.345122 0.556201 0.229517 -0.780622 0.200476 0.178147 0.750057 1.296084 -0.224019 -0.143530 1.005190 -0.064779 -0.899293 -1.104959 -0.418195 0.835624 -0.416279 -0.173983 -0.734010 -1.025213 0.407788 -0.374599 0.963764 -0.178264 -0.016003 0.101582 -0.105257 -1.175315 0.201720 -0.049234 -0.981163 -0.835958
TTGCAT -0.965868 -1.189137 -0.282840 -0.518877 -1.344146 0.776965 -1.038518 0.520563 -0.623716 0.842854 0.499191 0.826880 0.953840 0.243266 0.680710 0.470377 -0.298608 0.194430 0.580791 1.074145 0.028715 -1.869954 -0.229923 -0.566337 -0.814509 0.261138 -0.326567 -0.242393 -0.803866 0.424535 -0.278971 -1.120630 0.961535 -0.368374 1.053134 0.692768 -0.397405 -0.172353 0.958045 -0.892058 -0.128560 -1.261594 1.010198 -0.464984 -0.478043 -0.272350 0.168612 -0.319261 -0.957559 0.106890
AACAAA -0.140810 1.044526 0.798041 0.307523 0.614931 -0.622866 -0.261327 0.963286 -0.472201 -0.035510 0.781723 0.353486 0.721918 0.573816 0.301742 0.003355 0.036118 -0.100125 1.011492 -0.073485 -0.322365 -0.586350 0.918563 -1.181093 0.311577 -0.318905 -0.359252 -0.574149 -0.168412 -0.713664 0.352930 -0.041171 -0.312805 0.745796 0.288913 -0.683576 -0.401715 -0.432553 1.374802 1.164378 0.314428 0.173765 0.390640 0.264814 -0.347139 -0.160532 -0.199109 0.333830 -1.150221 0.117899
TTTGAA 1.280433 0.599499 -0.479002 0.269373 -0.548324 -0.248981 -1.031914 0.400255 0.823599 2.048289 -0.085985 0.405446 -0.174411 1.384005 0.787140 0.014765 0.165095 0.649787 0.658313 -0.126620 -0.309450 -1.086797 0.111775 -0.239106 0.726599 0.633259 -0.243494 -0.443744 0.136837 0.488596 -0.667296 0.257969 -0.799324 0.890072 1.533534 -0.351972 -1.128132 0.372703 -0.231985 -0.727889 -0.009230 -1.201909 0.061605 0.612432 0.149413 0.341622 0.153988 -0.282592 0.141774 0.384464
TTTTTC -0.820612 0.858325 -0.957956 0.282848 -0.480278 -0.354817 -0.650862 0.568657 0.700221 0.531708 -0.035526 0.222939 -0.557440 0.846027 -0.135896 0.052362 -0.550724 -0.501937 0.190353 1.085383 -0.194343 -0.377571 -0.238087 0.135535 -0.466978 0.314831 0.289470 -1.052752 -0.648395 0.742211 -0.289446 0.609755 0.345896 0.752900 0.799782 0.340536 -0.218533 -0.334442 -0.328382 -0.414390 0.909597 -0.615209 0.589508 -0.646571 -0.607862 -1.086599 0.044612 -0.080390 0.472110 -0.196140
AATGAA 0.889097 0.934340 0.676528 0.004783 0.014521 -1.310172 0.063678 0.741984 -0.605811 1.272863 0.024731 0.143991 -0.252571 1.434385 0.462291 -0.231111 1.066597 1.042825 0.614388 -1.361188 0.122696 -0.922986 0.651970 -0.422698 0.678181 0.046817 -0.703690 -0.810378 0.691872 0.168067 -0.730830 -0.265405 -0.389590 0.846706 0.441326 -1.171610 -1.058283 -0.359112 0.419122 -0.975654 0.194283 -0.581595 0.176987 0.901173 0.143541 0.146084 -0.602536 0.233769 -0.481531 1.128279
TTCTTC -0.588491 0.381601 -1.029090 0.451859 0.207412 0.132698 -1.026462 -0.369534 -1.097025 0.282953 -0.394929 -0.161867 -0.584444 -0.167271 -0.008305 -1.190674 -0.322681 -0.110843 -0.514373 0.990944 -0.552281 -0.493782 -0.853138 -0.705399 -0.565639 0.037690 0.507523 -0.901468 -0.261274 -0.048959 -0.190950 0.053606 0.233426 0.865203 -0.204240 -0.987225 -0.721898 0.048796 0.317961 -1.366031 -0.444822 0.132808 -0.361486 -1.047921 -1.016919 -0.077614 0.589421 -0.530851 0.111277 0.358212
TGCAAA -0.493176 -0.365710 1.471295 -0.534563 0.096989 -0.466389 -0.360377 1.607299 0.176876 0.627765 0.289576 0.818343 0.362340 -0.590163 -0.251010 1.206137 -1.330230 0.410863 0.414568 -0.229476 -0.453343 -1.481646 -0.225035 0.492879 0.213468 -0.413544 -0.747460 -0.763380 -1.079902 -0.560499 -0.116099 -0.072077 0.004071 -0.093817 1.041159 0.091062 0.067716 -1.030154 0.904857 -0.706335 -1.079317 -0.037845 1.524504 0.410398 -1.523648 0.792232 0.429465 -0.726593 -0.582056 -0.665947
TCAAAA 0.152248 1.261811 1.279620 0.573449 -0.865764 -1.848111 -0.804187 1.105234 -0.530800 -0.054039 0.051070 0.254101 0.025601 1.845807 -0.293781 0.020504 -0.723054 -0.941107 0.376111 0.432823 0.302658 -1.331632 0.394858 0.334692 0.946127 -1.011251 -0.674180 -0.280282 0.304847 0.069215 -0.473364 0.572399 0.241672 0.258404 0.180705 -0.122058 0.122527 0.001025 0.637513 -0.716959 0.228565 -0.059264 -0.010203 0.101362 -0.482575 0.483594 0.179522 0.086193 -0.865601 -0.651621
TATTTA 0.872154 0.715159 -0.307396 0.622243 -0.599548 0.237214 -0.667565 0.376250 -0.418242 -0.132963 -0.148905 -0.690624 -0.223719 -0.628173 -0.405002 0.840162 -0.947243 0.530954 -0.545780 0.482937 0.322332 -1.152718 -0.042176 -0.020104 1.020918 0.766199 -0.179136 -0.183252 0.530281 0.224527 -1.082074 -1.315084 -0.396866 1.024454 -0.173245 -0.218910 -0.790072 0.029986 1.006046 0.305814 1.047360 0.096355 -0.019638 -0.937858 -0.108714 -0.837232 0.460380 -0.078780 -0.962209 0.034442
ATTTAT 0.854340 0.320450 -0.829716 1.064910 -0.205757 -0.848619 0.050697 -0.237351 0.134008 0.384264 0.156023 -0.230833 -0.549054 -0.633314 -0.313250 0.188659 -0.958021 0.123669 -1.012817 0.417705 -0.275837 -1.698100 -0.674711 -0.253434 0.727948 -0.733549 -0.481837 -0.200541 -0.269784 0.698321 -0.527513 -0.688784 -1.231049 0.650657 -0.732726 -0.163379 -0.209776 0.164054 0.708706 -0.617593 0.552294 -0.514963 0.638289 -0.805066 -0.519647 -0.008404 0.087204 0.659379 -0.767331 0.284459
AAATTT -0.088613 1.134398 -0.508238 0.453892 -0.703042 -0.862906 -0.393697 1.354381 0.361092 0.847188 -0.169673 -0.075178 0.455264 0.944336 -0.212250 0.093492 -0.444086 -0.142008 -0.093554 -0.101069 -0.509190 -0.970417 0.411975 -0.089705 0.103591 -0.254180 -0.098372 -0.684876 -0.364521 0.635236 -0.754751 0.668404 -0.322204 -0.067234 1.858742 -0.485542 -0.382647 -0.413769 -0.473476 0.339734 1.639373 -0.063395 0.156338 0.108814 -0.437636 -0.257762 0.465679 0.534046 0.571572 -0.725948
AATATA 0.584402 0.711796 0.056485 0.136539 0.283181 -0.319034 0.261520 -0.007437 -0.492603 0.313593 1.208742 -0.087645 0.437277 -0.164255 -0.367053 0.186614 0.207908 1.075095 0.330341 -0.217298 -0.804857 -1.459404 0.615597 0.263158 -0.889365 0.315067 -0.345498 -0.087751 0.017025 0.035850 -0.589017 1.147165 -0.258141 0.393714 0.126839 -0.225402 -0.156187 -1.257404 1.154008 0.251735 1.423464 -0.590861 -0.125683 0.548128 -0.926848 0.243620 -0.075445 0.328267 -0.326927 0.982044
ACATTT -0.820181 0.842201 -0.715759 0.850813 -0.716371 -0.671950 0.315652 -1.467299 0.561754 0.961912 0.047300 -0.649399 -1.024920 -0.483497 0.095971 0.270839 -1.235062 0.597709 -0.760527 0.807391 -0.843502 -1.278329 -1.453131 -1.372287 0.220074 -0.630361 -0.127853 -0.562999 0.250402 0.709316 -0.449546 -0.487145 -1.074630 -0.410058 -0.260907 -0.482942 -0.006267 -0.459951 0.943133 0.206081 -0.105037 -0.484116 0.390986 -0.226527 -0.861096 -0.091418 -0.026563 0.607990 -0.797536 -0.271461
TTTTCT -0.419806 0.329729 -1.382568 -0.012214 0.041514 0.253007 -0.701371 0.679901 0.380458 0.767503 -1.035441 0.826671 -0.362904 0.410698 -0.302340 -0.136001 -0.208058 -0.253905 0.335326 0.616928 -0.793590 -0.590902 -0.680583 0.025290 -0.386117 0.299828 0.584875 -0.516786 -0.237647 0.779344 -0.388671 0.411688 0.398841 0.463903 0.480926 -0.027085 -0.747486 -0.171497 0.355934 0.033985 0.896898 -1.010525 -0.262430 -0.471535 -0.417141 -0.776845 0.646742 -0.260339 0.571559 -0.144195
ATGAAA 0.943068 0.572065 0.071438 0.129818 -1.301219 -0.325488 0.317979 0.863557 0.837848 0.446595 -0.486298 0.752852 0.459470 -0.107443 0.412500 -0.265281 0.757031 0.218004 1.036113 -0.658957 0.759738 -0.352792 -0.185892 -0.662616 -0.459996 0.018241 -1.474783 -0.824040 0.193208 -0.726592 -0.975319 0.265594 -0.485539 -0.055556 0.476368 -0.738805 0.875432 -0.736187 0.728064 0.988564 1.750682 0.671999 0.654766 -0.455946 -0.843950 -0.439314 0.494613 0.319246 -0.629290 0.243846
CTTGAA 1.358521 0.374958 -1.487699 -0.761069 -0.482898 0.355794 -0.127143 -0.267768 0.614454 1.423857 0.171802 0.903029 -0.570193 0.180736 0.714424 -0.602625 1.023755 -0.181709 2.191461 1.625751 -0.135467 -0.440125 0.785185 -0.772837 0.054725 0.052024 -0.545643 -0.251824 0.239484 -0.128410 -0.937614 -0.327868 0.506599 0.112260 -0.394987 -0.217503 -0.765526 0.132316 -0.001280 -0.268896 0.398632 0.959451 0.929315 0.111033 -0.157583 0.188598 0.864198 -0.444556 -0.626581 0.972240
ATCATT -1.321579 0.765769 -0.993740 0.064174 -1.060421 0.221196 0.862443 0.075733 -0.564578 -0.793468 -0.391136 0.606446 1.478045 0.762052 -0.763045 -0.958941 0.115489 -0.740845 -0.020369 0.031385 -0.090218 -1.115368 -0.739535 -0.444266 -0.475736 0.160474 -0.119624 -1.660227 0.736362 1.120169 -0.746785 -1.041824 0.648223 0.480778 0.291703 -0.016869 -0.624081 -0.358857 0.445234 -0.462155 -0.012862 -1.138585 0.401445 0.727292 -0.677934 -0.939543 -0.298980 1.018580 -0.443196 -0.277632
GCATAT -0.066626 -1.651940 0.222720 -0.293211 -1.352998 -0.148100 -0.176168 0.628567 -1.271853 -0.292254 1.348972 0.588273 0.380244 -0.404759 0.105396 -0.615119 -0.746751 1.279974 0.009410 0.245344 0.077549 -1.226715 -0.191859 0.179253 0.131024 0.896865 -0.306450 -0.765660 -0.507185 0.179514 -0.548480 -0.673608 0.272884 0.206376 0.983624 0.446529 -0.336029 0.615669 1.395496 0.585558 0.633363 -0.864292 0.723153 -1.853537 -0.263512 -0.439893 -0.080557 1.007538 -0.143368 0.467230
AAGTTT 0.519733 -0.153146 0.899570 0.041668 -0.745146 -0.106402 -1.405109 -1.711618 -0.435212 0.768241 -0.680047 0.021804 0.133269 0.166515 -1.191100 -0.200952 -0.007059 -1.030514 0.836696 -0.480568 -0.949117 -1.244203 0.634972 -0.785724 0.760055 -0.074921 -0.459447 -0.930135 0.319391 -0.479312 -0.262711 0.129602 0.380350 0.593764 0.599600 -0.372808 -0.691778 -1.325061 0.573643 -0.517465 0.417848 0.755548 0.005364 -0.527969 -0.290097 -1.344078 1.141068 0.346543 -0.198997 -0.498572
TCATCA -0.411222 0.716037 -0.524366 0.383847 -1.055680 -0.271907 0.518507 -0.222857 -0.048941 -0.918934 0.764160 0.446600 0.080372 1.932169 -1.119698 -1.065923 -0.657305 -0.973212 0.392659 0.759967 -0.178757 -0.393477 -0.083335 -0.040275 -0.332086 -1.192383 -0.484839 -0.544898 1.173571 0.590069 -1.007850 -0.153246 1.165101 1.059282 0.364403 0.117746 1.280068 0.064688 0.685091 -1.290368 0.073954 -0.800541 0.253719 0.538435 -0.656764 -0.446698 -0.451492 0.125000 -0.738121 -0.005597
ATTTTC -0.038226 0.735426 0.014089 1.251306 -0.727700 -0.685600 -0.282656 -0.521838 0.495002 0.503077 -0.600652 -0.442929 -0.805950 0.310387 -0.134538 -0.883942 -0.527345 -0.418217 -1.342231 0.235820 -1.052373 -1.607752 -0.979066 -0.715997 0.280148 -1.704242 -0.130650 -0.193602 -0.621253 0.761849 -0.540093 0.617304 -1.160964 0.745418 0.426208 0.168891 -0.511461 0.341771 0.470526 -0.986497 0.145419 -0.117993 0.756065 0.009169 -0.576554 -0.840698 -0.441111 -0.000647 -0.139250 0.014573
TACATA -0.048910 -1.105304 -0.895060 -0.391822 -0.922541 0.178200 -0.185448 -0.183864 -1.152072 0.711822 0.301791 -0.136884 0.376917 0.289639 -0.987855 0.119886 0.049468 1.517124 -0.223225 0.873599 -0.400911 -0.781165 0.256488 0.347714 0.215366 0.072112 -0.028576 -1.351542 -0.085152 0.654510 0.490947 0.035759 0.432989 1.164806 -0.404988 0.404729 -0.150890 0.358366 1.512130 1.283067 1.598441 -1.110393 0.345776 -0.249172 -0.286223 -0.072575 -0.110326 1.169001 -0.858709 0.066312
TTAAAA 0.160049 1.049787 0.428158 -0.201171 -0.190688 -0.521154 0.242185 1.524086 -0.247595 0.697982 -0.200428 0.072811 0.109180 0.133256 -0.851061 0.328649 -0.856743 0.039639 0.242860 0.221724 -0.147051 -0.984728 0.377665 -0.552406 0.623357 0.713644 -0.466275 -1.185749 0.672613 -0.004229 -0.123385 -0.449122 -0.583702 0.128800 -0.107041 -0.497768 -0.907539 -0.874483 0.413047 -0.113256 0.610035 0.136548 -0.608201 0.276406 -0.325537 -0.959113 -0.029988 0.135024 -1.388661 -1.320515
CAGTTT -0.326464 0.711735 -0.953199 0.400625 -0.858109 0.009529 -0.361205 -0.698511 0.276516 2.081375 0.717415 0.349381 -0.726293 0.193273 0.344896 0.955711 -1.219411 -1.130198 -0.242657 -0.476700 -0.601744 -0.075607 0.461557 0.056532 -0.856598 0.317237 -0.245367 -0.978348 -0.837954 0.251198 0.387825 -0.007391 1.069626 1.694057 0.494175 -0.691703 0.217194 -0.409213 0.642240 -0.018431 -0.680292 -1.215269 -1.058048 -0.497073 -0.014896 -0.534518 0.384035 -0.208706 0.632644 -1.327599
AAATAT 0.833180 0.683865 -0.363760 0.614592 -0.379170 -1.177962 -0.263398 1.647834 -0.389353 -0.179659 0.760508 0.036430 0.617970 0.068327 -0.625022 0.693891 -0.630743 0.397918 -0.527524 0.102674 0.316523 -0.738976 0.568733 0.074769 0.588633 -0.130980 -0.201935 -0.438015 -0.154963 0.567205 -1.209209 -0.283536 -0.708781 0.095931 1.061406 -1.028800 -0.400960 -0.152273 -0.084724 0.375168 1.307314 -0.110252 0.062986 -0.714127 -0.589639 0.401387 0.795667 0.857147 -0.243736 -0.015896
ATTCAA -1.042638 1.020201 0.316350 0.521254 -0.154422 -0.857997 -0.657958 0.206054 -0.588600 -1.382379 0.029077 0.183770 0.440214 2.165518 0.549572 0.469920 -0.072941 -0.932882 -0.348480 0.145279 0.500528 -1.074680 0.321394 -0.357007 0.591616 -0.650884 -0.847036 -0.163169 0.321671 0.782056 -0.673407 0.989252 0.086174 1.099300 -0.627662 -0.477345 -0.509836 -0.631835 1.131339 -0.826958 0.747874 0.080250 -0.036869 -0.494144 -0.892379 0.671101 -0.040860 0.531141 -1.141795 -0.449500
ACATAT -0.690138 0.803227 0.074048 0.338806 -0.628867 -0.090042 0.564565 -0.766290 -0.466960 -0.461978 0.536889 -0.146856 -0.713715 -0.688172 -0.127107 1.350296 -1.216083 0.985446 0.262643 0.099551 -0.136800 -0.719354 -0.833562 0.076950 -0.946865 0.569508 0.413674 -0.384860 -0.005583 0.092391 -1.130510 0.500122 -0.985118 -0.554584 -0.392150 -0.432387 0.197858 -0.795898 1.104259 0.929775 1.166805 -1.307659 0.369973 0.089057 -0.403194 -0.306855 0.936375 0.960950 -0.859705 0.344721
AGCTTT -0.499765 0.217600 -0.676787 1.409902 0.159744 0.134787 -0.241176 0.172886 0.769640 0.856309 -0.829483 1.029875 -0.156988 -0.315350 0.686853 -0.478238 -1.081718 -0.231765 0.396849 0.694826 -0.589328 -0.792170 0.249140 0.476910 0.803117 -0.363969 1.347445 -1.850542 0.659203 -0.443808 -1.003288 0.071267 0.194567 0.255843 1.184761 0.041271 -0.581632 0.013434 0.146444 0.595850 1.214680 -0.120916 1.143810 0.187643 0.210362 -0.715739 -1.266350 -1.341783 0.472015 0.408917
ATGCAT -0.936789 -1.238614 0.096936 0.127788 -1.460783 -0.379413 -0.488902 1.554381 -0.852665 0.701499 1.002671 0.715382 0.769851 0.785232 0.110479 0.161716 -0.077713 1.195910 0.326260 -0.290002 0.212915 -1.164629 -0.872270 0.053180 -1.112071 -0.026542 -0.625407 0.146108 -0.274256 0.478602 -0.594252 -1.430689 0.659523 -0.290294 -0.107114 -0.314832 -0.387141 -0.899998 0.979320 -0.889286 0.068091 -1.062159 1.228595 -0.892758 0.010679 -0.326224 0.220917 0.880752 -0.834598 0.066532
CATTAT -0.635309 0.501170 -0.749652 0.451004 -0.705546 1.240751 0.148828 0.957268 -1.212228 -0.397167 -0.328909 0.671390 1.707389 0.498048 -0.133829 -0.363224 0.285680 -0.095268 -0.539017 0.313537 0.609442 -0.529946 -0.066528 -0.286041 -0.014283 1.001819 0.248850 -0.908607 0.612033 0.553936 -1.086381 -1.217003 -0.463575 0.480006 -0.603107 0.086765 -1.191751 -1.037127 0.527726 -0.436461 0.502770 -0.714083 0.172641 0.083689 -0.527705 -1.303905 -0.019930 0.569249 -1.452481 -0.732068
ATTCTT -0.218185 0.384757 -1.529958 0.101789 0.183016 -0.091464 0.058072 0.566825 -0.348136 0.107567 -0.095607 -0.262540 -0.213752 0.780875 0.818392 0.738605 -0.832289 -0.354555 0.205749 1.569938 0.568980 -0.852160 0.322197 -0.723980 0.289156 0.688046 -1.531939 -0.444572 -0.042024 0.280279 -0.206264 1.380345 -0.777815 1.141352 -0.379421 1.206632 -0.709450 -0.438199 -0.063257 -1.228409 0.988355 0.005033 -0.254257 -1.132118 -0.410351 -0.025649 0.502994 0.160215 -0.980169 -0.462949
TCAAGA -1.215767 0.927122 0.120808 0.717487 -0.120104 -0.019073 -1.060091 -0.316775 0.423315 -1.179701 0.515718 0.253774 0.066284 1.631572 -0.886476 0.063789 -0.375923 -1.012595 0.211101 -0.026192 -0.864749 -0.364933 1.209797 -0.153041 -0.645778 -0.372866 0.179017 -0.085773 1.212987 0.117030 -0.428016 0.190193 0.095513 1.146473 0.001656 -0.215726 -0.643507 0.197026 0.693109 -0.265280 0.758974 1.772352 1.743571 -0.183813 -0.152944 1.099209 0.004048 0.983875 -0.099853 -0.672731
CTGAAA 1.128312 0.757153 0.787919 -0.044310 0.652396 -0.441257 0.224443 1.558175 0.264976 0.878955 -0.152673 0.470368 -0.261154 1.871655 0.097643 -0.595651 0.030769 0.053101 0.156852 -0.295702 0.476777 -0.351488 0.742633 0.548452 0.569991 -0.237537 -0.740833 -0.614658 0.673029 0.085029 -0.516942 0.573646 -1.031105 -0.334303 2.020122 -0.527847 -1.889228 0.461632 0.864281 -0.081177 -0.384222 -1.444652 -0.142152 -0.114444 -0.030184 0.033070 0.034713 0.144920 -0.218670 -0.201792
TCATAT 0.248689 0.054477 0.014154 0.317776 -0.719379 -0.116796 -0.356524 -0.843329 0.224527 -0.914590 0.649085 0.196815 -0.483743 0.380384 -0.597331 0.075116 -1.153889 -0.120378 1.105096 0.063289 0.237194 -0.814701 -0.361543 1.032691 -1.229788 -0.033499 0.228784 -0.217087 0.333535 0.401211 -1.045022 1.125554 -0.808503 1.221606 -0.746558 0.117270 0.773567 -0.156822 1.010845 -0.682759 1.449980 -1.627470 0.193172 0.053830 -0.599375 -0.939427 0.407063 0.245979 -1.077816 -0.115991
TATATT 0.294168 -0.269506 -0.753929 0.731058 -0.401149 -1.059825 -0.081672 0.499892 0.051772 0.121564 -0.144902 -0.015163 0.336177 -0.146106 -0.215347 0.435770 -0.527480 0.124494 -1.353496 0.768542 -0.348420 -2.022369 -0.296790 -0.699634 1.336358 0.215984 -0.711833 -0.108146 0.063061 1.154967 -0.398446 0.016969 -0.506027 0.625156 0.152470 0.486892 0.117261 0.212548 0.644917 -0.318089 0.869482 -0.896901 -0.148603 -1.384348 -0.718405 0.153411 0.010122 0.282731 -0.545562 0.581096
TTGAAT 1.240669 0.596274 -0.895926 -0.559874 -1.506716 0.106343 -0.045976 -1.115547 0.075399 1.251786 -0.375945 -0.107382 -0.645211 -0.038175 0.806216 -0.422250 0.800510 0.082064 1.419823 0.490698 -0.765878 -0.942501 0.579977 0.139833 -0.657491 0.183833 -0.973246 -0.533686 -0.548364 -0.129874 -0.226608 -0.897892 -0.709370 0.603761 -1.088319 0.310924 -0.236053 -0.147251 0.023066 -0.770257 0.564448 0.221592 1.490476 0.035368 -0.299096 0.037379 0.735721 -0.557214 -0.806224 0.843829
ATTGAA 0.941176 0.983838 0.084160 0.035524 -0.362826 -0.224226 0.250443 0.037584 0.644108 0.826323 0.228125 0.283009 1.542149 1.316061 0.468333 -0.036815 1.067751 0.068053 0.824173 -0.430794 0.658432 -1.238674 0.459756 -0.702295 0.641731 0.348575 -0.681074 -0.308205 0.436036 1.287248 -0.844570 0.109030 -0.910955 0.023472 0.045296 -0.286996 -1.603747 0.492603 0.301940 -0.892343 0.133541 -1.851441 0.511919 0.450201 -0.212105 0.633359 -0.578497 0.212537 -0.895587 -0.486633
CATATT 0.252349 -0.464321 -0.693614 -0.230997 -1.304758 0.404902 -0.835239 0.269936 -1.333633 0.003253 0.896438 -0.270018 0.004798 -0.213556 -0.339962 -0.470884 -0.358288 0.698185 -0.791856 0.556463 0.185986 -1.267697 -0.010166 -0.603182 0.609524 0.182483 0.108590 -1.126157 0.070959 0.634266 -0.966410 -1.184153 -0.332298 1.020265 0.614533 0.493634 -0.604922 1.364600 1.103317 1.016925 0.525027 -0.326048 0.513888 -1.630116 -0.662569 -0.760964 0.213659 0.336916 -0.452391 0.394797
AATCTT 0.303025 1.123081 -1.317757 -0.493958 0.065398 -0.645319 0.154664 0.260156 -0.346051 0.138935 0.580671 -0.906771 -0.931322 0.662587 0.265462 0.252931 -0.791537 0.563398 0.890102 1.132610 -0.217036 -0.212411 0.986671 -0.089929 0.043162 0.834537 -1.010666 -0.995860 -1.052510 -0.385483 0.160209 0.247446 -0.436067 1.485572 0.092779 0.976297 -1.133910 -0.941416 -0.200391 -1.338686 0.188937 0.694199 0.660970 0.456778 -0.343339 -0.122380 0.096028 0.096662 -1.274795 0.096774
GAATTT 1.099329 0.456159 -0.904373 0.545167 -1.194676 -0.733954 0.262063 -0.859537 0.768357 1.078353 -0.532467 -0.463682 -0.851904 -0.347850 0.699057 -1.202210 0.463033 0.109138 -0.061290 0.337110 -1.144216 -1.542360 -0.876630 -0.384646 0.071050 -0.425736 -1.076307 -0.471571 -0.713584 -0.860708 0.335269 -0.303596 -0.981676 0.733537 -0.728175 -0.124101 -0.122189 -0.026097 -0.139882 -1.002413 0.485428 0.049659 1.474768 -0.175503 -0.158574 0.358108 0.423208 -0.558215 -0.746350 -0.569080
TATAAA 0.107007 -0.043626 0.388701 0.171043 -0.564993 -1.768620 0.094663 1.810654 -0.032581 0.328615 0.397424 0.354091 -0.025162 -0.263380 -1.027101 0.564789 -0.496526 0.275387 -0.597505 0.186185 -0.205251 -1.564477 0.100760 -0.207319 1.452169 0.045463 -0.386353 -0.646189 0.689913 0.407331 -0.259481 -0.031149 -0.182076 0.403832 0.824236 -0.255372 0.290164 0.070955 0.497200 0.603141 0.708910 -0.440149 -0.479147 -1.073575 -0.367582 0.367552 0.425368 0.543945 -0.547075 0.439645
CATATA 0.093904 -1.079726 -0.583840 0.036789 -1.157704 -0.932736 0.263774 1.015378 -0.916205 0.125539 1.143490 0.450460 0.443332 -0.039051 -0.715733 -0.495522 -0.196176 1.302886 -1.114867 0.693295 -0.188367 -1.387709 0.482958 -0.378886 0.889679 -0.036764 -0.259790 -0.761790 0.143405 0.597060 -0.110489 -0.471680 -0.035673 0.682339 0.560849 0.844063 0.167112 0.235255 1.141908 1.131131 0.708576 -1.007383 -0.136973 -1.470791 -0.582398 -0.024598 -0.162696 1.035283 -0.214818 0.915565
ATTTTA 0.620947 0.863795 -0.723149 1.040225 -0.144834 0.039489 0.603758 -0.226901 0.227212 0.619258 -0.836138 -0.412402 -0.301770 -0.565973 0.017883 -0.070423 -0.856545 0.240704 -0.884260 0.308962 -0.359707 -1.628105 -0.356413 -0.298802 0.626386 -0.047562 -0.862510 0.065028 0.523462 0.080988 -0.319867 -0.614766 -0.775601 0.509620 -0.680040 -0.308573 -0.676406 -0.621513 0.692236 -1.025952 0.236444 -0.208464 0.366015 0.034016 -0.447445 -0.780162 -0.320203 0.370173 -1.246090 -0.921445
AGCATT -1.356027 -0.190524 0.168583 0.438784 -0.960025 -0.396817 0.139150 -0.206589 -0.649286 0.586589 0.348449 0.774207 1.646740 -0.192091 0.671908 -1.364891 0.350816 -0.082902 0.626425 0.877573 -0.042127 -0.558302 -0.964379 0.387202 0.635151 1.048072 0.429840 -0.900092 -0.003983 0.389006 -0.789601 -0.322535 0.518342 0.103808 0.820731 -0.382695 -1.338290 -0.981352 1.310107 -0.944923 0.410525 -0.360038 0.221327 -1.003839 0.362267 -0.415422 -1.945004 0.700713 -0.376716 -0.541068
TCAATT -0.274044 1.721340 -0.505563 0.471240 0.025054 -0.749587 -1.655916 -0.165273 -0.123990 -0.444018 0.509639 -0.545792 0.801162 1.341263 0.020644 0.452569 0.048552 -0.643249 -0.142055 0.468590 -0.055936 -0.589950 0.430158 0.052911 -0.165123 -0.530163 -0.287956 0.042980 -0.556498 0.946082 -1.102897 0.035372 0.361115 0.481442 0.314459 -0.405225 -0.301743 -0.566666 0.932450 -1.354373 0.907042 0.461431 0.208012 0.008529 -1.364153 0.381879 -0.156317 -0.806569 0.239285 0.623011
TTGCAA -0.668119 -0.979703 0.757871 -0.571582 -0.249230 0.419690 -1.185076 0.512863 0.014974 0.577391 0.076398 0.265218 0.437602 -0.404956 0.800906 1.183164 -0.680410 -0.348766 0.561461 0.154117 -0.411151 -2.033620 0.324085 -0.533656 0.030807 -0.054897 -0.377863 -0.643464 -1.111649 -0.126387 -0.178026 -0.869752 0.361969 0.369215 0.849868 0.765350 -0.508943 -0.658150 1.203014 -0.935389 -1.253463 -0.001637 1.862708 1.075835 -1.134520 0.296576 0.552260 -0.752836 -0.638262 -0.294838
TGCATA -0.931354 -1.440334 0.332134 -1.087137 -1.098767 0.202096 -0.691761 0.630541 -1.040024 0.623397 0.987563 0.953938 0.451010 0.490063 0.015312 0.394151 -0.505940 1.354750 0.024659 0.450500 0.122540 -1.752937 -0.242733 0.116633 -0.537436 0.198795 -0.259286 -0.245923 -0.158919 0.313663 -0.144548 -0.662256 0.927897 -0.134409 0.671544 0.781244 -0.454585 0.431505 1.188104 0.257581 0.357835 -1.515988 1.419279 -1.330135 -0.060408 -0.344640 -0.042883 0.392969 -0.692620 0.209705
AGTTTT -0.524706 1.033124 -1.255472 0.031573 -0.839240 -0.166911 -0.134224 -0.102132 0.845236 1.851828 0.244280 0.126197 -0.348266 -0.256608 0.124379 0.857231 -1.118763 -0.656338 -0.166183 -0.328285 -0.554351 -0.687925 0.444135 0.318861 -0.900622 0.885015 0.320352 -1.204542 -0.301243 0.425405 0.612771 0.254837 0.807869 1.085758 0.848730 -0.065509 -0.426475 -0.133948 0.026201 0.276051 0.633919 -1.344910 -0.369753 -1.020309 -0.295078 -0.570230 0.515390 -0.159937 0.530596 -1.107849
ACAAAA 0.021099 0.855921 0.611551 0.879985 -0.173853 -0.902106 -0.030449 0.272032 -0.086509 0.910228 0.809022 -0.609303 0.048619 0.208673 0.093054 0.556214 -0.189342 1.299037 0.110394 0.799903 -0.381679 0.286467 1.003288 -1.561461 0.141598 -0.063510 -0.012204 -0.273327 0.523178 -0.218866 -0.572745 0.190818 0.326819 -0.108233 0.600359 -1.067315 -0.509042 -0.857874 0.128376 0.536747 0.600018 -0.446297 0.674991 0.895477 -0.235879 0.346398 0.662022 -0.069892 -0.637384 -0.129195
CCATTT 0.056707 -0.067915 -1.093441 0.288712 -0.404274 0.546412 0.246713 -0.532792 -0.382870 1.259759 -0.171415 -0.214848 -0.484109 -0.442482 0.074941 -1.398452 -0.125174 -0.060816 -1.775538 0.111895 -0.362958 -1.386432 -0.174506 -1.353545 0.939231 -1.177159 -0.291586 0.576118 -0.164614 0.250705 -0.745968 0.044341 -1.052303 0.552223 -0.075070 0.754162 -0.333244 0.137356 -0.129205 -0.566243 -0.070727 -0.188699 0.385961 -0.711003 -1.359555 -0.308371 -0.744856 0.331295 -1.041597 -0.591901
ATTATT 0.191017 0.322213 -0.687877 0.751270 0.076983 -0.862313 0.549333 -0.594294 0.265142 0.215880 -1.120124 0.127340 0.258003 -0.192670 0.415436 0.242982 -0.673363 -0.171557 -0.865811 0.726182 -0.327142 -1.448491 -0.384069 -0.464069 0.578045 -0.262074 -1.131082 -0.021215 -0.537127 0.669830 -0.273492 0.300019 -0.840870 0.168411 -0.983773 0.003657 -0.033362 -0.409736 0.480311 -0.867474 0.567043 -1.397644 0.610827 -0.157888 -0.798695 0.548092 -0.126200 -0.042376 -0.940024 -0.558723
CATCAT -1.075116 0.366717 -0.850794 0.311026 -1.503838 0.094244 0.564168 0.483279 -0.826792 -0.726263 0.564667 0.278400 0.698672 1.272632 -0.815209 -1.643865 -0.267008 -0.557029 0.598593 0.671597 -0.138868 -0.159884 -0.157584 -0.478428 -0.613728 -0.737386 -0.400070 -1.084328 0.723795 0.785593 -0.534831 -0.963369 1.162399 0.345617 0.472669 0.344952 0.648957 0.192714 0.506488 -0.795089 -0.080808 -1.074284 0.283128 0.121413 -0.583088 -0.811007 -0.176494 0.648692 -0.876856 0.074632
ATATCA -0.410118 0.106419 -0.384674 -0.088153 -0.905601 0.192706 1.387931 -0.483339 -0.490038 -1.528904 0.663705 0.670169 0.429015 -0.152738 -1.158502 -0.234198 -0.573840 -0.133281 0.261042 -0.618144 -0.214699 -0.929606 -0.105733 0.345642 -0.837498 0.378708 0.082678 -1.617134 0.751380 -0.084850 -1.277863 -0.045042 -0.275477 1.284347 -0.086020 -0.087494 -0.031355 0.065159 0.636169 0.420366 0.183623 -1.208040 1.046669 0.570311 -0.960534 0.094004 0.522905 1.241464 0.113402 0.473366
ATCTTT 0.942884 0.065179 -2.131952 -0.568873 -0.009503 0.732875 -0.752824 0.904719 -0.261290 -0.741147 -0.811742 0.859632 -0.604280 0.355856 -0.458886 -0.826713 -1.342435 0.163570 0.605725 -0.202158 -1.006086 -1.231614 0.095193 -1.348709 -0.204825 1.148893 -0.241780 -0.652454 0.533635 0.047914 -0.881625 0.318542 -0.309039 0.246148 1.045093 0.070469 0.276944 -0.173892 0.219404 -0.318967 -0.015319 -0.971735 -0.551219 1.000736 0.462727 -0.173537 0.329719 0.266948 -0.225339 -0.123758
TTTAAA -0.057280 0.844793 0.433545 -0.127691 -0.887501 -0.580561 -0.029290 1.740968 -0.149165 0.748918 -0.221696 0.169219 -0.095260 0.736562 -0.851506 0.465579 -0.629010 -0.175606 0.291324 0.128258 -0.679916 -1.137474 0.153928 0.014793 0.399940 0.471178 0.073645 -0.836165 -0.192829 0.331128 0.401291 0.552670 -0.280248 0.291653 0.682182 -0.171536 -0.417094 -1.253202 0.219221 -0.338996 1.020812 -0.446853 -0.532145 0.071730 -0.059141 -0.548138 0.299022 0.620239 0.179548 -1.299432
ATTTCT -0.230157 0.180212 -1.016068 1.443891 0.448771 0.115912 -0.490293 -0.715684 -0.112695 0.445623 -0.464979 -0.151558 -0.863229 -0.453511 -0.095467 -0.817573 -0.157463 -0.149041 -0.694808 0.889571 -0.622175 -1.317207 -1.273678 -1.280836 0.151714 -0.894972 -0.668230 -0.654648 -0.381064 0.055330 -0.098924 0.453872 -0.089543 0.469534 -0.928378 -0.827606 -1.160892 -0.258393 0.299075 -1.568085 -0.140942 -0.394456 -0.088099 -1.030808 -1.128270 0.486597 0.201235 -0.120563 -0.440238 0.322556
TATCAT 0.999560 0.322792 -0.949835 1.089085 -0.744510 -0.458818 0.309931 -0.559710 0.199786 -0.759833 0.614211 0.727518 -0.292502 0.961702 -0.992043 -0.009572 -1.458728 -0.486053 0.805465 0.827786 0.383015 -0.875205 -0.676128 0.931897 0.244655 -0.938158 -0.255538 -0.022547 -0.301815 1.066182 -0.111112 -0.150496 -0.020157 0.824336 -0.631005 -0.304175 1.351659 -0.156674 0.790097 -1.127211 1.109792 -1.164813 0.048175 -0.550044 -0.334876 0.406086 0.190519 0.440573 -1.176204 0.008477
AATGCA -0.475780 -0.036720 0.732023 -0.613678 -1.143741 -1.018357 -0.403319 2.039142 -0.904827 0.863131 0.443131 0.467391 0.336782 0.490520 0.610733 0.649096 -0.184577 1.731483 0.093529 -1.363696 -0.165342 -0.914685 -0.321356 -0.232924 -0.815746 -0.438664 -0.998949 0.195940 -0.213347 0.009871 -0.530492 -1.058155 0.606045 0.173671 -0.050786 -0.344196 -0.445158 -1.178865 1.159069 -0.814920 -0.712721 -0.108377 1.630100 0.085912 0.068358 -0.033035 0.501252 -0.053934 -0.290094 0.360445
CATTGA -0.492643 0.404799 -0.559535 0.036460 -0.496957 0.464028 0.481490 -0.706928 0.142472 0.923043 0.231158 0.404535 1.520604 1.359536 0.174606 -0.388933 0.773821 -0.449856 0.938877 -0.178434 0.404042 -1.081512 -0.151671 -0.654281 -0.254860 0.462447 -0.213618 -0.572331 0.279548 1.857082 -1.015591 -0.462704 -1.183643 -0.473438 0.158419 0.536943 -0.798380 0.344451 0.469242 -0.887689 -0.417074 -1.373076 0.136631 0.532676 -0.692327 0.584011 -1.451449 1.182595 -1.245906 -0.309158
ATTTCA -0.719812 0.511763 -1.188719 0.231471 -0.596106 -0.363034 0.666480 0.038007 0.213451 0.545218 -0.118711 -0.438009 0.147583 0.918231 0.819638 -1.431210 -1.175810 -0.634729 -0.976623 0.578925 -1.129893 -1.182567 -0.304294 -1.283882 -0.028190 -0.694956 -0.484039 -0.818669 0.465668 -0.341135 -0.248247 0.408548 -0.900337 1.227260 -1.016552 -0.329128 -0.314020 0.307230 0.420429 -0.800203 -0.040364 -0.223754 0.681394 -0.706437 -0.927284 0.612868 -0.072089 0.642311 0.044605 -0.116638
TTACAT -0.945724 1.078783 -0.833078 0.415795 -0.465385 0.336435 0.301084 -0.911978 -0.054901 0.431624 -0.348713 -0.560104 -0.651464 -0.767544 0.155930 0.680676 -1.309270 1.441597 -0.097730 1.286195 -0.244438 -0.618488 -0.610057 -0.259459 -0.078540 0.294513 -0.551958 0.003219 0.526079 0.266390 -1.332488 -0.918431 -0.168409 -0.580695 0.110531 -0.991945 0.384885 -0.876110 0.609593 0.645359 0.891049 -1.458773 -0.321361 0.004323 -0.270672 -0.413715 0.780858 0.244158 -1.421318 0.011272
ATGCAA -0.293289 -1.306270 1.191838 0.128545 -0.361251 -0.408654 -0.606504 1.578908 -0.258007 0.566203 0.310257 0.409826 0.010139 -0.050169 0.082332 0.782670 -0.845754 0.530443 0.297377 -1.365378 -0.269910 -1.180741 -0.552698 0.071515 -0.325523 -0.474526 -0.906904 0.048953 -0.685964 -0.642196 -0.178119 -0.932421 -0.006004 0.554922 -0.053242 -0.248570 -0.030205 -1.234285 1.373958 -0.909800 -0.949435 0.096335 1.923530 0.304100 -0.939674 0.526343 0.850074 0.182286 -0.633110 -0.113640
GTTTAT 0.329992 0.374020 -0.117942 0.564669 -0.441656 0.751535 -0.905696 -0.694654 -1.098704 -0.115519 -1.107298 0.103223 0.824539 0.055024 -0.922502 1.022385 -0.577357 -0.672103 0.256193 -0.690771 0.126950 -0.941705 -0.106010 0.089652 0.047102 1.141114 0.078064 -0.445108 1.234847 -0.143616 -0.350912 -0.784592 -0.624906 0.391102 0.428368 0.461470 -0.325676 -1.151066 0.334194 -0.745268 1.053735 0.062197 0.067838 0.317995 -0.696296 -1.785265 0.978686 0.400878 -0.590259 0.088316
ATACTT -0.049842 0.244809 0.807196 -0.143398 -0.054439 0.939803 0.752968 0.170967 -0.069623 1.027602 0.746834 0.119807 -1.170969 0.327411 -0.947055 -0.131102 -0.243638 0.570239 -0.096011 0.955720 -0.648765 -1.635348 -0.283833 -0.075295 -1.007245 1.040711 0.607418 0.330701 0.506422 0.339930 -1.472970 0.224225 1.316881 0.501219 -0.310064 -0.352664 -0.893656 0.582661 1.128668 0.000695 1.734734 -0.093791 0.103340 0.303762 -1.450037 -0.723350 0.667163 0.528583 -0.263261 -0.217774
CAAATA -0.174008 0.124629 -0.351789 -0.697210 0.419689 -0.485686 0.137030 0.091404 0.206317 0.319636 0.909177 -0.227769 0.991664 -0.725857 -0.155629 0.008799 -0.793263 0.990911 -0.490613 -0.337831 -1.588776 -0.134987 0.549250 0.576577 0.071856 0.310907 -0.165046 -0.499058 -0.873970 -0.006656 0.000782 0.681267 -0.176182 1.304478 0.706496 -0.609684 0.029522 -1.750524 0.981172 0.008601 0.852494 0.137122 0.825937 0.543192 -2.003951 1.619659 -0.024644 0.330018 -0.000455 0.897677
AAAAAT 0.456612 0.647686 0.794682 0.517841 -0.332512 -1.116256 0.165615 1.375981 -0.500999 0.416650 -0.118116 0.180040 0.255844 0.640321 -0.329151 -0.287800 -0.697401 0.150099 0.587285 -0.865738 -0.029165 -1.405472 -0.058582 -0.215487 0.537770 -0.525271 -0.978117 -0.633092 0.199497 -0.099779 -0.708584 0.540070 -0.394573 -0.205808 0.146638 0.131186 -0.144074 0.317688 0.590373 -0.433571 0.482353 -0.982891 0.201014 0.112009 -0.271993 0.405596 0.208365 0.238322 -0.810297 -0.611021
AATTCA -0.327003 1.544737 -0.859016 -0.288793 -0.458977 -0.443348 -0.310196 0.062705 -0.922345 -0.157994 -0.031124 -0.679103 1.061930 0.826852 0.989979 -1.348617 -0.173162 0.297213 -0.390280 0.172901 -0.935774 -0.489316 0.561416 -0.777451 -0.652847 -0.209742 -0.569982 -1.116196 -0.381249 -0.571200 -1.116201 0.416148 0.040872 1.220182 -0.533236 -0.669723 -0.252916 0.008077 0.760533 -0.496209 -0.026218 0.339647 0.783346 -0.400971 -1.352309 0.838883 0.192188 -0.192217 0.525205 0.495840
TGATAT 0.367157 0.103057 0.332131 0.325096 0.720639 0.501277 0.886424 -0.294974 0.173596 -0.211342 -0.021362 0.074866 -0.455897 0.325528 0.306114 1.091136 -1.101891 -0.030172 1.186697 -0.962769 -0.070891 -1.475162 0.173370 0.383922 -0.811064 0.945364 -0.515373 -0.387130 0.112191 0.646731 -1.418519 0.728396 -1.222345 0.333569 0.039836 0.012696 -0.513754 -0.181890 0.477366 0.020147 0.325830 -1.773487 0.186625 0.018603 -0.320357 -0.790697 0.355446 1.586548 0.188003 1.162689
ATATTA 0.788671 0.594517 -0.112042 0.501312 -0.201351 0.205430 0.564533 -0.283200 -0.510818 -0.186998 -0.245424 -0.047024 -0.178195 -0.552880 -0.101577 0.571883 -1.017697 0.282538 0.512370 -0.026870 -0.003121 -1.099563 0.337523 0.772599 -0.421562 1.116824 -0.272447 -0.080582 0.546517 -0.021292 -1.123304 0.013756 -0.939579 0.782304 -0.923711 -0.297069 -0.548063 -0.873840 1.140659 -0.082850 1.128554 -1.035300 0.150266 0.450339 0.092385 -0.875192 0.431503 0.251682 -1.180726 -0.192181
TTCAGT -0.434045 1.360197 -0.800950 -0.489776 -0.413767 -0.708901 0.046390 -0.311068 0.392926 0.757592 0.154216 0.721820 0.150685 0.583826 0.699526 -0.013339 -1.133985 -0.943515 -0.926880 -0.265231 -0.017287 -0.257226 0.289727 -0.522676 -0.567127 0.013849 -0.108937 -1.450440 -0.037522 -0.370393 -1.163988 0.326338 0.856617 2.333889 -0.777892 -0.455361 -0.053087 0.356599 0.233425 -0.528905 -0.577394 -0.581036 -1.545734 -1.093118 0.420183 -0.633205 0.419412 -0.545050 0.535660 0.374371
TGAATA 1.699723 0.896374 -0.092406 0.154988 0.195693 -0.382392 0.271129 -0.153471 0.409426 1.188026 0.658620 0.078898 0.854786 1.270594 0.055308 0.214772 0.826515 1.207020 0.350706 -0.426102 -0.653359 -0.722624 0.421981 0.651820 0.035025 0.276931 -0.775432 0.171108 -0.566417 0.830250 -0.112512 0.783045 -0.193501 0.303154 0.350565 -0.672179 -1.133758 -0.794338 0.586256 -0.648910 0.616084 -1.463582 -0.220280 0.102545 -0.657002 0.584374 -0.978938 0.258778 0.211518 1.470390
GATTTT -1.071673 0.146705 -0.576868 0.563729 -0.764496 0.690553 -0.340860 0.593107 1.566423 0.688121 -0.849848 -0.153469 0.040726 1.036502 0.689413 0.380818 0.095320 -1.003168 0.425788 0.322361 -0.325139 -1.161747 -0.247033 -0.890795 0.083233 1.128992 -0.377977 -0.879356 -0.577097 0.398108 0.190932 0.625636 0.668710 0.596556 -0.532248 -0.475956 -0.368130 -0.272294 -0.570522 0.448320 1.529444 -0.640407 1.145352 -1.030841 -0.035346 -0.186526 0.214257 0.286996 1.159041 -0.393822
GAAAAT 0.695687 1.050104 -0.351081 -0.424568 -0.970787 -1.009320 0.540281 1.178498 0.489025 -0.175979 0.009258 0.370785 0.714522 0.175732 0.136513 0.097772 0.845922 0.013701 0.404988 -0.242747 0.105492 -0.681221 1.036473 -0.733007 0.023983 -0.017111 -1.431631 -0.414532 0.118818 -0.077503 -1.182852 0.119100 -0.264747 -0.668468 1.685524 -0.877067 0.263693 -0.520436 -0.175840 0.610931 1.690241 0.593541 0.420149 -0.348958 -0.359317 -0.391195 0.961937 0.223992 0.003089 0.207440
GCAATT -0.526548 -0.671236 0.234231 0.441481 0.458440 -0.307939 0.070416 -0.752255 -0.577739 -0.022449 -0.776958 -0.485124 0.154367 -1.093015 1.131617 -0.314027 -0.644134 0.786720 -0.266986 -0.371897 -0.922065 -1.141789 -0.394161 0.238710 0.716641 0.018668 -0.916154 -0.734952 -2.056141 -0.095712 -0.585456 -0.533489 0.175583 0.759620 -0.353283 -0.095291 -1.061009 -0.610922 1.146746 -1.147412 -0.854997 0.288549 2.155776 0.493279 -0.958379 0.652145 -0.360032 -0.189024 0.215720 -0.261670
ATATCT 0.820156 -0.535181 -1.189235 -0.121320 -0.106211 0.853526 -0.180861 0.048536 -0.708099 -1.686603 0.578654 0.401721 -0.841297 -0.406868 -1.129610 -0.516967 -0.940345 0.664936 0.776135 -0.060651 -0.799303 -1.095879 -0.074551 -0.289314 -1.080396 0.563662 -0.577118 -0.831142 -0.304599 -0.680695 -1.358314 0.835231 -0.217865 0.411755 0.669476 0.720013 -0.407244 0.040981 0.730665 0.398315 0.467483 -1.354607 0.128689 0.371230 0.357076 -0.148010 0.488378 0.836285 -0.523503 0.824159
TCAGAA 0.356177 1.713692 -0.373211 -0.340798 -0.678698 -1.070195 0.337856 -0.322658 0.016076 -0.032186 0.871894 1.777830 0.510184 -0.269839 0.193149 -0.954018 0.566445 -0.311013 -0.200935 0.606043 0.284863 -0.060077 0.603093 -0.787539 -1.064655 -0.510000 -0.973215 -0.640833 0.625636 -0.782161 -1.731144 0.296063 -0.386359 1.306752 0.152953 -0.498036 0.262168 -0.397128 1.037133 -1.245069 0.323980 0.720216 -0.456779 0.534263 0.724400 -0.204402 -0.043202 0.106545 1.186220 0.824946
TGAAGA 0.650449 0.077878 0.659112 -0.050001 -0.824205 -0.113485 -0.683408 -0.364083 0.571998 1.522243 -0.116056 0.289863 -0.335531 0.762929 -0.006210 -0.456726 0.682005 -0.361682 1.370350 -0.283388 -0.695053 -0.366077 0.867854 -0.132048 0.636838 0.479591 -0.842961 -0.557736 1.547772 0.835394 -0.014751 0.162473 -0.436663 0.421337 0.059388 -0.752767 -1.506144 0.148886 -0.533653 -0.820008 0.066423 -0.729270 1.177451 0.213834 0.929900 1.573820 -0.036025 0.364160 -0.878445 0.531887
AATTGA 0.488628 1.008843 -0.635284 -0.223546 -0.458335 0.489789 -0.403031 -0.574274 0.126401 0.944053 0.002366 -0.493089 0.682859 -0.030758 0.431885 0.050928 1.203918 -0.502862 0.976836 0.008179 -0.595185 -1.103289 0.763956 -0.543377 0.030261 0.384433 -1.021925 -0.931427 -0.571661 0.427890 -0.764699 -0.657841 -0.222306 -0.123018 -0.350041 -0.249852 -0.558052 0.062404 0.512775 -0.134932 0.467878 0.962197 1.531570 0.726819 -1.157117 1.304931 -0.449204 -0.404497 0.265946 1.220697
CAATGA -0.607561 0.364155 0.448164 0.383131 0.618960 -0.930702 0.269348 0.071381 -0.869549 0.992133 -0.241636 -0.429667 -1.169468 1.581779 0.728492 0.289758 0.224897 0.474150 0.158600 -1.695617 0.393247 -0.759352 0.723748 -0.052500 0.316613 0.287805 -0.273934 -1.400603 0.140515 0.226548 -1.063733 -0.643899 -0.421481 0.695784 -0.012990 -0.254132 -0.761184 -0.600139 0.789819 -0.860009 -0.727042 0.339966 0.123483 1.212334 -0.980050 0.761031 -0.900675 0.903576 0.005472 1.866604
TAAATT -0.279427 0.952800 -0.680944 -0.513659 0.042622 -0.677691 0.356618 -0.176159 0.208677 0.326245 -0.400956 -0.212946 0.280133 -0.427139 0.273419 0.605021 -0.042777 0.003381 0.153637 -0.041042 -0.486937 -1.092815 -0.784616 -0.740195 1.027679 -0.362712 -0.963627 0.094606 0.113585 0.681939 0.231181 0.580153 0.093680 1.226947 -0.329982 0.105003 -0.321725 0.140995 0.993519 -0.587738 0.834548 -1.001417 0.820463 -0.700206 -0.670585 0.067894 -0.084100 -0.347742 -1.579415 0.361352
TATACA -0.224043 -1.477750 -0.894529 0.537788 -0.797283 -0.815595 -0.351459 0.119170 -0.111521 0.440276 -0.121715 -0.080973 0.939598 -0.315029 -0.893594 0.308160 -0.339073 1.199429 -0.878149 1.247398 -0.128527 -0.925007 0.437199 0.680032 0.953549 -0.167859 -0.118230 -1.196514 -0.030441 0.663698 0.222360 -0.580991 -0.395173 1.199065 -0.393833 -1.173913 0.155945 -0.185139 1.240198 1.588888 0.452625 -0.420225 -0.085120 -0.125681 -0.118841 0.509701 0.884901 1.591987 -0.313169 0.995655
CTATTT 0.735736 -0.538372 -1.724074 1.354295 -0.427065 -0.552952 -0.374963 -0.442434 -0.419869 0.809539 -0.943379 0.895524 -0.558441 -1.075515 -0.287701 -0.097374 -0.428247 -0.510712 -0.682690 0.789817 -1.260433 -0.683291 -0.379777 -0.528102 0.047925 -1.387201 -0.839348 0.160465 -0.035643 0.848249 -0.200916 -0.003415 -0.860273 0.413466 -0.903381 -0.233257 -1.156931 0.454935 0.511143 -1.082091 0.306750 -1.076080 0.265967 0.088985 0.037548 -0.001322 0.516864 0.063365 -0.630986 -0.230935
GTTCAA -0.835985 0.954761 -0.272782 -0.602324 0.611923 -0.455751 -0.144005 -0.596371 -1.084816 -0.063761 -0.559146 -0.387101 0.472529 0.676084 0.714408 -0.922842 -1.380673 -0.993377 -0.870818 -0.379616 -1.446292 0.188271 1.787350 -0.188456 -0.378218 0.293208 0.014204 -0.703646 0.225082 -1.233739 0.137203 -0.495823 -0.411722 1.528956 0.005200 -0.417457 -0.855989 0.289169 -0.326609 -0.365509 -0.073960 0.304268 1.024931 -0.790852 -0.914975 0.273723 0.969407 0.701066 0.028418 0.700521
TCAATA -0.280166 1.054078 -0.160679 0.676076 0.161330 -1.256156 -0.549956 0.079489 0.162275 -0.408130 1.247167 -0.363310 0.561205 1.384399 -0.663658 0.259618 0.235593 -0.478637 -0.171380 0.238223 -0.530808 -0.730809 0.592283 0.753185 -0.222408 -0.895949 -0.476881 0.523400 -0.474473 0.752771 -0.303322 0.433187 0.800323 0.781107 -0.306528 -0.162716 0.084167 -1.741668 1.410786 -0.909155 1.375047 0.214648 -0.170498 0.479233 -1.434604 0.391237 -0.679553 -0.048420 -0.307451 1.104242
TAAAGA -0.295949 0.484465 0.646031 -0.820610 -0.772086 -0.363402 -0.601074 0.243984 0.015622 0.436350 -0.045066 0.331159 0.084732 -0.832168 -0.758790 0.439998 0.178991 -0.096633 1.560832 -0.339582 -1.070552 0.181585 -0.021189 -0.848133 0.643890 -0.231880 -0.964880 -0.413212 1.183077 0.349158 0.596302 0.627706 0.592082 1.015097 -0.567338 -0.744516 -0.708589 -0.247146 0.188309 0.154329 1.209027 -0.422145 1.272650 0.050410 0.573877 1.447544 -0.004946 0.111404 -1.293388 0.250855
TTAATT 0.248255 0.760997 -0.449782 0.222345 0.034990 -0.113880 0.108509 0.366120 0.233377 0.529575 -0.747198 -0.563308 0.337879 0.020683 -0.101882 0.341628 -0.991315 -0.209896 -0.225750 0.527905 -0.105744 -1.417969 -0.353832 -0.914837 0.322364 0.662081 -0.778495 -0.452635 0.268419 0.846317 -0.112523 -0.301069 -0.816282 0.561240 -1.133477 0.137014 -1.005345 -0.911693 0.378218 -0.710342 0.497346 -0.538040 -0.261732 -0.111441 -0.491683 -1.019791 -0.715577 -0.281493 -1.373311 -0.706973
TATCAA 0.519535 1.026761 -0.270619 1.113612 -0.002624 -1.307460 -0.723268 0.278276 -0.153030 -1.084585 0.901743 0.595237 -0.006788 1.506985 -0.695077 0.842774 -1.039207 -1.302600 0.397817 0.676783 0.229198 -0.824953 0.394237 0.971082 1.147190 -1.204872 -0.022579 -0.115161 -0.688182 0.530015 -0.116919 -0.306281 0.283933 1.009991 -0.519073 -0.791382 -0.071151 -0.551228 1.062696 -0.449494 0.883448 0.459469 0.698271 -0.418686 -0.628889 0.980159 0.463191 0.699728 -0.462724 0.233798
TAAAAG -0.784396 0.747858 0.817621 -0.979576 -0.001315 -1.025868 0.763128 0.814875 0.750881 0.701538 0.420347 -0.229750 0.251995 -1.273731 -0.759397 0.764625 -0.322748 0.356905 0.748589 -0.781020 -0.887407 -0.326091 0.402471 -0.457158 1.329280 0.245016 0.256181 -0.870689 0.736486 0.085337 0.745539 0.942049 0.263125 1.096805 0.626189 -0.221381 -0.290829 0.020237 0.600066 -0.587263 0.853315 -0.821516 0.226418 -0.217463 0.138950 0.187446 0.105198 -0.200203 -1.235841 -0.245704
TGAAAT 0.798667 1.051683 -0.113369 0.115086 -0.087549 -0.669202 0.048261 1.729716 0.159400 0.700330 0.146770 -0.052744 0.470240 1.515130 -0.192941 0.294901 0.190522 0.538789 0.083065 -1.195688 0.274298 -0.557461 0.626497 0.294705 0.469216 0.287692 -0.569876 -0.733515 0.305462 0.662275 -1.527504 0.264908 -0.622099 -0.261932 1.762394 -0.890939 -1.250106 0.440637 -0.231107 -0.372562 0.824817 -1.189148 0.120362 -0.012401 -0.212338 0.342487 0.140725 0.534358 -0.250490 -0.066831
TGGAAA 0.667779 0.832051 -0.179475 -0.736470 1.157924 -0.991525 0.173654 -0.055400 0.726335 0.593075 0.223903 0.460305 -0.004959 0.184050 0.700070 -0.402817 1.319843 -0.489269 0.904618 0.175401 0.442748 -1.324121 0.049282 -0.969325 0.308741 -0.952354 -1.443175 -0.860140 -0.365253 -0.076726 -0.290088 -0.315302 0.632599 -0.518141 1.287755 -0.925856 0.302471 -1.128294 0.431706 0.625668 1.193406 0.419742 0.434072 -0.129673 0.058770 -0.852803 0.536644 0.180081 0.923096 -0.102981
TGAACA 0.963965 0.508054 -0.255419 0.908983 -1.191090 0.688536 -0.450414 -0.492862 0.126819 1.463384 0.591724 0.228456 0.372125 1.576360 0.944115 0.447287 1.563677 0.762661 1.312929 0.673763 0.479702 0.819529 1.040816 -1.439114 -0.184364 0.004464 -0.071159 -0.833615 0.747443 -0.454899 -0.924289 -0.712660 -0.492277 0.310989 0.629946 -1.330568 -0.972405 0.102920 0.628885 0.340344 -0.080622 -1.372917 0.154594 0.514297 0.288272 0.059974 -0.125294 0.821040 -0.380165 0.733346
ATTGCA -0.252553 -0.390097 0.092091 -0.295713 -0.655063 0.328895 -1.005170 0.329035 -0.071256 -0.123728 0.394718 0.010374 1.868265 -0.256124 0.953082 1.200912 -0.322539 -0.215014 0.268501 0.481086 0.329868 -1.909947 0.224026 -0.766599 -0.227053 0.299013 -0.912774 0.034470 -0.902696 0.936628 -0.971655 -0.837850 0.095190 -0.277541 0.619762 0.781328 -0.661364 -0.056383 1.417200 -0.336036 -0.961494 -1.090339 1.929368 0.053381 -0.793879 0.630170 -0.350945 -0.550364 -0.685600 -0.498118
AAACAA -0.104444 1.081621 0.809243 -0.428983 0.107617 -1.432975 0.213582 0.973693 -0.496446 0.118183 0.276810 0.772575 0.064286 -0.305850 -0.775707 0.288033 0.052100 -0.002477 1.058458 0.426980 -0.122985 -1.231167 0.093117 -0.152436 0.200230 -0.611125 -0.635644 -0.217314 0.537838 0.128235 0.325384 0.230913 -0.422188 0.187583 0.552659 -0.976135 0.204688 -0.663240 0.635849 0.844652 0.532361 0.316948 0.081948 0.282519 -0.690941 0.038490 -0.133816 0.113937 -1.030932 -0.745265
AATTCT 0.258251 1.195643 -0.657815 0.600717 0.650886 -0.195436 -1.086994 -0.462215 -1.248165 -0.322825 -0.374778 -0.413450 -0.092049 -0.399777 0.105073 -0.628075 0.531492 0.819786 0.011828 0.747015 -0.705182 -0.617247 -0.522323 -0.420766 -0.577613 -0.319196 -0.552347 -1.182493 -0.893073 -0.044442 -0.647113 0.271831 0.324780 0.108150 -0.393061 -1.179602 -1.354915 -0.631150 0.530587 -1.050279 -0.140459 0.448027 0.311963 -0.487149 -1.546849 0.848888 0.498961 -0.831247 0.016282 0.697038
CTTGAT -0.006679 -0.681501 -1.744509 -0.215969 0.459983 1.872658 0.217299 0.630780 1.223987 0.816835 0.300344 -0.024085 -0.568321 0.366638 -0.104213 0.249752 0.106066 -0.951960 1.697335 1.124171 -0.413366 -0.986655 0.496627 -0.914948 0.145150 0.441617 -0.605023 -0.555678 0.216743 0.361992 -0.660174 -0.189285 1.318678 0.358458 -1.287909 -0.344368 -0.520699 -0.049836 0.014075 -0.707099 0.298394 1.058666 1.076668 -0.201690 -0.370174 0.735406 0.145516 0.255989 0.026831 1.131909
TATGCA 0.397053 -1.147137 0.319491 0.541109 -0.740657 -0.819180 -0.606815 1.550184 -0.695887 0.523380 1.050377 0.677073 0.834288 0.086604 0.009559 1.287973 -1.351885 0.810500 0.121389 -0.626859 0.024048 -1.190592 -0.904778 0.551944 -0.743392 0.270167 -0.152965 0.646822 -0.592630 0.304692 -0.645213 -1.720630 -0.485671 0.229540 -0.811759 0.074543 -0.212120 -1.014660 1.069333 -0.596295 -0.654739 -0.625057 1.537694 -0.620957 -0.571335 -0.061564 0.994841 0.676147 -0.294062 -0.129910
TGCAAT -0.529849 -0.826826 0.846800 -0.074807 0.446380 0.186353 0.218165 0.112193 -0.433114 0.041417 -0.328102 0.090308 -0.125939 -0.078235 0.195030 0.911352 -0.512268 0.754620 -0.036864 -0.711091 -0.413048 -1.582981 -0.293214 0.309851 -0.270178 -0.285830 -0.692367 -0.830263 -1.641557 -0.502903 -0.363411 -1.015482 0.424066 0.697888 -0.010744 0.406492 -0.862798 -0.948184 1.190289 -1.307982 -1.227946 -0.258243 2.325233 0.740891 -0.995920 0.100896 0.237672 -0.258577 -0.155521 0.177429
TTACTT 0.458639 1.302521 -0.079675 -0.245957 -0.018706 0.806670 0.256378 0.326562 0.180732 1.339706 -0.963157 0.105963 -1.117944 -0.637439 -0.468384 0.477220 -0.910508 0.009260 -0.739661 1.752363 -0.567083 -0.985479 -0.075748 -0.108666 -0.637629 0.934450 -0.055859 0.385816 0.037239 0.459145 -1.347106 -0.723065 0.620636 0.628543 0.192566 -0.983315 -0.415991 0.206293 0.056943 -0.487170 1.225169 0.102481 -0.120632 0.501045 -1.273090 -0.970387 0.477515 -0.438878 -0.376853 -0.170681
TTCTAT 0.897147 -0.279019 -1.229367 1.186633 0.301502 -0.509559 -0.554537 -0.386149 -1.874689 -0.051564 -0.544756 0.967865 -0.325722 -0.966631 -0.588097 -0.138124 -0.639405 -0.610343 -0.222543 1.010070 -0.648234 -0.628345 -0.358319 -0.589882 -0.659979 -0.601562 -0.054278 -0.551454 -0.495824 0.307140 -0.350705 -0.034938 -0.467384 0.506157 -0.608853 -1.116054 -1.158343 -0.331157 0.225056 -1.175718 0.034983 -1.035307 -0.523701 -0.651533 -0.206920 0.579164 1.415638 0.102161 -0.550686 0.649692
TACTTT 0.437182 -0.013691 -1.138784 -0.504850 -0.212657 0.575003 -1.576193 0.917517 0.528215 0.435526 -1.082064 1.100151 0.136424 0.104724 -0.056241 -1.060664 -0.841641 0.589043 0.046845 0.961775 -1.114264 -1.640697 -0.007596 0.454410 0.660101 0.785314 -0.072883 -0.192278 -0.125848 -0.190391 -0.272026 -0.144205 -0.034232 0.507373 -0.444066 0.175251 -0.136916 -1.266676 0.430969 0.298866 0.055929 -0.584716 -1.471471 0.857762 -0.257393 0.239700 0.480398 0.091261 -0.020319 0.676113
GTTTCT 0.197325 0.309948 -0.362647 0.751622 0.203848 0.561324 -1.428064 -1.533148 -1.158344 0.457665 -0.424771 0.067747 -0.473568 -0.634637 -0.929654 0.066906 -0.387656 -0.760734 0.189078 0.419520 -0.702830 -0.365337 -0.257332 -0.387072 -0.509098 -0.154490 -0.145019 -1.147581 -0.135252 -0.301069 0.397278 -0.229135 0.742753 0.315665 0.420280 -0.771960 -0.712767 -0.988144 0.322687 -1.506828 -0.110370 -0.299365 -1.252697 -1.018687 -1.070682 -0.392225 1.092793 -0.451803 0.204779 0.204376
AAGCTT -0.341208 -0.699672 -0.065090 0.946445 0.591305 -0.710142 -0.826578 0.065564 0.833460 0.717321 -0.283802 0.850270 -0.359620 -1.060256 0.512483 -0.917629 -0.752673 -0.040210 0.753564 0.625379 0.067370 -0.779720 0.649362 0.140367 1.055884 -0.805517 0.820576 -1.967649 1.138171 -0.594345 -0.908232 0.939729 0.691852 0.215591 0.612045 -0.776162 -1.393657 0.109996 0.079180 0.323015 1.322956 0.563166 1.209182 0.158116 -0.068033 -0.460307 -0.671997 -0.904527 -0.184748 0.259532
CTTCAA -0.519439 0.414778 -0.709786 -1.012979 1.237941 0.121999 -0.009171 0.357227 0.412856 -0.047640 -0.482100 0.448394 -0.671131 1.121457 0.224324 -1.600525 -1.593892 -0.069488 -0.153911 0.389779 -1.217686 -0.703629 0.589356 -0.363177 -0.260832 0.078219 1.265042 -0.784286 0.200296 -1.046050 -0.950304 0.475906 0.632068 1.180786 -0.137836 -0.631141 -0.352866 0.876322 0.916068 -0.036910 0.067326 0.854799 0.757613 0.698041 -1.145736 0.948440 0.585544 -0.105569 -0.726169 0.740666
CATGAA 0.654667 -0.080275 -0.230399 0.205298 -2.022341 0.041432 0.375772 -0.343257 0.928192 0.774491 -0.341962 0.597626 0.432741 0.404244 0.707214 -0.956353 1.004764 0.754825 1.113666 -0.042846 0.913872 0.735316 -0.479738 -0.849687 -0.791074 -0.164427 -0.995277 -0.913842 -0.187539 -1.129308 -1.283939 -0.098746 -0.404385 0.344034 0.327587 -0.428685 1.194233 -0.388066 0.792561 0.281468 1.270564 -0.181217 0.543101 -0.798547 -1.218520 -0.329049 0.189126 0.207848 -1.704352 -0.229298
CTTTAT 0.110314 0.349567 -1.209957 0.006398 0.374696 1.476362 -0.709653 1.025216 -0.125666 -0.251468 -0.897722 1.164400 0.533361 0.227560 -0.152290 -0.029438 -1.425548 0.384373 0.720862 0.227154 -0.004847 -0.962251 0.152361 -0.138649 0.479394 1.344422 0.875284 -0.728081 1.263706 -0.433120 -1.259879 -0.617743 -0.877554 0.663391 -0.195676 0.187778 0.125983 -0.960326 0.350417 -0.067373 0.620029 -0.214553 -0.239843 0.838171 -0.148354 -0.757548 0.532226 -0.462243 -0.715181 -0.226850
GTCATT 0.425826 0.050418 -0.098527 0.327184 -0.039641 -0.403222 -0.659295 -1.390726 1.176311 0.343123 -0.320683 0.078932 0.775465 1.118093 -0.012900 -0.111649 -0.829307 -0.673111 -0.439031 1.012148 0.333157 -1.181887 -0.402234 -0.128169 0.025873 -0.860699 -0.346559 0.083610 0.405495 0.770916 0.006809 0.572422 -0.301616 0.524466 -0.052967 0.348853 1.653893 -0.234310 -0.029594 -1.882744 0.295926 -1.240653 0.445433 -0.304810 -0.761891 0.109954 -1.104862 -0.335727 -1.675819 -0.064603
CTTTTC -0.328284 0.011831 -1.569022 -0.595918 0.644894 0.340035 -1.387602 0.183445 -0.599275 0.334506 -0.933270 0.761230 -0.254666 0.316289 0.034561 -1.501060 -0.990109 0.424561 0.595581 0.694611 -0.835735 -0.597340 -0.752122 -0.914363 -0.044727 0.670772 0.747884 -0.351762 0.042344 -0.561233 -0.507185 0.291517 -0.310402 0.989251 0.044623 -0.513344 -0.134676 -0.582436 0.239126 -0.595846 -0.675947 0.084173 -1.013505 -0.480469 -0.355705 -0.051250 0.539127 -0.351194 -0.008304 0.264326
GCTTTT -1.170605 0.398816 -0.914719 0.423616 0.045002 0.088725 -0.379714 0.094175 0.850095 0.624650 -1.008191 1.040385 -0.027872 -0.275881 0.751246 0.095026 -0.799552 -0.320007 0.425826 0.879350 -0.544970 -0.567793 -0.022571 0.111099 0.456431 -0.059604 1.046345 -1.564708 -0.331433 0.216027 -0.672116 0.363556 0.649002 0.176105 0.854143 0.118190 -0.702924 0.285357 -0.475953 0.562643 1.476977 -0.869963 1.276000 -0.499856 -0.365504 -0.655499 -0.392398 -1.344630 0.925860 -0.009926
AATGTT 0.318675 0.735392 0.124927 -0.808613 -0.161866 -0.810839 -0.710418 0.396829 -0.713392 0.300643 -0.387443 -0.502127 -1.087812 0.264091 -0.323427 0.087688 0.056916 0.500132 -0.406573 -0.433934 -0.821373 -0.871933 1.085309 -0.528965 -0.444621 -0.004944 -0.351804 -0.733094 -0.219648 -0.453398 -0.439760 -1.272046 -0.974796 0.713211 -1.126683 -1.415001 -0.912478 -1.010968 -0.312416 -1.202173 0.515305 -0.229911 0.693831 0.275488 0.597485 -1.226427 -1.289202 -0.120226 0.049841 1.172533
GAACTT 0.910330 0.865025 -0.675208 0.447970 0.545177 0.089330 -1.174490 0.463625 -0.054377 0.736373 -0.263603 2.138872 -0.466646 -0.032300 0.545006 -1.009665 1.188006 0.412892 1.267783 0.606229 -0.189987 -0.868793 0.054685 -0.903371 -0.408330 0.880886 0.664558 0.350531 0.727355 -1.255470 -0.381971 -1.266619 0.203827 0.897530 0.526831 -1.425276 -0.010278 0.178628 0.040813 -0.288455 -0.424624 -0.849083 -0.035208 0.208669 -0.548639 0.808861 0.330795 -0.148247 -0.400073 -0.375707
TTTGAT 0.367310 -0.112673 -0.773737 0.706860 0.497621 0.741639 0.067878 0.411764 1.078234 1.000391 -0.649212 -0.462802 -0.714702 0.610988 1.048615 0.829621 -0.950743 -0.253276 0.405504 -0.674245 -0.354213 -1.959622 -0.217742 -0.233362 -0.136429 0.652097 -0.822071 -0.331691 0.243277 0.733667 -1.015194 0.623983 -0.899366 0.478957 1.109749 0.182243 -0.204015 -0.152492 -0.173172 -0.508969 -0.193378 -1.422375 -0.166463 0.554895 -0.204330 0.230563 0.395198 0.828580 0.693797 0.759165
ATGATA 0.011289 -0.523397 0.003919 1.446503 -0.681527 1.193336 0.645770 0.838917 1.037866 0.248472 0.223796 -0.622532 0.042254 -0.231133 -0.451499 0.653580 0.659180 0.069806 0.958510 -1.118630 -0.188492 -0.782726 -0.567963 -0.501570 -0.212823 0.923760 -0.512338 -0.369679 0.895327 -0.751757 -1.036928 0.286156 0.246360 0.806045 -0.139458 -0.194889 0.526506 0.164014 0.453516 0.401321 1.460708 -0.395984 0.673252 -1.362593 -1.041395 0.968090 0.323873 0.775744 -0.548683 1.166269
ATATAA 0.387149 0.888038 0.852416 -0.148743 -0.433285 -0.216296 0.521778 -0.403994 0.055940 -0.173678 0.232817 0.250364 -0.494443 -0.816056 -0.066920 0.997048 -1.072387 0.821998 1.058264 -0.928123 -0.137630 -0.628974 -0.728421 -0.285440 -0.505999 0.257593 -0.129212 -0.377236 0.408556 0.082869 -0.203488 1.033976 -0.158988 1.305241 -0.736644 0.414776 -0.144678 -0.342825 1.304493 0.529287 1.677567 -1.565213 0.923055 0.271853 -0.111945 -0.507036 0.050042 0.570616 -0.864047 0.341229
CATCAA -1.051646 0.867562 -0.026366 0.464215 -0.740327 -0.958268 -0.601211 0.460352 -0.751944 -0.875453 1.205632 -0.220191 0.120703 2.293179 -0.420516 -0.794128 -0.320440 -0.994722 0.551617 0.948347 -0.328686 -0.402953 1.178649 0.086260 0.265720 -1.213555 -0.351326 -0.159312 0.566796 0.559422 -0.611106 -0.410058 1.484881 0.462900 0.720589 -0.311966 0.247273 -0.332676 0.900201 -0.691765 -0.154010 0.217557 0.189699 0.062046 -0.927854 0.133428 -0.538596 0.261283 -0.741424 0.195294
AAAATA 0.739400 0.716320 0.819269 0.243765 -0.445443 -1.495893 -0.060588 1.464488 -0.669480 0.520233 -0.218027 0.078869 0.139927 0.314105 -0.691294 0.486790 -0.480869 0.396977 0.228325 -0.042693 -0.327810 -1.108641 0.251300 0.114601 1.372911 -0.379872 -0.544316 -0.706146 0.039393 0.214205 0.049702 -0.110543 0.200035 0.297438 0.206237 -0.118060 -0.221906 -0.044766 0.864229 0.325708 0.510898 -0.756160 0.103350 -0.269564 -0.227418 0.769082 0.266824 0.081567 -0.627734 -0.493223
CATAAA -0.721516 -0.036651 -0.280381 -1.756939 -0.793211 -0.903870 0.209747 0.219846 -1.041586 0.632550 0.681707 -0.089082 0.280050 0.084623 -0.541918 -0.242539 0.080540 0.991826 0.881775 -0.021805 -0.733289 -0.607041 -0.191321 -0.875489 0.426287 -0.341023 -0.390581 -1.008123 0.527522 0.016840 0.532593 0.037223 1.015896 1.400268 0.271719 0.493583 -0.179259 0.750297 1.438376 0.686019 1.015915 -1.089774 0.805116 -0.284709 -0.327797 -0.341714 -0.503199 0.723338 -1.292450 0.246051
TTTATC 0.678051 0.892648 -1.226328 0.989625 -0.644903 -0.248836 0.002551 0.622925 0.215523 -0.377788 0.830408 0.549230 -0.607271 0.770140 -1.060764 0.488753 -1.326988 -0.815698 0.712858 1.301290 -0.162259 -0.597872 -0.611641 0.599422 0.785314 0.413849 0.323264 -0.771242 -1.280176 0.971875 0.688452 0.132089 -0.024066 0.906214 0.255367 -0.131689 0.295774 -1.471223 0.202555 -0.746955 0.657437 -0.494977 0.204058 -0.282794 0.074100 -0.738079 0.340216 1.023897 0.949535 -0.350270
AGATTT -0.273412 0.417407 -0.327460 0.707028 -0.191217 0.136503 0.274557 -0.440713 0.924782 0.935876 -0.359705 0.833044 -0.768784 -1.312751 -0.016785 -0.378002 -0.084355 0.547585 -1.203715 0.063828 -0.740532 -1.829592 -0.166676 -0.991006 -0.060818 -0.633019 -1.059965 -0.160033 0.332083 0.355578 0.022302 0.469778 -1.239845 1.010384 0.227337 -0.063082 -0.128868 0.461423 0.769260 -1.639492 0.677699 0.068014 0.583878 -0.345261 0.492095 0.372032 -0.767918 0.532756 0.236066 -0.941588
ATAGAA 0.504114 1.151638 0.081050 0.255597 -0.030718 -0.373350 -0.871453 -0.181991 -0.945844 -0.130216 0.980150 0.789550 0.202935 -0.263208 0.359440 0.240757 0.255252 1.488260 0.254495 -0.656260 -0.281955 -1.467436 1.363648 0.317916 -1.328939 0.195464 0.460999 0.413197 1.099252 0.134045 -0.323947 -0.024745 -0.385392 0.461754 0.716258 0.161364 0.053451 -0.344906 0.923932 0.658623 1.906706 0.100388 0.750036 -0.229232 0.139901 -0.064718 -0.691430 0.279096 -0.952855 -1.010003
CACTTT 0.345261 -0.016305 -0.757758 -0.730654 0.103674 0.464327 -0.855229 0.849555 0.011965 0.630144 -0.769573 -0.063625 -0.031562 1.033746 -0.085464 -0.359220 -1.143734 1.109700 0.997884 1.030737 -0.513197 -0.632324 -0.087111 -1.682078 0.220265 1.251165 1.061250 -0.052812 0.517903 0.043997 -0.642209 -0.073400 -1.141293 0.464093 0.014392 0.425991 0.214930 -0.849905 1.555950 0.237147 -1.132182 0.032025 -0.530812 0.102282 -0.437188 -0.410325 0.532071 0.188073 1.039300 -0.589887
ATGATT -0.395236 -0.439699 -0.338692 1.029329 -0.905736 1.596656 -0.267813 0.890945 1.292313 0.527100 -0.954961 -0.483740 0.455401 0.914119 0.712193 0.333654 0.106899 -0.749117 0.608571 -0.703380 0.581107 -0.959718 -0.547998 -1.046051 -0.052102 0.955482 -1.223702 -0.987680 -0.234106 -0.430488 -0.642279 0.713895 -0.448789 0.347193 -0.985379 -0.145859 0.301372 -0.269957 0.194710 -0.104263 1.475337 -0.313661 0.598184 -0.858448 -0.660554 0.170163 0.105458 0.564705 -0.254329 -0.647834
ATAGCA -0.281596 -0.025244 -0.878267 0.531029 -0.325177 -0.471241 1.129039 -0.518163 -0.437564 -0.245911 1.060894 -0.271357 0.769429 -0.184192 0.370069 -0.700780 -0.008952 1.108692 0.360583 -0.728878 -1.067471 -0.362517 0.505704 0.720139 0.761482 0.901781 1.058731 0.320384 0.669549 -0.188112 -0.678426 0.091317 0.565078 -0.198657 0.886357 -0.185986 -0.096986 -0.780206 2.413357 -0.802068 0.379207 -0.848347 0.860553 -1.536494 0.215927 0.374113 -0.497341 1.079469 -0.314730 0.563077
ATCATC -0.628073 0.877524 -0.999814 0.451088 -0.831548 0.474113 1.022719 0.051327 -0.360239 -1.425048 0.159445 0.712123 -0.236610 1.088506 -1.333740 -1.293752 -0.561281 -0.645772 0.270275 -0.095537 -0.188930 -0.194236 -0.211762 -0.246398 -0.270711 -0.627972 -0.802026 -1.216128 0.882488 0.934088 -0.945830 -0.455736 1.301618 0.271007 0.772644 0.047841 0.967472 0.300708 0.408498 -0.928800 -0.278811 -1.005720 0.682489 1.217420 -0.485391 -0.760079 0.124464 0.483515 -0.683144 0.174687
ACTGAA 1.512626 1.047172 1.300879 -0.234041 0.008173 0.263050 0.068829 0.512086 0.441625 0.815327 -0.456157 0.495372 -0.713012 1.324868 0.250246 -0.801791 0.825442 0.491004 0.277385 0.354268 0.071254 0.225563 1.066759 0.974109 0.449844 0.569467 -0.591734 -0.101601 1.144281 0.376919 -0.005756 0.182538 -0.618006 -0.180510 0.965969 -0.454916 -1.659471 0.020083 1.045458 -0.255006 -0.392000 -1.833616 0.444854 0.161769 -1.146999 0.899021 0.075850 0.227856 0.345116 -0.024274
TAAACA -0.852898 1.582644 0.366782 -0.416023 0.018707 -0.303002 0.203113 0.587605 -0.157484 0.244144 0.673253 0.099684 1.004119 0.175589 0.033357 0.341261 0.042040 0.018457 1.134596 -0.312586 -0.498098 -0.145969 0.091256 -1.302981 0.328161 -0.903119 -0.063562 -0.246707 -0.352547 -0.488886 0.947022 -0.142076 0.328956 1.162471 -0.305255 0.170942 -0.339841 -0.065527 2.054596 1.538873 0.289131 -0.277690 0.793344 0.001520 -0.355746 -0.591643 -0.137861 0.599670 -1.165746 0.933803
GAAATA 1.345781 1.154220 -0.306425 -0.089972 -0.088514 -1.352864 0.546468 0.088866 0.259750 0.602025 0.498200 0.529942 0.654336 -0.190366 0.109516 -0.544921 1.082442 0.425618 0.360051 0.176763 -0.875411 -0.932705 0.128263 -0.328600 -0.126573 0.076457 -1.564726 -0.167312 -0.347508 -0.092301 -0.062101 0.611246 0.047653 -0.299665 0.233278 -0.587390 0.881788 -1.624418 0.751025 0.760588 1.284008 0.194111 0.331777 -0.120355 -0.750805 -0.201849 -0.005352 -0.347702 0.167346 1.385282
GTTCTT -0.102789 0.703998 -1.274862 -0.521053 0.580398 -0.176741 0.037762 0.008067 -0.654488 0.859722 -0.053957 -0.479249 -0.057468 -0.139961 0.290085 0.057393 -1.140868 -0.999978 0.246407 1.494046 -0.625832 -0.011327 1.572223 -0.567655 -0.415094 0.977077 -0.800966 -0.654794 -0.476498 -0.283595 0.515785 -0.073539 -0.219913 0.616434 0.544593 1.191029 -0.664862 -0.779262 -0.687879 -0.670063 -0.118191 0.192878 -0.236480 -1.403156 -0.186999 -0.420765 0.755467 0.367756 -0.253212 0.035963
GTTTTC 0.067393 0.317835 0.646034 0.799866 -1.182643 0.286899 -1.182152 -1.084047 -0.580801 -0.078755 -0.933605 -0.094806 -0.279036 0.600435 -1.037691 -0.346003 -0.194107 -1.073814 -0.286715 0.017707 -1.104435 -0.870209 -0.270108 -0.482932 0.070079 -0.638830 0.207734 -0.497018 -0.436762 0.195880 -0.086460 0.005371 -0.459998 0.613618 1.240462 0.302567 0.038364 -0.664837 0.113156 -0.808065 0.252675 0.160629 0.069814 -0.229045 -0.395668 -1.873857 0.374779 -0.357605 0.613129 0.393634
TCATCT 0.583059 0.246741 -1.480153 0.113175 -0.441489 0.226489 -0.418298 -0.218921 0.242174 -1.486224 -0.232983 0.813446 -0.884145 1.160614 -1.224998 -1.184583 -1.237415 -0.450680 0.458866 0.061165 -0.578375 -0.490989 -0.678579 -0.367557 -0.627940 -0.576026 -0.983281 -0.571489 0.234665 0.600375 -1.138816 0.341451 0.625184 0.097815 0.913089 0.579566 0.701463 -0.045118 0.503230 -1.280279 0.100954 -1.219007 -0.114911 0.850867 0.379070 -0.059207 -0.075610 0.074283 -1.185112 0.215692
TTTTCA -1.483492 1.264381 -1.031881 -0.531161 -0.966093 -0.179991 0.124809 0.563150 -0.107553 0.497085 -0.227789 0.030899 0.336298 1.122722 0.804861 -0.648936 -0.974227 -0.502883 -0.344820 0.618419 -0.722400 -0.415646 0.080737 -0.295098 -0.834059 0.228277 0.837661 -1.414763 0.042693 -0.206221 -0.575339 0.309736 0.200780 1.401774 0.105640 -0.063427 -0.745004 0.410675 0.146188 -0.013835 0.894952 -0.316339 0.618965 -0.597947 -0.905333 -0.441779 0.353568 0.402483 1.353563 -0.102762
TAGAAA 0.685827 0.304915 -0.081767 0.719788 -0.895806 -1.438822 1.141078 1.010911 1.052032 -0.249961 -0.930992 0.768220 0.636401 0.247077 0.077246 -0.302451 1.105203 -0.072147 0.607442 0.442001 -0.400927 -1.179580 1.120645 -1.136867 0.139428 -0.329924 -0.684291 -0.214528 -0.135249 -0.034992 0.028788 0.059445 0.147416 -0.048100 0.487562 -0.549964 0.345450 -1.850358 0.936047 1.241792 1.007955 0.811807 0.410102 -0.676882 0.493978 0.066068 0.531594 -0.090648 0.334993 0.850368
ATAATT -0.031201 0.261043 -0.003795 0.236581 0.495147 -0.376292 0.604183 -1.099009 -0.223037 -0.048711 0.098411 -0.074082 -0.189389 -0.316579 0.563178 -0.481261 -0.412858 0.124255 -0.258245 0.329822 0.065078 -2.220175 0.257036 -0.613791 -0.218132 -0.284454 -0.231403 -0.049932 -0.133358 0.573468 -0.054196 0.908917 -1.435979 0.566756 -0.855754 -0.047951 -0.493662 -0.465675 0.937963 -0.370716 0.494898 -1.440037 0.000107 0.288115 -0.043858 -0.166422 0.406170 0.328659 -1.169757 0.270491
ATTTAA 0.432202 0.743127 -0.143427 0.476035 -0.097509 -0.656263 0.215121 -0.459021 0.334653 0.817755 -0.462255 0.002408 -0.525337 -0.965521 0.194461 -0.070521 -0.740209 0.446095 -0.475505 -0.478689 -0.576978 -0.876594 -1.059260 -1.487965 0.274335 -0.978519 -0.926549 -0.037533 0.320628 0.555890 0.666848 0.410857 0.039199 0.955707 -0.906716 0.432773 -0.494179 0.096124 0.814437 -0.552921 0.745337 -0.860672 0.809249 -0.184423 -0.514111 0.114712 -0.593753 0.392413 -1.151264 0.071971
AATCAA 0.374570 1.796522 0.530048 -0.021108 -0.568398 -1.220924 -0.285807 0.053603 -0.143170 -0.859622 0.984345 -0.620169 -0.894057 1.945150 -0.083894 0.247039 -0.468902 -0.076933 0.750311 0.055081 -0.510618 -0.441682 1.056511 0.431539 0.655434 -0.514559 -0.310742 -0.166217 -0.085993 0.028148 -0.330507 0.414676 0.006895 1.218495 -0.088018 -0.393835 -0.199122 -0.533592 0.525109 -0.658898 0.688582 0.746287 1.047238 0.462885 -0.826819 0.846242 -0.013236 -0.132466 -1.351354 0.013503
ATTGCT -0.486995 -0.197138 -1.114130 0.053440 0.452129 0.327300 -0.791440 -0.010068 0.478752 -0.732093 -0.592621 0.158810 1.641295 -0.149062 0.493164 0.963679 -0.092200 -0.892018 -0.027859 0.509958 -0.422341 -0.965729 0.799701 -0.634701 0.193129 -0.391361 -0.044515 -0.836269 -0.183370 0.752308 -1.479385 -0.100115 -1.183218 -0.946948 -0.031489 0.557495 -1.300065 0.922239 0.694576 0.118025 0.349886 -1.194438 1.260095 0.468185 -0.695090 -0.129991 -0.723987 -1.807853 -0.632789 0.233247
TAATAT 0.231055 0.678130 -0.439943 0.449498 -0.570950 -0.688010 -0.077880 0.765158 -0.150740 -0.485125 0.132825 0.071876 -0.483999 -0.424047 -0.411778 1.135313 -0.635128 0.516152 -0.163414 -0.339951 0.155839 -0.479418 -0.682992 -0.308255 1.237016 0.212197 -0.103555 -0.412937 0.175434 0.721578 -0.296859 -0.601152 0.894856 1.296448 -0.639466 0.334644 0.011311 0.401387 0.747077 -0.172012 1.299316 -1.192504 0.823707 -1.367887 0.115434 -0.215543 0.211775 0.561899 -0.443985 1.300290
CAAAAT -0.510608 0.511602 -1.051763 -0.550790 -0.123489 -0.614754 -0.293205 1.090941 0.172464 -0.215493 0.288299 -0.264839 0.868070 0.266763 -0.238437 -0.444021 -0.568766 0.372783 -0.720133 -0.946508 -0.387637 0.580679 1.054849 0.200866 0.460281 0.510716 0.121440 -0.925855 0.014311 0.580336 -1.140793 0.532287 -0.627460 0.358592 1.575384 -1.411269 -0.347776 -0.363039 -0.089905 0.201652 1.174640 0.132160 0.644607 0.098771 -1.361093 0.747508 1.096076 0.936887 -0.329397 -0.280501
CCTTTT -0.632994 0.751857 -1.060957 0.172171 -0.915091 0.635895 -0.133303 0.598350 -0.136208 1.433287 -0.187681 0.200155 -0.460864 0.791500 -0.212344 0.231459 -0.432798 -0.160998 -0.386003 0.421992 -0.161998 -0.603229 -0.761317 -0.034843 0.756053 -0.356957 0.797840 0.228055 -0.030961 0.730838 -0.726565 0.794671 0.429654 0.688584 0.821147 0.353079 -0.557048 -1.106323 -0.801640 -0.793015 0.508788 -0.086919 0.865448 0.051132 0.602188 -0.651129 1.314104 -0.164219 1.285618 0.141904
CTTCAT 0.014530 -0.170144 -0.820510 -0.122570 0.108873 0.483609 0.448564 -0.262105 0.816604 0.286340 -0.594559 0.990168 -1.100258 1.157476 -0.206714 -1.429307 -1.665022 -0.170028 0.599368 0.544215 -0.453564 -0.768308 -0.672482 -0.121686 -0.812532 -0.500275 0.587954 -0.021047 0.303538 0.108192 -1.178543 0.933559 0.656721 0.692744 -0.347505 -0.329004 1.390197 0.690728 0.746697 -0.867332 0.299799 -0.950168 0.085812 0.589952 -0.848938 0.017215 -0.104388 -0.524657 -1.688898 -0.112049
TCAAAT 0.005106 1.408540 -0.014216 0.222040 -0.816624 -1.179877 -0.710063 1.369010 0.131077 -0.832340 0.501727 -0.162113 0.480310 1.895659 -0.606882 0.493111 -0.506538 -0.797286 -0.304082 0.010470 0.528889 -0.697345 1.161281 0.627587 0.296145 -0.601985 -0.482380 -0.080688 0.332391 0.672405 -1.265693 0.404327 0.232978 -0.087903 1.112497 -0.597473 0.010238 -0.109749 0.013692 -0.538059 1.484672 0.251189 0.316177 -0.184563 -0.785915 -0.030650 0.511940 0.458099 -0.792516 -0.241904
ATACAA -0.497313 0.580533 0.763720 1.281715 0.256391 -0.256965 0.473044 -0.119031 -0.227351 0.412290 1.027535 -1.014934 -0.033673 0.220126 -0.156771 0.947733 0.142967 1.685895 -0.376252 0.425210 -0.776525 -0.337974 1.015894 -1.246409 -0.203919 0.403254 0.104744 0.026108 0.782424 -0.161059 -1.496192 0.366849 0.318909 0.164128 -0.023288 -0.727412 -0.790754 -0.746221 0.159069 0.641072 1.208990 -0.768305 0.258734 1.076251 -0.541485 0.169128 1.067938 0.326368 -0.530679 0.572990
AACATT -1.080667 1.062474 -0.221187 0.537254 -0.237292 0.063241 -0.591787 0.432865 -0.601323 -0.146403 0.058689 0.853427 1.480041 1.147320 0.663422 -0.379310 1.178490 -0.556011 0.715827 0.936313 0.039369 -0.886989 -0.108875 -1.300026 -0.159750 -0.056070 0.318111 -0.875218 -0.214980 -0.094295 0.449652 -1.015323 -0.633372 0.765718 -0.106449 -0.492798 -1.165203 -0.713220 1.300818 0.821660 0.205955 -0.846622 0.222607 0.277004 -0.030090 -1.168386 -0.510549 0.745669 -1.049087 -0.070544
TGATAA 0.440031 0.034047 1.079255 0.192059 1.525152 -0.177352 0.686902 -0.570679 0.011002 0.488975 0.462407 0.037953 -0.404192 0.302395 0.303812 0.319264 -0.443848 -0.098943 1.153491 -0.704476 -0.058845 -1.924647 0.846793 -0.661153 -0.314444 0.124059 -0.593097 -0.040997 0.236476 0.513271 -0.171527 1.036103 -1.084268 0.302457 0.072003 -0.675573 -0.816509 -0.571160 0.413691 -0.150359 -0.052914 -1.899380 -0.590173 0.417821 0.023646 -0.231541 0.078688 1.191486 -0.373668 1.308206
TTCAGA -0.782211 1.673639 -0.266345 -0.443629 -0.825727 -0.426476 0.519298 0.223080 -0.312991 0.147980 -0.133085 1.278785 -0.009249 -0.115554 0.763455 -0.917012 -0.482852 -0.886981 -0.888833 0.685670 -0.050618 -0.715789 0.473077 -1.155257 -1.205489 -0.163052 -0.426067 -1.017372 0.514157 -0.769869 -1.447477 0.683122 -0.780113 1.193659 -0.459178 -0.324644 0.215312 0.254692 0.844968 -1.388512 0.271736 0.613276 -0.767478 -0.191016 0.566527 0.261786 0.281190 -0.080583 1.538491 0.605082
ATAAAT 0.399325 0.477974 0.213898 -0.043228 0.692820 -0.494295 0.165703 -0.594209 -0.560348 -0.069697 0.878141 -0.040490 -0.148429 0.037145 0.079751 0.342740 -0.178098 1.183001 0.243057 -0.194458 -0.162239 -1.659083 0.616644 -0.165042 -0.884784 -0.394806 -0.146055 -0.193323 -0.437480 0.623555 -0.278092 0.827164 -0.619410 0.484919 -0.280831 -0.872021 -0.297463 -1.121740 0.878773 -0.375103 1.374911 -0.822831 -0.352022 0.645682 -0.094926 -0.181312 0.346423 0.167577 -0.496151 1.181101
AGCATA -0.433248 -0.943705 0.389393 -0.106708 -1.181702 -0.176727 0.260661 0.156104 -1.425218 0.651848 1.307378 0.367267 0.360419 -0.668969 0.547112 -1.359133 -0.463988 0.816445 0.267329 0.399684 0.052597 -0.323418 0.038197 0.541802 0.521189 1.015722 0.256398 -0.822363 0.192408 -0.338654 -0.277243 -0.021499 1.108824 0.579064 1.017472 0.368908 -0.367101 0.252236 1.700416 0.270103 0.999853 -0.522662 0.677757 -1.698776 0.529408 0.012111 -1.490904 1.301824 -0.383647 0.002568
TCTGAA 1.282278 0.820051 -0.066125 0.305286 0.654177 -0.192507 -0.887933 0.190886 0.427297 0.437902 0.012622 -0.203839 -0.906686 1.697054 -0.259444 -1.020291 0.458527 0.412195 0.230302 0.366990 0.295653 0.077043 0.192971 0.388078 -0.353748 -0.165761 -1.123406 -0.812572 0.382948 -0.266972 -0.734344 0.783966 -0.530948 -0.073623 1.903168 0.266927 -2.335978 0.210599 0.425140 -1.010915 -0.609805 -1.433229 -0.201386 -0.383420 0.486531 0.107985 0.000890 0.263306 -0.567245 0.914163
CAAATT -0.339852 0.965769 -0.532303 -0.678121 0.323168 0.095373 -1.178028 0.166051 -0.040824 0.074396 -0.146146 -0.766344 1.032758 -0.535222 0.305642 -0.115964 -0.719480 0.508747 -0.505150 -0.388399 -0.865679 -0.130538 0.133850 0.245919 0.358873 0.811796 -0.251848 -1.035862 -0.937665 0.433058 -1.037216 0.158644 -0.324075 0.942020 1.364020 -1.099983 -0.371589 -0.741372 0.609684 -0.546404 0.305517 0.501638 1.094345 0.352755 -1.888316 1.216973 0.074266 -0.682260 0.577420 0.439789
CAAGTT -0.367320 -0.511063 0.495313 0.332862 -0.259940 -0.546372 -1.272743 -1.750289 -0.691572 0.398997 -0.359765 -0.828290 -0.476367 0.441121 -0.410785 0.222969 -1.037418 -1.225697 0.207693 -0.285931 -0.997153 -0.048779 1.720350 -0.971383 0.895547 -0.145463 -0.489586 -0.377365 0.107762 -0.651135 -1.076478 -0.013248 1.081393 0.301584 0.363739 -0.173761 -0.603376 -1.067157 0.256993 0.061201 -0.333075 1.041047 0.709760 -0.596479 -0.580750 -0.707375 1.539497 1.098836 -0.522563 -0.700672
GCAAAA 0.137469 -0.193191 1.906510 0.118952 -0.213580 -1.325352 -0.427475 1.624802 -0.706687 0.604339 -0.156937 0.721649 0.138530 -0.229466 0.062904 0.340408 -1.257611 0.221942 0.720502 -0.138316 -0.038342 -1.534727 0.046130 0.075187 0.899582 -0.535855 -0.936411 -1.028158 -0.360283 -0.824146 -0.371522 0.197072 0.140366 0.000300 0.357762 0.419247 0.092802 -0.364227 0.776266 -0.048656 -0.964859 -0.119212 0.850317 0.381253 -0.640542 1.067030 0.045653 -0.518755 -0.479058 -1.092048
ACGTTT -0.592986 0.582984 -1.066982 0.885112 -0.445809 -1.325827 -0.956839 -0.924697 -0.608056 1.225256 -1.062804 0.699917 -0.007090 0.735082 0.258509 0.962024 -0.368917 -0.716349 0.030134 -0.306935 0.094539 -0.646872 -1.246448 0.405136 -0.205982 0.856128 0.152923 0.507587 0.855014 -0.336735 0.587109 -0.134850 -0.156201 0.984880 1.543141 0.346941 -0.187953 0.682656 -0.372801 0.432311 0.999580 -0.070108 0.391046 0.855170 -0.834124 -1.229088 -0.198600 1.579036 0.636130 0.098175
GTTATT 0.638520 0.137299 -0.163543 0.393774 -0.349530 -0.520617 -0.804565 -0.539964 -0.770125 -0.146753 -1.168667 -0.513764 0.373602 -0.838559 -0.422745 0.569001 -1.019135 -0.651239 -0.380097 0.331042 0.323920 -0.993540 0.031186 -0.605911 0.812352 0.448161 -0.414122 0.255700 0.085886 0.280803 -1.010285 -1.595369 0.203550 0.608400 1.060942 -0.336414 -0.196015 0.746527 -0.115956 0.080539 0.776320 -0.250707 0.842760 -1.226801 -0.296057 -1.073060 0.667160 0.189590 -0.593673 1.032898
CATCTT -1.346317 0.517396 -1.571604 0.306142 -0.582451 -0.408344 -0.097705 0.704360 -0.771829 0.416387 1.033401 -0.728784 -0.349032 0.579517 0.390615 -0.387415 -0.595216 0.074792 0.898252 2.469593 -0.098344 0.276860 0.561636 -0.741060 -0.569776 0.573059 -0.555340 -1.062414 -0.566020 0.198369 -0.113428 -0.658522 0.480401 -0.211194 0.607959 1.008473 -0.739181 -1.066271 0.042329 -0.461136 -0.376480 -0.069935 -0.618774 -0.302825 -0.105035 -0.379043 0.138940 0.905503 -0.690272 0.282747
TGAATT 1.230932 1.981361 -0.006999 0.186700 -0.050040 0.190006 -1.014305 0.057856 0.049336 0.962808 -0.305109 -0.501960 0.766965 1.270968 0.496487 0.387500 0.634106 0.739567 0.202358 -0.183278 -0.155946 -0.630590 0.153121 0.024380 0.365052 0.609621 -0.825653 -0.077076 -0.459870 0.919403 -1.269030 0.249240 -0.408264 0.030616 0.807673 -1.162849 -1.109556 -0.057938 0.327607 -1.201621 0.497893 -1.066073 0.132664 -0.204324 -0.732120 0.188601 -0.828085 -0.612118 0.731591 1.001790
