TTGT 0.021286 0.213644 -0.023892 -0.011852 -0.592835 -0.631578 0.229916 0.239267 -0.625776 -0.165336 0.517627 -0.213394 -1.114724 0.451943 0.383092 -0.304723 0.390234 0.319631 -0.340308 -0.051351 -0.604818 0.830378 0.310174 -0.601526 0.231457 0.304490 0.082933 0.493620 -0.412219 0.030589 -0.253175 0.171647 0.419928 0.955541 0.114776 0.067135 0.738476 -0.353712 -1.185053 -0.521445 0.393929 0.203891 0.963232 0.720893 -0.314298 -0.509972 -0.389231 -0.361475 -0.839063 -0.266493
AAAAAA -0.339690 0.339714 0.675357 0.347114 0.317135 0.582252 -0.111007 1.358341 -0.976692 -0.505470 0.391246 0.180179 -0.017349 -0.158350 -0.728516 -0.328392 -0.447256 -0.040682 -0.140450 -0.202548 -0.408041 0.903470 -0.457124 0.071092 0.771931 -0.608372 0.151423 -0.255909 -0.208383 0.389372 0.660018 -0.355625 0.323901 0.321567 -0.336280 -0.431031 -0.174211 -0.430074 -1.596261 -0.846996 0.736054 -0.468588 0.932240 -0.287356 0.023534 -0.571581 -0.104560 -0.302051 -0.683251 -0.361140
TTTTTT 0.500881 0.053950 -0.665375 -0.212587 -0.598331 -0.366775 0.089831 0.177475 -0.289366 -1.402857 -0.098589 0.451392 -1.003729 0.729614 0.519241 -0.481962 -0.216786 -0.077364 -0.819863 -0.075982 -1.735613 0.072155 0.583390 -0.244080 0.416012 0.285058 0.311936 0.730682 -0.255358 0.115403 -0.313151 -0.593804 0.647772 0.866079 0.111826 0.425900 0.369190 -0.698684 -1.373413 -0.780298 0.017528 0.433067 0.550813 0.733043 -0.068001 -1.020407 -0.552385 -0.910536 -0.766674 -0.910001
TATATA -0.441612 0.110627 0.200761 0.242063 -0.537952 -0.409962 0.320811 0.698578 -1.069222 0.227001 1.447483 -0.025975 -1.234359 0.303192 -0.582841 -0.011537 -0.528379 -0.598438 -0.731469 -0.437152 -1.075389 0.194360 -0.201159 -0.729912 -0.256513 -0.389192 0.211914 0.083035 0.824875 -0.512649 0.088654 -0.006226 0.315099 -0.291642 0.374218 -0.440856 1.252803 -0.368680 -2.254786 0.553194 1.052538 -0.313398 0.615767 0.030672 0.162831 -0.043910 0.056366 -0.507881 -0.340446 0.431626
AATAAA -0.756469 0.301102 1.136962 -0.193175 -0.457045 0.655868 -0.454298 1.804857 -0.903552 -0.134791 0.887724 0.444977 -0.328663 0.238940 -0.587548 -0.154025 -0.197672 0.196717 -0.209577 -0.263040 -0.530495 0.472070 -0.250129 0.389476 0.517877 -1.173933 1.007725 -0.221341 0.197633 -0.383918 0.140085 -0.200781 0.616563 0.352334 -0.664460 -0.851646 -0.307526 0.034600 -1.580904 -0.510475 0.505079 -0.908653 1.897828 -0.141296 -0.806270 0.127942 0.255107 -0.949006 0.124419 -0.437714
TTTTTTT 0.438999 0.141424 -0.582727 -0.149725 -0.517854 -0.565869 -0.018624 0.428314 -0.188995 -1.485898 -0.057299 0.343456 -1.218768 0.686331 0.365084 -0.590507 -0.329665 -0.121913 -0.779673 -0.019534 -1.889662 0.098560 0.541833 -0.356613 0.355353 0.734722 0.331302 0.784181 -0.130464 0.337033 -0.534556 -0.446359 0.753675 0.846237 0.159078 0.334764 0.389596 -0.547438 -1.218830 -1.029657 0.190556 0.408033 0.738893 0.811159 -0.089407 -0.864197 -0.718834 -0.805809 -1.089314 -1.014530
TTTATT 1.373547 0.131107 -0.565061 -0.261895 -0.287751 -0.708264 0.041044 0.002080 -0.325366 -0.905042 0.537810 0.165796 -0.313367 0.344148 0.257726 -0.504122 -0.044785 -0.084311 -0.677827 -0.341529 -1.665113 0.566710 0.327680 -0.478413 0.205749 0.409570 0.280942 0.348602 0.800755 -0.308783 -0.428777 -0.432078 0.415455 0.739352 0.331676 0.349406 0.949715 -1.119731 -1.334445 -0.463246 0.299005 0.541778 0.771720 0.886819 0.132573 -1.088782 -0.533537 -0.348195 -0.480519 -0.887186
TTTTTAT 0.931756 0.018431 -0.647667 -0.425094 -0.405509 -0.911367 0.583739 -0.085049 -0.207223 -1.450961 0.510703 0.269379 -0.960605 0.612359 0.050775 -0.595168 -0.233927 -0.493303 -0.731280 -0.379878 -2.357505 0.065550 0.264541 -0.923654 0.267798 0.589784 0.400236 0.487864 0.269291 0.474810 -0.724925 -0.675152 0.615669 0.371887 0.748608 0.036005 -0.075754 -1.407310 -1.194168 -0.460198 0.590867 0.210115 0.597201 0.758080 0.158541 -0.862729 -0.887305 -0.637989 -1.019808 -0.487315
ATTTTT -0.095162 0.210745 0.130726 -1.079742 -0.875471 -0.304165 -0.144297 1.047754 -0.218416 -1.066195 0.121188 0.258574 -1.369869 -0.063591 -0.155865 -0.465607 -0.840015 0.504004 -0.407699 0.538036 -1.356323 -0.611235 0.088824 -0.670380 0.271558 0.920261 -0.327266 0.182326 0.281343 0.949542 -0.854266 0.064232 0.810262 0.513951 0.071364 0.260351 0.142132 -0.491486 -0.778012 -0.869938 0.341789 0.152386 0.819054 0.802196 -0.083407 -1.072140 -0.420585 -0.442067 -0.995682 -0.829707
TAAAAA -0.630855 0.261373 0.649961 0.186163 -0.399604 0.150061 -0.225501 1.529648 -0.425795 0.149127 0.335896 0.551925 0.024195 0.722743 -0.310264 -0.237419 -0.345465 0.409642 -0.480058 0.008766 -0.288800 0.550639 -0.198353 0.209184 0.718012 -0.844404 1.059491 0.166689 0.116037 -0.299399 0.447837 -0.309797 0.448834 0.061642 -0.431385 -0.655124 -0.252774 -0.303717 -1.305015 -0.830246 0.428537 -0.423949 1.696609 0.001096 -0.701609 0.222500 0.045679 -1.116175 -0.413120 -0.416390
TTATTT 0.378809 0.383279 -0.011435 -0.223536 0.142249 -1.239580 -0.214628 -0.131772 -0.900255 -0.258708 0.500950 -0.064202 -0.659630 0.265426 -0.931144 -0.228337 -0.189465 -0.712366 -0.542665 -0.333069 -0.815328 0.578118 0.990361 -0.225590 0.515065 0.460925 0.125463 0.172591 0.422406 -0.284578 -0.025615 -0.237374 0.252456 1.036410 0.246868 0.367643 1.236658 -0.981309 -0.729345 0.098360 0.914580 1.386339 1.111747 0.828096 -0.248925 -0.367089 0.017684 -0.965698 -0.448615 -1.242630
TTTTTTTT 0.402713 0.198031 -0.596278 -0.197192 -0.398464 -0.431391 0.171865 0.310805 -0.155709 -1.497606 -0.322855 0.300075 -1.069303 0.783815 0.402289 -0.458745 -0.302842 -0.065300 -0.775982 0.092398 -1.818311 -0.185440 0.617365 -0.292159 0.209883 0.591238 0.316091 0.810172 -0.178108 0.328812 -0.378126 -0.665337 0.678994 0.756756 0.050307 0.461395 0.357167 -0.411654 -1.085992 -0.962875 0.135864 0.468317 0.561967 0.747311 -0.014149 -0.974529 -0.609869 -0.838433 -0.831547 -1.132527
TTCTTT 0.860407 0.569287 -0.440473 -1.228288 -0.254722 -0.223850 -0.223400 -0.391799 -0.004268 -0.703196 -0.424981 -0.151725 -0.450355 0.924585 0.201050 -0.489147 -0.561304 0.213758 -0.370152 0.143308 -0.774560 0.660827 0.431179 0.208272 0.643808 0.718964 -0.096550 0.350811 0.686165 -0.405819 0.169895 0.086125 0.841040 0.092065 -0.067018 0.089689 0.936782 0.336367 -0.781847 -0.375987 1.016898 0.461059 0.906785 0.905192 0.262054 -0.878753 -0.460947 -0.428096 -1.223419 -1.071815
CTTTTT 0.459920 0.177572 -0.513219 0.687405 0.268670 -1.007403 -0.553518 0.420167 0.287742 -0.783759 -0.481315 0.211337 -1.429824 0.363635 0.069145 -0.793175 -0.289985 -0.303945 -0.491477 -0.111609 -1.202539 0.632938 0.169747 -0.097291 0.044989 1.085717 0.538045 0.388606 -0.706370 0.057722 -0.410943 -0.234966 1.234106 0.066854 0.361008 -0.233504 0.245172 -0.345363 -1.287354 -0.653002 -0.097280 0.934025 0.606757 0.527701 0.250413 -0.393334 -1.345965 -0.160357 -0.735322 -1.844440
TATTTT -0.033303 0.723961 -0.058039 -0.689957 -0.604789 -1.231427 -0.737231 -0.253814 0.053191 -0.778247 0.028711 -0.416901 -0.823140 0.729041 0.107809 -0.576415 -0.390806 -0.665265 -0.218440 0.147705 -1.115260 0.685442 0.540295 -0.532472 -0.087017 0.091688 0.167001 0.307670 1.078058 0.151091 -0.015246 -0.368796 -0.773129 0.250365 0.306782 -0.378219 0.006722 0.186350 -1.251068 -0.354701 1.052287 0.623972 1.226447 0.559598 0.041438 0.017110 -0.457977 -1.261876 -1.362885 -0.523782
GTATATA -0.489792 -0.092812 0.083846 0.936457 -1.291528 -0.402198 0.630993 0.203816 -1.318514 0.033685 0.861137 -0.579144 -1.178259 0.037915 -0.421102 0.610635 0.348958 -0.113376 -0.906867 -0.509618 -0.856161 0.217642 -0.162670 -1.079386 -0.551913 -0.880882 0.060319 -0.284623 0.265720 -1.038662 0.547659 0.214003 0.028812 -0.254697 -0.021093 -0.497727 0.948776 -0.309448 -1.855923 0.578504 0.972334 -0.178890 0.403667 0.234983 0.116000 -0.476829 0.313542 -0.051051 -0.212236 0.822066
TTTCTT 0.850865 0.267678 -0.381730 -0.641986 -1.083631 -0.141143 -0.300606 0.370735 -0.126637 -1.167721 0.195221 0.652282 -0.612194 0.027388 0.607876 -0.596224 0.419311 -0.079165 -0.184029 0.015118 -0.822340 0.434445 0.211993 0.341709 0.403994 0.420961 -0.064072 0.567687 0.412590 0.098455 -0.194055 0.317871 -0.209238 0.894707 -0.169917 0.213385 0.558250 -0.443812 -0.721359 -0.180718 0.852691 0.985737 0.579323 1.265635 -0.126772 -1.212901 -0.523917 -1.180967 -0.840209 -0.978821
ATATTT 0.069023 0.184286 -0.164933 -0.375557 -0.637551 0.049143 -0.059905 0.869673 -0.909042 -0.377421 1.150958 0.534795 -0.979124 0.224128 0.715074 0.410500 -0.012181 0.015947 -1.107878 -0.017802 -1.467467 -0.155711 -0.456345 -0.177468 -0.231137 -0.427876 0.001113 0.343333 0.612114 -0.263854 -0.642565 -0.197990 0.093909 0.201346 0.616378 0.082763 0.882185 -0.427909 -2.188990 -0.062133 0.554695 0.443455 0.272866 0.804442 0.372136 -0.520597 -0.142823 -0.151051 0.092718 -0.293843
TAAATA -0.918968 0.315240 0.721165 0.061295 -0.778955 0.160415 -0.192427 1.519571 -0.559186 0.187006 0.854284 0.674362 -0.525571 0.873420 -0.285593 0.010540 -0.673786 -0.146606 -0.899974 -0.301455 -0.459232 -0.060636 -0.482187 -0.087520 -0.324440 -1.005894 0.962337 0.421557 0.696489 -0.370540 0.258995 0.157638 0.448775 0.261691 -0.368373 -0.340818 0.554860 0.239340 -1.683292 -0.284820 0.278000 -0.414030 1.398594 -0.013318 -0.746268 0.607062 0.131908 -0.964369 0.190985 -0.469853
TGTATAT -0.826262 -1.080025 -0.402914 0.463814 -1.748294 -0.975511 0.701363 0.179516 -1.249494 -0.011205 0.870713 -0.118985 -0.979561 0.680165 -0.401805 -0.085319 1.243871 -0.423058 -0.546513 -0.620855 -0.605683 -0.147618 0.625896 -1.062897 0.406267 -0.769441 0.033781 -0.725924 0.749022 -0.153914 0.517369 -0.149391 0.125920 0.005407 -0.048809 -0.535181 0.907258 -0.466537 -1.361151 0.322434 0.113651 -0.090392 0.679364 0.251480 0.563595 -1.232655 0.499666 -0.397494 -0.547543 0.699631
TTTTATA 0.717683 -0.041567 -0.410756 -0.134822 -0.228865 -0.953592 0.170898 0.437663 0.205176 -1.312549 1.038472 -0.302414 -1.048097 0.993523 -0.152138 -0.239225 -0.937742 -0.619046 -0.333595 -0.254489 -1.829775 -0.077004 -0.323835 -1.109755 0.060600 0.257293 0.181898 0.013283 0.240312 0.574238 -0.154988 -0.495955 0.473189 0.330135 0.426476 -0.253557 -0.680518 -1.170883 -1.444604 0.141858 0.950842 -0.540953 0.629681 0.076400 -0.187145 -0.698588 -0.881566 -0.632912 -1.471403 0.134836
CATTTT 1.351073 -0.359815 -1.559450 -0.911711 -0.271274 -0.265260 -0.800618 0.079298 -0.890134 0.206489 -0.114211 0.880118 -0.359947 1.046728 0.054092 -1.123293 0.144483 0.534290 -0.780411 0.850871 -1.419852 -0.310395 0.080833 0.170253 0.222509 -0.480517 -0.550869 0.016854 -0.506736 -0.659716 0.301009 -0.372927 -0.242994 1.155370 0.210390 0.550979 0.186688 -1.132319 -1.287452 -0.243344 -0.044921 0.212934 0.125917 0.490903 -0.206500 -1.037616 -0.939586 -1.209966 -0.352081 -0.629270
AAGAAA 0.067157 0.299831 0.819013 0.361220 0.847466 0.180727 -0.277145 0.991543 -0.813663 -0.179939 0.397535 -0.229752 0.599160 -0.547778 -0.316541 -0.030589 -0.051973 0.478874 -0.819308 0.272377 0.384144 0.130541 -0.428607 -0.393910 1.379943 -0.686135 1.145371 -0.092757 -0.148925 0.336717 0.959755 -0.659198 0.589156 -0.346533 -0.171496 -0.848731 -0.047281 -0.043896 -1.333744 -1.490746 1.033858 -0.446977 0.947726 -0.224373 0.031290 -0.438362 0.094298 -0.364250 -0.506244 -0.467185
ATACAT 0.133611 -0.251161 0.486031 -0.833001 -0.648822 -0.403510 0.315735 1.115549 -1.014038 0.754995 1.182068 0.012691 -0.893792 0.755997 -0.635971 0.295022 -1.114787 -0.627964 -1.191231 0.121540 -0.493935 -0.093814 0.146481 -0.427165 -0.465075 -0.069787 -0.378571 -0.193054 0.654209 0.431361 0.190214 -0.500712 0.520739 -0.062345 -0.840414 0.716521 1.223807 0.062167 -1.662060 0.536090 1.063253 -1.018078 -0.812407 0.048256 -0.025679 -0.289996 0.419612 -0.837958 -0.417575 0.563110
AATTTT 0.934987 0.061105 0.528228 -0.225133 -0.707434 -0.010693 0.244682 0.340868 -0.743924 -1.279802 0.387290 0.737445 -0.349281 0.202471 0.495980 -0.456597 0.523554 0.417221 0.172827 -0.448681 -1.177297 0.481918 -0.040869 0.106033 0.637240 0.620816 0.678889 0.052816 0.109826 -0.404636 0.026859 -1.020061 0.338012 0.164598 -0.472769 0.594782 -0.521597 -0.864533 -1.445524 -0.166803 0.286789 0.083911 1.120580 0.290139 -0.046037 -1.041609 -0.877647 -1.416589 -0.169828 -0.406993
TCTTTT 1.078437 0.689262 -0.286589 -0.708829 0.121248 0.450322 -0.422065 -0.654809 0.400998 -1.138321 0.376281 -0.063935 -1.109273 0.456569 -0.076183 -0.752446 0.264808 -0.540276 -0.575268 0.090676 -1.410843 0.089351 0.819985 -0.221284 0.041284 1.156680 0.239165 -0.577714 -0.175352 -0.209165 -0.168611 -0.238145 0.338440 0.940271 0.226887 0.420900 0.857093 -0.233735 -1.169095 -1.115055 0.381270 0.405824 0.633454 0.297907 -0.528612 -0.498009 0.793704 -0.136987 -0.744796 -0.027232
GAAAAA -0.429123 0.602755 0.963013 1.446318 -0.135279 0.489852 0.347766 0.863806 -1.036171 -0.271171 0.673741 0.819574 0.316197 -0.597301 -0.661017 0.217964 0.322180 0.549725 0.034212 0.384052 -0.744761 0.615070 0.486127 0.853106 0.727672 -0.393782 0.360570 -0.850978 0.073234 0.479716 0.355148 -0.696172 0.689460 0.485586 0.168447 -0.290798 -0.304573 -0.245201 -0.643847 -0.679004 0.284266 -0.875558 0.668652 -1.095308 -0.072589 -0.621958 -0.511191 -0.302360 -1.384569 -0.214413
ATAATA -0.298810 0.248261 0.202331 0.282994 -1.015309 0.274347 -0.411846 1.510454 -0.508395 0.714179 1.346372 0.158239 -0.762114 0.112103 -0.492366 0.734111 -0.689643 0.114839 -0.670091 -0.014207 -0.560224 -0.272699 -0.703882 -0.268543 -0.174870 -0.111572 -0.140804 -0.015728 0.813289 -0.248517 -0.130170 0.497467 0.897547 0.025776 0.232611 -0.263385 0.808456 0.305820 -2.077820 -0.282396 0.883053 -0.615454 0.621381 -0.231900 0.330018 0.399433 0.441160 -0.380602 0.792781 0.191854
GTTTTT 0.653287 0.567327 -0.345476 0.301719 -0.145468 -0.738713 0.832620 0.455064 -0.660442 -1.026319 0.377088 0.108677 0.059354 0.580030 0.428485 -0.147855 -0.301089 0.306153 -0.734025 -0.006629 -1.482531 0.639402 0.368571 -0.372620 0.478131 0.848666 0.246518 1.219378 0.167379 0.113036 -0.408646 0.525467 0.656742 1.042797 0.013383 0.369108 0.782880 -0.144311 -0.075423 -0.631364 0.701885 0.321915 0.648161 0.903866 -0.173864 -0.572157 -1.071574 0.114588 -1.535139 -0.355382
TACATA -0.074838 -0.182740 -0.002172 -0.721068 0.046960 -0.295848 -0.564001 0.731078 -0.787427 -0.093014 1.709958 -0.213697 0.145511 1.008388 -0.358981 -1.903062 -1.479246 1.075304 -0.999228 0.225109 -0.833295 -0.024645 -0.900435 -0.291167 -0.529343 -0.463825 0.715455 0.506582 1.504077 -1.091703 -0.268720 -0.045736 -0.042736 -0.602950 -0.361747 -0.533491 0.473375 -0.768062 -1.406772 0.787025 -0.580860 0.063490 0.652313 -0.572543 -0.231119 -0.030487 -0.098398 -0.018594 -1.210865 0.258645
TATTTA -0.289976 1.072707 0.495066 -0.563273 -0.280122 -1.372817 -0.444218 -0.022648 -0.369298 0.043084 0.485566 -0.490510 -0.772197 0.384473 -0.933400 -0.489512 -0.926642 -0.677943 -0.048693 0.022079 -0.454624 0.478378 0.569565 -0.575383 -0.033916 0.087400 0.268941 0.193631 1.183951 -0.101792 -0.113023 -0.296752 -1.145858 0.484542 0.191958 -0.643838 0.554442 -0.096569 -0.874490 0.351027 1.204582 0.561143 1.490972 0.340196 0.174165 0.536151 0.253565 -1.214416 -0.816801 -0.824623
GCATTT 1.907767 0.016075 -1.118958 -0.534348 0.543932 0.331616 -0.459697 0.459852 -1.436331 0.002922 -0.087033 0.859550 -0.922830 0.875121 0.018770 -1.386891 0.207251 0.411783 -0.824449 0.582815 -1.212185 -0.957801 0.543111 0.823789 -0.032366 -0.763572 -0.490493 -0.185475 0.088008 -0.507346 -0.263179 0.849630 -0.946809 0.735363 0.441619 0.896611 -0.172982 -1.233204 -0.669172 -0.184435 0.271448 -0.276223 0.387750 0.057942 0.094588 -0.829000 -1.500355 -0.869961 -0.283189 -0.999093
TTTCAT 0.474980 0.775136 0.445083 -0.812134 -1.942668 0.273795 0.264929 0.599227 -0.905787 -0.116351 1.247964 0.515718 -0.582431 0.209880 0.725580 -0.523816 -0.148816 0.174861 -0.661600 0.180713 0.067576 0.272335 -0.295218 -0.137839 0.290690 0.722822 0.137736 0.959288 0.573497 0.808695 0.426669 1.204630 -0.825170 0.481084 0.307420 -0.219591 0.563436 -1.169070 -1.054427 -0.368888 0.006283 0.492645 -0.070040 0.565538 0.099352 -1.472591 -1.345609 -0.751250 -0.267374 -0.565145
GCATAT 0.338920 -0.193226 -0.020490 0.279680 0.440786 -0.063899 -0.974594 -0.558833 -1.058039 -0.103343 0.468936 -0.076533 -1.262816 1.047074 -0.423690 -1.675294 -0.711767 -0.361791 -0.652731 0.256797 -1.040303 -0.008750 -0.646060 -0.289589 -0.168378 -1.670956 0.350096 0.338950 1.799326 -0.170145 -0.174411 1.377885 -0.529827 -0.486881 0.391984 0.475288 -0.207988 -0.517782 -0.987632 0.384186 0.216040 -0.752649 0.610906 -0.649468 0.600992 0.878079 -0.286916 -0.111515 -1.502937 0.130760
AATATT -0.007816 0.706366 1.226403 -1.399787 -0.484255 0.598022 -0.121681 1.371607 -1.143514 -0.518442 1.388592 0.220609 -0.830801 -0.413434 -0.319512 -0.407155 -0.473598 0.671450 0.331405 -0.408110 -0.852406 0.005721 0.381323 -0.653407 0.413911 1.134797 0.319899 -0.626367 0.382542 -0.098900 -0.085046 -0.173530 0.636979 0.108964 -0.821813 0.307696 -0.419097 -0.381862 -0.577823 -0.098656 -0.283209 -0.110640 1.242712 -0.054981 -0.292582 -0.651973 -0.562971 -0.624887 -0.250301 -0.156234
AGAAAA 0.318987 0.926531 0.985056 0.644819 -0.117683 -0.002765 0.164942 0.702949 -1.167158 -0.729658 0.679425 0.251568 0.962438 -0.378628 -1.121045 -0.553021 -0.597772 0.153677 -0.664689 0.070539 -0.446598 0.181917 -0.930983 0.427044 0.283127 -0.230820 0.699595 -0.073385 -0.456351 -0.143541 1.401281 -1.159477 -0.161424 0.279182 0.165504 0.222801 -0.323900 0.039616 -0.864819 -0.602933 0.314831 -1.188672 0.915582 0.700092 0.365269 -0.728439 0.360432 -0.267642 0.514064 0.001960
ACATAT -0.588235 0.221224 0.353559 -0.700784 -0.164615 -0.017850 0.923260 0.595292 -1.209215 0.504854 1.107612 0.429869 -1.077686 0.677009 -0.575533 0.512050 -0.867689 -0.744880 -1.550446 0.328101 -0.584699 0.136704 0.461754 -0.356605 -0.306726 -0.513367 0.163759 -0.000402 0.873069 0.543505 -0.480270 -0.438940 0.336514 -0.395068 -0.332366 0.111166 0.715247 -0.173611 -2.265746 0.548171 1.034630 -0.011032 -0.615582 0.595668 0.197513 0.348745 0.602210 -0.805397 0.143022 0.227646
ATAAAA -0.001817 0.452788 0.306166 0.432549 -0.267042 0.321791 -0.006900 1.271398 -0.913579 0.573382 1.564252 -0.027817 -0.578507 -0.225101 -0.239562 0.049735 -0.655934 0.086273 -0.467722 -0.466790 -0.312949 0.207065 -0.812056 -0.184430 0.704595 -0.012218 -0.211475 -0.215843 0.038715 -0.121987 0.392790 0.063326 1.053695 0.006147 -0.184993 -0.561372 -0.101540 0.387189 -1.981588 -0.556875 1.113627 -0.451836 0.391495 0.020345 0.952336 -0.371715 -0.264088 -0.414339 0.274908 0.230069
TCATTT -0.120511 0.582468 0.700310 -1.405491 -1.649878 0.302134 0.010677 0.534026 -0.323637 -0.154338 0.785908 0.152862 -1.681441 -0.057645 0.274432 -0.525722 -0.746765 0.536564 -0.444114 0.611974 0.168693 -0.186076 0.325353 -0.577861 0.295182 1.349690 -0.152168 0.344897 0.258940 0.905633 -0.111723 0.630011 0.028120 0.531452 0.910573 -0.071888 -0.177579 -1.117040 -0.582741 -0.668524 -0.021454 0.697210 0.279237 0.505575 -0.499930 -1.226117 -0.985446 -0.177523 -0.407486 -0.940870
AATATA 0.089936 0.364600 0.957006 -0.106070 -0.284937 0.516296 0.197573 1.065576 -1.066690 0.074131 1.764650 0.550963 -0.609434 -0.120658 -0.559743 0.269568 -0.455757 0.145542 -0.283989 -0.885039 -1.027741 0.427806 -0.501480 -0.045092 -0.031083 0.360342 0.434177 0.122000 0.771433 -0.720651 0.098012 -0.187211 0.846584 -0.020226 -0.440065 -0.123894 -0.078079 0.003120 -1.620944 0.327708 0.160906 -0.826911 0.704438 -0.453297 0.106853 -0.365893 -0.195399 -0.318130 0.488222 0.096648
AATAAT 0.821078 0.563112 1.390583 -0.547424 -0.405436 0.621317 -0.045015 1.195515 -0.871359 -0.105599 1.333925 0.691536 -0.459358 0.053756 -0.523007 -0.154735 0.262184 0.432557 0.337221 -0.672922 -0.916535 0.548950 0.018077 0.650499 0.550247 0.555745 0.866572 -0.302356 0.409297 -0.541454 -0.117673 -0.436971 0.371972 -0.111166 -0.926428 -0.073139 -0.876120 0.077617 -0.841151 0.164177 -0.291476 -0.882994 1.396236 -0.116681 -0.367827 -0.485987 -0.005166 -0.918631 0.621094 -0.176459
ACTTTT 0.087066 0.661235 -0.596737 -0.699439 -0.661081 -0.460884 -0.590498 -0.421299 0.353152 -1.478059 0.629342 0.089248 -0.213051 0.911290 0.641899 -0.332271 -0.447584 0.149309 -0.224818 -0.207558 -0.600676 0.454073 0.532717 -0.431536 1.373007 -1.339232 0.364333 0.875750 0.417064 -0.157144 -0.660741 -1.132261 0.582549 0.851638 0.267347 0.873372 0.362115 -0.919403 -1.781685 -0.204905 0.095692 0.403964 -0.708557 0.184066 -0.621555 -1.252125 -0.154582 -0.424072 0.584429 -1.296993
CATATA 0.232749 -0.236363 -0.105234 -0.186704 0.066041 -0.522163 -1.048065 0.162779 0.036891 -0.369722 1.194237 -0.370682 -0.613433 0.712026 -0.551399 -1.917287 -1.420185 -0.339846 0.250900 0.183650 -1.051323 0.231950 -0.913114 -0.896946 -0.315612 -0.543339 0.247316 0.313110 1.135680 0.242603 -0.091938 0.561668 0.286182 -0.148072 -0.055321 -0.107927 -1.105870 -1.015170 -1.134954 0.751968 0.069601 -1.096569 0.532585 -0.905472 0.205402 0.257249 -0.056814 -0.283504 -1.987431 0.483851
TATTAT -0.281802 0.750685 0.158535 -0.951193 -0.604850 -1.275457 -0.254719 -0.268925 -0.286020 -0.095833 0.856044 -0.827973 -0.545604 0.665107 -0.095802 -0.537192 -0.457313 -0.751059 0.375627 -0.122788 -0.670665 0.920115 0.431907 -1.042791 -0.366295 -0.057893 0.204147 0.095370 1.110669 0.415694 -0.049129 -0.276937 -1.302529 -0.286475 0.688660 -0.542316 -0.380048 0.145722 -1.112981 0.058906 0.844074 0.375014 1.341547 -0.056079 0.078833 0.418627 -0.336686 -1.235934 -1.220055 0.157225
TTCAAA -0.001691 -0.554343 0.471044 -0.379474 0.900320 1.065308 -1.484668 -0.281499 -0.411033 -0.686677 0.089361 0.070021 -0.399806 -0.360863 -0.931086 -0.412890 0.367796 0.665061 -0.301273 0.154185 -0.377341 2.306695 0.134202 -0.997401 0.443347 0.052156 0.652981 -0.024065 -0.557402 -0.382387 0.760824 0.476524 0.225911 -0.502735 0.182912 0.126341 -0.015318 0.665168 -1.623704 0.230120 0.516778 0.725401 0.879414 0.900402 -0.686051 -1.838815 -0.573276 -0.220932 -0.389309 0.138300
ATTTAT -0.911907 0.416093 0.531366 -1.481108 -0.835028 -0.309897 -0.184156 0.621864 -0.240440 -0.329074 0.824680 -0.104552 -1.459543 -0.097089 -0.540483 -0.537822 -0.711020 -0.209278 0.040461 0.314414 -0.873008 -0.333231 0.194060 -1.151257 -0.206334 0.394235 -0.255554 -0.041523 0.668551 1.292070 -0.768766 -0.034309 -0.173537 -0.258529 0.691966 -0.111564 -0.322424 -0.185153 -0.634647 -0.007655 0.767256 -0.033842 1.201869 0.794959 0.197201 -0.414046 -0.107212 -0.696202 -1.041702 -0.205711
TAAAAT 0.037474 0.273617 1.061849 -0.354011 -0.835842 0.085324 -0.546183 1.552210 -0.139844 0.030740 0.779806 0.813000 -0.342388 0.789566 -0.031598 -0.212735 0.068404 0.166465 -0.173426 -0.252282 -0.431569 0.467119 -0.206983 0.365456 0.660634 -0.186171 1.136483 0.379883 0.709770 -0.417322 -0.005148 -0.272779 0.165775 0.128471 -0.715654 -0.501777 -0.434262 0.039817 -0.907236 -0.172164 -0.004832 -0.275002 1.663160 -0.097535 -0.759362 0.162433 -0.169230 -1.256313 -0.021157 -0.348065
TGAAAA -0.597689 0.507334 0.291149 -0.511194 0.571426 -0.116793 -0.102434 2.106964 -0.410203 -0.969080 -0.087021 -0.230523 -0.341667 -0.994489 0.115773 -0.643196 0.178856 -0.816650 0.865587 -0.558008 -0.678966 0.265241 -1.160025 0.099206 1.103739 -0.607820 -0.468708 -0.133493 -0.207594 0.360316 1.330478 -0.317917 0.502605 0.416129 -0.277272 -0.168065 -0.500660 -1.386881 -1.234546 -1.664000 0.224679 0.199296 0.816550 -0.995257 0.571581 -0.228269 0.049742 -0.146600 -0.237179 0.512097
ATTCAT -0.286637 0.461733 0.203194 -1.077657 -1.520755 0.982355 -0.321943 0.457947 -1.271760 0.803300 1.452585 -0.007603 -0.846047 0.345890 -0.479508 -0.292869 -0.832900 -0.730269 -0.780232 0.523831 0.346099 -0.300809 0.226606 -0.706064 0.390275 0.904015 -0.446487 -0.450995 0.386515 0.609298 0.775911 0.261607 -0.316691 0.087769 0.305747 -0.068402 1.024470 -1.723606 -0.933811 -0.865003 -0.731356 0.436499 0.276642 -0.495717 0.065038 -0.400553 -0.753998 -0.168565 -0.609510 -0.547944
TATATT -0.100692 0.172735 0.251666 -1.130374 -0.766142 -0.779853 -0.608534 0.723302 0.165442 -0.847502 1.030859 -0.606023 -1.043399 0.595504 -0.177326 -0.650355 -1.376516 -0.577876 0.122258 0.012863 -0.866595 -0.207595 0.053070 -1.102063 0.099700 0.505683 -0.020018 -0.662109 0.335553 0.706393 -0.070625 0.244255 -0.337990 0.396432 0.308890 0.201262 -0.809528 -0.685588 -0.764064 -0.057262 0.357962 -0.187506 1.058807 -0.188238 -0.411274 -0.291461 -0.628795 -0.480356 -1.763952 0.207660
TGCATT 1.298492 0.373100 -0.946854 -1.058306 0.809316 -0.517978 -0.434021 0.570011 -1.554419 0.986525 0.380521 0.326686 -1.173928 0.507659 -0.275658 -1.082110 0.244443 0.188983 -0.086906 -0.008407 -0.830875 -0.547282 1.217800 1.065172 0.410465 -1.151084 -0.463371 -0.500054 -0.117832 -0.551012 0.196081 1.697447 -0.697069 0.524180 0.418769 0.868903 0.419654 -1.195044 -1.095033 -0.735778 -0.341837 -0.030510 0.364524 -0.043358 0.549627 -0.095586 -0.554697 -0.644696 -0.886719 -0.841068
TTGAAA -0.374632 1.110191 1.123386 0.939109 0.062958 -0.575291 0.191620 0.155461 -0.675730 -0.298432 0.544808 0.651490 0.218176 -0.209818 0.060549 -0.510940 0.328978 0.748048 -0.148485 0.372863 -1.133782 1.249352 1.095071 0.902375 0.497921 0.044153 -0.482437 -0.369168 0.347961 0.254614 0.185149 -1.083742 1.396725 1.029867 0.922946 0.636110 -0.155109 0.156924 -0.631119 -0.240505 1.058084 -1.051996 0.443279 -1.279039 -0.945439 -0.611115 -0.856526 -0.190505 -1.462361 0.166847
AACTTT 0.384069 0.323433 -0.499416 0.305952 0.464878 -0.922178 -0.257223 0.530790 0.221851 -0.260614 -0.485452 0.871449 -0.280533 0.189630 -0.866883 -0.460550 0.131579 0.177642 -0.276294 0.214316 -0.447966 0.578789 -0.373485 -0.603866 0.044273 0.829784 0.737047 -0.531348 -1.136499 0.158760 0.309664 0.420123 1.114863 -0.267543 1.048630 -0.222557 -0.099170 -0.106899 -2.293981 -0.550187 0.162806 0.865647 1.125691 -0.270908 0.683839 -0.064663 -0.995095 0.030528 0.624807 -1.952147
TATAAA -0.172372 0.284105 0.294380 -0.337466 0.208292 -0.349697 -0.456910 0.725433 0.312653 -1.142724 0.692233 -0.591667 -0.332996 0.708938 -0.429439 -0.623290 -1.526315 -1.272587 0.030812 -0.458194 -0.667819 0.721961 -0.561988 -0.579758 0.217162 -1.041742 -0.055022 -0.353091 0.211524 0.954417 0.497660 -0.306748 -0.110470 0.474808 0.164180 -0.548006 -1.226076 -0.736831 -1.172084 -0.046895 1.088840 -0.820084 0.692573 -0.443971 -0.001262 0.094062 -0.148857 -0.234781 -1.433358 0.014262
TTCATT 0.700541 -0.005581 -0.850711 -1.083643 0.017596 -0.023941 -1.923171 0.475758 -0.481468 0.541186 0.038078 0.141393 -0.302597 0.449458 -0.318126 -1.164969 0.777581 0.267241 -0.213025 0.948151 -0.976811 0.587248 0.423068 -0.451786 -0.885607 0.612874 -0.802217 -0.050732 -0.254948 -0.907469 0.533444 0.284151 -0.061410 0.701801 -0.020080 0.936184 0.677643 -0.737833 -0.776890 -0.304226 0.161063 0.405559 0.986964 0.921678 -0.356167 -1.003977 -1.094626 -0.927059 -0.909309 -0.239927
ATGCAT 1.080082 0.047907 -0.258548 -0.900389 0.368730 -0.301761 0.231522 0.533188 -1.062509 1.405797 0.382481 -0.210200 -1.260513 0.132429 -0.813472 -1.094429 0.033178 -0.511725 -0.198703 0.090378 -1.361619 -0.014360 0.148116 0.967632 0.940001 -1.766920 0.148907 -0.290509 0.490402 0.148277 0.223191 1.227866 -0.785037 -0.587076 0.534292 0.773410 0.570521 -1.042487 -1.481925 -0.309590 -0.933247 -1.099957 0.124349 -0.252636 1.099643 0.425600 -0.183385 -0.601129 -1.274514 -0.334780
AAAGAA -0.201607 0.131386 0.736200 0.119426 0.856963 1.117828 -0.513819 1.384449 -0.547025 -0.456682 0.420265 -0.081407 0.131327 -0.548437 -0.667146 -0.213696 -0.810580 -0.296368 -0.448372 -0.205408 -0.331634 0.819610 -0.607265 -0.242788 1.008666 -1.125535 -0.490283 -0.169547 -0.262211 0.000431 0.572610 -0.099025 0.178724 0.605496 -1.030798 -1.040828 -0.520126 -0.363747 -1.111564 -0.737167 0.796742 -0.361353 0.737777 0.472132 0.133137 -0.243669 -0.138729 -0.202759 0.389219 -0.107207
AAATAT 0.273752 0.388998 0.556692 -0.597476 0.207688 0.001154 0.184597 -0.036220 -0.914820 -0.669540 1.163033 -0.530826 0.203633 -0.081173 -0.589988 -0.778239 -0.306327 -1.389175 0.766259 -0.392430 -0.783324 0.903215 -0.148765 -0.436009 0.301873 -0.281729 0.196794 -0.697500 0.599267 0.361079 0.643156 -1.138883 -0.402591 0.244455 0.173981 -0.471262 -0.850686 -0.034258 -1.483814 0.418424 1.345372 -0.036765 0.670198 -0.079236 0.610977 -0.036902 -0.304112 -0.396441 -1.034451 0.277054
TTACAT 0.200983 0.916920 0.892381 -0.741443 0.063193 -1.035218 0.825940 0.852940 -0.803450 0.848406 0.193444 -0.000366 -1.282580 1.009159 -0.596271 -0.172224 -1.380657 -0.052417 -0.725111 0.825775 0.035192 0.268347 0.533034 -0.722586 0.108527 0.964239 -0.158344 -0.030466 0.114744 0.697998 -0.476849 -0.527518 0.228343 0.750806 -0.593043 -0.145954 0.832172 0.205192 -1.824759 0.726474 0.257033 -0.256483 -1.029738 0.541083 0.072214 0.163033 0.510785 -1.810222 -0.149204 -0.335367
CAAAAA 0.074520 -0.802091 0.348070 -0.170357 1.178124 0.959387 -0.756231 0.913342 -1.161077 -0.419996 0.233542 0.668585 0.567619 -0.171998 -0.838139 -0.359459 0.304310 0.511126 -0.595243 0.062784 -0.413239 1.684372 -0.257748 -0.210612 0.438103 0.047272 0.605120 -0.274140 -0.747926 0.370421 0.950968 0.026237 0.502136 -0.849903 -0.328239 -0.368733 -0.431618 0.388442 -1.366213 0.388249 0.630316 0.138251 1.072527 -0.025151 -0.431631 -1.024133 -0.066478 0.063734 -0.148344 0.049042
TGCATA 0.553498 -0.192155 0.206800 -0.277436 0.090653 -0.679498 -0.304719 -0.071518 -0.850961 0.298896 0.527293 -0.009655 -1.330439 0.686449 -0.215945 -1.701731 -0.325277 0.427991 -0.360869 -0.325859 -0.939199 -0.293965 -0.174328 0.525236 -0.082498 -1.612182 0.394944 0.218445 1.297175 -0.284343 0.030924 1.885560 -0.654502 -0.407620 0.088881 0.907796 0.066865 -0.845508 -1.850975 -0.478774 -0.650032 -0.514372 0.099715 -0.552466 0.631538 1.089878 0.409029 0.092314 -1.395144 -0.231350
TTCAAT -0.006393 -0.389513 0.252416 -0.718319 -1.105071 0.415320 -2.364083 0.728009 0.526586 -0.285170 -0.044814 0.521672 -1.206496 0.083419 -1.068941 -0.048306 0.891335 0.648624 0.153602 0.703958 -1.073307 1.353339 -0.177458 -0.559398 0.288156 0.285468 0.238867 0.614647 -0.492855 -0.540785 -0.528819 0.064677 0.451503 0.020749 0.744056 0.874874 0.478691 1.033096 -1.288404 0.401008 0.582001 -0.093249 1.030742 0.602012 -0.301492 -0.856211 0.556452 0.349871 -0.612901 -0.065452
TTTTTC 0.992235 0.110578 -0.626690 -0.896833 -0.952506 0.360110 -0.335272 -0.655403 -0.292850 -0.821902 0.310003 0.554850 -0.970105 0.370997 0.789252 -0.360280 0.029764 -0.538246 -0.615627 0.022748 -0.970773 0.351333 0.716699 -0.147158 0.466046 0.019908 0.495595 0.389838 -0.406352 -0.015361 -0.102488 -0.447757 0.239860 1.201804 0.144247 0.174910 0.290838 -0.803255 -1.008748 -0.409679 -0.299033 0.555967 -0.096871 0.170855 -0.358135 -1.038467 -0.113269 -0.775199 -0.262349 -0.256400
TCATAT -0.294003 0.636418 0.434830 -0.895600 -1.547533 0.658544 -0.158501 -0.040676 -1.124109 0.419990 2.001473 0.683779 -1.211838 0.740559 0.089361 0.094239 -0.210332 -0.433441 -1.384645 -0.125636 -0.038692 0.128097 -0.013752 -0.103197 -0.310876 0.195218 -0.184750 0.995309 0.772269 0.121126 0.078503 0.069186 -0.764903 -0.086480 0.983641 -0.704915 0.903939 -1.132784 -1.785046 -0.492172 0.147506 0.416804 -0.145263 0.010569 0.171542 0.183336 -0.601496 0.226880 0.586455 -0.270302
ATATTA -0.500053 0.745580 0.667969 -0.233290 0.086440 -0.345536 -0.221125 0.852485 -1.159394 0.517931 1.243420 0.145700 -0.705765 0.131753 -0.955280 0.564457 -0.538144 -0.337856 -0.630398 0.134515 -0.635813 0.187865 0.029982 -0.376280 0.024356 0.191509 -0.337374 0.182437 0.843303 -0.102749 -0.810224 -0.145669 0.067768 0.598106 0.609892 -0.480077 1.392829 -0.641799 -1.399522 0.141954 0.627857 0.605808 0.782651 0.321985 0.075232 0.277408 0.438679 -0.381141 0.623213 -0.312907
CATATT -0.148059 0.338010 0.205596 -0.629863 -0.472702 -1.032723 -1.442712 -0.631048 -0.308173 -0.176772 0.199155 -0.354880 -0.453289 0.510464 -0.122503 -2.124362 -0.905083 -0.150178 -0.144058 0.899626 -0.701565 0.629308 -0.361311 -0.518314 -0.317462 -0.631374 0.260005 0.764430 2.007560 -0.020760 0.342719 0.634220 -0.464188 -0.064418 -0.244540 -0.024366 -0.103423 0.022285 -0.983150 0.249580 0.590070 0.295281 0.889171 -0.082355 0.484383 0.749044 -0.079801 -1.022042 -1.812600 -0.264629
TTATTA 0.553211 0.495299 0.170906 0.001900 0.429100 -1.222326 -0.050447 0.602444 -0.920400 0.269515 0.739559 0.000093 -0.246133 0.070440 -1.568348 -0.008989 -0.357075 -0.751432 -0.297426 -0.093368 -0.365113 0.162996 0.760570 -0.647178 0.328155 0.543490 -0.067815 -0.127314 0.626181 -0.227827 -0.367052 -0.221367 -0.316101 1.439377 0.297429 -0.273428 1.265815 -0.919965 -0.435696 0.317341 0.951587 1.182726 1.197711 0.606846 -0.236127 0.143759 0.265254 -0.817252 0.140776 -1.132200
TTGCAT 1.055823 0.707055 0.755783 -0.777392 0.380806 -0.702837 -0.271145 -0.067813 -0.904722 0.654774 -0.304162 -0.067582 -1.074139 0.357733 0.222484 -1.787830 -0.141488 0.489289 -0.345104 -0.483570 -1.069703 -0.272911 0.577672 0.913375 0.520434 -1.248478 -0.149027 -0.458962 0.565271 0.033819 -0.010553 2.119667 -0.096833 0.518886 0.759987 1.730233 0.439126 -0.768098 -1.744171 -0.288670 -0.804421 0.003922 -0.006922 -0.476286 -0.273508 0.229072 -0.374857 -0.266251 -1.271668 -0.387100
TTTTCT 0.614267 0.278153 -0.973856 -0.287064 -0.415310 -0.206030 -0.412699 -0.119378 -0.113466 -0.601966 -0.176984 0.373097 -0.570406 1.053346 1.014034 -0.464113 -0.479732 -0.019888 -0.318476 -0.372953 -0.852323 0.512401 0.280847 0.197250 0.434039 -0.024919 0.172652 0.116441 -0.472878 -0.446115 0.098130 -0.504444 0.648403 0.647949 0.268033 -0.099521 0.633057 -0.588782 -1.414801 0.005237 -0.426004 1.069309 0.088647 0.678339 -0.226057 -0.839794 -0.655892 -0.774600 -0.356722 -0.655512
AATGAA -0.110920 0.453108 0.779115 -0.419452 0.103346 -0.607882 -0.459955 2.428472 -0.233994 -0.621645 0.138089 0.437693 -0.150754 -0.650881 -0.133445 -0.068547 0.840213 -0.350389 0.739995 0.680916 -0.645300 0.404655 -0.788092 0.786121 1.720709 -0.220183 0.298154 0.524583 0.252073 -0.577503 1.105725 -0.581634 0.790273 0.126814 -0.043415 -0.315129 -0.550222 -0.528865 -0.912618 -0.674059 0.630460 -0.239399 1.459048 -0.916904 0.949991 0.201597 0.020063 -0.378812 -0.064018 0.583270
ACATTT -0.219216 0.280728 0.345278 -1.302923 -0.530466 -0.478573 0.312609 1.310232 -0.780347 -0.325106 -0.097458 -0.075302 -1.635691 -0.048131 -0.768716 -0.231305 -1.728503 0.368890 -0.943982 1.049173 -0.206164 -0.245760 1.033282 -0.267827 -0.232123 0.478193 -0.355190 0.102754 0.445360 1.397368 -0.730859 -0.170890 0.845633 -0.111409 -0.806122 1.035731 -0.076936 -0.085712 -0.563810 0.270428 1.108237 -0.284219 -0.217974 1.021979 -0.444405 -0.737594 0.247606 -1.127101 -0.845695 -0.531487
ATTCTT 0.291395 0.672361 0.108236 -0.906144 -0.389041 1.024487 -0.571697 -0.252367 0.135320 -0.461628 0.941498 -0.628509 -0.886121 0.124620 -0.388411 -0.253759 -0.260094 -0.916108 -0.501892 0.348823 -0.727515 -0.034133 0.986336 -1.022390 0.379551 1.333103 0.168644 -1.506486 0.331410 -0.074269 0.311545 -0.368722 0.134985 0.756810 0.035080 0.539015 1.175741 -0.836115 -1.002406 -0.980376 -0.212370 0.811771 1.423511 -0.094592 -0.451202 0.145479 0.785835 0.423616 -0.802075 -0.070213
CATTAT 0.430945 -0.516521 -0.528272 -0.824438 0.701623 -1.017381 -0.983615 0.060215 -1.517237 1.557799 0.796555 0.389290 0.172008 0.180203 -1.511669 -0.959473 0.306281 -1.122847 -0.226368 0.224534 -0.034611 -0.124010 0.232052 0.230831 0.073968 0.097371 -0.588520 -0.248059 0.383304 -0.381022 0.482407 0.440695 0.093759 1.016729 -0.031883 0.200982 1.203598 -1.216122 -0.551760 0.666790 0.586608 0.776419 1.104423 0.224053 -0.358791 0.075760 -0.618279 -0.913269 -0.372988 -0.812306
ATGAAA -0.910018 0.014154 1.305995 0.732363 -0.499582 -0.345518 1.026934 -0.111480 -1.050123 0.212281 0.870491 0.910480 0.299929 -0.653219 -1.008501 0.277381 -0.300904 -0.205905 -0.046252 0.427816 -1.251230 1.338785 0.031228 0.772871 1.000659 -0.600690 0.133869 -0.900887 0.422395 0.635140 0.693241 -0.838125 0.366838 0.588541 0.209446 -0.807913 0.381601 -0.517743 -0.546719 -0.186949 -0.417065 -0.691242 0.174227 -1.147317 -0.520351 -1.093760 -0.832494 -0.450480 -1.301886 0.299489
CAATTT -0.226230 -0.611458 0.287486 -1.537147 -1.027057 -0.302844 -1.380714 1.311894 0.267237 -0.724579 -0.433946 0.406786 -1.051331 -0.645143 -0.929523 -0.235449 -0.119795 1.099784 -0.152737 0.767635 -1.228363 -0.095554 -0.074283 -0.257805 0.612290 0.653787 -0.573475 0.572306 0.017167 0.669607 -1.513240 0.044487 0.425557 -0.001706 0.564635 0.542425 -0.519475 0.779796 -0.674957 0.180076 0.982633 -0.172935 0.555429 0.784141 -0.180728 -0.764737 0.502631 0.170087 -0.859926 -1.034767
ATATAA -0.857448 -0.456170 0.566142 0.062068 -1.072183 0.352625 0.310579 0.963027 -0.662403 0.203002 1.239154 0.884651 -0.946249 1.073975 -0.634016 0.407974 -0.791968 0.249915 -1.223417 -0.109714 -0.229943 -0.075160 -0.224937 -0.053591 0.191489 -0.914798 0.588696 -0.065667 0.936040 -0.277011 -0.286314 -0.295038 -0.153093 0.075555 0.387653 -0.498772 0.412953 -0.558043 -1.734705 -0.776025 0.657146 0.020913 0.569313 0.410173 -0.420067 0.780848 0.502351 -0.496345 0.653220 0.075986
GTTTAT -0.093793 0.493199 -0.033043 0.380757 -0.207590 -0.955739 1.088647 0.522707 -1.167461 0.008256 0.968657 0.411210 0.485352 0.414972 -0.621776 0.159612 0.217229 -0.993703 -1.035427 -0.560446 -0.667496 0.890110 0.204488 -0.512623 0.328840 0.187373 0.468153 0.351055 0.353375 -0.137280 0.372762 0.767581 0.059927 1.423454 0.090264 0.291045 1.310503 -0.432424 -0.035602 0.381629 1.191466 1.440540 1.212143 1.037944 -0.047164 0.364732 -0.413596 -0.089988 -0.878926 -0.426676
TTTCAA 1.377484 0.220649 0.218299 -1.168089 -1.521361 0.621205 0.590302 0.671097 0.156278 -0.818097 0.871172 0.995603 0.201099 -1.064847 -0.137792 -0.679555 0.313763 -0.069558 0.024665 -0.439645 0.027268 0.899603 0.404964 0.464725 -0.121049 -0.241491 -0.117808 1.030350 -0.740092 0.429189 0.283529 0.320587 -0.930437 0.685408 -0.302835 -0.214726 0.139091 0.317968 -0.755773 -0.077923 1.325663 0.169488 1.087683 -0.001701 0.151041 -1.357046 -0.845716 -0.870645 -0.515045 -0.951518
TTAATT 0.160471 0.462813 0.420365 -1.008315 0.171665 -0.760899 -0.783961 1.099618 -0.749449 -0.103942 0.927751 0.133663 -0.525856 0.282631 -0.844778 -0.275969 -0.602331 -0.182501 -0.348793 0.071405 -0.241993 -0.416307 0.920900 -0.843856 0.629236 0.562086 0.125349 -0.285332 0.189952 -0.006079 -0.393460 0.292131 0.504180 0.708718 0.069887 0.404268 0.527607 -1.122448 -0.028367 -0.677714 0.277041 0.719953 1.494952 0.855352 -0.452447 -0.066490 -0.064711 -0.341400 -0.242294 -0.648945
ATTTTC -0.072989 0.162535 0.033462 -1.374695 -1.585706 0.461686 -0.291189 1.214593 -0.008511 -1.016646 0.596465 0.643359 -1.015719 -0.720458 0.417372 -0.513371 -0.303323 0.468333 0.119934 0.346034 -0.049687 -0.518132 -0.371809 0.297028 -0.001806 0.722669 -0.111436 0.475876 0.167287 1.233064 -0.676078 0.893646 -0.263925 0.436257 -0.312181 0.128301 0.003557 -0.251975 -0.117435 -0.506645 0.769736 0.588479 0.418230 1.222621 -0.034046 -1.566575 -0.560672 -0.878564 -0.895499 -0.786613
ATTATT -0.456139 0.676935 0.562093 -1.363904 -0.507883 -0.142278 -0.559003 1.792763 -0.725913 -0.067761 0.798777 0.006288 -0.983672 -0.141083 -0.516843 0.110953 -0.871265 0.151147 0.375906 0.513539 -0.210037 -0.663603 0.323945 -1.444461 0.408447 1.010550 -0.613150 -0.862802 -0.054570 0.611313 -0.559023 0.123418 -0.007390 0.325116 0.590172 0.428300 0.067777 -0.600782 -0.468940 -0.317771 -0.263950 0.132429 0.768900 0.636144 -0.675845 -0.633047 -0.521766 0.109743 -0.850508 0.200083
AAATTT 0.485552 0.138589 0.138220 -0.329998 -0.202495 0.642186 0.352430 0.431868 -0.900306 -1.447978 0.567848 0.451798 0.277058 -0.428356 0.339481 -0.489148 0.040678 -0.631286 -0.089520 -0.167677 -1.076153 0.857754 -0.428773 0.380306 0.577663 -0.499699 0.179113 -0.229800 0.011991 0.211442 0.672052 -1.313587 -0.132216 1.265558 -0.635183 0.120603 -0.327355 -0.583957 -1.304669 -0.314873 0.368818 0.403251 -0.215747 0.526476 0.266118 -1.050011 -0.406759 -0.329071 -0.765567 -0.391693
AACAAA 0.230220 -0.148110 0.231379 -0.000980 -0.759971 0.651947 -0.277217 1.133620 -0.243142 0.189918 0.032030 0.229403 0.985442 -0.487841 -1.149875 -0.642870 -0.517811 0.477353 0.211395 -0.073146 -0.110711 0.767246 -0.275582 -0.048552 0.596342 -0.948610 0.269049 -0.548003 -0.844055 -0.763934 1.018509 -0.080263 1.001854 0.613238 0.046707 -0.197214 -0.287706 0.030644 -1.197765 -0.209689 1.206335 -0.959043 1.113511 -0.462357 0.168572 -0.058031 -0.127199 -0.539303 -0.351698 0.160916
ATATAT -0.953412 0.574796 0.555344 -0.815499 -0.698571 -0.204794 0.182538 -0.213696 -0.809100 0.195051 1.147637 0.050329 -1.386714 0.664754 -0.313364 0.002004 0.129851 -0.699763 -0.433035 -0.146163 -1.039917 0.281657 0.321709 -0.738948 -0.318306 -0.356876 0.138061 -0.115938 1.181865 -0.043972 -0.116023 -0.429645 -0.850596 -0.932888 0.776283 -0.456027 0.803505 -0.090139 -1.660426 0.094180 1.108410 0.252789 0.868969 0.623530 0.754236 0.673607 0.113518 -0.536600 -0.038527 0.819420
AAGTTT 0.332879 0.949314 -0.103465 0.606875 -0.433789 -0.238396 0.790261 1.007206 -0.969585 -1.148729 0.743694 0.184396 0.986721 -0.653174 -0.262697 -0.238866 0.176091 0.738544 -1.200275 -0.093092 -0.910497 0.824920 0.647176 -0.293605 0.410394 -0.099598 0.471377 1.681711 0.020689 0.282268 -0.069391 0.919917 0.008338 0.909379 -0.416970 -0.361265 0.874382 0.185131 -0.278131 -0.993623 0.418087 0.410721 1.368119 0.258277 -0.231168 0.369703 -1.073242 0.671555 -1.458403 0.036151
AGTTTT 1.097131 -0.646918 0.510931 -0.555460 -0.435223 -0.222102 -0.267669 -0.724190 -0.299118 -1.026577 -0.441122 -0.503101 -0.779411 0.825420 0.761479 0.290592 -1.290309 0.896412 -0.511250 0.106108 -1.756965 0.763379 0.617247 -0.288558 -0.317421 -0.552941 -0.144044 0.317555 -0.240651 -0.075585 -0.241529 -0.163482 0.513863 1.500568 -0.320855 -0.641606 0.153855 -1.221979 -1.226623 0.029816 -0.429206 0.395336 0.148183 0.961528 -0.244561 -0.895957 0.089785 -1.104342 0.743339 0.101886
TATACA -0.123610 -0.380100 -0.379107 -0.895097 0.418355 -1.080648 -0.260493 0.928856 -0.456414 -0.790589 1.159985 -1.049012 0.390888 0.851525 -0.804187 -0.706677 -1.023981 0.478021 -0.928313 0.122342 -0.834059 -0.072245 -1.429510 -0.043252 -0.276049 0.237152 -0.052322 -0.075562 -0.112137 -0.247230 -0.454879 -0.212295 -0.308539 -1.005260 0.066497 -0.727993 -0.436295 -0.303746 -1.375978 1.491394 0.730053 -0.103091 0.662657 -0.612120 0.248986 -0.644376 -0.348556 -0.061437 -2.172201 0.542532
ATACTT 0.378114 0.648527 0.193490 -0.688223 -0.925543 -0.924630 -0.739779 0.178931 0.006708 -0.682847 1.020807 -0.364281 -0.018546 0.941943 -0.177824 0.189437 -0.904093 -0.375318 -0.394649 -0.386761 0.396320 0.354229 -0.126637 -0.336669 0.866598 -1.190078 0.528967 1.030820 1.289257 -0.138724 -0.129151 -0.231596 0.629634 0.486157 0.133353 0.954314 1.367858 -0.194867 -2.440854 0.432168 0.566877 0.198841 -0.641218 -0.673683 -0.124012 -0.445460 0.262783 0.532960 0.400450 -1.194842
ATTTTA -0.220680 0.438328 0.565710 -0.910441 -0.588947 -0.807777 -0.126600 0.915133 -0.720614 -0.209031 0.618262 0.114099 -1.018593 -0.316673 -1.222288 -0.162707 -0.891818 -0.083749 -0.011341 0.590532 -0.308916 -0.431081 -0.035975 -0.645841 0.570374 0.963437 -0.435269 -0.298350 0.318501 0.493807 -1.186619 0.061891 0.248527 0.879201 0.249344 -0.217689 0.522526 -0.442526 -0.225874 -0.330662 0.484912 0.470182 1.093593 1.084264 0.040343 -0.524430 0.007281 -0.692000 -0.160964 -1.086325
AATGCA 0.538772 0.198331 0.537785 -0.449279 0.498374 0.211814 -0.080056 1.177148 -0.773279 0.557001 -0.171243 -0.342648 -0.691437 -0.098864 -1.018802 -0.261978 0.365368 -0.266649 0.565034 0.200996 -1.672517 0.765756 0.314195 2.005082 1.582723 -1.291217 0.801777 -0.616127 0.108331 -0.064830 0.081129 0.732729 -0.708794 -0.650506 0.291651 0.525089 -0.165931 -0.246719 -1.513630 -0.541301 -0.160885 -1.250827 0.274301 -0.077978 1.314011 0.948226 0.885912 -0.530093 -0.568372 -0.888407
ATATCA -0.317977 -0.702336 -0.102162 -0.424477 -0.671290 0.499080 -0.878629 0.128360 -2.156151 1.277114 1.064448 0.965879 0.106306 0.284124 -0.357153 -0.225622 -0.229637 -0.137841 -0.000768 1.144751 -0.822808 1.137550 -0.876213 -0.300025 -0.771157 -1.090301 -0.479941 1.378944 0.481792 0.627967 -0.671102 -0.315150 0.209794 -0.843339 0.369721 0.256618 0.474685 -0.124420 -1.310681 0.183969 0.891694 0.788254 0.293915 -0.338648 0.042481 0.465544 0.124118 -0.367319 -0.031430 -0.509599
ATAATT -0.157430 0.565015 0.159878 -0.639171 -0.925372 0.148679 -0.580334 1.495343 -0.436489 0.522847 1.197308 -0.112679 -1.222383 -0.257283 -0.157088 0.394953 -0.883024 0.441319 -0.614608 0.163657 -0.078579 -0.852646 -0.327761 -0.998987 0.131707 0.856188 -0.450091 -0.731852 0.529706 0.210165 -0.239573 0.764107 0.765781 0.177464 0.176724 0.301099 0.414882 0.023360 -1.249457 -0.445121 0.789599 -0.175064 0.676060 0.341733 0.330331 -0.388781 -0.154953 -0.252106 -0.001708 0.225147
TATCAT 0.027517 0.825990 -0.103552 -1.128821 -1.275170 0.306762 0.033120 -0.493576 -1.075626 0.910652 2.032253 0.038323 -1.021610 0.080340 0.055322 -0.454304 -0.565396 -0.208089 -0.077446 -0.042331 -0.199704 0.234272 0.031405 -1.008283 0.154354 0.796642 -0.019664 0.185571 0.428696 0.911790 -0.276844 -0.175713 -0.907343 -0.724362 1.763972 -0.905131 -0.631359 -1.383448 -1.075909 -0.341328 0.031824 0.299721 -0.099642 -0.228810 -0.356063 -0.772479 -0.734571 -0.453452 -0.152136 0.360530
CTTTAT 0.103714 -0.020650 -0.115802 1.108563 0.511272 -1.432546 -0.311432 -0.018288 -0.643482 0.232128 -0.092470 0.765137 -1.098758 -0.279957 -1.615776 0.298582 -0.209617 -1.489115 -0.269826 -0.424899 -0.115865 0.788110 0.298204 -0.145527 0.411248 0.661776 0.213281 -0.108327 -0.536997 -0.074448 0.038093 -0.223639 0.832407 0.724946 0.831537 0.022926 0.946494 -0.685480 -1.327937 0.544955 0.200041 1.776918 0.873059 0.550494 -0.185503 0.364878 -0.859301 -0.461925 -0.456468 -1.166806
ATATGT -1.190657 -0.684798 0.092497 -0.045369 0.477775 0.218030 0.546754 0.090239 -0.609111 0.625378 1.271871 0.236199 -1.060055 1.204753 -0.112716 0.477526 -0.098686 -0.352024 -1.321163 0.139042 0.049343 1.327825 -0.962906 -0.285012 0.039237 -0.464358 0.097346 0.816376 1.253271 0.211764 -0.816917 0.417398 -0.157506 0.328160 0.762792 0.239856 1.391898 0.395817 -1.172652 -0.167953 0.231223 -1.210398 0.594747 0.949108 0.563456 -0.171192 -0.399290 0.520540 -1.208608 0.322042
TATGCA 0.051566 -0.010816 0.054311 -0.882015 0.211059 -0.218609 0.609678 0.673146 -0.943278 0.487223 0.493861 -0.910805 -1.509983 -0.445565 -1.021501 -0.492219 -0.113943 -0.125600 0.114761 -0.695546 -2.086990 0.117299 0.454372 0.331583 0.877793 -1.520832 0.540702 -0.523847 0.104485 0.963195 -0.617924 0.867332 -1.141458 -1.135784 1.258112 0.303088 0.364461 -1.119208 -1.105283 0.303678 -0.094804 -0.493581 0.333181 0.289106 1.343520 0.961620 0.039130 -0.274815 -0.775483 -0.213849
TTAAAA 0.138885 0.683060 0.299890 0.078692 0.984379 -0.057999 -0.525822 0.891348 -0.886108 -0.350328 0.496128 0.135249 -0.031900 0.272537 -1.270371 -0.550243 -0.800464 -0.960550 -0.169970 -0.321591 -0.280724 0.583584 0.219323 -0.233492 1.242146 -0.669182 -0.025916 -0.118266 0.053565 0.236144 0.043732 -0.116869 0.622625 1.126632 -0.365075 -0.560103 0.322006 -1.187949 -0.354498 -0.440948 1.123925 0.413257 0.982679 0.455028 0.082819 -0.102596 0.311700 0.213274 -0.213059 -0.906035
TCAAAA 0.347481 0.652780 0.464276 -0.680999 -0.403478 1.175093 0.450444 0.908814 0.393533 -0.393599 0.964153 0.425390 -0.414561 -1.203735 -0.621923 -0.761618 -0.155858 -1.034341 0.310270 -1.204507 0.322228 0.553056 -0.031878 -0.119135 0.390699 -0.399712 -0.558021 0.150249 -1.156513 0.956353 0.774037 -0.020494 -0.791820 0.762644 -0.121131 -0.599437 -0.494206 -1.078041 -1.172832 -1.218817 1.308331 -0.479712 0.772808 -1.050730 -0.001438 -0.713547 -0.643359 -0.335409 -0.665393 -0.670351
ATAGAA 0.091067 0.771183 1.046825 0.843214 -0.575474 -0.389980 0.774829 0.566040 -1.226826 -0.225981 1.263943 0.437039 0.096165 -0.509489 -1.511155 -0.632943 -0.606109 -0.449588 -0.624107 -0.010301 -0.910416 -0.396644 -0.830556 0.522966 -0.766499 0.041910 1.039474 0.178418 0.592148 0.087513 1.623304 -0.274774 0.028316 0.527910 0.722819 0.385510 -0.043651 0.034736 -1.244454 0.348732 -0.098642 -1.076444 0.782253 0.460052 0.365073 -0.130683 0.363903 -0.464764 0.741647 0.105516
TTTAAA 1.206691 0.191512 -0.276648 -0.007932 0.371161 0.155243 -0.020340 0.578792 -0.193565 -0.846532 0.536143 -0.286738 0.449857 -0.060208 -0.184930 -1.033509 -0.821894 -0.658200 -0.400841 -0.894700 -1.046804 0.630030 -0.135725 -0.035534 0.390387 -0.568660 0.003659 -0.202564 0.475882 -0.078759 0.078768 -0.459959 0.128301 0.971556 -0.304474 -0.160822 0.159971 -1.268588 -1.154893 -0.735342 0.859921 -0.144509 0.599068 0.517926 0.204668 -0.732208 -0.074409 0.485044 -0.172606 -0.769696
TTTGAA -0.058104 0.499285 0.819270 -0.390347 0.647618 -1.254983 -0.155866 1.003724 0.016446 -1.663058 0.050607 -0.063809 -0.790380 -1.221199 0.961191 -0.473960 0.594742 0.019057 0.455585 0.183398 -0.854707 0.421502 -0.633653 0.265754 0.752257 0.392978 0.239011 -0.187699 0.335361 -0.206803 0.815359 -0.586536 0.660057 0.243953 0.003094 -0.055861 -0.390261 -0.955330 -1.477576 -1.093548 0.090675 1.560449 0.933591 -0.525774 0.697881 -0.042530 -0.400865 -0.478731 0.025287 0.029498
ATAAAT 0.248664 0.474251 0.705463 -0.000710 -0.754527 0.428283 -0.294190 1.035710 -0.517555 0.845650 1.784878 0.336416 -0.921938 0.306833 -0.063757 0.145114 -0.222469 0.030482 -0.110400 -0.505424 -0.653741 0.071446 -0.543298 -0.064307 0.471123 0.669526 0.233972 -0.191601 0.524934 -0.407520 0.156738 0.002597 0.959552 -0.120821 -0.399625 -0.168628 0.028733 0.296015 -1.611733 0.418185 0.707594 -0.454575 0.638848 0.202756 0.869155 -0.413635 -0.160456 -0.548647 0.618779 0.565865
ATCTTT 0.199239 -0.265921 -0.230325 1.102875 0.337238 -0.674784 -0.724107 0.442770 -0.479991 0.378118 -0.144304 -0.039493 -0.893557 -0.173828 0.586290 -0.698177 -0.426368 -1.081280 -0.006373 0.650990 -0.553316 1.133503 -1.003946 0.096468 -0.039025 0.593912 0.524866 -0.160450 -0.294680 0.171682 -0.963172 -0.341254 0.869294 -0.015878 0.619687 -0.371943 0.959780 -0.311436 -1.275899 -0.498101 0.019942 2.290730 0.482287 0.256361 0.001849 -0.181329 -0.283580 0.308622 -0.533999 -1.513075
ATCATT 1.193892 -0.413184 -0.640512 -1.079122 -0.484659 -0.323731 -0.944400 0.437483 -2.297136 1.906890 0.075056 0.846673 0.462134 0.438994 -0.487405 -1.445227 -0.038978 -0.066274 0.186174 1.024778 -0.295748 0.525007 -0.476944 -0.042469 -0.028169 -0.437026 -1.080337 0.138777 -0.214365 0.367049 -0.141170 -0.529199 -0.211108 0.666251 -0.129683 0.447643 0.379874 -0.906010 -0.650688 -0.063923 0.688851 1.062960 0.205372 -0.073616 -0.550824 -0.381072 -0.563186 -0.665530 -0.445450 -1.029838
TAATAT -0.005053 -0.594626 -0.152630 -0.733195 -1.258690 -0.733000 0.098797 0.452275 0.103593 -0.093681 0.554029 0.231986 -0.538728 1.259774 -0.364335 -0.004436 -0.749226 -0.355526 -0.233256 -0.213456 -0.676986 0.450663 -0.107923 -0.589779 0.349603 -0.402153 1.133041 -0.086934 0.683750 0.379136 -0.422432 0.018061 -1.170238 -0.117807 0.849138 -0.767824 -0.453709 -0.427411 -0.912728 -0.366391 0.289541 0.101136 1.327641 -0.317115 -0.357665 0.614001 0.488370 -1.520481 -1.082064 0.200579
TTACTT 0.046201 1.451783 0.443020 -0.857788 -0.084909 -1.207394 -0.611136 -0.305034 0.099788 -0.696615 0.621224 -0.299360 -0.216921 0.618413 0.189533 0.229486 -0.256413 0.206647 0.592628 0.150480 0.146489 0.905705 0.901455 -0.219739 1.174038 0.098381 0.301754 0.590014 0.427451 0.068742 -1.303849 -0.677169 0.000565 1.239861 0.229511 0.394033 1.122213 -0.211298 -1.597195 0.086817 0.363209 0.488793 -0.142374 0.537059 -0.256911 -0.733653 0.013037 -0.570710 0.785359 -2.049027
ATTCAA 0.373181 -0.225909 0.237023 -1.703297 -1.361070 1.376319 -0.073153 0.704016 -0.298744 0.117868 1.392429 0.403799 -0.277323 -0.560050 -1.210409 -0.364296 -0.213472 -0.743668 -0.206146 -0.125201 0.663158 0.126217 1.364840 -0.494346 -0.011987 0.116759 -0.462358 -0.558875 -1.036315 0.423797 1.233186 -0.339879 -0.805355 0.213152 -0.330902 0.054535 0.394230 -0.673201 -0.771437 -0.511628 0.481002 0.086460 1.897607 -1.066789 0.080019 -0.414808 -0.458463 -0.487313 -0.704390 -0.380342
ATTTAA -0.869645 -0.247016 0.489862 -0.558715 -1.028808 0.195306 0.034165 1.487619 0.045347 -0.049176 0.440473 0.518058 -1.084596 0.182700 -0.578230 -0.278494 -1.312831 1.156314 -0.295900 0.515959 0.072812 -0.380757 -0.521948 -0.259593 0.684060 0.223136 0.375611 -0.466948 0.423812 0.722323 -1.093355 0.283610 0.391868 0.265234 0.410142 -0.145722 -0.191056 -0.328941 -0.453376 -0.927910 0.206824 -0.047944 1.348253 1.119973 -0.892519 -0.196187 -0.093849 -0.895901 -0.497967 -0.506490
GTAAATA -0.679327 0.741795 -0.051688 0.199195 -1.010962 -0.242026 -0.348697 0.182482 -0.294722 0.343712 0.806182 -0.585424 -0.618560 0.409130 -0.299378 -0.384648 -0.193646 0.218654 -0.030534 -0.038029 -0.601047 0.594681 -0.198325 -1.118774 0.241075 -1.437000 0.347994 -0.549891 -0.607543 -0.598870 0.228237 -0.327601 -0.600865 0.274973 -0.190974 -1.260787 0.492698 -0.164767 -0.717462 0.531127 -0.136878 -1.212581 0.873836 0.260023 -1.094052 -0.056170 0.379079 -1.259261 0.058954 1.435971
TTCTAT -0.017054 0.760864 -1.083920 -1.121290 0.016498 0.659747 0.113214 0.180474 -0.127233 0.385579 -0.016412 -0.645085 -0.170451 0.363818 0.740943 -0.400952 -1.049143 0.240279 0.463618 -0.148976 -0.844468 0.398946 0.322538 -0.217796 0.430068 0.722134 -0.919949 0.057356 0.501898 0.534035 -0.362191 0.680150 1.152426 -1.013798 0.897462 -0.913852 1.502864 0.101303 -1.214448 0.106887 1.283495 0.409869 1.116766 0.862140 0.439603 -0.649981 -0.583845 -0.336363 -1.428955 0.060841
CAGTTT 1.243221 -0.722896 0.912605 -0.984324 -0.291376 -0.052343 -0.811554 -1.105567 -0.698248 -0.858957 -0.219349 -1.118262 -0.012497 0.219247 0.634518 0.388541 -1.583766 1.382873 0.129033 0.212117 -1.629416 0.972523 0.894898 0.373892 -0.247984 0.032039 -0.185934 0.726189 -0.278309 -0.329515 -0.241474 0.591334 0.652012 1.066525 -0.716465 -0.569295 -0.125391 -1.744341 -1.182454 0.452764 0.012814 0.552693 0.009503 0.556522 0.788683 -0.618979 -0.077995 -0.399863 0.781930 0.095839
ATTGAA -0.552762 0.118302 0.640487 -1.302322 0.521940 -1.063676 -0.519090 1.415769 -1.329686 -0.079964 0.508668 -0.195241 -0.060499 -1.122037 0.204826 -0.298003 0.767635 -0.077097 0.011273 0.462580 0.074123 -0.827944 -0.654354 0.019757 0.912180 -0.086380 -0.370597 -0.963927 0.208784 -0.017147 1.020903 -0.416904 0.009560 1.119313 -0.136987 0.497494 -0.350707 -1.185278 -1.246469 -1.180894 -0.182514 0.995693 1.364228 -1.165350 0.132744 0.279575 -0.665559 -0.399092 0.180746 0.852538
CTATTT -0.624470 0.788271 -0.523654 -0.877316 -0.618641 0.419227 0.312084 1.262815 -0.311883 -0.058508 -0.165104 0.242005 -0.725831 -0.154489 0.421814 -0.431531 -1.172627 0.970728 0.526092 -0.201027 -0.980359 -0.951351 -0.096235 -0.008377 0.325621 0.829985 -1.056641 0.124202 0.023612 1.116677 -1.294661 0.318059 0.826866 -0.303722 1.024018 -0.449571 1.383458 -0.462941 -0.672954 0.050050 0.305328 0.817624 0.993114 0.949572 -0.503830 -0.368529 -0.343222 -0.841315 -1.324810 -0.533953
ATATCT -0.106159 -0.307129 -0.074709 0.519131 -0.391554 0.343039 -0.942989 0.637593 -1.125311 0.889307 0.892007 0.049687 -1.245299 0.350181 0.620263 -0.807399 -0.633716 -0.995009 -0.456512 0.377252 -0.566979 0.790051 -0.824436 0.320088 -1.049676 -0.502587 0.527284 0.297916 0.416881 -0.071935 -1.274282 -0.256504 0.625573 -0.433992 0.901429 -1.065274 1.466464 0.397509 -1.551364 0.003976 0.128816 1.278069 0.071002 -0.099740 0.079546 -0.178457 0.833767 0.477580 -0.597330 -0.158522
TGCAAA -0.345078 -0.508022 1.223632 -0.528576 0.684582 0.943006 -0.064566 0.751278 -0.714134 -0.262653 0.197170 -0.630499 -1.139837 -0.682016 -0.764382 0.449392 -0.017055 0.327294 0.259356 -2.000964 -1.031263 0.594555 0.885336 1.027881 1.294828 -1.119968 -0.356034 -0.675788 -0.718853 0.917711 0.182191 1.355100 -0.263703 0.024733 0.579626 0.408047 0.005272 -0.060894 -1.566625 -0.786608 0.746122 -0.499528 -0.446182 -0.263580 0.136352 -0.603213 0.552286 0.500979 0.263162 -0.942267
TTTATC 1.223822 0.233584 -1.002883 -0.747404 -0.682474 0.177513 0.046541 -1.055978 -0.639325 -0.531159 1.530834 0.385267 -0.255550 -0.287050 0.028561 -0.810722 -0.278012 -0.789114 -0.221654 -0.440656 -1.840087 0.451790 0.575738 -0.690189 -0.261877 0.700263 1.043782 0.497156 0.364574 -0.260036 -1.050254 -0.881734 0.061578 -0.274708 1.449679 -0.136991 -0.833115 -1.676436 -0.589433 -0.731874 0.605389 0.613241 0.073756 0.210371 0.134019 -0.545105 -0.420957 -0.310037 -0.233437 -0.146506
AGCTTT 0.711197 0.065916 0.314240 1.248416 -0.270847 -0.057417 -0.105960 -0.194399 -0.267105 -1.755194 -0.254355 2.031149 -1.267233 -0.737706 0.196303 0.448061 -0.430168 -0.349839 0.234576 0.256402 0.299303 -0.330543 -0.183528 -0.201510 1.505875 -0.462228 -0.963049 1.466805 -0.312063 -0.322766 0.272093 -0.015216 0.093508 1.024743 0.402867 0.108026 0.325497 -0.217390 -1.148814 0.301593 0.057719 1.042235 0.228851 0.462545 -1.303160 -0.256591 0.450545 -1.671363 -0.900453 0.097812
AGCATT 1.362442 -0.303775 -0.479012 0.031791 0.896667 0.668430 -0.355787 -0.218052 -1.489256 0.184450 -0.405844 0.640390 -0.701609 1.005651 -1.068223 -1.185751 -0.485214 -0.278180 -0.945211 0.993993 -0.203150 -1.682700 0.281275 0.153929 0.780808 -0.172804 -1.052571 0.191200 0.319830 -1.056012 0.212122 1.268031 -0.938552 1.033882 -0.079521 0.304495 -0.060526 -0.462711 -0.550602 -0.493755 0.414854 -0.384031 1.175739 -0.864638 -0.335143 -1.189823 -1.007569 -0.564920 -0.208658 -0.692123
TACTTT 0.166845 1.189238 -0.962258 0.480695 1.297470 -1.156607 -0.784862 0.955035 -0.287431 -0.082283 -0.184346 0.408036 -1.431852 0.294603 -0.345180 -0.137879 -0.336081 -0.268007 0.315073 -0.955845 -1.013856 0.831429 -0.058250 -0.689091 -0.218907 0.745168 0.867194 -0.185694 -0.985583 -0.789240 -0.717025 -0.327587 0.752563 0.868992 0.383785 -0.466791 -0.276664 -0.063609 -1.094055 0.586330 -0.611425 0.817754 0.516128 -0.028831 -0.177310 -0.552868 -1.241479 0.467904 -1.090058 -1.115591
TAAATT -0.743636 0.267697 0.575317 -1.104636 -0.878489 0.115266 -0.808568 1.567658 -0.303389 0.164801 0.478987 0.325344 -0.679301 0.671840 -0.118505 -0.086416 -0.636382 0.278495 -0.614134 -0.000904 -0.018382 -0.122360 0.354496 -0.323238 0.241649 -0.272228 0.253559 -0.538820 0.293211 -0.087479 -0.003387 0.186682 0.119101 0.606411 -0.532812 0.084080 -0.229956 -0.087618 -0.653212 -0.620861 -0.386336 0.190011 1.745555 0.210234 -1.139578 0.305137 -0.384964 -0.670003 -0.564111 -0.518440
TTAAAT 0.701517 0.817123 0.961614 -0.413480 0.269103 -0.631104 -0.524539 0.999477 -0.555427 0.190174 1.183092 0.686562 -0.412801 0.141064 -0.954345 -0.379449 0.073770 -0.391877 -0.150267 -0.421788 -0.861711 0.205042 0.609064 -0.239631 0.870456 0.671474 0.852418 0.150298 0.599118 -0.595506 -0.322433 -0.093549 0.996404 0.533815 -0.424684 -0.260895 0.110283 -0.810666 0.026935 -0.287104 0.237108 0.129828 1.394086 0.285974 -0.117000 0.084450 -0.033008 -0.517251 0.204021 -0.696215
ATGCAA -0.145820 -0.674950 0.736474 -0.816930 -0.134442 0.456207 0.048287 1.349162 -0.325190 0.240271 0.008741 -0.796769 -0.776050 -0.785508 -1.222596 0.352071 0.111703 0.297496 0.054835 -0.655091 -1.776605 0.530671 0.425471 1.032346 1.525229 -1.316379 0.368737 -0.286253 -0.563398 0.926834 -0.007936 1.129210 -0.807804 -0.648965 1.253130 0.190069 0.490658 0.073230 -1.269231 -0.772982 -0.098904 -1.172784 -0.349328 -0.016546 0.965932 0.185689 0.526769 0.236475 -0.124352 -0.673367
TGATAT -0.634460 -0.511360 0.501856 -0.260356 -0.162318 -0.274617 0.036873 1.281920 -0.870073 0.194911 1.624130 0.579574 -1.393431 0.552800 0.531092 0.777580 -0.305787 -0.316634 -0.778252 -0.133497 -0.815881 0.624923 -0.857588 -0.582898 -0.123185 -0.513912 -0.580106 0.332740 0.479110 -0.186622 -0.619806 -0.265771 0.447564 0.089078 0.461141 1.170085 0.565081 -0.430488 -0.973088 -0.686831 0.409098 1.671215 0.898353 0.030641 1.266493 0.620873 0.462577 -0.101947 0.626778 0.795831
GATTTT 0.851829 -0.719464 -0.594875 -0.453098 -0.902966 -0.828095 -0.105025 -0.487236 -0.517575 -0.386297 -0.296315 -0.055217 -0.287059 0.139680 0.942707 0.955216 -0.110333 -0.046481 -1.009064 -0.082819 -1.446274 0.144624 0.881379 -1.244507 0.691453 -0.873486 0.640085 -0.330734 -0.343939 -0.287416 0.339459 -1.670668 0.255860 0.316935 -0.291696 0.761682 0.775862 -0.694928 -0.644337 -1.358859 -0.935910 0.147654 0.477980 -0.477291 -0.904164 -1.260705 -0.836317 -0.513657 -0.434049 -0.445290
AAAATA -0.240640 0.506335 0.469359 -0.278200 0.056343 0.326983 -0.179171 1.308182 -0.411405 -0.749844 0.307821 -0.560129 -0.217878 -0.175325 -0.461591 -0.601540 -0.616347 -0.433569 0.746850 -0.986316 -0.338473 0.339837 -0.355289 -0.306725 0.356808 -0.998372 -0.029034 -0.260420 0.204297 0.270854 0.161644 -0.400447 -0.375802 -0.008708 -0.237682 -1.097858 -0.632602 -0.796020 -1.401038 -0.797449 0.724285 -0.524186 0.803405 -0.517705 -0.311541 -0.089483 0.318986 -0.278030 -0.604220 -0.343712
GAAAAT -0.164866 0.450234 0.777570 0.890371 -0.070843 0.288034 0.483584 0.038104 -1.315460 -0.511924 0.956297 0.529511 0.608095 -0.768639 -0.149099 0.182213 0.382100 -0.841289 0.430578 0.314193 -0.908481 1.125439 0.267566 0.910089 0.330448 -0.578284 0.419698 -1.341629 0.274112 0.464680 0.563712 -1.220431 0.409199 1.536035 0.039663 -0.214415 -0.110490 -0.114326 -0.655905 0.142997 0.701685 -0.308775 0.165729 -0.877402 -0.060665 -0.571852 -0.249532 -0.140197 -1.546525 -0.078555
TTAATA 0.203588 0.692707 0.352333 0.144550 -0.030435 -0.542936 -0.498512 1.152574 -0.724549 0.377830 1.050177 0.335514 -0.520424 0.544514 -1.150111 0.226994 -0.464637 -0.674665 -0.883850 -0.142322 -0.643887 -0.199251 0.445885 -0.529828 -0.192064 -0.304486 0.322501 0.287581 0.723020 -0.480341 -0.167307 0.055271 1.008120 0.853968 -0.088156 -0.152557 0.978220 -0.651090 -0.661735 -0.384264 0.881054 0.104931 1.056546 0.148543 -0.034129 0.481825 0.428860 -0.176263 0.722074 -0.879092
TTCTTC 0.670387 0.206643 -0.615838 -1.050335 -0.060796 0.264514 -1.009690 -1.015318 -0.026736 -0.552278 -0.832724 -0.308960 -0.520173 0.701856 0.056565 -0.351393 -0.465668 0.287678 -0.094165 0.416967 -0.286809 1.045366 0.376546 -0.013933 0.382390 0.954629 -0.253884 0.273520 0.330046 -0.026307 0.491090 0.763825 0.998385 -0.520419 -0.105374 -0.025451 1.017364 0.551591 -0.487897 -0.269127 0.807332 0.057071 0.833383 0.668935 0.390085 -0.997557 -0.628970 -0.259987 -1.460307 -0.716639
TTTAAT 1.768926 0.268673 0.472370 -0.519535 -0.223808 -0.089183 -0.192024 0.547225 -0.168126 -0.397950 0.950448 0.451438 -0.021567 0.348863 0.072815 -0.541098 0.248737 0.103884 -0.001368 -0.409874 -1.472853 0.516621 0.266214 0.206612 0.472526 0.739591 0.910446 0.180259 0.932036 -0.877813 -0.548664 -0.607051 0.485675 0.271957 -0.275150 0.174593 -0.027274 -0.795562 -0.947391 -0.179765 0.116799 0.104786 0.997448 0.266315 0.312612 -0.666357 -0.478573 -0.116376 0.229222 -0.638527
ATACAA 0.760967 0.106618 0.168764 -0.076915 0.356804 0.254091 0.133952 1.420224 -0.649879 -0.491738 1.109317 0.007618 0.164595 0.482389 -0.673086 1.062484 0.064011 -0.232503 -0.243759 0.666717 0.439533 0.469099 0.177278 -0.497587 -0.059688 0.398231 0.612499 -0.329535 0.271866 -0.276763 0.090659 -0.832913 0.080549 0.225057 -0.972044 0.079261 0.774479 0.573465 -2.801407 0.323252 0.805496 -0.424029 0.099472 -0.778404 0.363082 0.864178 -0.074190 -0.891242 0.161372 0.587898
CAAATA 0.204002 -0.669760 1.156337 -0.765061 0.899137 1.325594 -0.424273 0.627372 -1.096504 -0.160178 1.063478 0.320090 -0.489165 -0.302526 -1.029332 0.359823 0.188236 0.902202 -0.124136 -1.096946 -1.246991 0.979928 0.014464 -0.209716 0.201054 -0.026546 0.860506 -0.186424 -0.083777 -0.337437 0.099849 0.467478 0.316316 -0.948506 -0.356091 -0.239492 -0.679848 0.609121 -1.307188 1.185538 0.105921 -0.107765 0.893821 -0.134218 -0.982651 -0.990341 0.013018 -0.139956 0.603546 -0.038779
AAAAAT -0.511090 0.173081 0.717350 -0.312218 -0.055815 0.859156 0.056681 1.576218 -0.522696 -0.114931 0.112269 -0.122071 -0.613024 -0.588172 -0.161489 -0.305051 -0.569267 -1.081700 0.297943 -0.690491 -0.339882 0.521170 -0.827378 -0.129540 0.623445 -0.655220 -0.524540 -0.375278 0.193950 0.717538 0.483675 -0.145288 0.181936 0.579466 -0.083248 -0.075940 0.030014 -0.857093 -1.355735 -1.239424 0.648615 -0.279467 0.394540 -0.233892 0.098639 -0.270282 -0.148791 0.087911 -0.617084 -0.032985
GAATTT -0.268135 1.237748 1.182084 -0.567742 -0.534580 -0.389933 -0.314263 0.513363 -0.217677 -0.445751 -0.465739 0.537881 -1.503808 -0.745653 -0.275201 -0.073494 -0.197673 1.451110 0.302363 1.537203 -0.761205 -0.331250 0.238083 0.145309 -0.278373 0.400097 0.399645 -0.774520 1.071969 1.076437 -1.060756 0.368925 0.629895 -0.299913 0.439352 -0.844230 0.312772 0.387969 -0.149111 -1.093105 -0.350824 -0.463065 0.596559 0.515063 -0.576512 -1.444838 -0.751113 -0.269665 -0.780183 -0.773182
TAAAAG -0.507341 -0.140688 0.818840 0.360337 0.347775 1.095649 -0.468461 1.381093 -0.102299 -0.126598 0.073861 0.047137 -0.463417 0.557528 0.187462 0.151421 -1.151238 -0.297595 -0.877510 -0.033532 -0.115517 0.318096 -0.297126 -0.186100 0.508872 -1.838227 0.017942 0.285576 0.067040 -0.345871 0.593016 0.206514 0.103477 0.750192 -1.263401 -1.093057 -0.518243 -0.163435 -0.770011 -0.582093 0.350404 0.144776 1.560384 0.903753 -0.587145 0.085101 -0.118721 -0.940613 0.690444 0.092665
TCAAGA 0.832860 0.125112 0.428368 -0.422030 -0.642402 0.530252 -0.139290 -0.334573 -0.508038 -0.045770 1.150187 1.189142 0.795388 -1.411269 -1.362464 -0.666850 -0.052265 -0.259229 -0.591386 0.512800 0.490700 0.561225 0.338700 0.046520 -1.420280 -0.719733 0.768693 1.450017 -1.668376 -0.173716 0.526311 -1.233959 -1.110884 -0.577167 0.161561 0.771775 0.341033 0.639671 -0.784745 -1.213691 0.108890 0.161218 1.676945 0.051471 0.069837 -0.749344 -0.598222 0.150657 -0.073472 -0.437291
ATTTCA -0.525642 -0.742766 0.261292 -0.941142 -0.732746 0.833496 -1.559609 0.415402 -0.182263 -0.160431 -0.003255 -0.189496 -1.249307 -0.589054 -0.995222 -0.316896 -0.533467 1.007091 0.099007 0.917751 -0.592589 0.510688 0.105220 -1.257313 -0.514931 0.176795 -0.084365 0.171745 -0.100030 0.387544 0.061840 0.236483 0.557458 -0.455674 -0.257878 1.031375 0.569667 -0.682057 -0.362572 -0.825230 -0.053161 0.342198 0.703205 0.687265 -0.497005 -1.339340 -0.792916 -0.455403 -1.282873 -0.448074
ATAGAT -0.274105 -0.717356 1.277668 0.511302 -0.785497 -0.051163 0.243288 0.564098 -0.986903 0.355264 1.129131 0.361838 -0.639858 -0.130575 -0.794413 0.028126 -1.457216 -0.641430 -0.232530 0.354305 -1.069783 -0.939402 -1.294410 -0.392683 -0.935057 -0.305514 0.575105 -0.210601 0.707854 0.734237 0.305383 -0.378078 0.283309 0.631683 0.333031 0.744936 1.067231 -0.177054 -1.235275 0.014456 -0.508846 -0.287263 0.570670 0.856091 0.590558 -0.364511 -0.044742 -0.150118 0.702129 0.177448
ATCTAT 0.168237 0.043248 -0.581332 -0.013269 -0.272084 0.441104 0.151989 0.968450 -1.043690 1.534046 0.034508 -0.187615 -0.362337 -0.356466 0.417492 -0.966296 -0.712790 -1.042199 0.524425 0.191106 -0.562066 -0.203571 -0.818410 -0.310343 0.193207 0.214832 -0.332697 -0.733602 -0.036570 0.865083 -1.410098 0.006142 0.480383 -0.856559 1.005885 -0.930921 1.813852 -0.398406 -1.569183 0.486029 0.739304 0.869513 0.406086 0.013433 -0.287451 -0.483243 0.527532 -0.359103 -1.432809 0.509252
TGAATA -0.143306 0.186778 0.665120 -0.686293 0.268929 -0.541228 0.044651 1.378856 -1.203214 -0.758205 1.664407 0.143644 -0.990260 -0.661282 0.425705 -0.229251 0.774573 0.318499 0.517569 -0.719201 -0.889665 -0.152360 -0.810164 -0.069684 0.637786 0.460201 0.285985 -0.011593 0.637241 -1.364699 0.303919 -0.456749 0.804211 -0.299716 -0.770490 -0.170130 -0.691802 -0.960774 -0.681169 -0.572481 -0.877782 0.018741 1.568030 -0.895403 0.443553 -0.193257 -0.145226 -0.832352 0.655017 0.749654
ACAAAA 0.425266 0.554585 0.440911 0.549314 0.871644 0.856301 0.481137 1.207249 -0.505281 -0.835260 0.753737 -0.010593 0.282594 -0.094394 -0.518785 -0.008545 -0.039407 0.298584 -0.214947 1.092773 0.573147 0.832028 0.576788 0.024923 0.389202 0.170646 0.657457 -0.563025 -0.133244 -0.126189 0.085762 -0.718877 -0.069382 0.179916 -0.613902 -0.376742 0.090347 0.040963 -2.305793 -0.221395 0.574751 -0.416149 -0.057441 -0.371109 0.488857 0.454974 -0.332900 -1.046729 0.185788 0.071318
AGCATA 0.779181 -0.218087 0.266384 0.753239 0.570462 0.673497 -0.448668 -0.689364 -0.571811 -0.311290 -0.162384 0.290801 -0.604953 1.200922 -0.928397 -1.624405 -1.148168 -0.122051 -0.972189 0.842582 -0.470472 -0.755250 -0.978141 -0.685453 0.418495 -1.192942 0.370883 1.125601 1.625630 -0.758958 -0.234775 1.533931 -1.103917 -0.036355 -0.095316 0.219804 -0.273434 -0.445589 -0.814387 -0.354206 -0.017806 -0.918593 1.030407 -1.331404 -0.196099 -0.050346 0.097315 0.154488 -0.655475 -0.035106
ATTTCT -0.104117 -0.073359 -0.145593 -1.978747 -0.826104 0.261114 -0.493111 0.029843 -0.116186 -0.319508 -0.502073 -0.269289 -1.296700 0.490343 0.503046 -0.385490 -1.527441 0.544831 -0.018941 0.081149 -0.422313 -0.155901 0.425686 -0.196394 0.510018 0.724147 -0.474409 -0.306967 0.459176 0.594008 -0.144621 0.091289 1.307950 -0.632512 -0.226307 -0.204914 0.823981 0.416466 -0.113206 -0.903409 0.465526 0.044432 1.204034 0.900794 0.102878 -0.853290 -0.270372 0.089617 -1.233298 -0.822156
AATTAT 0.082312 0.693404 0.932009 -0.589047 -0.156923 -0.103650 0.227634 -0.150648 -0.701219 -0.428283 0.927980 0.164064 -0.358552 0.035399 -0.321417 -0.461001 0.040063 -0.062193 0.615149 -0.894920 -0.882065 0.703151 0.269598 -0.278559 0.274780 0.663756 0.401597 -0.298410 0.944180 -0.047844 -0.044646 -0.794349 -0.209050 -0.673083 -0.028067 0.126836 -0.941976 -0.305747 -1.140669 0.384731 0.793392 -0.203456 1.644676 -0.041861 0.433028 0.096884 -0.923307 -1.145027 -0.797832 0.186834
AATTTA 0.408363 0.294978 1.263735 -0.318947 0.173544 -0.608858 0.235782 0.402423 -1.184221 -0.335071 0.631087 0.480379 0.260454 -0.023307 -1.147106 0.158189 0.193109 -0.085996 0.442397 -0.483375 -0.213911 0.703624 0.128719 -0.225880 0.868895 1.082221 0.237818 -0.477622 0.309664 -0.373498 -0.050023 -0.671078 -0.078155 0.717260 -0.621113 0.078179 0.375647 -0.621662 -0.939417 0.300279 0.516214 0.307188 1.530176 0.381003 -0.108989 -0.069004 -0.266732 -1.106296 0.533179 -0.660565
ATTAAA -0.602916 0.723630 0.643484 -0.701121 0.137232 0.779153 -0.200540 2.059191 -1.052218 -0.071567 1.025372 0.053361 -0.694083 -0.394806 -1.091315 -0.045795 -1.115518 -0.402395 0.336646 -0.160128 -0.042365 -0.052952 -0.431944 -1.061053 0.859764 -0.140197 -0.704120 -0.751397 -0.327317 0.584257 -0.038549 -0.205155 0.026135 0.644157 0.119552 -0.119813 -0.493967 -0.539213 -0.683920 -0.168332 0.314421 -0.449719 0.645730 0.626461 -0.342577 -0.602298 -0.009781 0.518083 -0.447030 -0.146943
TAAAGA -0.469070 0.165353 0.887668 -0.009710 0.487620 0.178763 -0.297028 0.931334 -0.513670 0.560914 0.139984 -0.188802 0.510750 0.265638 0.307657 0.095736 -0.378870 0.564963 -0.642040 0.111429 0.719112 -0.345126 -0.406622 0.107032 0.766151 -1.542410 1.535943 0.173145 0.138562 -0.259841 0.395420 -0.951460 0.449465 -0.695283 -0.200405 -0.450163 0.369685 0.389501 -1.136529 -1.558808 0.558326 -0.260403 1.512577 0.033210 -0.599942 -0.103325 0.042776 -0.908352 -0.363791 -0.897056
TAATTT 0.471571 -0.612637 -0.184404 -0.475482 -1.395534 -0.696230 0.373289 0.777119 0.444386 -0.510816 0.207907 0.878546 -0.360268 1.189216 -0.061599 -0.083944 -0.251631 0.244693 -0.403348 0.101224 -0.552800 0.194046 -0.067910 -0.139176 0.374493 -0.237005 1.335104 0.124091 0.424417 -0.140799 -0.612127 -0.106737 -0.591780 0.788021 0.400135 -0.150212 -0.028459 -0.721904 -0.708504 -0.642838 -0.135998 0.804678 0.763039 0.563895 -0.610696 0.006223 0.328200 -1.264785 -0.534499 -0.510279
AATCTT 0.778417 0.750081 0.870343 -0.497794 0.177852 0.819093 -1.090076 0.234905 0.396742 -0.108391 0.333096 0.113589 -0.741959 0.204059 -0.756154 -0.765497 0.960546 -0.777683 -0.347524 0.244159 -1.446800 0.335253 0.242005 0.400520 0.398187 1.430736 1.311960 -0.606342 0.131596 -0.653080 -0.331152 -0.115549 0.192137 0.607033 0.162674 0.173873 0.569727 0.395759 -0.941681 -1.281078 0.809419 0.233425 0.833709 -0.410926 -0.605594 -0.499182 1.422789 0.440372 0.198498 -0.003784
ATGATA 0.131320 -1.093901 0.883988 -0.867823 -0.353643 -0.936854 0.404932 0.220234 0.004809 0.878572 0.364978 -0.040014 -0.099692 0.527791 -0.572243 1.268171 -1.317738 -0.968752 0.033900 -0.060972 -0.559136 1.258778 -0.658345 -0.148651 -0.396488 -1.097353 0.291781 0.137163 0.778438 0.015816 0.728769 -0.566641 0.224168 -0.092650 0.216798 -0.116980 0.994915 0.568685 -0.592944 -0.815877 -0.738936 -0.485611 0.480177 -1.495674 -0.421092 -1.053810 -0.638485 -1.432363 -0.932079 0.339151
CTTGAA -0.325072 1.352695 0.890640 0.550696 0.567086 -1.226154 -0.102968 -0.758937 0.266941 -0.214476 -0.348893 0.186999 -0.436741 -0.625616 0.378994 -0.467301 0.402054 0.509939 -0.519760 0.510845 -0.196418 0.894208 1.213260 1.059170 0.572183 0.676939 0.106472 -0.034265 0.715145 -0.503415 0.383958 -0.900007 1.813081 0.042804 1.404512 0.301755 0.545622 0.534349 -1.521114 -0.494387 0.229855 -0.481958 0.139771 -1.965382 -0.932975 -0.378222 -0.458955 0.449716 -0.912611 0.247320
TTATAA -0.065361 -0.113323 0.128562 0.342184 0.074087 -0.722507 -0.095143 0.759472 -0.429744 0.260228 0.671694 0.364236 0.276177 0.457545 -1.527420 0.034256 -0.498466 -0.575326 -0.621219 -0.413726 0.061332 0.655655 0.268998 0.126911 0.593074 -0.136867 0.678198 -0.187558 0.687828 -0.460609 -0.028488 -0.131228 0.170033 0.884503 0.224864 -0.042932 0.840910 -1.038861 -0.538993 -0.237763 0.948416 0.914800 1.299561 0.678407 -0.978926 0.747047 0.358478 -1.037947 0.028008 -0.851932
TTGAAT -0.265628 1.549865 1.575943 -0.374181 0.286893 -0.825675 -0.319767 -0.077034 -0.251140 0.321942 0.115870 0.401348 -1.305817 -0.161540 0.428846 0.099670 0.757260 0.772983 -0.200144 1.209037 -1.038949 0.479506 0.813414 1.095025 -0.215060 0.556248 0.327646 -0.367879 1.086155 -0.492696 -0.227934 0.085733 1.063223 0.109165 1.104301 0.001658 0.744364 0.598304 -0.841045 -0.648846 0.185223 -0.895422 0.560892 -0.846139 -1.037886 -0.957988 -0.524614 -0.265232 -0.491876 0.181947
TATCTT 0.612008 0.974706 -0.604644 -0.797097 0.385330 0.104366 -0.428289 -1.324651 -0.396974 -0.364869 1.187467 -0.249538 -1.031385 -0.141197 -0.725829 -0.611575 -0.124394 -0.931239 -0.113428 -0.321287 -1.303847 0.677581 0.832028 -0.924978 -0.079875 1.069110 0.749765 -1.044677 -0.133865 -0.485425 -0.676135 -0.696410 -0.431277 0.260914 1.136111 0.160163 -0.457828 -0.397551 -0.842223 -0.843206 0.483002 0.285340 0.864538 0.260402 -0.445050 0.032898 0.836375 -0.239339 -0.965506 0.552726
CATAAA -0.166195 -0.013926 0.634457 -0.045961 -0.311019 0.266564 -0.932210 1.369228 -0.175860 0.189148 0.484783 0.596609 -0.106427 1.112724 -0.289134 -2.016538 -0.661192 0.723439 -0.822181 0.523870 -0.320606 0.204708 -0.938697 -0.036054 0.102366 -1.529320 1.081331 0.806937 0.757339 -0.588769 0.290633 0.441161 0.598043 -0.146621 -1.218935 -0.132521 0.026837 -0.472152 -0.962848 -0.390513 -0.466035 -0.327655 1.106709 -0.359255 -0.365525 0.948542 0.070337 -0.525016 -0.771738 -0.503861
CTGAAA -0.652947 -0.161625 -0.392240 -0.393131 0.545794 -0.032913 -0.498758 1.596949 -0.782588 -2.063116 0.119520 -0.233772 0.224673 -0.258657 0.389634 -0.867546 0.079474 -0.981887 0.944907 -0.310338 -0.110295 0.652983 -1.197831 0.312793 0.595762 -0.657316 -0.343346 -0.160958 -0.518986 -0.597334 1.403259 0.028041 1.014127 1.265840 -0.041115 -0.704748 -0.434628 -0.588977 -0.743859 -1.397055 -0.275861 1.010270 -0.035284 -0.813223 1.253717 -0.523845 0.639814 -0.293239 -0.505261 0.877676
TTCATA 0.083309 -0.408430 0.317650 -0.200329 -0.512776 0.069152 -1.492116 0.098454 0.547426 -0.219652 0.160147 0.123975 -0.850365 0.867445 -0.464404 -1.585549 -0.060526 0.865708 -0.646986 0.650711 -1.388207 1.308378 -0.726668 -1.217204 -1.252143 -0.113944 0.615258 1.048801 1.121765 -0.478674 0.603749 0.654032 0.231376 -0.423458 -0.006831 0.288542 0.556685 -0.543203 -0.960178 -0.222499 -0.374023 -0.136768 0.730142 -0.062816 -0.456373 -0.078363 -0.003065 -0.250475 -1.389552 -0.028048
GTATTT -0.649127 0.209699 -0.362873 -1.100675 -0.197949 -0.739998 0.349394 0.077014 -0.332050 -0.173568 0.752200 -0.421865 -1.737992 -0.988084 -0.410382 -0.034762 -0.142408 1.149752 -0.277485 0.260482 0.114892 -0.338549 -1.148540 -0.579465 0.104606 0.362455 -0.447469 -0.080594 -0.659351 0.336350 -1.435798 0.159015 -0.150361 0.362964 -0.012164 0.651903 -0.303773 0.135465 -0.354144 -0.696054 0.267354 -0.064832 1.060051 1.786699 0.062896 -1.075739 -0.446993 -0.622308 -1.168534 -0.975357
ACGTTT -0.603127 0.878992 -0.031478 -0.545530 -0.637143 -0.064974 1.549728 0.824701 0.563156 -1.135434 0.158913 1.504620 0.066452 0.502121 0.847276 -0.261033 -0.108216 -0.175497 -1.317349 0.913693 -1.550218 0.763585 -0.555447 -1.106349 0.240192 -0.674533 0.177859 -0.709432 -0.743245 -1.054600 0.941668 0.609973 -0.444720 0.347604 -0.340524 0.010739 0.412117 -1.114629 -0.109248 0.429184 0.863386 1.646998 -0.324627 0.758114 0.185995 -0.383939 -0.357372 -0.331652 -0.321528 -1.080385
CACTTT -0.053501 0.383366 -1.511098 1.465546 0.290404 -1.123717 -0.715834 0.585340 0.241364 -1.110387 -0.521671 -0.876939 -1.339209 -0.091556 -1.171152 -1.039284 -0.353018 -0.375031 -0.807169 0.399727 -0.363375 1.160382 0.245690 0.216338 0.569245 0.975915 0.697682 -0.075972 -0.359258 -0.093511 -0.234818 -0.130140 0.917653 -0.950740 -0.101410 1.157792 0.256274 -0.822717 -0.858057 -0.023273 0.162393 0.899076 0.166458 0.062918 0.615073 0.023046 -0.371268 -0.216910 -0.338289 -1.327260
TACGTA -0.990373 0.834692 0.481121 -0.944288 0.843413 0.138828 1.091696 -0.372261 0.057041 0.686876 0.670498 0.475435 -1.038461 0.085918 0.335289 0.382939 -0.571360 1.009892 -0.862788 -0.789142 -0.635426 0.006637 -1.858228 -0.964429 -0.164533 -0.345811 0.435567 -0.893026 -0.873830 -1.314260 -0.481611 -0.915513 -0.760513 0.468231 -0.275460 0.187343 0.628429 -0.879231 -1.054521 0.826909 0.629730 -0.553258 -0.175086 0.179992 -0.137682 -0.453031 1.042599 -0.049388 -1.090385 -1.444390
TGTAAAT -0.867533 0.392430 -0.129835 -0.068337 -1.197295 -0.606342 -0.677533 0.189746 -0.224546 0.472827 0.499904 -0.279902 -1.411240 0.751002 0.009862 -1.300383 0.483087 -0.054406 -0.056164 -0.294085 -0.326836 0.786782 0.217424 -0.881734 0.684604 -1.517219 0.123823 -0.434855 -1.039042 -0.054390 0.264687 -0.365621 -0.010412 0.260763 0.070391 -0.945683 0.568410 -0.210284 -0.148673 0.057314 -0.291186 -1.009896 0.439401 0.514337 -0.221904 -0.393584 -0.024698 -1.095629 -0.182221 1.527689
CCATTT -1.338908 -0.531239 0.440821 -1.330127 -0.540427 -0.600119 -1.062293 0.101599 0.171888 -0.080583 -0.101808 0.204914 -1.025936 -0.950626 -0.095808 -1.155255 -0.427749 -0.040043 0.506586 1.047694 -0.349116 -0.857444 0.247832 -0.865405 -0.365646 0.561490 -0.433848 -0.044000 0.375194 1.304563 -0.243950 0.779244 1.060884 0.903259 -0.774216 -0.188605 0.291045 -0.206167 -0.214686 -0.285055 -0.351035 -0.005609 0.685388 1.204567 -0.215117 -0.591318 0.201139 -0.539558 -1.137000 -1.626529
AGAATA -0.168377 1.057241 1.328706 -0.079241 -0.443280 0.299296 0.261393 0.486053 -0.996520 -0.342252 1.055222 0.479031 0.580079 -0.367692 -1.017916 -0.104195 -0.464915 0.356339 0.278998 -0.454010 -1.422648 -0.373989 -0.711725 0.132851 -0.137690 0.791962 1.528975 0.425849 0.111335 -0.643948 0.640400 -0.515284 0.276581 -0.216170 -0.070138 0.894952 -0.682557 -0.199605 -0.878999 0.471518 -0.415687 -1.386188 1.240545 0.425492 0.049038 -0.353482 -0.149013 -0.486476 0.818200 0.444806
ATAGCA 0.710435 -0.513794 -0.143768 0.092071 0.055700 0.597885 0.863564 0.498368 -1.185646 -0.275264 -0.130162 0.137950 -1.063026 0.157465 -1.197311 -0.341879 -0.712844 -1.330538 -0.480087 0.642756 -0.597455 -0.444624 -1.369377 -0.202394 -0.462194 0.400379 -0.457745 0.435109 1.123032 -0.759393 0.156044 1.492214 -0.028757 -0.278905 0.267057 0.480600 -0.263433 0.435619 -1.231344 0.827223 -0.215424 -0.774344 1.836508 -1.726874 -0.431440 -0.620917 0.614170 -0.700465 0.390081 -0.025893
TAGAAA 0.412865 0.670736 -0.245838 1.712812 -0.208553 0.316804 -0.244802 1.002633 -0.377226 0.087728 1.428022 0.519353 0.401337 -0.876038 -0.015461 0.860413 -0.254704 0.133339 0.807331 0.527106 -0.861170 0.362570 0.529133 0.577835 -0.087971 -0.684708 0.303100 -0.830357 -0.257022 0.110114 0.001303 -0.915498 0.333414 0.447763 -0.044372 0.024069 -0.671076 -0.505510 -0.675489 0.205608 -0.137969 -1.307164 1.176321 -0.971368 -0.707102 -0.942008 -0.337804 -0.526161 -1.886935 -0.288780
TCAATA 1.411408 -0.091481 0.730455 -1.544609 -1.086006 1.128295 0.570647 0.514302 -0.215351 0.322375 1.794215 0.999688 -0.804581 -0.701253 -0.546327 -0.611653 -0.206578 0.085377 0.203794 -1.209260 -0.174473 0.488592 0.456318 0.249694 -0.176642 0.342587 0.284032 0.281708 -0.614018 -0.292960 -0.072102 -0.354144 -0.050319 -0.084752 -0.726428 -0.737873 -0.557678 -0.536084 -0.566892 0.599646 -0.134922 -0.810245 1.474595 -0.851739 -0.607701 -0.721458 -0.658266 -0.571404 0.375158 -0.144350
GTTATT -0.273954 1.077074 0.081008 -0.696200 -0.578546 -1.601398 0.487316 -0.038879 0.179947 -0.257777 0.654897 -0.440133 0.022794 1.013256 0.368466 -0.482759 0.457603 -0.414976 0.245563 0.768531 -0.818423 0.820853 -0.018601 -1.037696 -0.014097 0.103169 0.071541 0.109874 0.361155 0.499598 0.056187 0.456601 -0.987934 0.574473 0.451594 -0.048421 0.211796 0.879551 -0.726668 -0.398008 0.884633 0.485441 0.812284 0.627482 -0.536013 0.768931 -0.421495 -1.217954 -1.618738 -0.474000
GTTTCT 1.222418 0.484561 -0.133719 -0.875269 -0.248285 0.099333 0.642612 -0.676891 -0.670212 -0.404902 -0.335633 -0.644820 0.128984 1.035802 0.780439 -0.196287 -1.181280 1.030684 -0.028579 -0.347928 -0.567037 1.130068 0.704738 -0.000718 0.183538 0.902174 0.049742 0.961725 0.461839 -0.237864 0.267820 1.127224 1.113069 0.535534 -0.447073 -0.686788 1.112315 0.730896 -0.178893 -0.113226 0.783608 0.293215 1.184944 0.926499 0.345688 -0.537657 -0.487631 0.403581 -1.221454 -0.133305
TAGCAT 1.332111 0.081644 -0.585610 0.133740 0.334865 0.602756 0.667610 -0.176131 -0.911041 0.510608 -0.370208 -0.002294 -0.862072 1.021849 -0.874692 -1.149777 -0.536763 -1.093853 -0.601602 0.708342 -0.213473 -0.960651 -0.913389 -0.404425 0.463548 -0.222118 -0.463342 0.890811 1.106699 -1.387162 -0.299867 1.579074 -0.899013 0.234754 0.222754 0.531216 -0.035812 -0.424104 -0.958519 0.156603 -0.781085 -0.614536 1.682908 -1.177928 -0.451843 -0.725741 0.085245 -0.823377 -0.246179 -0.466455
ATGTTT -0.270058 -0.482111 0.293539 -0.128904 0.304059 -0.443701 1.256209 0.105907 -0.802975 -0.138254 0.770851 0.409946 0.270796 1.274314 -0.135008 0.104629 -0.465543 -0.184197 -1.387098 -0.187913 -0.380943 1.274483 -0.398028 0.237034 1.218372 0.594361 0.112128 1.156529 0.969016 0.290679 -0.434509 1.205508 -0.076873 1.412949 0.077524 0.275675 1.307270 0.118615 -0.240875 -0.204719 0.312709 0.033120 0.394195 1.395424 0.281118 -0.721727 -1.187711 0.602080 -1.676950 -0.129544
GTCATT -0.357762 0.356971 0.784987 -1.610095 -1.642112 0.238985 0.465321 0.872761 -0.530299 0.165636 0.858307 -0.680137 -1.011775 0.231573 0.676762 -0.030647 -0.092247 0.186216 -0.379819 0.484676 1.163156 -0.104746 0.353259 -0.585244 0.072544 1.436391 -0.467792 0.062661 -0.015154 0.470599 0.420586 0.929258 -0.689759 0.864081 1.162854 0.369289 -0.520161 -1.349918 -0.698705 -0.635172 0.042476 0.108172 0.378981 0.305542 -0.570711 -0.609150 -1.500657 1.147259 0.302415 -0.690493
TCAATT 1.302627 0.180284 1.041367 -1.744749 -1.203526 0.411483 0.622444 -0.150194 -0.190803 -0.356711 0.552711 0.728584 -0.348229 -0.331427 -0.063525 -0.763963 0.768011 0.051045 0.484165 -0.549742 -0.130696 0.835890 0.856869 0.530672 0.125904 1.159241 -0.340382 0.045113 -0.630771 0.284393 0.419316 -0.860801 -0.602330 -0.047885 -0.587962 0.183396 -0.429050 -0.371814 -0.846000 0.427679 0.568826 0.076125 1.725247 -0.580185 -0.377707 -0.686791 -1.027465 -1.131403 0.164056 -0.543348
TGAAAT -0.197458 -0.027653 0.390849 -0.978169 0.529058 -0.409813 -0.199706 1.127935 -1.356368 -0.986587 0.258456 -0.154613 0.132134 -0.666964 0.363726 -0.188674 0.701473 -1.585418 0.852271 -0.087358 -0.678292 0.565414 -0.981838 0.425944 0.990785 -0.657858 0.072408 -0.339317 0.263025 -0.183096 1.068008 -0.956865 0.230003 1.240499 -0.343959 -0.128104 -0.489330 -0.561628 -1.386377 -0.575168 0.237063 0.914178 0.700785 -0.561738 0.878253 -0.213808 0.327520 -0.479256 -0.527025 0.682973
ACTATT -1.028527 0.654151 -0.515907 -0.692525 -0.871953 -1.155302 -0.784843 0.072195 0.281699 -0.729248 0.771948 -1.297644 0.449123 0.682520 -0.409134 -0.493221 -0.784000 -0.530950 0.765761 -0.121250 -0.327179 0.853684 0.933531 -0.545507 -0.034074 0.159583 -0.110233 -0.047897 1.259417 0.336607 0.217862 0.277834 -1.519774 -0.583699 -0.266448 0.527094 0.253212 0.629649 -1.374705 -0.023885 1.198559 0.590097 0.641041 -0.107118 -0.706085 -0.076792 0.079550 -1.109926 0.097073 -0.729923
ATCATA 0.669938 -0.557533 0.258639 -0.203953 -0.752942 -0.202110 -0.505667 0.010564 -1.079211 0.994635 0.474006 0.908833 0.185563 0.627445 -0.725423 -2.004380 -0.637156 -0.091897 0.053972 0.737897 -0.596763 0.875023 -1.686093 -0.854331 -0.303795 -1.011908 0.336236 0.982322 1.004112 0.938195 -0.399597 0.030477 -0.201453 -0.026148 -0.334886 0.070087 0.104235 -0.658653 -0.923447 0.138150 0.449336 0.234754 0.113571 -0.986708 -0.448730 0.654815 0.416444 -0.179497 -0.711413 -0.157804
TTTGAT 0.656675 -0.425178 0.931822 -0.666951 0.201532 -0.772364 -0.181633 1.303603 0.333953 -0.341468 0.389928 0.355177 -1.530252 -0.402101 0.886168 0.194222 -0.650078 -0.178098 -0.041272 -0.153406 -1.033133 1.002843 -0.879595 -0.537094 0.193436 0.407858 -0.220409 -0.192060 0.264728 0.610530 -0.446896 -0.645782 0.489530 -0.057179 -0.020216 1.752879 0.039426 -0.139983 -0.895760 -0.873594 -0.279948 2.040440 0.600341 0.245019 0.706132 0.050398 -0.356336 -0.217894 0.330728 0.197644
GAAATA -0.144116 0.815161 1.322819 0.928806 -0.480001 0.332579 0.382862 0.452757 -1.370208 -0.455053 0.946848 1.170266 -0.324305 -0.590463 -0.410286 0.257670 -0.104606 0.526326 0.506407 -0.644695 -1.084691 0.730133 0.308160 0.360737 0.235673 0.149651 0.442193 -0.990515 0.829382 -0.064057 -0.402187 -0.641598 0.986617 0.276506 -0.383574 -0.562923 -0.663017 -0.366203 -0.230980 0.352130 -0.231012 -1.543768 0.795814 -0.915732 -0.665783 -0.859506 -0.742834 -0.187739 -0.482456 0.167145
GCTTTT 0.652454 -0.353807 -0.569432 0.633836 -0.628334 -0.107909 -0.242067 -0.375434 -0.410100 -1.533124 -0.634151 1.554828 -1.307072 0.188336 0.870311 0.418791 0.194685 0.126142 -0.147194 -0.020590 -0.403395 -0.473030 0.495299 -0.588961 1.347191 -0.619203 -0.846018 0.715486 -0.639663 -0.261090 0.473052 -0.775678 0.432127 1.117988 0.422100 0.373294 0.387602 -0.360232 -1.399018 0.013452 -0.192312 0.740558 -0.381399 0.513596 -1.488915 -0.471859 0.122583 -1.413268 -0.777053 0.285420
TGTATATA -0.764593 -0.750896 -0.393653 1.041038 -1.568989 -0.536562 0.513464 0.097114 -1.352704 0.071102 0.694401 -0.221391 -1.274650 0.234350 -0.612899 -0.067802 0.883659 -0.365544 -0.853011 -0.810386 -0.575622 0.042347 0.320565 -1.086456 -0.193018 -0.699668 -0.022594 -0.399208 0.590994 -0.545591 0.586263 0.008449 0.274901 -0.365538 -0.102416 -0.454654 1.263799 -0.222975 -1.710524 0.450061 0.531552 -0.324852 0.461185 0.275994 0.590702 -0.917413 0.364513 -0.119276 -0.460371 0.843840
AATTGA -0.197480 0.167141 1.727078 -0.647727 -0.091600 -0.633901 -0.091302 0.351895 -0.663417 -0.060215 -0.663767 0.431475 0.322026 -0.228834 0.150922 -0.127827 0.548731 0.980032 0.211923 0.191729 -0.991806 0.331374 0.647605 0.722032 0.475871 0.573505 -0.442925 -0.233478 0.639594 -0.700087 -0.245726 -1.424478 0.500154 -0.132219 0.374747 1.529790 -0.241070 0.880294 -0.891062 -0.645382 0.877446 -0.618683 1.273326 -1.142461 -1.185681 -1.070909 -0.981526 -0.192851 -0.185397 0.254411
TATAAT 0.721200 -0.032761 0.619697 -0.543790 -0.667021 -0.749410 -0.594939 0.644179 0.357537 -0.965706 1.176798 0.043667 -0.710200 1.034692 -0.304442 -0.538682 -0.655510 -0.815314 0.652551 -0.339128 -1.044669 0.572524 -0.379587 -0.306322 0.163573 0.386625 0.844896 -0.225728 0.819648 0.002713 -0.091641 0.029819 -0.110231 -0.136319 -0.166970 -0.153775 -1.555534 -0.264025 -0.831028 0.347495 0.611209 -0.664011 1.029604 -0.771094 -0.142697 -0.382428 -0.421348 -0.964076 -0.725170 0.482766
TGCAAT 0.102041 -0.977768 0.352920 -0.842233 -0.694623 0.188250 -0.770697 1.753530 -0.445912 0.084283 -0.582923 -0.350833 -1.239677 -0.162457 -0.798849 0.395806 1.002033 0.931873 0.385106 -0.612253 -1.687942 -0.068361 0.534169 0.971842 1.229990 -0.413524 -0.130634 0.252282 -0.298306 0.630760 -0.714764 1.253639 -0.489802 -0.088070 1.359146 0.813517 0.661634 0.663538 -1.249203 -0.190934 0.432380 -0.702896 0.022579 -0.078768 0.105333 -0.087248 1.110802 0.739789 -0.193824 -0.299466
ATGCTT 0.338113 0.431292 1.014397 -0.108518 -0.560208 -0.886658 0.091779 0.098071 0.093033 0.205813 0.321530 -0.145849 -0.959954 0.159567 -0.794836 0.350175 -0.334669 -1.055969 0.379782 0.136970 -1.024270 1.549331 0.679496 1.025627 0.645882 -0.281565 -0.218279 0.254569 -1.165760 -0.360014 -0.082559 -0.592695 0.985304 -1.392036 0.795686 -0.284513 0.115002 0.150831 -1.093329 0.185457 -1.867430 -0.179855 0.211031 1.212346 1.224062 0.733434 -1.075181 -0.259872 -0.771667 -1.008436
CCTTTT 0.817405 -1.142230 -0.307651 0.302275 -0.646063 -0.136422 0.160870 0.443932 0.758401 -0.627033 -0.696492 0.510116 -0.218291 -0.767746 1.046894 -0.476191 0.091606 0.022714 -1.073598 -1.194693 -1.072458 0.279822 0.564648 -0.472797 0.434898 1.149102 0.928074 0.676014 0.559970 -0.176605 -0.169862 -0.226648 -0.543493 0.930050 0.238827 0.275457 0.222859 -0.181136 -1.264475 -0.196787 -0.137393 0.610138 -0.340305 0.690343 0.539344 -0.801980 -0.166217 -0.869156 -0.980291 -0.548541
TTGCAA 0.429600 -0.061924 1.131478 -0.870771 0.014524 -0.033887 -0.342272 0.963794 -0.441296 -0.089133 -0.740475 -0.628098 -0.604656 -0.752862 -0.335832 0.036527 0.384456 1.016685 -0.259903 -1.051542 -1.139273 -0.021990 1.221492 1.142346 0.951938 -0.817338 -0.145628 -0.390235 -0.775175 0.937590 -0.171694 1.768318 -0.139690 0.713582 1.203940 1.448351 0.686443 0.672429 -1.857435 -0.432070 0.770097 0.090202 -0.114358 -0.237846 -0.611166 0.126164 0.375250 0.515915 -0.395338 -0.665227
TCATTA -0.023294 1.003791 0.545936 -1.013913 -1.013148 0.431052 -0.307036 1.627423 -0.955000 0.472742 1.672258 0.040420 -0.910781 -0.091822 -0.175929 0.107833 -0.792732 -0.105978 0.339868 0.074154 0.479088 -0.104133 0.105107 -1.315375 0.442906 1.227581 -0.025989 -0.171678 0.005159 0.396537 -0.117104 0.640379 -0.910091 0.395610 0.991034 -0.198768 -0.094099 -1.593245 -0.620956 -0.048103 -0.382804 -0.034744 0.060191 0.463195 -0.576196 -1.006156 -0.954187 0.575921 -0.008027 -0.266987
AATGTT 1.016256 0.273129 1.155185 -0.408178 0.553206 -1.071946 -1.198302 1.199581 0.366673 -0.230155 0.981932 0.394164 0.231099 1.033292 -0.171002 -0.061610 1.206314 -0.369833 0.532974 0.710830 -0.453794 0.842130 0.558203 0.784502 1.008418 0.526014 -0.048753 0.289278 0.581458 -0.023198 -0.080406 -0.263611 0.514837 -0.011967 0.279082 -0.176697 0.811366 -0.086564 -0.094739 0.050747 1.192799 -1.682129 1.288282 0.808285 1.083535 -0.865736 0.364479 -0.256748 -0.066130 0.190522
ATACTA -0.666396 -0.164499 -0.497845 -0.449025 -0.804502 -0.763938 -0.676897 1.363168 0.044999 -0.017536 1.637738 -0.561531 0.973248 1.368978 -0.333008 0.214614 -1.325888 -0.338056 0.127636 -0.615606 -0.456173 0.228226 -0.109081 -0.517965 -0.220779 -0.416909 0.503689 0.272626 1.268132 0.290008 0.439854 0.173247 -0.767971 -0.274791 -0.446846 0.213487 0.859901 0.061150 -1.940376 0.231852 0.437230 -0.064348 -0.022342 -0.960627 -0.990503 -0.269767 0.525182 0.063696 0.396577 -0.347960
ATACGT -0.533322 0.458518 1.034190 -1.044130 0.030528 -0.067455 0.741671 -0.063708 0.525207 0.443996 1.258844 0.685067 -0.960926 0.648864 0.665451 0.656313 -0.268199 -0.089111 -0.918978 -0.548411 -1.455639 0.156420 -1.478644 -0.888567 -0.348338 -0.897573 0.293327 -0.776944 -0.165613 -1.271097 0.662187 -0.155073 -0.290547 0.211133 -1.010294 -0.056782 0.797109 -1.106182 -1.084097 1.269817 1.180999 -0.314503 -0.306958 -0.894638 -0.086797 -0.134061 0.561829 0.046680 -0.991282 -0.637286
ATGATT 0.177140 -0.929071 0.833539 -1.144997 -0.352576 -0.557915 0.145384 -0.034178 -0.502990 0.798603 -0.127686 -0.213546 -0.486111 -0.375340 -0.209654 0.908572 -0.715929 -0.665007 -0.602825 -0.165135 -1.282026 0.693980 0.622455 -0.852874 0.989138 -0.659192 0.139224 -0.940793 0.366383 -0.119676 0.848549 -0.976071 0.274437 0.473968 -0.203630 0.443805 1.680259 -0.710736 -0.053068 -1.082318 -1.444942 0.427260 0.459901 -0.928615 -0.826909 -1.164639 -0.698181 -0.298798 -0.710756 0.087189
CATACA 0.335759 -0.110173 0.229725 -0.888522 -0.492750 -0.318278 -0.622651 0.531203 -0.681234 -0.262873 0.948770 -0.183226 -0.158814 0.652140 -0.956531 -1.534314 -0.543241 1.245349 -1.616275 0.716906 -0.210918 0.236641 -1.121997 0.028152 -0.186296 0.044399 0.458905 0.917106 0.642912 -0.524226 -0.077742 0.387824 -0.785925 -0.922485 -0.489513 -0.116106 0.309377 -0.921567 -1.301117 0.940611 -0.566030 0.174766 -0.458660 -1.019076 0.218400 0.019953 0.054319 0.715392 -1.074560 0.223445
TATTCT -0.397360 0.487967 -0.862591 -1.573206 -0.028819 -0.392424 -0.063145 -1.160089 -0.147455 -0.242494 -0.096038 -0.859729 -0.515384 1.277189 0.235771 -0.742987 -0.902663 -0.296806 0.302454 -0.304672 -0.004052 0.664662 0.057701 0.047245 -0.036554 0.137421 -0.197512 0.080718 0.831506 -0.102976 0.436400 0.045783 -0.014555 -0.725171 0.113811 -0.549128 0.505140 1.133971 -0.985616 -0.261681 1.349999 0.383954 1.598971 0.634149 0.498023 -0.251843 -0.340010 -0.744060 -1.778890 -0.600866
ATAGTT 1.088255 -0.397021 1.127051 0.085297 -0.024372 -0.670884 0.096059 -0.183930 -0.942184 -0.178715 0.481285 -0.508123 -0.745961 0.317663 -0.002676 0.339507 -1.303674 0.480274 -0.640265 0.172995 -1.273113 1.147024 0.301392 -0.173824 -2.347818 -0.255238 0.243226 0.601937 0.619822 -0.002570 0.108050 0.851913 0.626749 1.309247 -0.038955 -0.487511 1.040753 -0.834875 -0.975804 0.167163 -0.380434 -0.154627 1.072241 0.107935 -0.116614 -0.260221 0.388672 -0.845565 0.829490 0.289375
GATATT 0.550869 0.210261 0.397538 -0.636065 -0.946738 -1.434523 -0.729449 -0.237243 0.016430 -0.152714 0.018900 -0.423388 -0.442096 0.518791 0.069829 0.944959 -0.729998 -0.607502 0.087664 0.254150 -0.391424 0.878070 0.255450 -0.233890 -1.074500 -0.490312 0.065223 -0.022533 1.414340 0.201936 0.360230 -0.541748 -1.102078 -0.455159 0.353897 0.129597 0.415908 1.433342 -0.562433 -1.008719 0.602721 0.171338 0.968155 -0.941753 0.252829 -0.011086 -0.644984 -1.509443 -1.683809 -0.636594
AACATT 0.787795 -0.218919 -1.154564 -0.727343 -0.646067 -0.681116 -0.501500 0.785793 -0.738335 1.027016 -0.033846 0.701583 0.856687 0.302107 -0.942365 -1.260949 -0.010175 0.486177 -0.159271 1.204916 0.115195 -0.462142 0.113416 0.453248 -0.005576 -0.486974 -0.684804 -0.904463 -0.596374 -1.303039 0.915490 0.182663 0.674864 1.034336 0.363785 -0.011750 0.693725 -0.935904 -1.069810 -0.396069 1.001757 -0.388049 0.874809 -0.050033 0.298078 -0.165703 -1.102015 -0.903026 -0.311269 0.015342
AATCAA 0.604733 0.564883 1.344335 -0.556864 -0.370306 1.070753 -0.380933 0.604799 0.395605 -0.059005 1.687647 0.705204 -0.295272 -0.810023 -1.065182 -0.658270 0.675698 -0.783343 0.198178 -0.116924 0.103407 0.740261 0.678744 0.602339 -0.116074 0.223793 0.777864 0.551799 -0.420173 0.093199 0.666682 0.153517 -0.647372 -0.007157 -0.135273 -0.836524 -0.643651 0.166207 -1.061757 -1.208882 1.410480 -0.133894 1.079039 -1.415180 -0.079658 -0.767259 -0.227792 -0.667385 0.685294 -0.570471
TCATAA 0.327125 0.956350 0.317078 -0.212542 -1.804091 0.668422 -0.347701 0.849127 -0.231162 0.707051 1.996909 0.264835 -0.905330 0.204440 0.209380 0.149768 -0.414204 0.368715 -0.908276 -0.229454 0.557690 0.010973 -0.344953 0.026258 0.604455 0.842759 -0.304299 0.455095 0.011630 0.239821 0.632075 1.150609 0.355087 -0.217049 0.403422 -0.823847 0.407636 -0.446618 -1.638095 -0.840184 0.492954 -0.482466 -0.179992 -0.027497 0.626077 -0.609190 -0.787843 0.120453 1.117572 0.229550
TGATTT -0.049951 -0.335026 0.659230 -1.287507 -0.424122 -0.704092 0.085002 1.803724 0.444041 -0.858739 0.670996 0.538757 -1.441993 0.078848 0.340561 -0.290898 -1.082148 0.339404 0.001778 0.072638 -0.612168 0.292374 -0.345713 -0.626495 0.408793 0.876588 -0.939545 0.039623 -0.032154 0.730543 -0.889239 0.176758 0.745571 0.506999 0.198633 1.673466 -0.150551 -0.065161 0.337858 -1.187184 -0.070211 0.852003 1.054074 0.656392 0.957098 -0.230574 -0.214636 -0.501545 -0.344205 0.288170
AGATTT -0.778029 -0.152255 1.164988 -0.139277 -1.374956 0.028870 -0.388452 0.318623 -0.290126 -0.618486 0.060329 0.274371 -0.527998 -0.319294 -0.235752 0.030329 -1.564537 0.486289 0.286342 1.091680 -0.967208 -1.400856 -0.883949 -0.511434 0.023503 0.465219 -0.042803 -0.089870 0.077520 1.243838 -0.306309 -0.346084 0.121085 0.661482 0.305513 0.536908 0.262589 0.103609 -0.514529 -0.729358 0.178635 0.417659 1.002456 1.653256 0.547863 -1.258555 -0.567418 -0.042044 -0.187383 -0.070485
ATATAC -0.729000 0.111772 0.589399 -0.431598 -0.621080 -0.206559 -0.224955 0.974303 -0.613115 0.015541 1.523493 0.322216 -0.814984 0.870819 -0.435978 1.018628 -0.312500 -0.482120 -1.009877 -0.311737 -0.218467 -0.139506 -0.045433 -0.422800 -0.750463 -0.228438 0.039990 0.091660 0.713123 -0.316583 0.146885 -0.469101 -0.249227 -0.164468 -0.532450 0.294256 1.654844 -0.290077 -2.230305 0.723475 1.094255 -0.382707 -0.789625 -0.609844 0.222162 0.350023 0.284787 0.069497 -0.097782 0.252348
CATTTA 2.094598 -0.056520 -1.340091 -0.568046 0.517024 -0.001399 -0.604508 0.586266 -0.945577 0.259648 0.840163 0.536511 0.389742 0.518518 -0.321149 -1.538825 0.044524 0.002976 -0.585740 0.319255 -1.498892 -0.114765 -0.196567 0.194823 -0.460065 -0.069764 -0.512760 0.015443 0.323745 -0.964655 -0.176628 -0.220434 -0.378341 0.392674 -0.084325 0.457853 0.107343 -1.584011 -1.298870 -0.048577 0.256712 -0.369086 0.564775 0.311432 0.289971 -0.592989 -1.076998 0.102240 0.221865 -0.512322
TATCAA 0.511848 0.280172 -0.303415 -1.476815 -0.666616 0.548697 0.161696 -0.397864 -0.008082 0.220187 1.795946 0.681623 -0.309762 -1.400106 -0.914746 -0.592211 -0.383530 -0.304719 0.489160 -0.958390 -0.320105 0.824708 0.840792 -0.202380 -0.012785 -0.305186 -0.439988 0.420927 -0.944343 0.379636 0.009051 -0.673839 -0.777069 -0.717083 1.267779 -0.629011 -1.223855 -0.535267 -1.070667 -0.325978 1.384587 -0.175235 1.232078 -0.483521 -0.063532 -0.466040 -0.603575 -0.805022 -0.391164 0.238573
TTTATG 0.908693 -0.189843 -0.437220 -0.790526 0.340275 -0.811497 1.177796 0.147483 0.228276 -0.741569 0.315701 -0.080448 -0.165249 0.400700 0.441033 -0.738028 0.862283 -0.403086 -0.118913 -0.802033 -2.061675 0.077706 0.273306 -0.815213 0.819713 -0.461010 0.740445 0.355628 0.765273 0.620303 -0.801817 -0.821998 0.117947 -0.463563 0.714361 -0.074149 0.185498 -1.132791 -0.959364 -0.103729 -0.095238 -0.023747 1.149472 0.922565 1.417611 -0.276666 -0.708180 0.272468 -0.176103 0.010575
GTTCAT 0.396575 0.027409 0.017344 -0.380128 0.023069 0.232258 -1.251362 0.235410 0.037035 0.732186 0.039566 -0.161402 0.014989 0.864027 -0.173005 -1.584117 1.200117 0.766320 -0.171241 1.167784 -1.295901 1.751300 -0.341693 -1.081535 -1.343130 -0.233288 -0.536420 0.562582 -0.208320 -0.525447 0.760626 1.197220 0.172846 0.272847 0.088556 0.530568 0.974468 -0.941168 -0.034515 -0.183511 -0.618534 -0.570038 0.650024 0.716311 -0.590927 -0.855058 -0.345426 -0.931640 -0.941403 0.851037
GAATAT -0.942000 0.880502 1.041117 0.228692 0.151726 0.169099 -0.387398 0.132567 -1.188475 0.458858 0.632572 0.610195 -1.172858 -0.347831 0.190841 1.184489 0.381003 -0.125450 -0.926120 1.110826 -0.942762 0.164399 0.264928 0.557585 -0.492573 -0.719089 0.642055 -0.566259 1.495980 -0.032083 -0.647109 -0.309266 -0.001505 -0.520854 1.035933 -0.900780 1.557498 -0.026252 -1.803519 -0.576591 0.279429 -0.527552 0.377322 -0.001140 -0.660078 -0.386697 -0.268572 -0.222462 -0.056873 0.095872
AAACAA -0.239676 1.004423 0.625377 0.322212 -0.127128 0.588195 -0.291107 0.845184 -0.289317 -0.254460 0.938932 -0.064632 0.182587 -0.160043 -0.969259 -0.492087 -1.070928 -0.035497 -0.200250 -0.638034 0.479354 0.446090 -0.173417 0.734663 0.730498 -1.195740 -0.083103 -0.875474 -0.141405 0.439164 0.651612 -0.566918 0.867367 0.634023 -0.022610 -0.321357 -0.302289 -0.483534 -0.553022 -0.208377 1.350176 -0.809065 0.190056 -0.170374 0.152221 -0.287680 0.040723 -0.213389 -0.071895 -0.652476
