AAAAA -0.190026 -0.406639 -0.814148 -0.252552 0.488049 0.240618 0.518258 -0.127560 -0.263256 -0.268222 0.528327 0.930594 -0.185749 0.738938 -0.533305 -0.120405 0.364320 0.053898 0.229295 0.052753 0.327445 1.002639 0.369355 0.691560 -0.795852 -0.298640 0.204385 0.257565 -0.164986 -0.011168 0.441316 0.228047 -0.725560 0.178946 0.803930 -0.444308 0.009909 -0.520840 -0.611350 -0.238847 0.330650 0.050191 -0.924775 0.768639 -0.149510 0.091367 -0.040726 -0.838373 0.090942 -0.200948
TTGT 0.334526 0.124988 -0.173148 0.134982 0.191187 0.135791 0.211769 0.417685 -0.095690 0.460903 0.400281 -0.071410 0.264729 0.233656 -0.254039 -0.489385 -0.189195 -0.298312 0.796337 0.382580 0.770248 0.537335 0.093383 0.142408 0.547451 -0.608918 -0.149414 -0.072811 0.506736 -0.193828 -0.294878 0.255754 -0.412274 0.045563 0.187613 0.072521 0.969469 -0.509152 -0.302365 -0.421844 -0.356909 0.913735 0.052562 0.371437 0.344748 -0.347334 0.175725 -0.947372 -0.016997 -0.614068
ATATA 0.070039 -0.137768 -0.472053 -1.338150 0.115203 0.122965 0.575270 -0.192519 0.364336 1.349572 0.870096 0.783939 -0.454047 0.627092 0.625101 -0.810468 -0.223000 0.061616 1.446323 -0.402207 0.817197 0.351649 0.533986 1.035896 -0.233551 0.427238 0.615271 1.293036 -0.066136 -0.546455 0.014633 0.744956 0.053039 -0.341103 0.443427 0.008491 0.238577 -0.249538 -0.839298 -0.322867 0.530601 -0.618055 -0.380936 -0.180983 -0.367320 0.045012 -0.168898 -1.186850 0.656557 -0.546233
TATAT -0.281498 0.193067 -0.767858 -0.823072 -0.432752 0.175716 0.555064 0.688644 0.452426 1.520931 0.960035 0.836978 -0.442880 0.724300 0.913911 -0.735869 -0.259978 -0.545716 1.132292 -0.376760 1.150924 0.340282 -0.369666 0.841077 0.532441 0.225340 -0.066391 0.826121 0.369314 -0.199968 -0.058894 0.566843 0.600196 -0.068828 0.341776 0.103065 0.539490 -0.375364 -0.420891 -0.863506 -0.046587 -0.100662 0.085975 0.108498 -0.330228 -0.380994 -0.282427 -1.087505 0.667929 -0.430995
TTTTT -0.026916 0.224596 0.056272 0.158328 -0.093317 -0.826254 0.203980 0.751894 -0.063552 0.190473 0.669743 0.329998 0.052793 0.269437 -0.838523 -0.714110 -0.158565 -0.238073 0.182616 0.776652 1.353923 1.105788 0.486620 0.269874 1.130455 -0.531038 0.186989 0.172098 0.493039 -0.369024 0.027303 0.063196 -0.121176 -0.036456 -0.692714 0.072087 0.412813 0.347461 -0.557344 -0.549105 -0.104734 0.712877 -0.739234 0.866324 0.706698 -0.121107 0.012484 -0.729189 -0.650724 -1.236152
ATAAA -0.205343 -0.488773 -0.613468 -0.975315 0.372721 0.227972 0.122345 -0.368858 0.192119 0.448359 0.718966 0.849696 -0.376641 1.006956 -0.382121 -0.245810 0.346190 0.281765 0.498100 -0.301000 0.883398 0.725967 0.619304 0.457770 -0.565042 -0.179135 0.462638 0.634663 -0.419726 -0.378960 0.429548 0.943859 -0.657657 -0.408527 1.150737 -0.308619 0.302266 -0.494412 -0.607103 -0.560230 0.684360 -0.005865 -0.823037 0.650436 -0.547477 0.171218 -0.229240 -1.118386 0.385212 -0.180855
AATAA 0.142764 -0.246794 -0.621039 -0.125896 0.978074 0.134082 0.535540 0.076061 -0.775764 0.037515 -0.260801 1.109093 0.513437 0.290431 -0.248740 -0.393393 0.342455 1.056409 0.723140 -0.287948 0.970035 0.902384 0.017748 -0.039775 -0.901705 -0.133373 0.479236 0.676291 -0.328472 0.109084 0.291214 -0.043598 -0.204786 -0.593632 0.979475 0.092614 -0.434262 -0.964056 -0.605061 -0.332966 0.656969 0.032755 -1.396690 0.601106 -0.565777 0.254792 -0.011243 -0.896543 0.916277 -0.129969
TATATA -0.044204 0.140453 -0.533956 -1.258827 -0.236834 0.116850 0.640815 0.181689 0.519624 1.607757 1.010292 0.818475 -0.351833 0.693397 0.987542 -0.606414 -0.274835 -0.427875 1.337645 -0.467431 0.705977 0.394091 0.139431 1.164537 -0.068408 0.232409 0.360844 1.059491 0.121080 -0.390407 0.004246 0.724004 0.268968 -0.164153 0.218837 0.105672 0.517177 -0.230946 -0.837860 -0.646004 0.317546 -0.555895 0.004030 -0.114112 -0.192042 -0.048805 -0.115421 -1.123129 0.502913 -0.698714
AAAAAA -0.259911 -0.390350 -0.888561 -0.400947 0.570072 0.301110 0.464885 -0.029815 -0.339480 -0.415285 0.469077 1.142513 -0.163284 0.841234 -0.511491 -0.089468 0.431365 0.077335 0.081641 -0.039210 0.168671 1.061907 0.393089 0.759809 -0.922312 -0.218485 0.301467 0.213562 -0.239065 0.159117 0.513479 0.067873 -0.722706 0.286994 0.853892 -0.426566 0.023456 -0.636913 -0.780661 -0.137265 0.255899 0.007558 -0.770103 0.782667 -0.214767 0.219649 -0.014390 -0.898129 0.246916 0.076048
TTTAT -0.292720 0.328165 -0.479051 -0.380474 -0.103226 -0.505124 0.228977 0.531487 -0.114582 0.470383 0.338314 0.872272 -0.070697 0.440349 -0.173725 -0.524570 -0.121857 -0.287592 0.493834 0.618100 1.519261 0.968123 0.491959 0.495290 1.280837 -0.051266 0.236331 0.130627 0.760913 -0.544790 0.034266 0.189275 -0.216199 -0.033213 -0.300213 0.124561 0.693864 0.205423 -0.654331 -0.549801 -0.174551 0.555091 -0.288558 0.775235 0.162089 -0.244319 -0.073456 -0.703263 -0.279323 -0.822407
ATATT -0.365896 0.236438 -0.395160 -0.488850 0.564345 -0.395216 0.852489 -0.427917 -0.063641 0.750619 0.731475 0.129220 -0.364714 0.465644 0.229979 -0.967833 -0.769163 0.415620 1.305103 0.579138 1.315731 0.635690 0.566250 0.490332 0.478136 0.142468 0.299482 0.614221 0.312275 -0.702451 -0.213718 0.591397 -0.324132 -0.780310 -0.222598 -0.105917 0.068898 0.190308 -0.287219 -0.387254 -0.069999 -0.434164 -0.581507 -0.431081 0.130321 0.162784 0.147110 -1.019692 0.483165 -1.055404
CATTT 0.075851 -0.374761 0.044438 0.287886 0.236723 -1.153187 0.770127 0.482294 -0.066880 0.543851 0.288491 0.843541 -0.132654 -0.073015 -1.015968 -0.067344 0.232206 -0.006445 0.872015 0.706240 0.983432 0.974504 0.672289 0.663567 0.964209 1.106657 0.470016 -0.002576 0.826409 -0.471007 0.215382 -0.172063 -0.676419 -0.498996 -0.519172 -0.171035 0.787009 -0.042939 -0.595892 -0.905608 -0.063860 -0.163112 -0.466046 0.362139 1.189982 0.007216 0.315954 -0.607710 -0.852154 -0.531814
ACATA -0.238746 -0.277303 0.295287 -1.123107 0.264175 0.601763 1.092453 -0.627669 0.545845 0.544918 0.577773 1.403627 0.072413 0.343191 0.490335 -0.475464 -0.277697 -0.148959 1.035707 -0.074822 0.678567 0.536174 0.311542 0.862014 -0.035402 0.615106 0.394375 1.245193 0.075519 -0.429046 0.602786 0.934972 -0.210623 -0.012848 -0.406496 0.123080 0.776306 0.364748 -0.951622 -0.606329 0.977750 -0.922357 -0.324039 -0.398292 0.681024 0.358953 0.008404 -0.712885 0.358049 -0.317070
TATTT 0.055594 0.251479 -0.385308 0.030982 -0.438122 0.159999 0.323418 0.766646 -0.144634 0.874913 0.629327 0.430711 -0.092190 0.596656 -0.036950 -0.718303 0.014993 -0.233422 0.544253 -0.107807 1.704980 0.750969 -0.243686 0.139785 0.908129 -0.275642 0.015439 0.583729 0.241191 -0.047562 0.218559 0.017605 0.187878 0.004971 0.270137 0.126979 0.707441 -0.298884 -0.306408 -0.383860 -0.350454 0.826603 -0.303523 0.310543 0.065519 -0.445881 -0.212019 -1.083401 0.282225 -0.500962
ATACA -0.201518 -1.248153 0.653060 -1.112663 0.054455 0.652690 0.444775 0.001168 -0.145537 0.449024 0.700289 1.374724 0.059495 0.908769 0.113904 -0.910096 -0.113649 -0.040763 1.166109 0.008543 0.914446 0.341671 0.426378 1.415630 -0.332095 1.106237 0.726973 1.172134 -0.137591 -0.288668 0.521281 0.594148 -0.071734 0.039590 -0.107305 -0.147179 0.168845 0.410128 -0.217104 0.036962 0.935069 -0.746450 0.643382 -0.268772 0.670435 0.074602 0.323568 -0.698146 0.128551 -0.617022
AATTT 0.125978 0.137639 -0.799145 0.542408 -0.062772 -0.157234 0.865634 0.798803 -0.648084 -0.365390 0.693104 0.898189 0.177124 0.405679 -0.345233 -1.079222 0.009409 0.017579 0.171488 0.962401 0.837299 1.260125 0.473486 0.550375 0.561358 -0.024374 0.036604 -0.080464 -0.198693 -0.006668 0.181030 -0.076903 -0.088399 0.243895 -0.038344 0.205144 -0.514655 -0.164577 -0.524109 0.625601 -0.080561 0.409037 -0.469960 0.323314 0.452492 0.076906 -0.012229 -0.859809 0.386929 -0.861679
AATAAA -0.007468 -0.386312 -1.019535 -0.394530 0.685538 0.290425 0.276179 -0.249301 -0.315208 -0.004186 0.271162 1.162676 -0.025958 0.771929 -0.400600 -0.330916 0.736962 0.801780 0.335043 -0.217517 0.924052 0.881202 0.508033 0.064841 -0.898421 -0.167319 0.431481 0.324944 -0.607963 -0.132270 0.411959 0.617961 -0.567159 -0.434782 1.365427 -0.089587 -0.083664 -1.198757 -0.707702 -0.333891 0.780609 0.093800 -1.240534 0.615720 -0.542471 0.538506 -0.275786 -0.994702 0.658662 -0.093094
TTCAT 0.121328 -0.952346 -0.024116 -0.045006 -0.084381 -0.556058 0.448323 0.240812 -0.544842 0.762449 0.116695 0.238918 -0.266809 0.483181 -0.134351 -0.736275 0.125171 0.576201 1.390157 0.776091 0.552656 1.038888 -0.054855 0.715891 1.240343 0.489623 0.183851 -0.351390 0.820617 -0.405910 -0.522997 -0.397167 -0.907931 -0.335468 0.547269 0.096502 0.850160 0.504170 -0.178086 -0.226543 -0.019130 -0.665399 0.091515 0.867439 0.775643 -0.024989 0.310280 -0.961236 0.083122 -0.148448
ATTAT -0.215458 -0.219345 -1.119127 -1.113584 -0.496073 -0.314995 0.204762 0.035171 -0.129536 -0.231442 0.098653 1.011744 -0.042766 0.683868 0.221263 0.413959 -0.078475 -0.063150 0.751674 0.753343 1.018336 1.177093 0.201409 0.631308 0.210291 0.916616 0.453166 -0.433210 1.307426 -0.425067 -0.068238 0.023977 -0.548128 0.101933 0.339184 0.399711 1.202187 0.063999 -0.906116 -0.044255 -0.260903 -0.160210 0.489790 0.499433 -0.271893 -0.778267 0.064374 -0.984909 0.592553 -0.011664
TGAAA 0.161455 -0.362392 -1.110597 0.074784 0.869281 0.511739 -0.109710 -0.161070 -0.056437 -0.091591 0.657153 0.323589 -0.344887 0.778635 -0.664660 -0.289318 0.092754 -0.221611 -0.152690 0.538608 0.458426 1.159693 0.983954 0.970144 -0.875008 -0.257282 0.114481 -0.105231 -0.310016 0.309552 -0.199650 0.770157 -1.834363 -0.264597 0.102224 -0.277186 0.052571 -1.014395 0.477804 -0.641847 0.895185 0.899331 -1.232032 -0.025729 -0.026784 -0.319630 -0.194918 -0.824820 0.114297 -0.584649
ACTTT -0.010743 0.228328 0.499692 -0.053522 0.213817 -1.214253 0.952122 0.329146 0.024478 -0.162801 0.804300 0.656856 -0.452042 0.421394 -0.166417 -0.414274 -0.177845 -0.521490 -0.051771 0.558161 1.220890 0.762648 0.008184 0.425883 0.978268 -0.863368 0.574037 -0.096860 0.451731 -0.038481 0.487220 -0.643967 -0.700319 -0.314647 -0.211820 -0.789933 0.230682 -0.025359 -0.769516 -1.040154 0.953498 1.041163 -0.786887 0.214767 0.070624 0.104914 0.311611 0.131425 -0.142867 -0.723540
ATTTT -0.159295 -0.192379 -0.817835 -0.405722 -0.451856 -0.516164 0.090400 0.492247 -0.007547 -0.465159 0.110786 0.599572 0.540072 0.298893 -0.270124 -0.197279 -0.264241 0.184591 0.453905 0.759792 1.276170 1.110000 0.418370 0.328292 0.451116 -0.206974 0.361295 -0.455936 0.837814 -0.317348 -0.489638 -0.100646 -0.215759 0.409625 -0.452974 0.395796 1.099944 0.460547 -0.097872 -0.603769 -0.014585 0.630408 -0.336474 0.936361 -0.120523 -0.385064 0.017601 -0.902693 0.157825 -0.788178
TCATT 0.008749 -0.266472 -0.978245 -0.653524 -0.791308 0.265724 -0.027911 -0.039976 -0.084745 -0.657561 -0.210855 1.374036 0.345899 0.041923 -0.327090 -0.225316 -0.579055 0.342300 0.678269 1.335418 1.127833 0.396364 0.086580 0.211856 0.629899 -0.110956 0.618879 -1.388406 0.696740 -0.478381 -0.637983 -0.619123 -0.995021 -0.200458 0.097296 0.141869 1.337104 0.749810 0.041888 -0.237690 -0.128101 -0.007795 -0.371823 0.500199 -0.713039 -0.482662 0.214869 -1.025290 0.198917 -0.751972
TTCAA 0.802564 -0.850517 -0.502982 0.362289 0.044414 -0.403664 1.009036 -0.026440 0.016477 0.187623 0.554575 -0.124330 0.476684 0.824113 -0.118057 -1.271924 0.576882 0.694913 0.561141 1.101402 -0.111524 0.850841 -0.660251 1.017685 0.685323 -0.523386 -0.018784 -0.584958 0.608979 -0.464669 -0.108202 -0.424032 -0.413928 -0.143256 1.195485 -0.541835 -0.042022 0.516556 -0.235876 0.284982 -0.254159 -0.012156 -0.815150 1.220479 -0.200543 0.938453 0.234211 -1.583926 0.460950 -0.508171
AAAAT -0.409512 -0.234542 -0.983899 -0.803777 0.165652 0.069557 0.360190 -0.350593 -0.057445 -0.022456 0.541432 0.759842 -0.164753 0.932225 -0.167181 0.071210 0.506637 0.392158 0.633634 0.278594 0.514856 0.926791 0.609053 0.652670 -0.590908 0.026179 -0.155442 -0.136135 -0.012736 -0.322672 0.128375 0.556558 -0.804890 -0.021985 0.870283 0.045938 0.255876 -0.357208 -0.168609 -0.344560 0.418435 -0.105876 -0.959033 0.803956 -0.420115 -0.058438 -0.109147 -0.909565 0.300207 -0.165804
TTTTC -0.358713 0.437690 0.213179 0.066781 0.123742 -0.289535 0.444591 0.232346 -0.237815 0.469628 0.684706 0.162243 0.141785 -0.122385 -0.876429 -0.647914 -0.114376 -0.210886 0.546792 1.110266 1.195990 0.210163 0.050948 -0.008486 1.237102 -0.154258 0.063893 -0.489938 0.389908 -0.297500 0.032127 -0.166280 -0.537853 -0.361599 -0.587305 -0.194324 0.437393 0.339990 -0.274898 -0.417261 -0.207411 0.274232 -1.145389 0.591136 -0.018310 0.095501 -0.147071 -0.716648 -0.662021 -1.031522
TAATT 0.239088 0.043385 0.036726 0.253137 0.275642 -0.344819 0.086311 0.183508 -0.716439 0.399714 -0.410232 0.450559 0.392907 -0.228540 -0.710290 -0.361909 -0.167027 0.829339 1.107885 0.155762 1.625812 0.966875 -0.215398 -0.084184 0.130260 -0.176190 0.669361 0.501935 0.539025 -0.219788 -0.184038 -0.118355 -0.040898 0.118888 0.561988 0.312065 -0.101969 -0.383516 0.052927 -0.918393 0.116730 0.493857 -1.205604 0.473291 -0.421208 -0.090624 0.575649 -0.591342 0.362463 -0.526837
TCAAA 0.424266 -0.835213 -0.732305 0.083755 0.120098 -0.047304 0.457804 -0.366934 0.215572 0.075637 0.657274 0.444853 0.034472 0.860700 -0.594921 -0.708063 0.747792 0.441098 0.351991 0.916995 0.211484 0.148234 -0.083589 0.548098 -0.145989 -0.806275 0.111662 -0.606175 -0.267068 -0.544397 0.005888 -0.105191 -0.987392 0.017362 1.379071 -0.453413 0.505342 0.104097 -0.087164 -0.025727 0.729365 0.136300 -1.270174 1.050299 -0.606235 0.827718 -0.083090 -1.409479 -0.278950 -0.926513
TTTTTTT 0.099409 0.293960 0.036171 0.136742 -0.297790 -0.796243 0.156352 0.940456 -0.098254 -0.048568 0.723417 0.238500 0.102408 0.363779 -0.811849 -0.789838 -0.146141 -0.178438 0.154310 0.793051 1.407316 1.326323 0.612952 0.129516 1.114867 -0.561079 0.168694 0.158660 0.586453 -0.266802 -0.143032 0.087742 -0.042580 0.141083 -0.708737 0.356962 0.530822 0.407459 -0.532195 -0.472169 -0.175208 0.868035 -0.602991 1.042301 0.765051 -0.265075 0.068861 -0.635822 -0.574450 -1.365099
TTGAA 0.225853 0.156201 -0.908681 0.539840 0.389136 0.857941 -0.036908 0.063541 -0.714675 0.412838 0.445641 1.074566 -0.667749 0.645168 -0.723179 -0.521848 -0.861773 -0.584157 0.324713 0.815996 0.677901 1.145329 0.714257 1.212987 -0.576977 -0.558204 0.198646 -0.455220 -0.292213 0.937365 -0.449520 0.837175 -1.310731 -0.492028 -0.110478 0.292523 -0.447535 -0.453717 0.512487 -0.397893 0.576555 1.009859 -0.337131 -0.499266 0.114749 -1.031622 0.468837 -0.901288 0.105645 -0.738993
ATGAA -0.656786 -0.278338 -1.827548 1.001029 0.546641 -0.657734 0.413487 -0.113677 -1.346610 -0.510181 0.060362 1.192632 -1.324768 0.779359 0.792116 -0.468611 -0.133707 -0.261157 0.558768 -0.343143 0.053037 0.598354 -0.156638 1.197450 -0.359710 -0.315425 -0.215835 0.685064 0.152745 -0.038453 0.496835 0.384822 -0.328671 0.182252 0.218823 0.551914 0.136081 0.300994 -0.240540 0.140087 0.648533 -0.699430 -0.013503 0.640957 -0.343430 -0.700470 0.150715 -0.547305 0.221590 -0.669320
ATCAT -0.667897 -0.210987 -0.758483 -1.283063 -0.346129 0.795486 -0.518633 -0.093909 0.012996 -0.304536 -0.559668 1.279967 -0.733997 0.101921 0.106865 -0.409247 -0.447370 0.507605 0.918596 0.603100 1.348125 0.516961 0.467485 0.260333 1.113834 0.054316 0.421157 -0.407219 0.206448 -0.086711 -0.328446 -0.624008 -1.031961 -0.555050 0.521959 -0.521549 0.943686 0.955065 0.076754 -0.283020 -0.276463 -1.029552 -0.286646 0.568217 -0.456590 -0.583650 0.008739 -0.398986 0.673166 -0.097674
ATAGA -0.273573 -0.833650 -0.339970 -1.394279 0.175239 -0.769284 -0.657188 -0.571164 0.310937 0.645393 1.078062 0.771695 -0.064858 -0.111023 0.441874 -0.627550 -1.021171 -0.096013 0.581658 0.652796 0.087763 0.149158 0.712854 0.895221 0.265517 -0.030244 0.866942 1.758578 0.544972 0.421070 -0.067805 0.064488 0.041445 0.375293 0.739032 -0.388916 -0.739597 0.242089 -1.192263 0.656771 0.337052 -0.268242 -0.218383 0.443880 0.409754 -0.043612 0.229677 -0.856325 0.464920 -0.484983
TACTT 1.293425 0.757505 1.105887 -0.112639 -0.550233 0.374739 0.588327 0.502214 -0.052952 0.557919 0.016806 -0.221042 -1.071909 0.800663 -0.251761 -0.391354 0.013195 0.235422 0.225542 -0.137768 1.594130 1.267963 -0.461813 1.172399 -0.420291 -0.367463 1.082494 0.195129 0.418525 0.141064 0.155895 0.307958 -0.330719 0.708250 0.822672 0.119920 0.416208 0.895506 0.467958 0.317035 -0.094110 -0.015541 -0.172211 -0.266548 0.345539 -0.304652 0.181150 -1.440014 0.082697 -0.904060
AGTTT -0.996236 -0.096682 0.022473 0.335064 0.714807 -0.346421 0.018920 0.590218 0.086668 -0.365563 0.486844 0.588317 -0.166421 0.243254 -0.850592 -0.166844 -0.369552 -0.048921 0.016596 -0.394699 1.043881 0.291228 0.036062 0.317191 0.805671 -0.482723 0.491444 0.217444 0.444915 0.138130 -0.068095 0.043745 -0.443885 -0.082211 -0.236766 -1.051203 0.441279 -0.393909 0.059992 -0.456566 -0.616119 0.429323 -0.621333 0.613706 0.952413 0.608105 -0.048835 -1.494212 -0.763902 -1.866822
ATCTT 1.056128 0.846392 0.504449 -0.599953 -0.214491 0.105217 -0.088801 0.523139 -0.494206 0.166906 -0.727257 0.251820 -1.261872 0.897941 -0.319376 -0.124874 0.216424 0.245517 0.236015 1.009532 1.306518 1.459935 -0.176619 0.406342 0.543941 -0.013318 -0.117590 0.321202 -0.079951 0.641286 0.522179 -0.862038 -1.386225 0.180887 0.858739 0.335803 0.483621 0.421885 0.381124 1.005246 -0.011058 -0.248582 -0.212530 0.331338 0.325132 -0.469035 -0.352671 -0.766335 -0.281794 -0.713377
TTAAA 0.003094 0.438887 -0.441356 -0.411771 0.314608 0.434039 0.782415 0.397660 -0.836820 0.261830 0.298363 0.492488 0.080020 0.542174 -0.393934 -0.407943 -0.202915 0.340633 0.002207 -0.584174 0.640805 1.338744 0.143051 -0.192025 -0.368838 -1.060672 0.110025 0.446124 -0.304782 0.070703 0.608105 -0.401074 -0.564928 -0.170775 0.265810 -0.018236 0.926476 -0.053356 -0.483662 0.197956 -0.253158 0.368863 -0.710068 0.572005 0.165406 -0.294918 -0.002051 -0.901499 0.471457 -0.283233
TGCAT 0.935892 -0.794492 -0.048179 -1.169477 0.006286 -0.731712 0.351293 -0.098253 -0.424191 0.399662 0.233642 0.424827 -1.280198 -0.520061 -0.601405 0.252769 0.010944 -0.371039 0.295625 0.300431 0.613294 0.760381 0.373170 0.789687 0.794879 0.803786 -0.577721 0.032013 0.489312 -0.606955 -0.168307 0.113379 -0.054489 -0.713788 0.636409 -0.045239 0.535231 -0.946770 -0.110433 -0.927124 -0.343629 -1.268110 -0.498648 0.061706 1.397917 -1.666459 1.161247 -0.289611 0.161199 -0.755948
CAATT 1.141671 0.543289 -0.946168 0.503594 -0.686957 0.299269 1.278648 0.406112 -0.178038 -0.335540 0.654636 0.984619 0.595564 -0.237231 -0.312875 -1.309445 0.087874 0.100376 0.190055 1.056275 0.419447 0.836103 0.093764 0.567770 0.633267 0.606825 -0.300309 -0.783879 0.083300 -0.087990 0.217082 -0.372086 -0.014685 -0.113324 0.404706 -0.213539 -1.118244 -0.044859 -0.210426 0.769598 -0.562838 0.340460 -0.489080 0.188509 0.366949 0.364942 0.441937 -1.006194 1.142101 -0.688051
TTTCT 0.242642 0.425401 0.319115 0.221093 -0.306321 -0.394832 0.478671 0.361980 -0.000161 0.376369 0.816387 -0.380338 -0.307652 0.419818 -0.629407 -0.318250 -0.035282 -0.000316 0.301383 0.653098 1.259502 0.610829 -0.378927 0.458280 0.814277 -0.382446 0.507157 0.085176 0.568033 -0.050647 -0.038320 -0.099170 -0.368770 0.109696 -0.446331 0.218142 0.494207 0.330368 -0.070544 -0.433580 -0.042396 0.511005 -0.848151 0.570751 0.604436 -0.193539 0.336341 -0.724816 -0.665637 -0.932301
ATCAA 0.102278 0.378958 -0.900623 -1.001406 0.218657 1.074233 0.665855 0.006357 0.377292 -0.689016 -0.146907 1.353079 -0.315175 0.297767 0.186788 -0.469030 -0.066069 0.288734 0.306706 0.070360 0.582873 1.071344 0.334540 0.834410 1.200017 0.062734 -0.182697 -0.313749 0.252127 0.572120 0.190788 -1.010769 -0.733960 -0.493209 0.295739 -1.349789 -0.651343 0.741794 -0.522031 0.262537 -0.861261 -0.899707 -1.022913 0.448781 -0.180517 0.078103 -0.334860 -0.431770 1.436872 0.029405
TTAAT -0.062026 0.511189 -0.555076 -0.781247 0.105492 0.096697 0.563466 0.131874 -0.849637 0.464487 -0.114284 0.138747 0.312170 0.571726 0.199448 -0.711846 -0.520127 0.647809 0.428218 0.058584 1.238203 1.318912 0.056018 -0.566760 0.000134 -0.656341 -0.064591 0.495604 -0.113164 -0.164474 0.445173 -0.360437 -0.206518 -0.302325 0.124116 0.490814 1.133801 0.345609 -0.108438 0.208389 -0.313917 0.252656 -0.125142 0.128705 0.014396 -0.328601 0.234824 -1.406454 1.189979 -0.369824
ACATT -0.193359 -0.753013 0.289471 -0.165458 0.277990 0.176072 1.053558 0.131514 -0.257346 0.039358 -0.019524 1.735216 0.644444 0.180448 -0.658538 0.170450 -0.089719 -0.220406 0.788182 0.937594 0.349653 1.414244 -0.057440 0.748229 0.402161 1.581183 0.546615 0.033335 0.770872 -0.277470 0.430855 0.593089 -0.627239 0.021029 -0.649017 0.218376 1.046835 0.078435 -0.961245 -0.605765 0.810563 -0.242006 0.337118 -0.142926 1.287873 0.080307 0.431483 -0.648753 -0.495787 -0.078595
TATCT -0.656115 0.183295 -0.214704 -1.104275 -0.650899 0.969004 0.821566 0.693317 0.326143 0.476253 1.310247 0.136105 -0.102926 0.036642 0.199425 -0.290034 -0.333713 0.043446 1.292463 0.340369 0.930077 -0.037087 -0.975370 0.190113 0.951729 0.235220 -0.029345 0.045883 -0.001278 0.412130 0.499917 0.474291 -0.082363 0.070759 -0.611729 -0.195804 0.483659 -0.459912 0.499600 -0.201134 -0.786392 -0.357309 -1.150266 0.079340 -0.477943 -1.138054 -0.435363 -0.751796 0.637541 -0.269591
TATGT -0.368015 -0.245166 -0.625452 0.157150 -0.195709 0.139900 0.320054 0.117290 0.729369 0.870147 0.604411 -0.011500 0.092936 0.189148 0.491392 -1.233398 0.702190 -0.545486 0.790476 0.155502 1.368902 0.060012 -0.898521 0.522402 -0.501758 -0.749722 -0.473891 1.008500 1.230422 -0.941840 0.527285 0.687907 0.232809 0.263283 -0.036686 -0.624563 1.136540 -0.767334 0.445169 -0.015046 -0.447728 -0.071813 -0.015311 -0.172775 -0.642299 -1.335326 0.086216 -0.015272 0.764110 -0.147027
AAATT -0.149674 -0.156195 -0.481743 -0.313581 0.469592 -0.123248 0.424675 -0.062190 -0.219893 0.253473 0.668726 0.240706 -0.024034 0.937211 -0.858418 -0.136946 0.369550 0.308931 0.276035 0.497282 0.688891 1.088267 0.526266 0.226017 -0.241938 -0.466322 0.060219 -0.030671 -0.214859 -0.498000 0.107261 0.282947 -0.660084 -0.177088 0.812113 -0.017373 0.289927 -0.440658 -0.441843 -0.475457 0.356539 0.599983 -0.969627 0.783365 -0.019356 0.288913 0.024897 -1.085324 -0.232631 -0.568948
TCTAT -0.338453 0.409370 -0.203787 -0.635983 -1.240463 0.957053 0.363592 0.967103 0.055059 1.156384 1.199882 0.703554 -0.416131 0.078853 0.062020 -0.304642 -0.024823 -0.176456 0.953478 -0.054566 0.757111 -0.264883 -0.728099 0.626477 1.210121 0.366652 -0.321333 0.496123 0.060905 0.354522 0.782631 0.460584 -0.443630 0.290174 0.278466 0.292569 0.695982 -0.259317 0.249530 0.257407 -0.049366 -0.079859 -0.959723 0.748925 -0.420687 -1.137442 -0.021465 -0.522435 -0.155165 -0.706666
TACAT 0.229107 0.224905 0.335937 -0.188025 -0.036183 1.148659 1.075520 0.004829 0.522478 0.070556 -0.318268 1.336774 0.514117 0.141732 0.322334 0.188950 0.032647 0.046472 0.853577 -0.411238 1.049102 1.048404 0.134097 0.481851 0.454163 0.818757 0.662491 0.647031 0.679684 -0.607136 0.565688 0.687767 -0.255160 0.570689 0.073160 0.086619 1.289623 0.729812 -1.268943 -0.486384 0.374590 -0.973538 -0.387378 -0.498205 1.425371 -0.215004 -0.318460 -0.719909 0.021305 -0.572140
CTTTT 1.005209 0.896397 0.629959 -0.240727 -0.238607 -0.399660 0.561648 1.029854 -0.407640 0.462649 0.388962 -0.482051 -0.663683 0.717988 -0.676047 -0.515717 0.006278 0.100491 0.278936 0.558596 1.375171 1.201895 0.014748 0.355793 0.678453 -0.510476 0.283867 0.038696 0.318355 0.246077 -0.036601 0.077733 -0.726316 0.854819 0.178261 0.408343 0.646445 0.692044 0.354420 0.082383 -0.048405 -0.097120 -0.374846 0.863832 0.532042 -0.143216 0.196504 -0.879410 -0.620507 -1.473581
ATTCT -0.224623 0.140289 -0.615366 -0.690470 -0.979445 0.473132 0.819927 1.037115 -0.747758 -0.350377 0.993124 0.472197 0.467278 -0.277587 -0.811118 -0.099591 -0.157707 0.288686 0.818732 1.534559 -0.194982 0.875524 -0.794641 0.363399 0.755048 0.975414 0.423725 -0.414823 0.581170 -0.359443 0.492591 0.398197 -0.552874 0.108360 -0.655773 0.650947 0.741971 -0.305745 0.047201 0.645359 -0.485098 -0.009461 -0.696956 0.586390 -0.439958 -0.857473 0.352891 -0.686691 0.048603 -0.404111
TCAAT 1.112253 -0.125246 -0.848979 0.657961 -0.329185 -0.011803 0.802665 0.003733 0.066326 0.102189 0.625879 0.467554 0.705732 -0.080270 0.162047 -1.719354 0.335320 0.700387 0.660057 1.270325 0.450706 -0.047010 -0.111242 0.426582 0.471646 -0.256560 -0.086865 -0.472151 -0.144732 -0.628423 -0.063017 -0.569546 -0.545338 0.063756 1.035271 -0.216050 -0.573187 0.438505 0.309246 0.901375 0.195545 -0.021107 -1.114396 0.285474 -0.285554 0.589877 0.257994 -1.104105 0.778415 -1.290107
TATCA -1.026844 -0.565767 -0.570571 -0.961848 -0.398025 1.290338 -0.043313 -0.159466 0.509956 -0.230374 0.330475 1.472349 -0.691964 0.556834 0.791547 -0.747359 -0.286803 0.070436 0.925930 -0.050192 1.493937 0.245841 -0.382026 0.563329 1.375748 -0.007510 -0.248268 -0.209391 0.039385 0.426841 -0.364742 -0.731210 -0.480569 -0.202698 0.028148 -0.990981 0.075996 0.539276 0.227601 -0.594077 -1.093405 -0.665893 -0.761588 -0.044497 -0.719070 -0.063754 -0.231997 -0.375925 1.435830 0.187688
TAATA 0.140007 -0.092680 0.099130 0.015961 0.117259 -0.171174 0.134594 -0.087290 -0.287244 0.501021 -0.488320 0.636083 0.124092 -0.243221 -0.081478 -0.237520 -0.140464 0.937618 1.475234 -0.548392 1.913887 0.469126 -0.443532 -0.044607 0.082936 0.310570 0.691700 1.342824 0.298781 -0.126615 0.072131 0.134199 0.403913 0.329267 0.630231 0.063080 -0.431661 -0.490791 -0.288270 -0.643509 0.085110 -0.038105 -1.360390 0.037381 -0.686521 -0.178839 -0.156415 -0.653949 1.060073 0.023044
GTTAT -0.712844 -0.475824 -0.414477 0.043182 0.034394 0.400512 0.328634 0.032522 -0.161665 0.813450 1.118274 0.229856 0.119156 0.270956 0.602836 -0.707013 -0.703800 -0.320706 0.480879 -1.194873 0.893045 0.404468 -0.155181 -0.079448 1.190113 -0.331126 -0.287844 0.008989 -0.361985 0.540159 0.318993 0.365704 -0.203119 0.286276 0.474954 -0.518592 0.769922 0.272998 -0.057110 -0.145493 -1.166306 0.808147 0.147537 0.459630 0.263130 -0.738064 -0.171652 -1.280775 0.600197 -0.075566
ATACT 0.543734 -0.042636 0.895212 -0.946935 -0.599980 0.090170 0.825751 0.212695 0.255345 0.190489 0.691446 -0.177267 -1.331885 0.267451 0.179988 -0.873821 -0.420862 0.417789 0.771422 -0.303960 1.158092 0.129876 -0.003087 1.765011 -0.829009 0.522822 1.880647 0.116761 -0.057627 0.005629 -0.099188 1.136126 -0.110384 0.137785 0.611918 -0.083398 0.358626 1.199569 -0.145482 0.398356 0.464902 -0.051050 -0.274305 -0.110931 0.125541 -0.611975 0.274023 -1.182404 0.636325 -0.761557
CTATT -0.377997 -0.154284 -0.812741 0.108070 -1.490953 -0.284828 0.067721 0.093157 0.431190 -0.088559 0.910192 0.503016 0.478741 0.740570 0.194472 0.495348 0.243565 0.248756 0.516438 0.730581 1.025103 1.357932 -1.106233 0.474769 -0.106847 0.245500 0.809276 -1.243958 1.454354 0.583060 -0.254753 0.122822 -0.238345 0.518370 -0.289441 0.595768 0.392434 0.403445 -0.506290 -1.129034 -0.118997 0.120400 -0.355574 0.138659 -0.082357 -0.504280 0.682902 -1.012729 0.594521 0.094783
CATTA 0.244186 -0.648652 -0.619485 -0.438792 -0.143409 -1.020600 0.741082 -0.059131 -0.323846 -0.007140 0.220112 1.252663 0.113509 0.428389 -0.538544 0.684599 0.387644 0.006269 0.510108 0.347044 0.496848 1.614425 0.194245 0.402821 0.109174 1.291505 0.681466 -0.539331 0.992770 -0.434533 0.507318 -0.238821 -0.962865 -0.540405 -0.131249 0.013193 1.518180 -0.200794 -1.521481 -0.092060 -0.315481 -0.830893 0.315266 -0.137450 0.875147 -0.464667 -0.068941 -1.087036 0.224985 0.396661
TTTTA -0.059548 0.392787 0.011986 0.470510 0.197459 -0.815211 0.292598 0.582988 -0.130465 0.494977 0.065258 0.606594 0.134459 0.072982 -0.359124 -0.181461 -0.171257 0.135618 0.584539 -0.228640 1.619686 0.730426 -0.010674 0.431738 0.753971 -0.173657 0.757294 0.572062 0.565228 -0.300616 0.105903 -0.220839 0.188091 0.007969 -0.379957 -0.077895 -0.011233 -0.045158 -0.697848 -0.574783 -0.181480 0.722501 -0.820133 0.198975 0.123892 -0.020375 0.054226 -0.782138 -0.052816 -0.641227
TTGAT 0.157576 0.841881 -0.571074 -0.607222 0.265253 0.484164 -0.335974 -0.632774 -0.812553 -0.247595 0.046959 0.072382 -0.710014 0.517317 -0.239158 0.032664 -1.382307 -0.447048 0.313745 0.717430 0.886509 1.276484 0.229853 0.666535 0.831545 0.183170 0.081023 0.390568 0.622878 0.105249 -0.478073 0.548366 -0.887206 -0.057400 0.311703 0.530965 -0.574892 0.645900 0.111445 -0.072969 -0.418915 0.836967 0.159980 -0.327280 -0.378615 -0.587476 0.786148 -1.048027 0.476583 -0.794704
AATGA -0.228802 -0.204096 -1.270523 0.638454 0.709031 -0.128577 -0.122785 0.171033 -0.607481 -0.838037 0.226757 0.611098 0.384050 -0.303626 0.441295 -0.633030 -0.075762 0.318941 0.146392 -0.074061 0.385217 1.304558 0.730588 0.733654 0.094768 0.248377 0.295894 0.852996 0.113992 0.238824 0.229212 0.118751 -1.156164 0.449748 0.276658 -0.062424 -0.872549 -0.170398 0.845208 0.067460 1.101185 0.425796 -1.228251 -0.129266 -0.250178 -0.382956 0.221510 -0.151761 0.961668 -0.935708
GCATT 0.533669 -0.681349 -0.191482 -0.226180 -0.512217 -1.136299 0.700392 -0.018147 -0.234968 0.457339 0.441474 0.971131 -0.817102 -0.613701 -1.158522 0.608412 0.083973 0.031433 0.180763 0.489780 0.247714 1.402424 0.681557 0.780584 0.398697 1.421978 -0.116284 -0.347038 1.002710 -1.178706 -0.042694 -0.212177 -0.173386 -1.253995 -0.288947 0.209869 0.787264 -0.889971 -0.597264 -0.170888 -0.781465 -0.341180 -0.456497 0.326383 1.130473 -0.810223 0.681833 -0.573862 -0.447499 -0.150758
ATTAA 0.015922 -0.410419 -1.036752 -0.681948 0.071840 -0.350886 0.285843 0.057032 -0.443646 -0.240669 0.043835 1.289265 0.467714 0.751798 -0.320039 0.440730 -0.059242 0.093800 0.318529 0.308137 0.466894 1.510227 0.037011 0.483837 -0.400168 0.527167 0.747813 -0.439571 0.787411 -0.492552 0.140817 -0.099872 -0.569823 -0.103349 0.168396 0.005617 0.695837 -0.143400 -1.200318 -0.105620 -0.108939 -0.055268 -0.192570 0.489038 -0.564784 -0.418253 0.002979 -1.012526 0.173204 -0.128792
TCATA 0.076332 -0.655280 -0.153492 -1.165202 -0.123064 -0.128084 -0.287699 -0.613502 0.280970 0.566176 -0.124332 0.902448 -0.415395 -0.282339 -0.107008 -1.095035 -0.635200 0.886186 1.585962 0.618296 1.164752 -0.553077 0.597987 0.333925 0.247085 -0.433849 1.051789 0.241814 0.239463 -0.492461 -0.263069 -0.548162 -0.789256 -0.690442 0.514038 -0.772773 0.548721 0.973463 0.198958 -0.280876 0.347740 -1.130546 -0.983331 0.082180 -0.694489 -0.312265 0.312785 -0.703281 0.105236 -0.845804
GATTT -0.359522 0.582242 0.024583 -0.310363 0.448900 -0.523176 -0.192083 -0.431772 -0.338290 -0.190572 0.494350 0.196868 -0.418375 0.436698 -0.883793 0.125934 -1.165048 -0.481514 0.178426 1.195629 1.242076 0.885670 0.146678 0.679637 0.934039 -0.151279 0.705778 0.487768 0.815622 -0.784309 -0.339280 0.631578 -0.044370 0.075945 -0.118871 -0.473305 -0.949096 0.231763 -1.156410 0.215757 -0.411293 0.761632 -0.322385 0.296834 -0.668400 0.262587 0.389588 -0.356597 -0.888256 -1.137129
ATGCA 0.671194 -0.849971 -0.653294 -0.997779 0.021422 -0.983029 0.539890 -0.365975 -0.740752 -0.460297 0.812359 0.883733 -1.152869 0.017165 -0.004025 -0.109124 0.563981 -0.883518 -0.001560 -0.366237 0.617664 0.531279 0.132227 0.358594 0.491152 0.844034 -0.996703 0.517812 0.089856 -0.848957 0.540431 0.108014 0.325162 0.116135 1.194061 -0.122831 -0.354263 -0.839940 0.164042 -1.072189 -0.321035 -1.233248 -0.494032 0.431188 0.628847 -0.780956 1.358850 -0.180106 0.605640 -1.138008
AAATA 0.226594 -0.276323 -0.720360 -0.455478 -0.186266 0.312033 0.355397 -0.295502 0.349344 0.674763 0.848293 0.713652 -0.334048 0.909031 -0.221064 -0.233532 0.524595 0.077343 0.625197 -0.182291 0.898769 0.547589 0.153718 0.491981 -0.570218 -0.091747 0.436791 0.401121 -0.566168 -0.347137 0.268688 0.811199 -0.345882 0.064585 0.932511 -0.320113 0.262536 -0.704988 -0.748628 -0.240845 0.382079 0.144093 -1.167001 0.167314 -0.391663 0.165682 -0.711807 -1.131713 0.216875 -0.272504
ATTCA -0.076080 -1.422809 -0.302633 -0.081026 -0.546295 -0.595489 0.527669 0.167575 -0.635014 -0.408524 0.448822 0.821505 0.128228 0.801924 -0.089268 -0.911221 0.506576 0.520634 1.047108 1.529587 -0.069408 1.119530 -0.694601 1.371778 0.826762 0.988193 0.425278 -0.721902 0.856988 -0.779128 -0.622808 -0.394185 -0.606120 0.000430 0.040581 0.091707 0.357179 0.275384 -0.334558 0.295400 -0.500687 -0.457875 0.217372 0.890313 -0.243646 0.940105 0.629583 -1.040423 0.369521 -0.006833
TGAAT 0.329192 -0.359026 -1.067539 1.001337 0.725127 0.253888 0.054105 0.648986 -0.598365 0.089677 0.493045 0.214271 -0.464655 0.131220 0.021319 -1.102310 -0.329539 -0.202264 0.575669 0.927126 0.987099 0.899533 0.590048 1.084729 -0.374331 0.308740 0.093673 0.162813 -0.871331 0.519645 -0.802998 0.616233 -1.240108 0.183679 -0.510501 0.412502 -0.737831 -0.883883 0.416996 0.400370 0.737683 0.602972 -0.834537 -0.575783 0.330816 -0.814226 -0.074472 -0.476230 0.723063 -0.953388
GTTTT 0.282276 0.020003 0.155595 0.442818 -0.428708 -0.039393 0.069116 0.067761 -0.310230 -0.014930 0.626189 -0.359061 0.004839 -0.077476 -0.479372 -0.849580 -0.602970 -0.001703 1.032520 0.093742 0.941436 0.813236 0.745563 -0.026294 1.032241 -0.827021 -0.405056 0.086191 0.486582 -0.047674 -0.338541 0.472616 -0.505319 0.069055 0.216390 0.242238 0.739601 0.206352 -0.985535 -0.228923 -0.097399 1.259008 -0.192108 0.921191 1.071396 -0.570638 0.362797 -0.935008 0.323775 -0.648181
ATGAT -0.612631 -0.274437 -1.639314 -0.477531 0.416517 -0.763871 -0.051106 -0.154593 -0.597944 -0.915576 -0.499394 -0.131994 -0.648187 0.795015 0.988835 0.080467 -0.333622 0.140823 0.837777 -0.413412 0.578784 0.731710 0.510054 0.832491 0.452371 0.543036 -0.471971 1.057134 0.724759 -0.877208 0.295935 0.070536 -0.807638 0.529942 0.249865 0.629814 0.629694 1.157431 0.435540 -0.133950 0.551776 -0.039106 -0.163343 0.638203 -0.564431 -0.819158 0.096038 -0.819325 0.961973 -0.883760
ATGTT -0.166030 -0.308284 -0.700814 0.688607 0.107355 0.555789 -0.120375 -0.727975 -1.448814 -0.547343 0.717357 -0.097714 -0.040545 -0.384340 -0.203501 -1.207102 -0.238525 -0.027594 0.876088 -0.849286 0.311388 0.986170 0.513509 -0.403677 1.069539 -0.351794 -0.256160 0.190860 0.399240 -0.534525 0.299438 0.734854 -0.920738 -0.031349 1.231298 0.126773 0.846070 0.539725 -0.853400 0.117823 -0.353283 0.888231 0.062632 0.676735 1.041102 -0.793818 0.890999 -0.676633 0.886773 -0.545714
TTATT 0.087252 0.948849 -0.160456 -0.045639 -0.318729 -0.142009 0.789250 0.657709 -0.400653 0.240472 0.228541 -0.225042 0.159153 0.147938 -0.565354 -0.800245 -0.365643 0.360155 0.752077 0.763903 1.693854 1.166770 0.326915 -0.593585 0.774193 -0.831800 0.181160 0.262005 0.338271 -0.611036 -0.076977 0.273352 0.104200 0.052455 -0.157454 0.367951 0.965375 -0.097061 -0.389935 -0.342848 -0.250498 0.509035 -0.643971 0.126725 0.475615 -0.204730 -0.062668 -1.156966 0.488414 -0.831328
TTTAA -0.207027 0.321431 -0.286254 -0.055160 0.344535 -0.425187 0.253198 0.467490 -0.546468 0.364846 0.265774 0.673049 0.165986 0.427710 -0.642648 -0.338495 -0.058593 0.123868 0.181899 0.110133 0.932038 1.025075 0.537607 0.341546 0.254339 -0.319694 0.355229 0.278697 0.263887 -0.427347 0.216331 -0.033027 -0.432890 -0.172180 -0.110071 -0.105911 0.113471 -0.096134 -0.827854 -0.409629 0.048691 0.743878 -1.094982 0.795942 0.116368 -0.026046 0.161457 -0.603331 -0.411054 -0.748369
TATTA 0.002570 -0.025896 -0.471676 -0.061770 -0.675944 0.172524 -0.073590 1.085103 0.029119 0.968509 0.226257 0.970557 -0.076763 0.335266 0.573565 -0.340405 -0.170408 -0.093873 0.917530 -1.020266 1.579369 0.556945 -0.765935 0.445557 0.779761 0.151332 0.665411 0.898965 0.025017 0.260809 0.434852 -0.059960 0.366405 0.202930 0.670959 -0.287497 0.214741 -0.250720 -0.610552 -0.256749 -0.447406 0.689241 -0.410504 0.189787 -0.400466 -0.815744 -0.314886 -0.971833 0.651904 -0.200385
AACTT 0.661355 0.215736 0.650993 0.068139 0.751588 -1.323358 0.948278 0.297542 -0.613874 0.501045 0.595191 1.154667 -0.381658 1.564136 0.165233 -0.068242 -0.562663 -0.308619 0.010330 0.179873 0.764988 0.749381 -0.944216 0.959740 0.436308 -1.417711 0.266380 -0.258457 0.766964 0.201485 0.729514 -1.447260 -0.684477 -0.514575 0.329207 -0.601682 -0.148648 0.165946 -0.909781 -0.506656 0.760465 0.834228 -0.888286 -0.153809 0.133795 -0.506366 0.006329 0.081243 0.345948 -0.197913
TGATA -0.388441 -0.667124 -0.747295 -0.880591 1.210035 -0.525432 0.106265 -0.202445 -0.104471 -0.231679 -0.059787 -1.025605 0.009183 0.468917 0.643749 -0.219438 -0.953157 0.530466 1.251852 -0.489409 0.785421 0.613887 0.683269 1.266391 0.054178 0.432870 0.137874 1.769072 0.324931 -0.799754 -0.084208 0.266765 -1.138723 0.351100 -0.715781 -0.084625 -0.192953 0.593982 0.332212 -0.037972 0.799064 0.119424 -0.919759 -0.183209 -0.418701 -0.472182 0.155758 -0.625254 1.159222 -1.097433
TTCTT -0.159618 0.426925 -0.153415 0.374290 -0.274356 -0.541104 0.632685 0.533228 -0.389915 0.508545 0.537360 -0.597310 0.307578 0.690199 -0.516669 -0.958241 -0.064554 0.254482 0.720201 0.988723 1.480034 0.720102 0.185153 -0.006154 0.988898 -0.382595 -0.232863 0.058444 0.669142 -0.556995 -0.431765 0.242355 0.010267 -0.072532 -0.025651 0.669605 0.643479 0.195107 -0.144601 -0.663217 -0.123807 0.738799 -0.606957 0.670162 0.207127 0.173858 -0.077519 -1.266254 0.145229 -0.642966
AATTA 0.294401 0.020162 -0.999135 0.548970 -0.329009 0.119001 0.683598 0.710880 -0.462854 -0.018018 0.670008 1.176080 0.100928 0.180210 0.051443 -0.802098 0.033548 -0.027376 0.434023 -0.008732 0.699365 0.892098 -0.170619 0.713203 -0.137801 0.307587 0.459276 0.256694 -0.312330 0.254065 0.465940 -0.072452 0.261949 0.460113 0.466889 0.055272 -0.956816 -0.315484 -0.829877 0.620787 -0.203463 0.355852 -0.477764 0.175633 -0.178500 -0.259398 0.182956 -0.966305 0.830727 -0.444871
AGATA -0.219884 -0.070554 -0.339776 -1.288964 0.392417 -0.241512 0.173439 -1.152622 -0.125247 0.256363 1.319179 0.720583 -0.733832 0.282791 0.740278 -0.517045 -0.648578 -0.199798 0.622489 0.463083 0.312185 -0.024925 0.257532 0.706022 -0.243086 0.220692 1.208541 1.770099 0.461159 0.101229 -0.261492 0.306430 0.145710 0.016260 0.686312 0.082656 0.009102 -0.412685 -0.977128 0.441590 -0.287883 -0.403296 -0.422177 -0.006382 -0.302390 0.463052 -0.381826 -0.689165 -0.032464 -0.537807
TCTTT -0.331080 0.254256 -0.060253 -0.211108 -0.468463 0.216967 0.509430 0.537580 -0.399743 0.149709 1.119077 -0.132101 0.401188 -0.266010 -0.958020 -0.542223 -0.401852 -0.004290 0.832836 0.988174 0.651490 0.744186 -0.437886 -0.160794 0.945101 -0.180569 0.029572 -0.365885 0.403829 -0.387948 0.226591 0.384816 -0.337476 0.059714 -0.704153 -0.005509 0.652933 -0.001676 -0.018611 -0.107798 -0.827103 0.306151 -0.945724 0.462540 0.221680 -0.611373 0.162402 -0.965898 -0.168504 -0.851572
GCATA 0.346248 -0.881901 0.376028 -1.193441 -0.310154 -0.922240 0.189479 -0.811795 0.023871 1.298755 0.421164 0.642114 -1.339429 -0.671793 -0.767105 -0.075674 -0.170371 0.729849 1.013962 -0.293360 0.645272 0.374901 0.915973 0.995466 -0.242254 0.686780 0.019404 0.826307 0.335698 -0.837717 -0.094335 0.067974 0.296348 -1.632920 0.267902 -0.452200 0.021136 -0.593556 0.473123 -0.481745 -0.389042 -1.154811 -0.965290 -0.149682 0.808692 -0.700183 0.819999 -0.536866 0.126611 -0.255594
GAAAA -0.405347 -0.358211 -1.305188 0.722503 0.511073 -0.177439 0.452043 0.005808 -1.204929 -0.805897 0.192072 1.301994 -1.018731 0.612960 0.289455 -0.283439 0.129402 -0.316080 -0.199846 -0.004089 -0.062938 0.729202 0.028321 0.803673 -0.791142 -0.493009 0.451034 0.677884 -0.284788 0.477984 0.605963 0.131038 -0.267302 0.262157 0.237589 -0.210961 0.046276 -0.713157 -0.897011 0.227974 0.148088 -0.746195 -0.547123 0.846841 -0.483050 -0.161338 -0.243449 -0.570452 -0.305486 -0.003498
CTTAT -0.004390 0.335955 -0.033054 -0.569603 -0.847254 -0.020140 0.244623 0.541772 0.469394 1.102781 1.106901 0.216746 -0.724139 1.767309 0.671190 -0.312377 -0.116378 -0.265297 -0.088675 -0.091882 1.722355 0.783218 -0.675532 0.614986 0.564886 -0.972570 -0.370521 0.740441 -0.057594 0.624929 0.905602 -0.973182 -0.242969 -0.038364 0.269072 0.056825 0.562844 0.887835 0.270770 -0.017428 -0.002147 0.306613 -0.039624 -0.367865 0.220900 -0.436570 -0.121595 -0.812587 0.715332 -0.409678
TTACT 0.233624 0.437079 0.315786 -0.175706 -0.383906 -0.338518 1.251655 0.135084 0.195055 -0.877110 0.746981 -0.301077 -0.373647 0.370731 0.382084 -0.032869 -0.075184 0.042310 -0.305283 -0.203729 1.608915 0.868706 -0.468461 0.055436 0.285938 -0.576072 1.590310 -0.862343 0.632216 0.116417 0.341664 -0.306772 -0.637148 -0.339647 -0.063036 -0.301288 1.400061 0.078730 -1.139058 -0.167686 -0.034630 1.063235 -0.478404 -0.489709 0.285194 -0.683248 -0.000547 -0.633003 0.823263 -0.477688
ACTAT -0.905461 -0.208108 -0.128907 -0.426652 -1.653790 -0.237475 0.380444 0.168541 1.043828 -0.229359 1.183217 0.797715 -0.562592 0.359684 0.661484 -0.142132 0.623091 -0.266655 0.456982 -0.178171 1.408566 0.921920 -0.950074 0.826152 -0.199461 0.217244 1.404752 -0.916330 0.910833 0.712176 0.249357 0.653666 -0.212415 0.488903 0.089743 -0.475305 0.353126 0.295756 -0.402513 -1.006319 0.206439 0.454137 -0.066387 -0.202206 -0.593209 -0.392460 0.760962 -0.417288 1.359162 0.223455
GAATT -0.065124 -0.202588 -1.178099 1.582278 0.182200 -0.095252 0.753891 0.879513 -0.989312 -0.442255 0.755868 0.793768 -0.408773 0.273196 -0.146324 -0.903037 -0.260191 -0.195176 0.342932 1.080620 0.555348 1.279302 -0.232950 0.992240 0.014749 0.304452 0.030617 -0.341784 -0.632017 0.174324 -0.386879 0.470654 -0.061613 0.417657 -0.287506 0.850362 -1.005448 -0.628851 -0.395175 1.238244 0.093485 0.471071 -0.031804 0.129390 0.104313 -0.572829 0.094861 -0.720553 0.433424 -0.793857
TAGTT 0.464958 -0.199479 0.081998 0.284404 -0.730072 0.242014 0.349042 -0.386152 -0.145685 0.254523 0.523460 0.046860 -0.124154 -0.462114 -0.545171 -0.371395 -1.251545 0.471052 1.550344 -0.623920 0.479711 0.335837 0.183006 0.035915 0.939169 -0.900308 -0.024970 0.477422 -0.081731 0.448615 -0.848193 0.861196 -0.582113 0.462397 0.475057 0.148051 0.523136 -0.208567 -0.963040 -0.145461 0.087622 0.802165 -0.039354 0.917397 1.095101 0.112441 0.304435 -1.494845 1.281394 0.128131
AAAAG -0.258707 -0.586904 -0.585822 -0.857275 0.604575 -0.144463 -0.080779 -0.816562 -0.012120 0.412514 0.640484 0.649851 -0.004975 0.676333 -0.807240 0.298173 0.361216 0.193047 -0.109724 -0.081445 -0.040130 0.531747 0.538256 0.746183 -0.647376 -0.447818 -0.012739 0.483472 0.144751 0.039517 0.156901 0.294665 -0.423252 0.162347 0.868944 -0.703059 0.067020 -0.970529 -0.189464 0.006105 0.253533 0.429067 -0.960471 0.889786 -0.190172 0.562508 -0.184694 -0.936708 -0.426456 -0.282983
TACTA 0.128743 0.166467 0.432632 0.229831 -1.183458 0.352052 0.393674 0.491555 0.380518 -0.226435 0.301672 0.391174 -0.606506 -0.161644 0.172517 -0.097316 0.257801 0.239643 0.980021 -1.110411 1.377033 0.905999 -0.695840 1.077139 -0.730271 0.466103 2.193546 0.033728 0.545258 0.418773 -0.203432 0.950346 0.047195 0.860883 0.339805 -0.402925 -0.151037 0.602483 -0.590894 -0.359170 -0.063640 0.183130 -0.525570 -0.194900 -0.485253 -0.105323 0.437084 -0.691265 0.886996 -0.281134
TGATT 0.157731 -0.705540 -1.698303 -0.199955 0.133824 -0.731598 0.050654 0.302459 -0.320868 -1.141194 -0.339186 -0.197303 0.587715 0.414089 0.607832 0.174364 -0.279623 0.098296 0.318157 0.482341 0.469431 1.367995 0.308149 0.788489 0.402879 0.802601 0.042049 -0.178914 0.832084 -0.741821 -0.457948 -0.196505 -1.071070 0.477110 -0.982042 0.717304 0.865325 0.331141 0.281025 -0.337010 0.321744 0.660042 -0.321227 0.379568 -0.252576 -0.750814 0.066366 -0.977689 0.949951 -0.822501
GTATT -0.034375 -0.966203 -0.418001 -0.232021 -0.463563 -0.234415 0.696990 0.566032 0.154650 -0.777102 0.114433 1.102577 0.843847 0.081608 -0.639215 0.580035 -0.791775 -0.309587 0.242720 0.838223 1.090651 0.657246 0.135200 0.882124 -0.116373 -0.052577 0.138585 -0.854516 0.846818 -0.043625 -0.364631 0.028546 0.305659 1.026081 -0.164913 0.139572 0.788471 -0.180003 0.926197 -0.463590 -0.682741 0.346017 0.655670 1.106455 -0.510937 -0.488168 -0.132832 -1.530421 0.599321 0.203077
TAACA -0.089791 -0.751797 0.963981 -0.392301 0.981830 0.894276 0.354071 -0.011749 -1.342997 0.041928 -0.408312 1.622114 0.939182 0.561274 -0.700595 -0.311493 -0.273296 0.671472 1.155439 -0.330981 0.835542 0.739275 -0.711769 0.349140 -0.628838 0.382251 0.372062 1.138581 0.471135 0.290262 0.567752 -0.279879 -0.093189 -0.217450 0.040281 0.436094 0.323838 -0.071484 -0.158589 -0.539988 1.052953 -0.263989 -0.125540 0.123381 0.641335 -0.041113 0.574403 -0.023775 0.493359 0.020809
ATATG -0.734590 -0.115905 -1.367302 -0.394218 0.670700 -0.678723 0.773520 -0.480144 0.303583 0.892489 0.781068 0.295513 -0.830082 0.440773 1.363262 -0.947099 -0.106490 0.003211 0.727021 0.233614 0.961582 -0.418671 -0.048609 0.844443 -0.027176 0.090739 -0.405652 1.346554 0.554639 -1.450797 0.594457 0.928375 0.378184 -0.138307 0.512513 -0.082401 0.183660 0.095928 0.644127 -0.260691 0.031616 -1.094125 -0.023592 -0.599806 -0.259517 -0.733141 0.695940 0.090460 0.927989 -0.920708
TTACA 0.516934 0.371466 0.314384 -0.158718 0.329061 0.922843 1.410705 -0.299391 0.296021 -0.739921 0.147933 0.981469 1.222025 0.587770 0.250490 -0.177834 -0.260459 0.064561 0.180199 -0.269055 1.274781 1.174515 0.140264 -0.226631 0.185434 0.129470 0.321078 0.451205 0.722819 -0.724454 1.049171 -0.105239 -0.267426 0.327650 -0.339234 -0.375444 1.274835 0.523182 -1.275129 0.127053 -0.467440 -0.287947 -0.179768 -0.876624 1.365356 0.114745 -0.497328 -0.855711 0.509959 -0.746792
TAGAA 0.133721 -0.456582 -0.924258 1.522269 -0.251116 -0.472603 0.413141 0.059503 -1.356558 -0.539171 0.162818 1.449619 -0.977111 -0.073865 -0.001300 -0.054613 -0.429153 -0.522109 0.306930 0.125782 0.515643 0.694192 -0.335019 0.248895 -0.278968 -1.183168 0.911552 0.871742 -0.415736 0.651265 -0.342501 0.010662 -0.098130 0.779732 -0.499923 0.250599 0.109566 -0.898043 -1.231759 0.299320 0.336256 -0.843384 -0.406201 0.768712 0.211076 -0.391432 -0.466710 -0.311236 -0.152041 0.010938
TACAA 1.032946 0.774051 -0.044001 0.370654 0.232151 1.225649 1.435149 0.079492 0.830995 -0.663478 -0.002235 1.067921 1.047223 0.076934 0.152592 -0.411671 0.204355 0.152543 0.040499 -0.584010 0.465605 1.226110 0.164865 0.569397 0.104584 0.319710 0.335928 0.135946 0.891579 -0.077512 0.974830 -0.147680 0.042347 0.406161 0.360628 -1.044219 -0.550799 0.502339 -1.001627 0.269390 -0.639521 -0.329104 -1.142210 -0.293811 0.535605 0.188652 -0.553557 -0.877221 0.753705 -0.494918
AGAAA -0.163327 -0.582341 -0.380675 -0.861917 0.869324 0.224855 -0.188409 -0.224509 -0.298296 0.262827 0.586978 1.017750 0.248434 0.348651 -0.302735 -0.606080 -0.169988 0.024690 -0.149690 0.050254 -0.393232 0.507563 0.403879 0.645213 -0.684327 -0.088383 0.552011 1.201795 0.276030 0.446983 0.629536 -0.295983 -0.354018 0.526632 0.978871 -0.672929 -0.762845 -0.119020 -0.891913 0.220963 0.017513 -0.066251 -1.000969 1.107771 -0.016781 0.351053 0.241271 -0.680523 -0.085884 -0.214259
ATAGT 0.494945 -0.176633 0.073367 -0.801877 -0.635235 -0.454375 -0.300332 0.088520 1.016747 0.564196 0.603698 0.613069 0.023118 -0.351453 -0.315195 0.010702 -1.458068 0.534513 1.884899 -0.441712 0.290518 -0.284830 0.522253 0.771088 -0.118894 -0.557870 0.031669 0.988591 0.333013 0.127986 -0.981701 0.724464 -0.837530 0.485808 0.354521 -0.345714 -0.019752 -0.458591 -0.656998 0.466760 0.598184 -0.074074 0.122055 0.536132 0.945862 0.327586 0.133312 -1.652474 1.593703 -0.586810
CTAAA -0.216835 0.106225 -0.404921 -0.321471 -0.216192 0.304294 -0.147444 -0.413165 -0.185532 0.406772 0.811707 0.489052 0.153032 0.955448 -0.811967 0.720581 0.709323 0.739821 0.352568 0.006777 0.098104 0.822663 -0.925740 0.170001 -0.409712 -0.235232 -0.160925 0.049658 0.306056 0.315319 0.554060 0.423156 -0.839597 0.485784 0.696122 0.432008 0.119075 -0.487805 -0.260010 -1.045843 0.530257 -0.590913 -2.335700 0.998370 -0.434618 -0.214987 0.027514 -0.621985 -0.640248 -0.065949
TGCAA 1.308265 -0.322459 -0.392557 -0.988438 0.202109 -0.662747 0.952970 -0.392073 0.093535 -0.729310 0.713726 0.071499 -0.459090 -0.054426 0.159110 -0.250733 0.392107 -0.524042 -0.441278 0.299634 0.099366 0.389719 0.222563 0.791097 -0.051099 0.355184 -1.307458 -0.426764 -0.058154 -0.111112 0.369534 -0.001805 0.207262 -0.325463 1.259251 -0.736073 -1.122477 -0.998857 -0.084040 -0.849043 -0.600896 -0.491441 -1.284821 0.940489 1.010419 -0.785849 0.949094 -0.978506 0.589831 -1.251776
ATTGA 0.290207 0.156501 -1.324320 -0.071987 0.012329 0.347474 -0.201017 -0.456093 -0.624743 -0.291969 0.001957 1.540204 -0.038654 -0.078118 -0.538095 0.007850 -1.079142 -0.417638 -0.164972 1.416675 0.272345 1.455232 0.646286 1.147561 -0.024288 1.104909 0.572992 -0.665203 0.858565 0.548563 -0.297346 0.775502 -0.756932 -0.386454 0.187949 0.459431 -0.345445 -0.158104 0.441080 -0.137563 0.536198 1.271091 0.273045 -0.634873 -0.244283 -0.841533 0.704984 -1.133368 0.272130 -0.535867
CCTTT -0.208761 0.240111 -0.200623 0.184591 -0.624720 -0.154918 -0.073584 0.515270 0.170385 -0.276809 0.684308 -0.282970 0.255160 0.571830 -1.541234 0.124894 0.023001 0.276863 0.653944 0.966852 0.782826 1.103173 -0.017065 0.175618 0.700381 -1.168825 -0.204588 0.554384 -0.754463 0.040569 0.347386 -0.756757 -0.037088 -0.716311 -0.469373 0.649969 0.268988 0.872903 -0.136866 -0.831368 -0.177006 0.108198 -0.303139 -0.614552 0.557734 0.233756 0.527522 -0.699042 -0.113012 -0.957967
TATGA -1.205033 -0.253581 -1.851319 0.438914 0.293380 -1.006011 0.486178 -0.015721 -0.106402 -0.157019 0.273543 0.578726 -0.893509 0.657302 1.470187 -0.450953 -0.228570 -0.011633 0.517181 -0.662468 0.499969 0.133326 -0.334405 1.223070 0.407649 -0.050215 -0.477576 1.168943 1.035615 0.101372 0.937939 0.494341 0.196294 0.574705 0.216606 0.468394 0.419181 0.346553 1.069352 -0.325952 0.747119 0.024656 -0.118598 0.094549 -0.718188 -1.124638 -0.055253 -0.885035 0.850426 -0.516249
ATATC -1.230001 0.104789 -0.377010 -1.329615 0.433337 0.708941 0.548341 -0.523944 0.512088 0.501465 1.051741 0.336677 -0.592613 0.216483 0.622070 -0.894829 -0.717510 0.025789 1.827404 0.434049 1.225499 -0.139658 0.083034 0.265987 0.910307 1.020354 -0.451504 0.075086 -0.243853 0.287423 -0.145461 0.073485 -0.723611 -0.907893 -0.444121 -0.816774 -0.390042 0.180289 0.102741 -0.145267 -0.794658 -1.169523 -0.970321 -0.504573 -0.606061 -0.240315 -0.658324 -0.536667 1.097442 -0.347225
AAAGA -0.492814 -0.421850 -0.806652 -0.073746 0.860693 0.037046 0.095259 -0.383581 -0.267514 -0.223513 0.414121 1.066452 -0.375602 0.488909 -0.217071 -0.079593 0.043902 -0.178851 -0.192919 0.375166 0.012551 0.995978 0.424644 0.757730 -0.502298 -0.616716 0.405992 0.364095 -0.075289 0.093004 0.361717 0.578501 -0.589308 0.015169 0.814968 -0.473028 -0.429403 -0.468237 -0.371923 0.009931 0.505117 -0.136995 -0.945115 0.784334 -0.610018 -0.023138 -0.210634 -0.527276 -0.373887 -0.288465
AAGTT -1.221602 0.221441 -0.337737 0.558580 1.102482 0.681273 0.765672 0.461821 -0.385596 -0.194904 0.122026 0.426039 -0.098968 -0.202817 -0.656620 -0.449502 -0.468864 -0.313073 0.492438 -1.014431 0.115721 0.813624 -0.561194 0.607148 0.416833 -0.736091 0.541999 0.299881 0.366794 1.012916 -0.002568 0.011235 -0.255718 -0.514361 -0.012469 -1.474331 0.017130 -0.026612 -0.087849 -0.591609 -1.321771 0.272243 -0.112795 1.305597 0.540134 0.235383 0.561694 -1.943724 -0.321490 -1.332263
CATAT -0.780797 -0.182104 -0.481695 -0.746402 0.316624 -0.863348 0.555307 -0.489153 0.097902 1.173223 0.724467 0.460038 -0.831626 -0.113002 0.144429 -1.133062 -0.288191 0.670234 1.658537 0.574537 1.153733 -0.238654 0.468266 0.284284 0.767833 0.273512 0.152890 0.121828 0.592828 -0.712727 0.108182 -0.213097 -0.355754 -1.437710 0.057808 -0.662725 0.384099 0.372356 0.620528 -0.715291 -0.559282 -1.281731 -0.703527 -0.462702 0.040641 -0.466287 0.391098 -0.359779 0.454089 -0.551500
TTTCA 0.010027 -0.503936 -0.169074 0.178994 -0.078405 -0.492343 -0.072580 -0.148669 -0.100996 -0.020741 -0.009721 0.870687 0.066052 0.205167 -0.259107 -0.925107 0.103471 0.268262 0.441336 1.188610 1.068853 0.279527 0.108740 0.614418 1.236925 -0.497929 0.411185 -0.174921 0.300718 -0.924661 -0.326323 -0.727270 -0.561562 -0.242277 -0.087754 -0.686302 0.462241 0.668795 -0.271519 -0.546151 -0.212067 0.105555 -1.068071 0.621989 -0.153400 1.037643 0.360055 -0.703329 -0.558617 -1.132652
AATCA 0.338549 -1.130748 -0.393788 0.483444 -0.208476 -0.156043 -0.234483 -0.156585 -0.337049 -0.485137 -0.504792 1.621021 -0.149188 0.220630 0.154482 -1.374529 0.618591 0.669317 1.075753 1.015958 0.934077 0.350213 -0.059062 0.419052 0.068203 0.295667 -0.114088 0.102547 -0.518093 0.284991 0.145632 -1.072416 -0.968178 0.205206 0.807068 -0.667625 -0.400069 0.460253 0.287982 0.254657 0.297670 -0.274809 -1.500948 0.529749 -0.508765 0.587631 -0.172434 -0.518866 0.145244 -0.453365
ATTTA -0.107380 -0.276606 -0.701033 -0.450207 -0.776647 -0.082506 0.013392 0.647632 0.109967 -0.192247 -0.302217 1.156581 0.646763 0.257104 0.237537 -0.036433 -0.151302 0.235063 0.758587 0.095838 1.453112 0.894023 0.009042 0.515667 0.145988 0.009533 0.709803 -0.086119 0.809258 -0.208655 -0.085019 -0.236459 0.047420 0.511849 -0.251232 0.398198 0.953417 0.025964 -0.304628 -0.543996 0.088184 0.468596 -0.231491 0.522536 -0.600870 -0.504621 -0.132715 -1.083105 0.618672 -0.297664
CTTCT 0.831323 0.500617 0.874567 0.032696 -0.419400 -0.297318 0.572318 -0.044231 0.025897 0.312539 0.776700 -0.809026 -1.008187 1.142072 -0.170730 -0.146902 0.349678 0.300910 0.037383 0.538328 1.063233 0.520893 -1.033048 0.670560 0.101501 -0.629147 0.394410 -0.202495 0.771382 0.652727 0.514116 -0.931753 -0.869792 0.438315 0.459135 0.376813 0.514452 0.754902 0.454943 0.314064 0.515105 0.217771 -0.466051 0.502667 0.505113 -0.437095 0.403375 -0.330811 -0.559045 -0.484250
CCATT 0.209426 0.148806 -0.797891 0.446697 0.169646 -1.220754 0.261532 0.442620 -0.468480 0.553558 0.148278 0.178611 0.054244 -0.242754 -1.407413 0.519775 0.730832 -0.068556 0.911191 1.068447 0.579278 0.387016 0.454751 0.307434 0.290554 1.847710 1.176876 -0.682703 0.711375 0.256137 0.370931 -0.436934 -1.611300 -0.761998 -0.213968 0.095288 0.977622 0.420722 -0.506340 -0.732652 -0.603354 -0.117607 0.346081 -0.192295 0.642699 -0.181383 0.453541 -0.875828 -0.455503 0.462293
GCTTT 0.162359 0.122100 -0.192793 0.830616 -0.105653 -0.188939 -0.431146 -0.817238 0.551745 0.985103 0.513093 0.226906 0.133317 0.852285 0.074865 0.161486 -0.102887 0.116281 -0.363580 0.478846 1.667611 0.471306 0.786791 0.730888 0.108137 -0.235207 -0.131966 0.206080 0.633538 -0.050694 -0.131642 -0.992524 -0.271661 0.023644 -1.052029 0.481640 -0.409948 0.909414 -0.005155 -0.215689 -0.288433 0.972102 -1.155699 0.834253 1.059898 0.115522 0.045721 -0.770131 -1.335311 -0.413243
AAGTA -0.030784 -0.134780 -0.264479 0.023880 0.378425 0.755540 1.207463 0.552027 0.081643 -0.593270 -0.621854 1.115603 -0.159340 -0.354945 -1.117450 -0.299819 -0.174832 -0.692150 0.674675 -0.470727 0.338457 0.349442 0.111103 1.349851 -1.015272 -0.929454 0.216407 0.644331 0.915882 0.473853 0.068809 -0.099086 0.703470 0.557750 0.090167 -0.879044 0.012518 0.052730 0.376436 -0.617565 -0.533152 -0.138171 0.121805 1.425616 -0.728470 -0.509246 0.099439 -1.064587 0.474519 0.119195
TTTTTAT -0.013640 0.265662 -0.237926 -0.562020 -1.055642 -0.746800 0.013452 1.494646 0.142894 0.111629 0.463213 0.986931 -0.141628 0.404528 -0.281782 -0.922478 -0.150019 -0.459887 0.502277 0.342646 1.410695 1.277070 1.067467 0.420997 1.364622 -0.428546 -0.075583 0.331456 0.569256 -0.258873 0.015599 0.565171 0.233180 0.224405 -0.543251 0.274329 0.712023 0.634347 -0.464786 -0.393083 -0.060836 1.017478 0.195087 1.407248 0.431959 -0.667915 -0.350086 -0.525314 -0.478585 -1.291235
ATAAT -0.062540 0.156145 -0.678422 -1.398958 0.235797 0.075033 0.488509 -0.426588 -0.064504 0.361255 0.162969 1.192003 -0.127209 0.388049 0.813505 -0.328733 -0.218093 0.179130 1.034502 0.250886 0.896062 0.688680 0.387558 0.271814 0.040870 0.734201 0.555647 0.979417 0.407543 -0.497134 -0.192596 0.399004 0.048467 -0.035004 0.449404 0.762926 0.672007 -0.075913 -1.062681 -0.145628 0.344408 -0.286907 -0.030124 0.029060 -0.432435 0.091451 -0.165891 -0.643459 0.662797 -0.260785
CATCA -0.325971 -0.660491 0.222128 -1.071639 -0.333908 0.975686 0.009099 -0.436001 -0.043653 -0.557756 -0.762763 2.031139 -0.727296 0.050864 -0.263675 -0.486380 0.071557 0.385910 0.443708 0.443726 0.534578 0.675747 0.372836 0.796000 1.316039 0.122968 -0.209004 -0.510323 0.091053 0.126209 -0.299658 -1.285549 -1.010468 -0.655874 0.149153 -0.812783 0.732270 0.805244 -0.080130 -0.130046 -0.193231 -1.464059 -0.795794 0.333021 0.498818 0.206958 0.029315 0.047598 0.404703 -0.008526
TCATC -0.168515 0.141760 0.234410 -0.794881 -0.527630 0.937529 -0.398470 -0.141427 0.184014 -0.247462 -0.729757 1.204708 -0.512949 -0.382062 -0.339850 -0.375802 -0.232232 0.157191 0.617928 1.022452 0.950488 -0.256252 0.227211 0.160666 1.023593 -0.246414 -0.195615 -0.893241 0.019243 0.365146 -0.375123 -1.303642 -1.465483 -0.516378 0.344775 -0.424994 0.948047 1.100006 0.253898 0.416885 0.430169 -1.254280 -0.612885 0.922929 -0.000571 -0.345974 -0.330558 -0.115490 -0.236174 -0.788933
AGCTT 0.514431 -0.278831 -0.801129 0.635432 0.333024 0.314843 0.054101 -1.389293 0.799834 1.384792 0.339420 0.313933 -0.864913 1.461396 -0.463844 0.077698 0.131111 0.249468 -0.323109 -0.077213 1.174195 0.655866 -0.000105 0.779059 -0.104892 -0.478299 -0.320658 0.759878 1.184036 0.479947 -0.105945 -1.547394 -0.035304 0.073091 -0.748733 0.290904 -0.128430 0.832176 0.033275 0.618552 -0.201083 0.933281 -0.747045 0.028695 0.569441 0.589813 -0.235162 -1.030905 -1.023959 0.060206
ATCTA 0.148518 0.833165 -0.067027 -0.719258 -1.102067 1.276185 -0.328063 0.931438 -0.485238 0.795540 -0.197855 0.817510 -0.905432 0.082067 -0.072230 0.291349 0.495495 0.437921 1.079032 0.178868 0.647817 1.006214 -0.684062 0.487829 1.205795 0.878508 -0.088592 1.129612 -0.099334 0.780797 0.612298 0.253809 -1.247896 0.496160 0.438694 0.308380 0.244968 -0.518647 -0.188727 0.708398 0.142838 -0.972801 -1.524322 1.024662 -0.460403 -0.716418 -0.332853 -0.226105 -0.453037 -0.363120
TAAGA -0.412311 -0.087520 0.161972 -0.897963 1.171670 -0.137467 -0.434949 -0.377284 -0.735569 0.390166 0.097434 0.643271 0.502670 -0.895105 -0.076944 -0.311972 -0.486147 0.089748 0.108926 0.392589 0.225402 0.796590 -0.437902 0.036323 -0.406508 -0.235527 1.108273 1.889573 0.881257 0.723534 0.239090 -0.810560 0.348143 0.368063 1.156828 0.037904 -0.424696 -0.173218 -0.921642 0.100306 -0.557717 0.198175 -1.023099 1.118828 -0.489163 -0.069881 0.514132 -0.643599 0.050896 -0.051822
GTTAA -0.370043 -0.114528 -0.168608 -0.284233 1.077828 0.623485 0.774710 -0.426545 -1.465180 0.261638 0.105305 0.314161 0.916607 0.001399 -0.091174 -0.330756 -1.096622 0.463061 0.377758 -1.393847 0.171084 1.154359 -0.241169 -0.475471 0.115863 -0.957437 -0.065878 0.255444 -0.519559 0.416215 0.450935 -0.471073 -0.535073 -0.438181 0.325604 -0.119634 1.352254 0.283566 -0.523337 0.232010 -0.875802 0.812615 0.048406 0.762266 0.544477 -0.355428 0.290364 -1.541423 0.768428 -0.005302
CACTT 0.533987 -0.080412 1.185180 -0.373581 -0.268206 -0.807574 0.885895 0.002882 0.240569 -0.186028 1.051935 0.867572 -0.900623 0.677304 0.114874 -0.489351 -0.072172 -1.050332 0.117743 0.438702 1.232385 1.018222 -1.098851 0.046672 0.523054 -0.099123 -0.112907 0.242894 -0.092566 -0.009894 0.483178 -1.387869 -0.932366 -0.314563 -0.026104 -0.757117 0.604873 0.492154 0.173796 -0.689626 0.999207 1.459268 0.020640 -0.076729 0.132600 0.823970 0.695634 0.461025 0.101959 -0.570144
CATCT 0.692945 0.113904 0.622040 -1.127649 -0.569566 0.821052 0.222679 0.689325 -0.129691 0.360521 -0.717999 1.074762 -0.964828 -0.009903 -0.311968 -0.076545 0.267167 0.546693 0.573148 1.067378 0.292214 0.808712 -0.336323 0.673828 1.108694 0.262707 -0.278920 0.262354 -0.099366 0.338476 0.660423 -0.808735 -1.226660 -0.167347 0.304993 0.255382 1.355203 0.087448 0.356422 0.973839 0.402552 -1.426357 -0.824981 0.659417 0.773908 -0.995227 -0.249118 -0.099854 -0.809575 -0.633806
AATCT 1.039488 0.361254 0.056882 0.012553 -0.306442 0.248566 0.294547 1.138035 -0.506699 0.056779 -0.469056 0.614479 -0.667507 0.285214 -0.181266 -0.589586 0.632978 0.759763 0.772184 1.042633 0.886788 0.744415 -0.599385 0.284723 0.108004 0.858806 -0.438694 0.809640 -0.726178 0.910698 1.010433 -0.569425 -1.044460 0.632324 0.652149 0.395562 -0.271707 -0.436991 0.423535 1.559081 0.225966 -0.127507 -1.351896 0.660115 -0.159944 -0.708746 -0.549953 -0.259915 -0.287482 -0.562428
GCAAA 0.240221 -0.193822 -0.070963 -0.830555 -0.107158 -0.483427 0.642731 -0.540082 0.256382 -0.440711 0.648301 0.348178 -0.998442 0.308474 -0.230762 0.187443 0.727522 -0.199733 -0.568136 -0.044438 0.095430 0.607153 0.855227 0.798886 -1.175523 0.178034 -0.939256 -0.402399 -0.637229 -0.591932 0.530857 0.142561 -0.314520 -0.816703 1.188411 -0.550753 -0.551725 -1.071525 -0.048808 -0.777997 -0.332797 0.051657 -1.275464 1.444426 0.357371 -0.043677 0.505891 -0.946767 -0.068123 -0.440354
AGATT 0.001269 0.219802 -0.491476 -0.723653 0.094109 -0.425747 -0.361480 -0.864507 -0.699121 -0.499944 0.974754 0.641239 0.036953 0.191441 -0.368120 0.132603 -0.743568 -0.635374 -0.065991 1.630977 0.529164 0.623058 -0.163462 0.635853 0.326022 0.391968 1.551189 0.809730 1.399455 -0.234619 -0.677355 0.182960 0.076903 0.253516 0.507872 -0.021117 -0.234349 -0.492646 -1.565029 0.759143 -0.988737 0.594418 0.226896 0.384183 -0.611298 0.539941 0.046530 -0.679736 -0.563158 -0.551737
GTTCT -0.232626 -0.386043 0.265268 0.018034 -0.051811 0.830933 0.756025 0.266972 -0.952503 0.022118 1.148333 -0.681173 0.493854 -0.764894 -0.682765 -0.470227 -0.741237 0.454277 0.817366 -0.138788 -0.492522 0.157082 -0.918104 -0.226746 1.475031 -0.067652 0.001188 -0.281373 -0.573037 0.183323 0.145479 0.757327 -0.892058 0.120227 -0.283972 -0.097366 0.829874 -0.284646 0.445908 0.317612 -1.085893 0.339552 -0.827505 0.763550 0.414705 -0.626987 0.323461 -0.965556 -0.231265 -0.594759
AATGT 0.218220 -0.372530 -0.856479 1.069040 -0.045849 0.826400 -0.598130 -0.328969 -1.386792 -0.536230 0.583636 0.462659 0.732686 -0.816077 -0.152565 -1.692548 0.577715 -0.234577 0.710763 -0.416869 0.478501 0.673192 0.087025 -0.210690 -0.160025 -0.267807 -0.240374 0.287487 0.417857 -0.658616 0.530839 0.673603 -0.874426 0.598672 1.149498 -0.595557 -0.097388 -0.218165 -0.500909 0.637940 -0.126015 0.588087 -0.665736 0.050964 0.471862 -1.144847 0.865491 0.277647 1.458447 -0.480735
AACTA 0.437243 0.135183 0.010376 0.388788 -0.177067 -0.416029 0.426142 0.007132 -0.551519 0.507780 0.733411 0.972348 0.177187 0.812207 0.422157 0.330978 -0.163105 0.309102 0.752192 -0.754750 0.011882 0.793027 -1.465102 1.061512 -0.379275 -0.350076 0.745419 -0.204815 1.271692 0.580392 0.419162 0.013337 -0.501017 0.406566 0.047216 -0.178832 -0.431253 0.013672 -1.265863 -0.813525 0.587661 -0.401802 -1.891101 0.466990 -0.298038 -0.731846 -0.012849 -0.047425 0.756123 0.349608
CAGTT -0.981366 -0.301554 0.657304 0.336269 0.683252 0.064349 0.182870 -0.114380 -0.779422 -0.726498 0.752818 0.814119 -0.163261 0.709991 -0.955491 -0.565517 -0.433939 0.547678 -0.197732 -1.058465 0.791941 -0.735440 -0.388333 0.378555 1.091616 -0.043294 -0.022096 -0.257043 0.269796 0.443725 0.291186 0.350177 -0.400362 -0.479885 -0.452839 -0.826048 0.616873 -0.595050 0.636134 -0.300280 -1.309106 0.410649 -0.017214 -0.215495 1.441701 1.034874 0.373704 -1.560257 -0.013284 -1.522988
CAAGA 0.443792 0.151178 -0.394350 -0.825971 0.541937 0.174441 0.096078 -0.837429 0.222940 -0.363317 0.718922 0.809313 0.446157 -0.514884 0.174987 -1.037688 -0.197922 -0.433239 -0.556794 1.312328 -0.628869 0.224729 0.076959 0.810659 0.024882 0.098725 0.525708 0.918212 0.788804 0.933916 0.412143 -0.811262 -0.023254 -0.087767 1.057915 -1.103951 -1.043086 0.380723 -1.088654 0.524506 -0.827328 -0.332158 -0.672496 1.024628 0.293900 0.756280 0.352818 -0.832113 0.128952 -0.338135
ATGCT 0.454991 -0.377553 -1.305616 -0.449369 0.528713 0.498293 0.273858 -0.658640 -0.741141 0.059463 1.134910 -0.764794 -0.577713 1.257706 0.499109 0.173987 0.372522 -0.306846 -0.756305 -0.278703 1.451074 0.339167 -0.450589 -0.602109 0.399705 0.155441 0.036374 -0.008540 0.871874 -0.141249 -0.178556 -0.025108 -0.176550 1.297171 0.996027 0.565620 0.148983 0.260398 0.282278 -0.376638 0.529514 -1.806221 -0.580779 0.901284 1.010545 -0.768156 1.085306 -0.154717 0.467803 -1.182197
GTCAT 0.388129 -0.228529 -0.412996 -0.415242 -0.090968 0.092653 -0.354679 -0.667285 0.318523 -0.138269 -0.322086 1.475803 -0.059439 -0.645153 0.333399 -0.559114 -0.774680 0.530589 1.274372 0.737707 0.111580 -0.503689 0.462220 0.135243 -0.067285 -1.092521 0.115938 -1.118969 0.933357 -0.804739 -0.788105 -0.661324 -1.613229 0.003338 0.863253 -0.148432 1.605573 0.480467 0.420412 -0.093392 0.004104 -0.835323 0.014787 0.145310 -0.711444 -0.302810 0.719042 -0.249597 -0.220188 -0.955828
CTCTT 0.207521 0.191630 -0.209740 0.201853 -0.638800 0.338628 1.028711 -0.349063 -0.538279 0.113995 0.576760 -0.575344 0.178570 0.164965 -1.001798 -0.141069 0.031946 -0.102177 -0.190978 0.446752 1.074829 -0.759527 -0.457964 0.407892 0.702166 -0.209778 0.677441 -0.256921 0.014468 -0.313007 -0.044540 -0.396864 0.278114 -0.560491 -0.404424 0.724644 0.466803 0.377629 -0.440832 -0.079346 1.227480 0.791953 -1.182118 0.416082 0.356307 -0.345248 0.492891 -0.798848 -0.326268 -1.207435
TTCCT 0.108770 0.315135 0.204008 0.085759 -0.690156 -0.284584 0.783721 0.545173 -1.024409 -0.148787 1.198476 -0.976585 -0.036522 0.506767 -0.976608 -0.809815 -0.257581 0.291420 0.174347 0.636872 0.555896 0.515331 -0.945055 0.205734 0.509540 0.117161 0.357266 -0.378446 0.494894 0.116210 -0.134184 0.426968 -0.402366 0.156039 0.066087 0.913258 0.885119 0.759783 0.502993 0.058673 -0.150581 0.156226 -0.071658 1.027677 0.273827 -0.167643 0.484122 -1.031657 0.443288 -0.489368
AAACA 0.213717 -0.468950 -0.303840 -0.478180 0.459398 0.279549 0.720080 -0.342944 -0.122254 -0.179588 0.617253 1.390055 -0.129018 0.764608 -0.754761 -0.605769 0.567974 -0.007071 0.051252 0.099542 0.121484 0.587420 0.534420 0.800077 -0.470977 0.123958 -0.110223 0.025498 0.172281 -0.210940 0.560362 -0.143286 -0.590953 -0.465603 0.508248 -0.720639 0.083012 -0.222439 -0.240943 -0.409045 0.227509 -0.115462 -0.949460 0.475756 -0.182044 0.504166 -0.140148 -0.476733 0.234616 -0.075442
TAATG 0.012917 -0.251234 -0.734898 0.809268 0.682959 0.087636 -0.162388 0.182993 -1.003172 -0.263341 -0.321167 0.410969 0.542061 -0.941696 -0.036861 -0.406258 0.098327 0.798976 0.647980 -0.514151 1.296759 0.739039 0.095362 -0.255893 0.107055 -0.009134 0.190283 0.926048 0.443966 -0.521091 0.218289 0.362529 -0.625448 0.814578 1.234556 -0.057543 -0.759011 -0.376331 0.700124 -0.600911 0.562567 0.000520 -1.480466 0.202400 0.023477 -0.919780 1.325800 0.606936 1.386601 -0.681646
ACTAA -0.487429 0.061873 0.424205 -0.204702 -0.215578 -0.312582 0.384222 0.557668 -0.080790 -0.698551 -0.127573 0.695234 -0.244370 -0.625219 0.030189 -0.145140 0.345382 0.477318 0.593289 -1.056125 1.179546 1.059550 -0.911102 0.548060 -0.815562 0.467522 2.110635 0.199041 0.215856 0.503484 0.305467 -0.224065 -0.278495 -0.055492 0.585078 -0.597192 -0.321109 -0.073955 -0.628659 -0.749162 0.778441 0.841430 -0.658842 0.214945 -0.707466 0.351662 1.286669 -0.278322 1.044557 -0.455275
TAACT 0.785580 0.129710 0.867912 -0.100287 0.910335 -0.654200 0.727102 0.253957 -1.057944 0.334277 0.114985 0.515856 0.264170 0.641234 -0.413305 0.047100 -0.806888 0.789092 0.660600 -0.460292 0.844622 0.243588 -1.545914 0.619435 -0.253667 -0.781860 0.832270 -0.127068 0.968722 0.293922 0.383271 -0.723968 -0.186075 -0.480568 0.167997 0.178334 0.252039 0.073385 -0.736967 -0.751649 0.915571 0.590500 -1.722130 0.305860 -0.277049 -1.195676 -0.115637 0.211971 1.100132 0.410742
TACGT 1.346868 -0.138309 0.655195 0.440701 0.648529 0.429336 -0.011701 -0.156696 0.150251 0.963476 0.351243 0.063573 0.728318 -0.986301 0.576098 0.187987 -0.381661 -0.774314 -0.041416 -0.136599 1.586505 0.493704 -0.372673 1.555086 0.269827 -0.442644 0.839510 0.237329 -0.824212 -0.828286 0.836516 0.910901 -0.302353 0.658967 -0.324859 0.037202 1.079989 -0.122208 -0.437215 -0.467911 -0.344476 -1.108912 0.152988 0.273568 -1.292346 -0.105189 -0.315751 -1.919561 -0.120652 0.197388
TAGCA 1.570111 -0.800159 -0.726151 0.053954 -0.969348 -0.575883 0.712389 -0.770297 0.218737 0.555779 0.413829 1.359661 -1.482712 -0.661255 -1.562663 -0.093838 -0.463820 0.054604 0.522453 -1.114355 -0.056459 1.060050 0.009268 0.019519 0.924628 0.220425 -0.471500 1.090778 0.557645 -0.398954 -0.273063 -0.490249 -0.010172 -0.141127 -0.878975 -0.251184 0.281651 -0.389194 -0.252454 0.588787 -0.079809 -0.208693 -1.080999 -0.767549 0.050620 0.221913 -0.375259 -0.610362 1.038601 0.369161
CTGAA 0.052843 -0.689961 -0.788707 0.279511 1.398263 0.212094 0.405363 0.280221 0.077021 -0.943935 1.000021 -0.634661 -0.891149 0.401486 -0.509529 -1.048606 -0.051731 0.222015 0.380395 0.740738 -0.054477 0.863437 0.218382 1.276229 -1.117104 -0.014037 0.318689 -0.274348 -0.708418 1.093335 -0.445960 0.327238 -1.498936 0.074323 -1.360962 0.534805 0.156504 -0.512608 0.476410 -0.371363 0.763934 0.560446 -1.554792 -0.155768 0.312900 -0.987699 -0.388774 -0.217470 -0.062384 -0.393176
TGGAA -0.866446 -0.835136 -0.553824 1.058786 1.448031 0.372062 0.711412 1.389331 0.679336 0.105421 0.635349 0.346461 -0.916592 0.964753 -0.480862 0.270518 -1.333266 0.211022 -0.574831 0.851645 -0.136190 0.064438 -0.323135 0.764884 -0.281903 0.245686 -0.260541 0.570301 -0.469007 -1.071651 -0.310260 -0.737391 -0.956397 0.797952 0.784834 0.449585 -0.816680 -0.005706 -1.026200 0.540683 0.106921 0.172460 -0.529078 -0.011713 0.449376 -0.429255 0.875334 -0.487904 0.533439 0.062661
CTTCA 1.141648 -0.757085 0.864025 0.175592 0.110247 -0.695692 0.278341 -0.230658 -0.337880 0.695327 0.022656 -0.204767 -0.812896 1.578893 0.298813 -0.944199 0.795889 0.725306 0.339773 0.986814 0.590435 0.841908 -0.955473 1.246517 0.676546 -0.253681 0.159926 -0.529397 0.779797 0.031619 -0.273646 -1.238590 -1.358205 0.310325 0.968677 -0.238848 0.419915 0.582437 0.303127 0.338559 -0.011932 -0.274963 -0.225103 0.328647 0.542586 1.130911 0.463260 -0.840256 -0.173209 -0.347594
CTAAT 0.224545 0.410210 -0.025567 0.472273 -0.233402 -0.079078 -0.331536 -0.083333 -0.677584 0.635236 -0.007503 0.306139 0.495603 -0.135620 -0.442938 -0.071354 0.220136 1.518596 1.220873 0.107901 1.440926 0.777758 -1.200216 -0.528554 0.393384 0.132774 0.170701 0.671186 0.723788 0.430065 0.268640 0.125623 -0.324082 0.665507 0.708435 0.842979 -0.580209 -0.285858 0.158330 -1.047863 0.546666 -0.360876 -2.607877 0.617986 -0.313112 -0.558148 0.585887 -0.140589 0.175773 -0.415622
GAAGA -0.868321 -0.017355 -1.314108 0.924231 1.097147 -0.119395 0.134445 -0.294997 -0.713845 -0.787606 0.145658 0.748731 -1.165227 0.143075 0.166968 -0.039437 -0.137735 -0.398501 -0.049448 0.460409 -0.086653 1.198964 0.098233 1.132436 -0.269926 -0.795474 0.723213 0.233731 0.201088 0.832782 -0.137164 0.662764 -0.437868 -0.205569 -0.552906 -0.398459 -0.625013 -0.436786 -0.215778 0.820116 0.240721 -0.653940 -0.335366 0.155236 -0.291814 -0.430780 -0.331530 -0.115988 -0.512027 -0.517284
AGTAT -0.909937 -1.238665 -0.273091 -0.528454 -0.725338 -0.626803 -0.225730 0.759367 0.942805 -0.807842 0.876635 1.453529 0.026718 0.416318 -0.573413 0.550769 -0.906616 0.204233 0.230623 0.001482 1.130518 -0.314164 -0.205589 0.500658 0.016856 -0.000613 -0.372934 -0.101700 0.742517 0.397780 0.127209 0.310046 0.132040 1.036792 0.247555 -0.495735 0.652771 -1.005491 1.229030 0.095877 -0.234920 0.112393 0.324235 0.716901 0.311672 -0.256985 -0.608043 -1.815421 1.318130 0.102352
TGCTT 1.353077 0.239917 -0.135487 -0.596452 0.702591 0.180998 0.412913 0.323431 -0.503558 0.318968 0.659526 -1.392554 -0.861955 1.485380 -0.180482 0.186073 0.109166 -0.306079 -0.889603 0.492311 1.500408 0.898769 -0.886295 -0.022587 0.425626 -0.662337 -0.017564 -0.132677 0.327492 0.343894 -0.241780 -0.360615 -0.657974 0.862457 0.648926 -0.052475 0.591427 0.078066 0.504813 -0.047534 0.205363 -1.143885 -0.192475 0.270341 1.267354 -0.445952 0.713153 -0.488631 0.195536 -1.286151
TGACA -0.005418 -0.031289 -0.373512 -0.070544 0.978870 0.600092 1.074658 -0.406208 0.537870 -0.686653 -0.511270 0.546601 0.813382 -0.220591 0.442735 -0.829832 -0.062744 0.412626 -0.128880 0.661391 -0.355826 1.230783 0.768495 0.799527 1.219023 0.508387 -0.524415 0.499659 1.455595 0.675891 1.434289 0.544089 -0.842818 0.465189 -0.739746 -0.292956 -0.224494 -0.250696 0.734372 -0.183585 1.806974 0.140006 0.065704 -0.557471 0.976926 0.223416 0.743856 -0.554672 0.532545 -0.372809
AGTAA -0.423877 -0.577471 0.212956 -0.037836 0.343691 -0.929847 -0.691797 0.580780 -0.290826 -0.891300 -0.490960 1.430943 0.238423 -0.172928 -0.981635 0.634872 -0.594812 1.071000 0.618103 -1.131439 0.892693 -0.010144 -0.676939 0.355871 -0.595216 0.169895 0.494984 0.712657 0.265393 0.476163 0.054251 -0.615175 0.014627 0.340276 0.493900 -0.452864 -0.341654 -0.906089 0.237182 0.016772 0.237146 0.516887 -0.796069 0.525849 0.305285 0.327083 0.173546 -1.250844 0.917254 -0.555950
TCCAT 0.037253 0.872557 -0.604836 0.272448 0.322433 -0.601601 0.172609 0.224036 -0.932955 0.978437 0.148987 0.089487 -0.663233 -0.326915 -1.022112 -0.520898 -0.078204 -0.658614 1.054989 0.365241 0.927335 -0.533058 0.438651 -0.130894 -0.100912 1.711528 0.604463 -0.329780 1.146612 0.370008 0.152794 0.142315 -1.962493 -0.630659 0.048033 -0.549105 1.012045 1.475441 0.018420 -0.608075 -0.265585 -0.804389 -0.034253 0.485274 0.185914 -0.369198 -0.018491 -0.737399 0.194961 0.379519
TCTAA -0.386091 0.569513 0.106248 -0.567559 -0.271803 1.007182 0.161614 0.311153 -0.805416 0.709364 0.439899 0.465709 0.451285 -0.266824 -0.765280 0.394813 0.101293 0.920729 1.009204 0.017009 0.145227 0.469707 -1.433695 -0.115975 0.454712 0.201194 -0.077860 0.568079 0.480664 0.614024 0.667045 0.228935 -0.707056 0.343544 0.431183 0.527375 0.210276 -0.786608 0.233196 -0.485300 0.416384 -0.467705 -2.551607 1.266432 -0.857742 -0.853318 0.356206 -0.230957 -0.700369 -0.584856
CGTTT 0.293704 -0.004208 -0.082545 0.275905 0.755987 -0.694390 0.195812 0.037857 -0.185012 1.473506 0.442329 0.170537 0.665485 -0.621595 -0.171970 0.089409 0.003804 -0.315001 -0.300035 -0.084626 0.996043 0.759970 0.196002 1.092961 2.045445 -0.705537 0.474415 -0.651947 -1.004080 -0.793363 -0.036737 0.461852 -0.545663 0.663115 -0.836013 -0.029607 0.350767 0.759599 -0.142035 -0.683297 -0.266632 0.223151 -0.463833 0.939168 -0.083722 0.417268 0.076216 -0.619102 -0.830958 -0.462174
AAATG -0.350968 -0.318542 -1.408688 -0.056980 0.706471 0.211819 0.223133 -0.500437 -0.552387 -0.225103 0.454113 0.426692 -0.387829 0.647561 0.095288 -0.155004 0.611393 -0.041961 -0.165787 -0.177351 0.006783 0.529676 0.530108 0.512107 -0.344398 -0.367395 -0.638305 0.347487 -0.072965 -1.002748 0.746541 0.862872 -0.700204 0.415470 1.689384 0.206924 0.365482 0.059319 0.140381 -0.584718 0.600089 0.150261 -0.772144 0.957335 0.078825 -0.621702 0.691625 -0.259315 0.242802 -0.463752
CAATA 0.881790 0.203354 -0.587359 -0.660266 -0.325681 -0.067030 1.122147 -0.470237 0.858608 0.567343 0.947159 0.278146 0.164490 -0.162037 0.355339 -1.522879 -0.206826 0.576670 0.905010 0.373396 0.576277 -0.163403 0.863936 0.882509 0.185883 0.390705 -0.085176 0.359306 -0.142815 -0.347010 0.282956 0.107036 -0.143658 -0.345047 0.416391 -0.917284 -1.109332 0.785082 0.035607 0.661309 -0.166395 -0.829796 -0.716966 -0.432336 0.377149 0.599476 0.174921 -1.071863 1.455258 -0.807192
CTTAA 0.392774 0.817332 0.155230 -1.037837 0.214453 0.121610 0.768601 0.209693 -0.823680 0.656828 -0.082070 0.129322 -0.291554 1.306180 -0.146126 -0.233491 -0.352122 0.508773 -0.472621 -0.210773 1.054507 1.692398 -0.565646 0.001820 -1.017081 -1.553362 0.248790 0.984942 0.000132 0.428928 1.019738 -1.516703 -0.353405 -0.727678 0.114140 0.407676 1.161153 0.919249 0.067461 0.345406 0.042277 0.314794 -0.355260 0.027812 0.221258 -0.159965 0.492955 -1.098075 0.684785 -0.337893
TTGCA 1.390190 -0.420069 0.244079 -0.855276 -0.495563 -0.400673 0.289689 -0.756937 -0.482226 -0.134737 0.315204 0.920132 -1.020844 -0.131379 -0.309854 -0.139057 -0.426319 -0.595554 -0.210319 0.489423 0.528553 0.652180 0.004739 0.520676 0.676930 0.503722 -1.140504 -0.442844 0.059186 0.296271 0.031723 0.032613 0.220590 -0.657000 0.803299 0.333878 -0.346280 -1.007893 0.200540 -1.156454 -0.806776 0.377099 -0.542416 -0.157319 1.085249 -1.033510 1.624672 -1.325696 0.242995 -0.953803
TAAGT -0.586551 0.655270 0.023206 0.010335 1.071473 0.625723 0.645542 0.909451 -0.204661 0.295038 -0.804242 0.249676 0.291939 -0.820270 -0.673377 -0.042559 -0.331769 0.142028 0.935837 -0.877645 0.381138 0.405078 -0.804340 0.599849 -0.928698 -1.103359 0.566312 1.033055 1.046628 0.590576 -0.374147 -0.426833 0.068588 -0.139713 0.302050 -0.697453 0.141409 -0.525539 0.242861 -0.770424 -0.664171 -0.011466 -0.441167 1.488995 -0.460037 -0.089775 0.805525 -1.396483 0.464760 -0.914127
CATTC -0.072958 -0.704384 -0.080041 0.019740 -0.519602 -0.458841 1.293120 0.613779 -0.853499 0.318810 0.764030 0.655427 0.278432 -0.098250 -1.204387 -0.145207 0.678834 0.221159 1.186505 1.288695 -0.584186 1.057675 -0.542931 0.871949 0.669274 1.918039 0.437987 -0.659905 0.918866 -0.779283 0.302113 -0.047216 -0.646112 -0.504291 -0.278774 0.382787 0.845644 0.190719 -0.318350 0.177154 -0.212420 -0.806774 0.223772 0.603721 0.727396 0.227177 0.551664 -0.694077 -0.203808 0.388954
GTAAT 0.693348 -0.548897 0.273502 0.571152 0.997500 0.254996 0.310696 -0.148717 -0.698518 0.257778 -0.967287 0.414909 0.397820 -0.688708 -0.781046 -0.867891 0.332165 -0.056427 1.140956 0.359642 1.842115 0.462818 0.278284 0.118639 -0.233663 -0.430493 -0.036279 1.004765 0.422215 -0.345365 -0.055313 -0.107980 0.323914 0.830879 1.021642 -0.208139 -0.588183 -0.448798 0.695856 -1.034912 -0.095127 0.411563 -0.904604 0.829986 -1.038636 -0.615344 0.145378 0.281663 0.550325 0.283451
AGCAT 0.400734 -1.077420 -0.486688 -0.058207 -0.257123 -0.302281 0.061625 -0.860328 -0.020757 1.065012 0.151168 1.552001 -1.784317 -0.448208 -1.815603 0.165274 -0.067824 0.691140 0.349158 -0.529053 0.045163 0.865344 0.634109 0.535903 0.870806 0.891745 -0.108236 0.674287 1.315164 -1.076945 -0.201968 -0.344096 -0.223810 -1.060467 0.027810 0.047129 1.028940 -0.466689 0.116530 0.785552 -0.191723 -0.655387 -1.053664 -0.612216 0.633821 -0.353166 -0.146200 -0.234750 -0.137229 0.306557
GAATA -0.479574 -0.656308 -0.764547 0.618407 0.447266 -0.378230 0.398226 -0.167726 -0.231994 0.695507 1.027754 0.428844 -1.084264 0.485161 0.454571 -0.993266 -0.800249 -0.012694 1.297338 0.349440 1.015827 0.172675 0.595548 1.258498 -0.505929 0.061077 0.267938 0.620974 -1.047502 -0.153112 -0.543170 1.123009 -0.351910 -0.037390 -0.500806 0.104037 -0.865268 -0.217925 -0.412929 0.812681 0.531887 -0.740669 -0.263756 -0.800850 0.225132 -0.451055 -0.209286 -0.733252 0.705953 -0.927218
ACGTT 0.470912 -0.540864 0.338610 0.565536 0.945497 -0.076291 0.029201 -0.374259 -0.635807 1.164100 0.779637 0.413863 0.770998 -0.863099 0.114846 -0.252497 -0.691015 -0.353712 -0.559216 -0.355335 0.543559 0.927054 -0.524156 1.015514 1.740862 -0.850516 0.399366 -0.424524 -1.494575 -0.181313 0.863912 0.723054 -0.799131 0.145437 -0.584037 -0.160041 0.665593 0.296219 -0.148259 -0.734444 0.068191 -0.302680 -0.128506 0.581316 -0.506646 0.375157 0.314215 -1.672370 -0.241798 0.379470
GGAAA -0.574972 -0.814556 -0.435119 0.647123 0.926231 0.529096 0.543041 0.805410 0.296549 0.244848 0.161922 0.201540 -0.563747 0.888911 -0.551533 0.291507 -0.882747 0.107491 -0.512191 0.021616 -0.516834 0.591771 0.205862 0.089890 -0.642599 0.092034 -0.033958 0.078330 -0.604637 -0.598636 0.063747 -0.563313 -0.834037 0.375396 0.655659 -0.314662 -0.772709 -0.242403 -1.200488 0.238550 -0.077875 0.288777 -0.591260 0.541493 -0.237309 -0.181364 0.622765 -0.334188 -0.214685 0.009485
ACTTA 0.066690 0.218089 0.414175 -0.862955 -0.196044 -0.864758 1.048400 0.092653 -0.092249 0.290090 0.786709 0.737155 -0.715575 1.404591 0.594743 -0.136234 -0.117585 -0.527410 -0.639528 -0.167923 1.430704 1.251804 -0.762077 0.186861 -0.000567 -1.721895 0.538852 0.604792 -0.014485 0.507693 1.363960 -1.554180 -0.677783 -0.595469 0.031967 -0.648502 1.186829 0.245041 -0.646278 -0.150050 0.768717 0.777345 -0.029848 -0.656754 -0.031857 -0.119793 -0.026634 -0.389412 1.013697 -0.013547
TTGCT 0.823105 -0.094056 -0.535518 0.137988 -0.153326 0.948671 -0.043963 -1.381074 0.110914 0.455889 0.628925 -0.088889 -0.066954 0.838213 0.037267 0.270645 -0.526782 -0.133420 -0.592321 0.674757 1.372050 0.091025 -0.203192 0.177050 0.283769 0.048306 -0.279190 -0.686306 0.748385 0.830332 -0.459713 -0.446449 -0.194679 0.285557 -0.245475 1.208840 -0.141572 0.389629 -0.118114 -0.533122 -0.044125 0.835341 -0.657971 0.483780 1.294774 -0.830217 1.139094 -1.308177 -0.295906 -0.361588
CTGTT 0.270710 -0.653953 0.178717 0.263507 0.713864 0.362728 0.154724 -0.661253 0.283868 -0.397241 1.311891 -1.320546 -0.520204 -0.073995 -0.301122 -1.466836 -0.385161 0.297525 0.878958 -0.018422 -0.022935 0.762154 -0.259812 -0.208568 0.510677 -0.785067 -0.323369 -0.343566 0.048368 0.977723 -0.343028 0.297540 -0.490948 -0.082313 0.261330 0.268770 1.079465 0.488041 -0.951869 -0.680050 -0.450120 1.353638 -0.299511 0.541875 1.454552 -0.778637 0.301467 -0.808368 0.613254 0.608514
GATGA -0.457169 0.468996 -1.715603 0.180834 0.821598 -0.767486 -0.083793 -1.199792 -1.249060 -1.572435 -0.394039 -0.076870 -0.985987 0.119521 1.028416 0.216626 -0.531906 -0.180454 0.112195 -0.201230 -0.443828 1.077119 0.062284 1.005797 0.318341 0.063691 0.023528 1.203195 0.902656 -0.141346 0.125998 0.631380 -0.462317 0.386032 0.196685 0.583250 -0.370522 0.635247 0.222320 0.425223 0.914288 0.174246 0.197998 0.555580 -0.539229 -0.015809 0.171634 -0.537624 0.271778 -0.835696
AAAAC -0.079780 -0.658560 0.516088 -0.379057 0.163805 0.271680 0.309044 -0.412073 0.020921 -0.347538 0.507676 0.806244 -0.180362 0.730272 -0.467586 -0.108686 1.015809 -0.191803 0.082234 0.165488 0.369620 0.786326 0.431966 0.890746 -0.692950 -0.388093 0.504578 -0.116826 -0.594198 -0.099247 0.589566 0.356079 -0.835826 -0.226994 0.805594 -0.088740 0.067377 -0.305683 -0.379871 -1.089488 1.093474 0.041655 -0.910270 0.368166 -0.414023 0.220923 0.186042 -0.655197 -0.349697 -0.114250
ACCTT -0.616000 0.269045 0.295690 -0.009640 -1.007856 0.608420 -0.011351 0.080397 -0.082422 -0.467060 0.221742 0.000338 -0.008589 0.469375 -1.223718 -0.026377 0.294958 -0.353581 0.593139 0.768904 0.194237 1.078060 0.067392 0.705718 0.625859 -1.869538 -0.125972 0.734364 -0.781194 0.168257 0.539499 -1.019574 -0.220774 -0.625090 -0.305248 0.832510 -0.013517 0.616869 -0.356888 -0.903497 -0.263894 0.056002 -0.616802 -1.832819 0.013304 -0.217649 0.777515 -1.286036 0.146181 -0.596795
GATAT -1.274782 0.301847 -0.659849 -0.715716 1.156657 -0.199997 0.541299 -0.603630 -0.169258 0.202922 0.330175 -0.689713 -0.485634 0.838305 0.535565 -0.431660 -1.456414 0.200604 0.877533 0.370970 1.280611 0.562165 0.105992 0.495982 0.751293 0.286106 -0.390646 0.866925 0.297580 -1.023095 -0.063799 0.859358 -0.349854 -0.523612 -0.632519 -0.426039 -0.843596 0.618875 0.395052 -0.097259 -0.401793 -0.203054 -0.468106 -0.650601 -0.919961 -0.346846 0.190346 -0.414281 0.892897 -1.056935
ACTTC 0.546524 0.008158 1.027402 0.196141 0.317681 -1.351157 0.841779 -0.140779 -0.251471 0.282025 0.689528 -0.341240 -0.836895 1.460268 -0.030340 -0.360605 0.721084 0.083277 0.074646 0.642756 0.760742 0.885521 -1.209302 0.685036 0.493087 -0.826805 0.592616 -0.841849 0.708500 0.360020 0.567449 -1.430171 -1.238140 -0.283685 0.846738 -0.659985 0.198715 0.391260 -0.077185 -0.195047 1.058351 0.547838 0.115633 -0.016339 0.199592 0.689710 0.300896 0.174414 0.201945 0.050363
TCTCT 0.620890 0.472165 0.250853 -0.729148 -0.780129 0.381019 0.417290 0.608476 -0.243746 0.085066 0.723006 -0.350153 -0.361453 0.112434 -0.441220 -0.232914 -0.085385 0.290738 0.965379 0.673570 0.208289 0.235354 -1.112908 0.100246 0.516643 0.015654 0.017737 -0.122339 0.107294 0.723491 0.483729 -0.197996 -0.896974 0.305529 -0.158629 0.754187 0.806003 0.223788 0.665876 0.670212 -0.174169 0.178394 -0.750061 0.475526 -0.187709 -1.039466 0.101524 -0.578781 -0.340944 -0.913241
TCCTT -0.083439 1.093350 0.369748 0.056591 0.174220 -0.356485 -0.044563 -0.134398 -0.334889 0.411803 -0.051561 0.217930 -0.386298 -0.032208 -0.633695 -0.968705 -0.479475 -0.381357 0.231433 1.143191 0.935689 0.079232 -0.004974 -0.567482 0.313183 0.004740 -0.679563 -0.782484 0.664224 0.191571 -0.411895 0.609123 -0.828536 -0.021327 -0.243373 0.010418 0.579611 0.619644 -0.408665 -0.849454 -0.090544 -0.303478 -1.529754 0.208789 0.309036 -0.139228 -0.943833 -1.108572 0.062734 -0.480816
TCACT -0.134327 -0.732380 0.992729 -0.171755 -0.618626 -0.079939 0.105673 0.107049 0.448660 -1.058704 0.921923 0.519945 -1.049913 0.094247 0.408284 -0.942964 0.238699 -0.451238 1.201081 0.672140 1.054099 0.948034 -1.528119 0.045842 0.776815 0.032938 0.343729 -0.404240 -0.329680 -0.103941 -0.632294 -1.273994 -1.380494 0.218793 0.072739 -0.662528 0.707854 0.561157 -0.037147 -0.785993 0.310436 1.318597 -0.706360 0.177067 -0.694038 0.892188 0.844580 0.619210 0.125852 -0.530134
TTAGT 0.053451 -0.116850 -0.162825 -0.100447 -0.268963 -0.734351 -0.242556 0.623127 0.109882 -0.178579 0.171700 0.405759 -0.168051 0.117042 -0.749127 0.475327 -0.980547 0.027086 0.051894 -0.585136 1.050154 0.631746 -0.271263 -0.502117 0.052380 -1.305181 0.270905 0.233733 0.443176 0.098164 -0.285330 -0.072497 -0.904107 0.394238 -0.516394 -0.761574 1.475650 -0.893019 0.010710 0.360643 -0.616098 -0.010196 0.486494 0.090288 0.847363 0.012317 -0.242562 -1.877576 0.700539 -0.989554
TTTTTTTT 0.099230 0.224091 0.146644 0.122792 -0.383603 -0.905749 0.072735 1.089279 0.088693 -0.115984 0.695695 0.248069 0.013647 0.093024 -0.848632 -0.786145 -0.322286 -0.250497 0.000584 0.913387 1.351306 1.260587 0.724074 0.013260 1.211321 -0.617088 0.182462 0.326431 0.542356 -0.187709 -0.055578 0.056584 0.082363 0.291674 -0.877823 0.223925 0.382947 0.429116 -0.557564 -0.544113 -0.054227 0.871282 -0.833308 1.205236 0.824176 -0.301158 0.020044 -0.469252 -0.797973 -1.546337
CAAAA 0.240888 0.137905 -0.662560 -0.399337 0.566444 0.897205 0.908988 -0.074985 0.290330 -0.625506 -0.056991 1.560485 0.283862 0.573307 -0.398931 -0.367576 0.309746 0.241827 -0.127820 -0.586180 -0.217634 1.479807 0.502668 0.705309 0.119704 -0.011091 -0.145295 -0.115245 0.424503 0.250220 0.889842 -0.413919 -0.434204 0.006068 0.177093 -1.128359 -0.588523 0.032511 -0.740178 0.266311 -0.145668 -0.397196 -1.147750 -0.082251 0.136001 0.240192 -0.591833 -0.522311 0.935047 0.155992
GTTCA -0.054848 -1.953993 0.459583 0.777663 0.306201 -0.111631 0.433902 -0.443505 -0.919147 0.021276 0.415018 -0.324301 0.148247 0.187717 -0.102213 -1.329886 -0.000040 0.522027 1.239665 0.042467 -0.453375 0.610335 -0.778679 0.732254 1.566588 -0.201180 -0.202537 -0.580033 -0.309012 -0.043874 -0.815813 -0.177926 -1.116097 -0.179643 0.650938 -0.699524 0.750735 0.223862 0.012352 -0.075126 -0.888216 0.125634 0.020063 1.021538 0.561808 1.068822 0.511935 -1.462940 0.245236 -0.231788
CTCAT 0.219995 -0.642200 -0.617582 -0.954708 -1.037521 0.671953 0.189138 -0.317530 -0.129497 -0.371570 -0.223563 0.627282 -0.175551 -0.201057 -0.329386 -0.274347 -0.484728 0.200316 0.413780 0.939876 0.684511 -1.083939 -0.070034 0.373253 0.700324 -0.150200 1.021287 -0.680065 0.150756 -0.501240 -0.365472 -1.180348 -0.501202 -0.851516 0.186070 0.261741 1.349250 1.519709 0.347381 0.207903 1.258916 -0.597389 -0.678134 0.959978 -0.408137 -0.991964 0.556741 -0.631012 -0.269714 -1.282667
AGTTA -1.400292 -0.364213 -0.255052 0.131318 0.925894 0.354101 0.414937 -0.071198 -0.595299 -0.249790 0.729890 0.798613 0.063435 0.325320 -0.157124 -0.159502 -0.911551 0.028931 -0.265490 -1.795636 0.552881 0.441579 -0.687784 -0.199443 0.457844 -0.782552 0.541467 0.464588 -0.050788 0.590099 0.591044 0.046288 -0.338153 -0.285043 0.272721 -1.221397 1.314377 -0.331760 -0.156037 0.140886 -1.381509 0.513052 -0.030314 0.112614 0.930628 0.038449 -0.206472 -2.130762 0.382328 -0.889568
TAGTA 0.448753 -0.561370 0.262625 0.086603 -1.033401 -0.665890 -0.099151 0.453152 0.722850 -0.569016 -0.205152 1.109643 0.014036 -0.453917 -0.921674 0.622556 -1.190321 0.774311 1.228157 -0.646569 0.956217 -0.017946 0.027000 0.556921 -0.451957 -0.199055 0.337644 1.007037 0.359400 0.305267 -0.410040 0.363248 0.239694 1.214232 0.289616 -0.112185 -0.106739 -0.734169 -0.053309 0.063558 0.512396 0.153024 -0.273220 0.747501 0.633876 0.017949 -0.477144 -1.709526 1.496598 0.299576
AATTC -0.159214 -0.128297 -0.718457 0.569510 -0.752445 0.270003 1.198399 0.855935 -1.232499 -0.537212 1.180148 0.851540 0.504961 0.003564 -0.592541 -1.088197 0.406699 0.213946 0.547194 1.256222 -0.445796 1.108644 -0.411703 0.818341 0.445816 1.097713 0.155736 -0.678912 0.017330 -0.111576 0.094929 -0.078398 -0.555503 0.259429 -0.150358 0.576975 -0.614324 -0.190322 -0.034242 1.401633 -0.285493 -0.154380 -0.014645 1.049272 -0.124665 0.525605 0.245904 -0.813703 0.532840 -0.053729
CATGA -0.616562 -0.652196 -1.647607 0.719658 0.303346 -0.772180 0.214336 -0.270579 -1.023889 -0.621267 -0.813968 0.831633 -1.082087 -0.022978 0.896072 -0.214401 0.293676 0.243917 0.830148 -0.764232 -0.405239 0.623049 0.483758 1.094101 0.944747 0.706680 -0.115335 0.565136 0.769310 -0.316100 0.606627 -0.362181 -0.763730 -0.271675 0.475940 0.350945 1.265330 1.343488 0.772899 -0.253659 1.325810 -0.873326 0.010800 0.452781 0.572073 -0.670746 0.465392 -0.501676 0.065009 -0.751632
TTTGA -0.541751 0.138246 -0.672153 0.257169 0.905766 -0.699419 0.107070 0.159386 -0.212033 -0.212503 0.131167 0.018065 -0.007191 0.093029 -0.063823 -0.410142 -0.420577 -0.258418 0.159781 0.463985 0.672735 1.216848 0.947782 0.972904 0.823244 0.088021 0.232453 0.528164 0.539750 -0.054820 -0.090137 0.222882 -1.065268 -0.116693 -0.896192 -0.242899 0.006790 -0.025752 0.496504 -0.478637 0.798513 1.047432 -0.886427 -0.039979 0.070268 -0.167995 -0.202661 -0.624181 -0.260046 -1.153062
TCACA -0.538123 -0.911905 0.806984 -0.549971 -0.049371 0.497458 0.045784 -0.384899 -0.240104 -0.720919 0.206177 1.828281 -0.081206 0.353330 0.198860 -0.896041 0.531494 -0.736311 0.876152 0.451352 0.288324 0.710743 -0.575703 0.485498 0.493194 0.801573 -0.728847 0.539745 -0.626186 -0.642256 -0.395240 -0.565039 -1.474346 0.532427 -0.498309 0.012916 1.040397 0.809316 -0.275992 -0.941107 0.072205 0.230499 -0.771082 0.288549 -0.187541 1.789192 0.307140 0.092023 -0.235130 -0.548086
AAGCA 0.088958 -0.330240 -0.465002 -0.444387 -0.149783 -0.136075 1.040189 -0.269302 -0.342260 -0.143550 -0.040995 0.994553 -1.341238 -0.680838 -0.911207 -0.434832 0.693270 -0.424352 0.196447 -0.556274 -0.548989 1.077050 0.108137 1.176700 -0.642897 0.671022 -0.527079 0.854630 0.168699 0.148633 0.477603 -0.835568 0.486355 -1.363824 -0.307448 -0.654969 -0.509324 -0.515630 -0.208290 -0.358119 -0.750522 -0.164974 -0.839301 1.012767 0.163781 0.156320 1.170140 -0.797286 -0.364017 -0.250892
AGCAA 1.127838 -0.376439 -0.981967 0.337197 0.228848 0.518861 0.984595 -0.874890 0.309723 -0.010175 0.543699 1.487290 -0.363320 -0.027492 -1.172207 -0.427850 0.031404 0.378073 -0.358103 -0.559081 -0.605656 0.917350 -0.128437 0.537796 0.584951 0.172760 -0.411060 0.573760 0.727679 0.034031 0.357325 -0.690384 -0.163892 -0.384275 0.043348 -1.000675 -0.686344 -0.103238 0.000478 1.165348 -0.392112 -0.048030 -1.556367 -0.747362 -0.100278 0.696041 -0.502812 -0.421583 0.932758 0.214465
CAATG 0.612935 0.275015 -1.410470 0.943952 0.086158 0.490667 0.448264 0.036483 -0.220869 -0.678293 0.755395 0.356356 0.597161 -0.692744 0.471342 -1.222098 0.442455 0.246945 -0.445031 0.174057 0.437600 0.580676 0.316134 0.163361 0.462432 0.253071 -0.671964 0.078214 0.145976 -0.669376 0.391488 -0.239254 -0.768186 0.107834 1.207711 -0.625378 -1.223653 0.439354 0.760085 0.427128 0.049660 -0.311534 -1.162206 -0.079463 0.768324 -0.141097 0.820844 0.374620 1.792875 -0.707404
GTGAA 0.218806 -0.781158 -1.084896 0.820443 0.874380 0.566749 -0.623899 0.390390 -0.216813 0.385742 0.093738 -0.000348 0.332540 0.611146 -0.025466 -0.190492 0.323925 -1.199919 0.191383 0.354810 0.274354 0.738776 0.380144 1.442964 -1.025025 -0.439696 -0.087359 0.020685 -0.197153 0.157852 -0.841441 0.283665 -1.887126 -0.262649 -1.075236 -0.969467 -0.256445 -1.371243 0.089711 0.114035 0.941594 0.226497 -0.457331 -0.304979 0.253263 -0.562437 -0.436247 -0.393003 0.455822 -0.950339
CATGT 0.309719 -0.805263 -0.535118 0.612784 -0.188454 0.850773 -0.627088 -0.566742 -0.758051 -0.003523 -0.199048 0.490503 -0.302344 -0.780091 -0.157654 -1.397904 0.875519 -0.391086 1.140475 -0.789725 -0.095817 0.471408 0.524148 0.008071 0.535484 0.057605 -0.422843 0.395467 0.941606 -1.058544 0.621341 0.048768 -0.881369 -0.515999 1.152115 -0.315785 1.874903 1.072297 -0.403017 0.002873 0.235853 -0.158901 0.405627 0.493106 1.415459 -1.213069 0.954735 0.117722 0.342402 -0.254136
TGAAG -0.421480 -0.080091 -1.463814 1.203851 0.906279 0.593178 0.357344 0.310922 -0.025394 -0.472421 0.111917 0.063160 -1.223590 -0.230007 -0.264100 -0.457873 -0.559556 -0.794946 0.199208 0.399159 -0.002871 1.290167 0.641914 1.350508 -0.811816 -0.861740 0.541067 0.071976 0.197648 1.201176 -0.804638 0.523963 -1.097695 -0.306341 -1.459493 -0.732463 -0.506177 -0.434576 0.728112 -0.330359 -0.068375 0.169401 -0.326090 0.083039 0.026813 -0.834613 0.510621 -0.301163 -0.577099 -0.880113
GTCAA 1.315906 0.034826 -0.838515 0.662276 0.305815 -0.119019 0.588260 -0.694487 0.720514 -0.091622 0.499711 0.806349 0.584567 -0.295905 0.416023 -1.036723 0.046347 0.288887 0.742409 0.797482 -0.752785 -0.528414 -0.085514 0.613827 -0.541274 -1.465832 -0.408217 -1.039104 0.510237 -0.729683 -0.215749 -0.550118 -1.218961 0.234167 1.423335 -0.967422 0.211618 0.150211 0.089815 0.517592 -0.169101 -0.034748 -0.777440 0.256256 -1.022375 0.832401 0.331258 -0.905749 0.003856 -1.119456
ATTAC 0.189863 -0.213561 0.007232 -0.332649 -0.163746 -0.510360 0.781509 -0.435768 0.316883 -1.671092 0.286833 0.602974 0.578326 0.260696 0.006995 0.876110 0.084315 -0.062469 -0.162380 0.478702 1.275767 1.399397 0.194107 0.423332 0.021233 0.263563 1.503662 -0.841007 0.816915 -0.844465 0.663427 -0.256630 -0.525063 -0.102511 -0.328852 0.179473 1.485984 0.338407 -1.606395 -0.099991 -0.653313 -0.489481 0.063850 -0.957847 -0.036594 -0.657071 -0.466414 -1.087991 0.373093 0.000642
TCAAG 0.660420 -0.335576 -0.933509 0.051020 0.077752 0.191708 0.804130 -0.353496 0.348547 -0.090852 -0.125958 0.077582 0.554288 -0.499599 0.061929 -1.123987 0.296726 -0.246284 0.463518 1.405216 -0.819971 -0.078465 -0.630900 1.062379 0.037985 -0.649582 0.331484 0.291942 0.658566 0.491001 -0.416961 -1.118290 0.063622 -0.115847 0.592489 -1.525049 -0.203786 0.990217 -0.413033 0.240819 -0.855565 -0.019369 -0.850228 1.654626 -0.509458 1.044904 0.610703 -1.401949 -0.782676 -1.221799
CAGAA -0.079086 -0.364134 -0.766866 1.352822 0.393248 -0.537852 0.221311 -0.225600 -1.936895 -0.638490 0.458407 1.421095 -1.406955 0.673516 0.171235 -1.085571 0.304125 -0.181098 -0.088010 0.289939 0.036941 -0.592888 -0.337466 1.184005 -0.380637 -0.183886 0.312329 0.043741 -0.291312 0.765168 0.050831 -0.342969 -0.087018 -0.635520 -0.311706 -0.035460 -0.350400 -0.976201 -0.356638 0.464540 -0.905640 -0.964324 -0.439092 -0.195302 0.017177 0.184504 -0.054748 -0.140866 -0.088635 -0.533794
TTCAC -0.302590 -1.193232 1.231718 0.280466 -0.519393 -0.121930 0.123099 0.067547 -0.380473 -0.367628 0.443251 -0.061639 -0.366268 0.491566 0.290096 -1.233357 1.041906 -0.383244 1.054770 0.856329 0.361087 1.493315 -1.212424 0.748956 1.148993 0.447222 -0.216165 0.092538 -0.419278 -0.618456 -0.653989 -0.682179 -1.219167 0.204332 -0.177243 0.309041 0.869042 0.609454 -0.081861 -0.799545 -0.287019 0.597933 -0.139062 0.188614 -0.447900 1.653473 0.757611 -0.654206 0.042695 0.154994
CCATA -0.036575 0.112523 -0.154262 -0.419941 0.390105 -1.181779 -0.132760 -0.455752 -0.296632 1.213089 0.562623 -0.261757 -0.404635 -0.412067 -1.026685 -0.245059 0.376087 0.447387 1.896103 0.041295 0.950717 -0.692774 0.809546 0.442573 -0.478602 0.935908 1.464863 0.705134 0.252594 0.439580 0.419536 -0.021006 -1.329424 -0.955214 0.393286 -0.576362 0.286014 1.050741 0.357328 -0.780519 -0.082894 -1.088334 -0.122322 -0.596321 0.118980 0.019620 0.526533 -0.580243 0.240417 0.353182
TATTC -0.436127 -0.212628 -0.265539 0.265283 -0.457298 0.036004 0.484461 0.636261 -0.299565 1.194839 1.059794 -0.356825 0.021253 0.977624 -0.083161 -1.284030 0.708078 0.415941 1.115920 0.005554 1.130048 0.499088 -0.914520 0.491975 0.966887 0.228348 -0.362397 0.110476 0.489783 -0.056236 -0.254124 0.076523 0.139267 -0.045252 0.431641 0.398898 0.767822 0.065151 -0.137827 -0.371324 -0.187704 0.580242 -0.249701 1.048992 -0.200450 0.578536 -0.408067 -0.979034 0.750019 0.448038
TATGC 0.241214 -0.649050 -1.299209 -0.921155 0.091950 -0.656646 0.502130 -0.236277 0.140624 0.684246 1.390731 0.433042 -0.688684 0.630793 0.673904 0.193743 0.391148 -0.618628 -0.007341 -0.554528 1.772392 -0.194397 -0.701496 0.182460 0.122224 0.416204 -0.605846 0.086454 -0.099836 -0.478027 0.547878 0.550458 0.899884 0.797854 0.797588 -0.117602 0.046799 -0.194902 0.886335 -1.047963 -0.426472 -1.344486 0.013509 0.282128 0.329270 -1.071033 0.942321 0.095444 0.679503 -1.337754
ATCGT 0.192096 -0.125275 0.574608 -0.082030 0.397301 0.771145 0.635273 -0.768211 -0.083211 0.165551 -0.185725 0.015799 -0.046207 -0.544110 0.314352 0.547203 -0.583642 -0.775755 1.750008 0.440156 2.104980 -0.140103 0.661794 0.379736 0.883992 0.398949 -1.488735 -0.549689 -0.356288 0.677375 0.275147 -1.102740 -1.324820 0.022792 0.985243 -0.254784 0.297558 -0.358833 -0.637378 0.679465 0.166063 -0.112474 0.449455 0.849661 -0.532502 -0.661501 -0.773447 -0.680622 0.623617 0.294271
TTTAC 0.239054 0.517665 0.912474 0.604525 0.069026 -0.044219 0.625756 0.384873 0.523042 -0.072183 0.306409 0.294104 0.117680 0.001399 -0.235132 -0.550044 0.183046 0.046036 0.180891 -0.102191 1.457101 0.861376 0.401236 0.892033 0.521968 0.041532 1.330976 0.207126 0.461523 -0.905370 0.536444 0.384659 0.077287 0.109758 -0.270326 -0.063964 0.433557 0.728509 -0.760380 -0.573049 -0.349382 0.138940 -0.736919 -0.641754 0.322724 0.189142 -0.181563 -1.101161 -0.498674 -0.966742
CATAA 0.289279 -0.511612 0.155288 -0.292181 0.560569 -0.846543 -0.118389 -0.227645 -0.769053 0.820963 -0.794691 0.811301 0.054219 -0.802029 -0.652133 -0.494008 -0.096612 1.267398 1.736876 -0.026675 0.973959 0.194112 0.017160 0.209565 -0.166433 0.303220 0.985389 0.790187 0.817182 -0.108688 0.083657 -1.158459 -0.442020 -1.147320 0.652173 -0.449963 -0.057276 0.315758 0.290944 -0.759818 0.047931 -0.928822 -1.235263 0.271179 -0.033921 -0.451227 0.908632 -0.231914 0.228887 -0.136344
TCCAA 0.352032 1.446097 -0.812922 0.142761 0.370868 0.375690 0.613552 0.096805 -0.824364 0.436285 0.953008 0.462954 0.066134 -0.407281 -1.082602 -1.559826 -0.204281 -1.027395 -0.276271 0.848059 0.429055 -0.478979 0.205899 -0.119863 -0.875377 0.794378 0.171828 -0.256132 0.109730 1.222519 0.130891 0.085064 -1.432680 -0.422143 0.130459 -0.789692 -0.407805 1.459934 0.002017 -0.252787 -0.251704 -0.569722 -0.290196 0.869398 0.079377 0.777361 0.026559 -0.720066 0.998223 0.372942
TTCAG -0.315348 -1.328573 0.195888 0.505202 -0.152389 -0.276474 -0.049884 -0.460128 -1.524763 -0.063714 0.166680 0.088245 -0.369665 1.772214 -0.131476 -1.300429 0.296787 1.023956 0.319918 1.004719 0.624869 -0.561925 -0.643637 1.158518 1.094509 -0.472282 0.030218 -0.440858 1.015711 -0.018671 -1.026911 -0.269872 -0.177868 0.119186 -0.192666 -0.157806 0.648592 -0.667085 0.370348 0.532567 -1.112706 0.131109 0.145175 0.158117 0.190728 1.387727 0.144089 -0.805296 0.307916 -0.209827
ACACA 0.542585 -0.444272 0.706490 -0.368876 0.369789 0.671439 1.087839 -0.090975 0.068869 -0.119379 0.238831 1.629036 0.608677 0.163984 0.096460 -1.232789 0.422458 -0.217177 0.688862 0.160424 0.390175 0.589886 0.010879 0.830458 0.194149 0.891213 0.171387 1.036850 0.160641 0.049064 1.169747 -0.268377 0.268530 -0.007216 -0.469046 -0.540768 -0.134486 0.139489 -0.357935 -0.287398 0.727344 -0.977910 0.291463 -0.608900 0.621621 0.710008 0.159185 -0.186064 0.173791 -0.372295
CATAC 0.477913 -0.928171 1.065823 -0.889846 -0.414459 -0.401624 0.178168 -0.381973 0.001921 0.392846 0.403562 0.366584 -0.800188 -0.167242 -0.587903 -0.916841 0.125188 0.458474 1.310046 0.203219 0.855566 0.004995 0.714543 1.489602 -0.379378 0.827102 1.499588 0.313217 -0.255537 -0.596843 0.479968 0.244357 -0.307565 -0.688554 0.397156 -0.379101 0.489613 1.264586 0.269831 -0.301811 0.222524 -1.535295 0.026533 -0.678884 0.174614 -0.377217 0.549273 -1.200166 -0.178702 -0.437883
