TTTTTT 0.159440 -0.282180 0.621943 0.683819 0.637752 -0.191082 0.455236 0.545779 -0.741854 0.963384 0.400934 0.846561 -0.016848 -1.077973 1.005161 -0.961396 -1.021030 0.690923 0.413405 -0.168481 -0.814153 1.131485 -1.488293 -0.418414 0.343471 0.120227 0.573407 -0.352939 1.265587 -0.625373 -0.470174 -0.807679 0.258734 0.301343 0.253311 0.529155 -1.212575 0.353372 0.288600 0.444208 -0.037752 -0.019300 -0.321781 -1.386503 -0.070392 0.175899 -0.358398 0.969774 -0.554840 0.431387
AAAAAA 0.999722 0.361858 -0.161281 -0.456578 0.098154 -0.173279 0.656394 0.664412 -1.186514 -0.926579 0.190638 0.586420 1.117994 0.618692 1.002595 -0.441496 -1.211304 -0.336530 -0.155757 0.095353 -1.077683 0.046785 -0.820870 0.241480 0.388249 -0.311886 -0.300093 0.285052 0.226268 0.203999 0.373266 -0.943208 1.220005 -0.908397 0.213560 0.956034 -0.951634 -0.050877 0.278416 0.322764 0.741011 -0.590296 0.400223 0.879137 -0.779005 0.136311 0.077408 -0.001085 -0.779000 1.092811
TTGT 0.294019 -0.700316 -0.695585 0.021577 0.154812 -0.339923 0.453189 0.274142 -0.771507 0.510013 0.772736 0.349377 -0.012346 -0.936634 -0.263845 -0.398250 0.046756 0.419248 -0.693806 -0.205978 -0.507664 0.426373 -1.204262 -0.218676 0.372139 0.086027 0.297611 -0.168896 0.350752 -0.329428 -0.555601 -1.299494 0.113676 -0.412588 0.303792 0.686980 -1.228204 0.227240 0.222217 0.908649 0.226480 -0.033765 -0.008354 -0.241798 -0.104919 0.364199 -0.175296 0.571467 -0.819352 0.417439
ATATA -1.017357 -0.342850 0.041273 -0.909115 -0.451074 -0.251574 1.301800 -0.337215 -0.550512 0.394853 1.651588 -0.095245 0.737024 0.099732 0.608598 -0.486170 -1.207904 -0.046745 -0.570925 0.153270 -0.439434 0.031514 -1.411637 0.555004 0.130997 0.187739 -0.150643 -1.462999 -0.154837 -0.286102 0.094574 -0.640530 0.614735 -0.557964 -0.828138 0.216999 -0.874376 -0.294556 1.248668 0.585019 1.296210 -0.613314 0.653882 0.334958 -0.493565 0.498426 -0.165376 -0.370871 -0.930694 0.166850
TATAT -1.290092 -0.591078 -0.218821 -0.223607 -0.644162 -0.210374 1.144372 -0.294711 -0.726114 0.652704 1.528436 0.120640 0.780359 -1.003011 0.087344 -0.234614 -1.272763 0.625748 -0.615316 0.225007 0.132285 0.583438 -1.048805 -0.323046 -0.249603 0.593744 -0.217316 -1.254020 0.401972 -0.371035 0.097985 -1.644123 0.594388 -0.377309 -0.933537 0.117106 -0.934617 0.200082 0.726708 0.264740 0.648660 -0.167843 0.715871 0.638853 -0.440592 0.298089 0.158662 0.005042 -0.469074 0.726790
TTTTT 0.013691 -0.524292 0.638891 0.638351 0.705758 -0.347970 0.550568 0.476634 -1.057770 0.811572 0.426112 0.546544 -0.102276 -0.726724 0.700449 -0.939141 -0.778879 0.760003 0.239590 -0.165117 -1.046560 1.333866 -1.542227 -0.758544 0.153529 0.141907 0.660754 -0.403658 1.051851 -0.713270 -0.532936 -0.909592 0.383748 0.287944 0.246734 0.670497 -1.142185 0.403213 0.252588 0.464426 0.053130 -0.154183 -0.323245 -1.144631 0.105956 0.335660 -0.570242 1.033266 -0.325982 0.664612
AAAAA 1.122807 0.498968 -0.151087 -0.584578 0.049434 -0.289582 0.741581 0.448625 -1.404611 -1.040723 0.003972 0.431894 1.152720 0.589809 1.107224 -0.502790 -1.299714 -0.486875 -0.178465 0.129698 -1.357102 -0.243843 -0.762777 0.037297 0.348261 -0.391222 -0.322412 0.355388 0.245277 0.088894 0.378163 -0.890725 1.336896 -0.756302 0.194864 0.997991 -0.971063 -0.005835 0.367998 0.403332 0.836034 -0.761259 0.634909 0.861505 -0.854696 0.086674 0.051188 -0.078752 -0.635641 1.267111
ATAAA -0.322162 0.155363 -0.327379 -0.875424 -0.141124 -0.142057 0.718245 -0.144876 -0.685280 0.201698 0.822014 0.552845 0.522931 0.360163 0.539659 -0.653581 -1.371263 -0.236600 0.308918 0.563612 -0.965869 -0.078993 -0.846471 0.803355 0.601391 -0.279931 -0.517527 -0.415774 0.220993 -0.414934 -0.435550 -0.813127 0.914011 -0.636671 -0.010655 0.465381 -0.639859 -0.264728 1.137256 1.094620 0.984286 -0.843787 0.676148 0.387657 -0.518350 0.588557 0.272782 -0.611114 -0.776526 1.061448
TCTTT 0.105622 -0.668793 0.049273 0.373755 0.355987 0.284697 0.221877 0.894981 -1.592819 0.282766 0.829643 0.563996 -0.452746 -1.067480 1.099548 -0.178430 -0.531555 0.392695 0.249756 -0.034408 -0.114911 0.498273 -0.733990 -0.583344 -0.155692 -0.115474 0.467760 -0.103002 0.506530 -0.410368 -0.450022 -0.617936 -0.407882 -0.835887 -0.304386 0.629826 -0.538985 -0.021736 -0.099368 0.622582 0.657764 -0.323383 0.256240 -0.840949 0.190162 0.857352 -1.379328 1.035513 -0.621691 1.373586
TATATA -1.088082 -0.518455 -0.255328 -0.574642 -0.833321 -0.170610 1.433078 -0.338244 -0.542659 0.389063 1.401647 -0.033069 0.761104 -0.539077 0.273968 -0.190918 -1.228612 0.155775 -0.799054 0.194085 -0.215373 0.149467 -1.375359 0.003405 -0.220125 0.581854 -0.340616 -1.587746 0.049101 -0.538422 0.057175 -0.792490 0.670570 -0.332972 -0.907398 0.049571 -0.738501 -0.041187 1.104460 0.266771 1.102549 -0.252340 1.051171 0.474667 -0.606028 0.452136 -0.188979 -0.183267 -0.679748 0.144102
AAAAG 0.549328 0.526929 0.047196 -0.461209 -0.089568 0.615442 1.143884 0.829520 -0.808560 -0.809932 -0.408063 0.635762 1.119404 0.756327 0.162633 -0.310348 -0.866314 0.327499 -0.601281 0.021804 -0.611540 0.438671 -0.963556 0.208875 0.510846 -0.318983 -0.141139 0.068826 0.380005 -0.345180 -0.554931 -0.376246 1.345436 -1.264170 0.538731 0.637524 -0.736674 0.130330 -0.416836 0.523314 1.087127 -0.374627 0.404597 0.862838 -1.034415 -0.098855 0.012143 0.338738 -1.084595 0.703073
ATATAT -1.437623 -0.708190 0.148353 -0.334303 -0.623264 -0.079429 1.177842 -0.380908 -0.497122 0.391013 1.805774 -0.125579 0.927452 -0.374141 0.386031 -0.342830 -1.134803 0.323474 -0.468706 0.132248 -0.021901 0.281746 -1.219188 0.046140 0.015874 0.382533 -0.308765 -1.368719 0.084870 -0.213581 0.362916 -0.993091 0.395891 -0.571007 -1.049087 0.160749 -0.748346 -0.176880 1.053591 0.586448 0.820552 -0.316499 0.513815 0.400618 -0.473903 0.343027 0.229987 -0.090949 -0.618613 0.493651
TTTGT 0.258757 -0.788131 -0.503648 0.210272 0.333809 -0.528100 0.538796 0.237565 -0.748238 0.524736 0.704116 0.390284 -0.142651 -1.083201 0.012668 -0.550628 -0.305507 0.596880 -0.420418 -0.196523 -0.643799 0.692504 -1.344246 -0.310281 0.195372 0.121745 0.289472 -0.310145 0.634264 -0.612321 -0.613678 -1.220935 0.263677 -0.028606 0.406051 0.651773 -1.284842 0.258461 0.304189 0.781129 0.178665 -0.014572 -0.055352 -0.520339 0.013697 0.391654 -0.334049 0.767960 -0.655793 0.483801
ACATA -0.059361 0.118958 0.579829 -0.540662 -0.205134 0.124350 0.610795 0.007498 -0.700323 0.359659 1.505084 -0.052510 0.641128 -0.016047 0.706203 -0.518384 -0.853894 -0.185040 -0.076431 -0.027621 -0.286081 0.485192 -1.148044 0.210592 0.103463 0.600196 -0.118378 -0.200030 0.156733 0.137054 -0.622863 -1.297845 0.473359 -0.559730 -1.111454 0.175712 -0.737996 -0.323017 1.256494 0.387383 0.662490 -0.533418 0.408009 0.648146 -0.031383 0.117415 0.167821 -0.054180 0.046810 0.173458
ATACA 0.031165 -0.317709 0.684979 -0.895069 0.286602 0.419727 1.368129 -0.197869 -0.868707 0.233868 1.435604 -0.088295 0.433442 -0.236553 0.614801 -0.693251 -0.397786 -0.440464 -0.219285 0.228626 -0.295847 0.501599 -1.091303 0.519120 0.586489 0.628179 0.028677 -0.244726 0.726653 0.643840 0.036020 -0.338809 0.234653 -0.116120 -0.478092 -0.026555 -0.700557 -0.139781 1.083063 0.162201 1.018384 -0.663032 0.685462 0.682137 -0.588511 0.497366 0.046228 0.308932 -0.526464 0.019827
AATAAA -0.085011 0.081625 -0.417337 -0.721694 0.452938 -0.332357 0.624957 0.568614 -0.253686 0.146755 0.851943 0.335340 0.644065 0.711603 0.324971 -0.530982 -1.161838 -0.568257 0.601951 0.394808 -1.471020 -0.252250 -0.726526 1.222467 0.779017 -0.670362 -1.178436 -0.311779 0.355607 -0.266462 0.048536 -0.542229 0.847067 -0.852117 0.229575 0.345261 -1.094999 -0.417094 1.101257 0.654637 0.997774 -0.431878 0.331098 0.279183 -0.655214 0.673231 0.061726 -0.655751 -0.537586 0.850000
CTTTC 0.158983 -0.694350 -0.876894 0.395870 0.391755 0.438361 0.051069 0.514182 -1.284915 0.368663 1.000910 0.713238 0.075856 -0.953055 1.275729 0.134326 -0.165805 0.512827 0.468481 -0.010659 0.076523 0.479246 -0.668854 -0.556391 0.259947 0.180164 0.991331 0.554961 -0.102149 -0.496572 0.037237 -0.253351 -0.373654 -0.668329 0.102055 0.382051 -0.546930 -0.753595 0.193392 -0.162404 0.531795 -1.048556 0.518530 0.130648 0.023499 -0.042059 -0.651473 1.516787 -0.725010 0.536244
TATATAT -1.241893 -1.052341 0.042842 -0.129852 -1.058362 -0.276301 1.553175 -0.472561 -0.233522 0.264564 1.664343 -0.146718 1.044367 -0.911502 0.216380 0.017214 -1.085802 0.236617 -0.684029 0.317499 -0.099509 0.242169 -1.212960 -0.352220 -0.158056 0.795971 -0.366659 -1.592628 -0.035314 -0.555288 0.408942 -0.712615 0.337380 -0.412909 -1.155829 0.246959 -0.643676 0.031644 1.073853 0.447948 0.775584 -0.052563 0.981673 0.428419 -0.605953 0.533179 0.015830 -0.124059 -0.772436 0.366696
TTTTTTT 0.160421 -0.101904 0.867685 0.744524 0.728599 -0.184853 0.293277 0.519572 -0.569141 1.105515 0.162253 0.884736 0.103592 -1.157470 1.129904 -0.995747 -1.098353 0.620622 0.499238 -0.208447 -0.921126 1.083061 -1.468126 -0.507251 0.385618 0.165444 0.664332 -0.346516 1.368852 -0.646364 -0.444762 -0.747109 0.153591 0.370773 0.287280 0.406410 -1.166392 0.464411 0.337306 0.374725 -0.430208 0.132459 -0.491519 -1.694155 -0.117089 0.092245 -0.228325 0.972670 -0.578394 0.390024
AAGAAA 0.252043 0.825270 0.387308 -0.562504 0.264887 0.101903 0.627752 0.963325 -0.075946 -0.456609 0.226976 0.470061 1.135378 0.351184 0.213950 -0.688397 -0.891437 1.030111 0.121693 0.483348 -1.201134 0.411687 -0.707792 0.745002 0.224840 -0.410965 -0.707866 0.366671 0.269246 0.730815 -0.433385 -0.046911 1.605586 -1.296912 0.107368 0.792049 0.130310 -0.062169 -0.325500 0.627884 1.076157 0.202909 0.327631 0.430547 -0.603764 -0.137169 0.708792 0.572277 -1.199943 0.481707
AAAAAG 1.037135 0.574348 -0.005407 -0.542043 -0.003735 0.409070 1.055756 0.695075 -1.060552 -1.145964 -0.508172 0.617879 1.298289 0.808093 0.380623 -0.276792 -1.003955 -0.081588 -0.650877 0.003798 -0.709076 0.192233 -0.815507 0.098263 0.402260 -0.300256 -0.129661 0.108189 0.255538 -0.152685 -0.283424 -0.449284 1.409943 -1.151143 0.460557 0.747173 -0.713929 0.058454 -0.274230 0.384856 0.854511 -0.462295 0.510366 0.854097 -1.052627 -0.126639 0.031057 0.248547 -0.982393 0.967512
TGTATA 0.221924 0.201916 -0.467940 -0.572041 -0.177826 -0.586320 0.201576 -0.255694 -0.024675 0.658140 1.134332 -0.335223 0.540658 -1.057182 -0.915773 -1.040819 -0.295325 0.457786 -0.316011 0.133303 0.450322 0.817620 -1.662142 0.227489 -0.427449 0.803288 -0.851274 -0.794336 0.403492 0.082817 0.888140 -1.537425 -0.098286 0.098778 -0.177924 0.604162 -1.165480 0.861797 0.819123 1.129141 0.125313 -0.598915 1.015090 0.370171 -0.585404 0.946166 -0.101523 -0.756652 -0.633891 -0.171824
GAAAG 0.299254 0.437535 -0.115196 -0.443344 0.125769 0.234316 0.834922 1.023005 -0.432045 -0.580646 -0.295684 0.590900 1.309641 0.524818 0.015308 -0.648476 -0.406047 0.732841 -0.157243 -0.305964 0.239264 0.480124 -0.887791 0.410520 0.238253 -0.233624 -0.076466 -0.359703 0.016956 0.295406 -0.051335 0.236687 1.570820 -0.900720 0.596097 0.107068 -0.270952 0.382755 -0.582665 0.632996 1.044560 -0.158284 -0.369488 0.283608 -0.825927 0.122253 0.050285 0.646805 -0.914742 0.330553
ATATAC -0.622950 -0.188321 0.474884 -0.609573 -0.186767 0.151686 1.161311 0.127711 -0.688013 -0.098146 1.178232 -0.085562 0.027455 -0.724472 0.700780 -0.586420 -0.553769 -0.271078 -0.202753 -0.015973 0.063347 0.445153 -1.284210 0.425275 0.303563 1.059470 -0.139350 -0.922268 -0.703408 -0.173327 0.187551 -0.574145 0.634009 -0.223867 -1.045515 0.320561 -0.746808 -0.545988 1.701601 0.533212 1.242892 -1.042953 0.789080 0.762744 -0.030420 -0.423255 0.046757 -0.319101 -0.071148 -0.667987
AAAAAAA 1.057160 0.352171 -0.214863 -0.474878 0.038170 -0.215823 0.600848 0.589723 -1.068930 -1.118230 0.092341 0.562447 1.190930 0.658626 1.001049 -0.450288 -1.101931 -0.453133 -0.160273 0.126908 -0.994298 0.040319 -0.686819 0.208567 0.423717 -0.234682 -0.334797 0.310781 0.122211 0.347487 0.339893 -0.778954 1.131910 -0.971918 0.216730 0.995419 -0.867876 0.068956 0.282215 0.159249 0.751964 -0.521708 0.444628 0.922978 -0.838361 0.120780 0.017302 -0.247286 -0.785756 1.119341
AAAAAT 0.351617 0.210995 -0.195639 -0.322420 -0.202102 -0.874304 0.960313 -0.072141 -0.816757 -0.646858 0.506440 0.015895 0.996384 0.466740 1.057514 -0.638749 -0.722555 -0.485544 0.072892 0.351892 -1.421501 -0.325798 -0.393125 -0.255682 0.207540 -0.337798 -0.146993 0.116899 0.243507 0.262009 0.482344 -0.227548 1.037609 -0.289469 0.173315 0.873038 -1.121090 0.207805 0.490616 0.266302 0.663562 -0.448586 0.552266 0.538054 -0.756758 0.285914 -0.259713 -0.297865 -0.394498 1.345370
TATACA -0.334659 -0.212634 0.531439 -0.648764 0.108527 0.532722 1.575549 0.005319 -0.673908 0.251367 1.451337 -0.141529 0.264249 -0.738169 0.292743 -0.472740 -0.446931 -0.507087 -0.285340 0.174482 0.232371 0.547370 -1.132323 0.510368 0.319211 1.368541 -0.000082 -0.633117 0.577012 0.491226 0.029604 -0.844290 0.399881 -0.286858 -0.936009 -0.130389 -0.961846 -0.046104 1.444090 0.217349 0.827302 -0.587953 0.918148 0.448545 -0.264984 0.327100 0.198945 0.302548 -0.072308 -0.256013
TTTATT -0.023353 -0.747224 -0.117269 0.373303 0.880575 -0.111716 0.607583 0.350919 -0.823979 1.031945 1.314770 0.645349 -0.355421 -1.083590 1.002558 -0.569885 -0.902417 0.342028 -0.198744 -0.166864 -0.810760 1.123137 -0.991118 -0.676199 -0.140535 0.852103 -0.333212 -0.616988 0.498332 -0.293283 -0.648379 -0.724615 0.355161 0.183019 -0.041430 0.560663 0.067255 -0.270603 -0.361411 0.475014 0.380623 0.241154 -0.126388 -0.781706 0.636775 0.456906 -0.523244 0.846600 -0.321783 0.959212
TTTTTTC -0.108410 0.196905 0.479906 1.042423 0.609905 -0.122469 0.194506 0.572541 -1.163980 0.905242 -0.338975 0.937290 0.059367 -1.751434 1.395970 -0.544044 -0.939273 0.516240 0.604263 0.083589 -0.482359 0.905349 -1.345906 -0.899704 0.663427 -0.193315 0.863882 -0.122364 1.492563 -0.246782 0.243342 0.178862 -0.951904 0.259713 0.765844 0.768255 -1.107226 0.559765 0.527018 0.061222 -0.403495 -0.862663 -0.447771 -1.937723 -0.473397 0.498235 0.357832 1.400639 -0.820865 0.069084
TTTTTAT -0.863178 -0.510587 0.942961 0.662802 1.183839 -0.079255 0.604115 -0.145071 -0.813728 1.472901 0.980107 0.581153 0.108336 -1.173943 0.405893 -0.986466 -1.205557 0.968022 0.283074 -0.116996 -1.043176 0.957943 -1.407443 -0.982027 -0.239605 0.777337 0.231735 -1.252488 0.873366 -0.587972 -0.475989 -1.325667 0.907096 0.416612 -0.404382 0.312701 -0.355509 -0.165254 0.044818 0.315438 0.071341 0.567050 -0.231687 -1.180052 0.080859 0.212085 -0.154317 0.823255 -0.009910 0.981865
TATTTT -0.965332 -0.429094 -0.189794 0.030849 -0.282895 -0.648145 0.194274 0.210295 -0.577633 0.367611 1.012772 0.574077 0.750331 -1.004049 0.759675 -0.130626 -1.208837 0.926389 -0.027990 -0.273066 0.319148 0.972703 -0.767504 -0.402851 0.386467 -0.022319 0.286078 -0.548929 1.098632 -0.726140 -0.105100 -1.421262 0.092719 -0.399820 -0.388544 -0.155875 -1.272372 0.318774 0.238466 0.494558 0.067963 -0.524969 -0.344919 0.064791 0.609410 0.143421 0.618396 0.751629 -0.026728 0.782558
ATTTTT -0.305035 -0.646121 0.681417 0.274224 0.483054 -1.381881 0.819620 -0.262690 -1.623524 0.521106 0.057056 -0.229552 0.214917 -0.467205 0.513942 -1.117124 -0.318627 1.031615 1.078767 -0.485414 -1.319550 0.564425 -0.838563 -0.091657 0.357294 -0.188563 0.372210 0.406909 1.321770 -0.399377 -0.702311 -0.564654 1.283408 0.827806 0.371786 0.158998 -1.828750 0.742579 0.456207 -0.295387 0.064617 -0.403088 -0.130460 -1.374151 -0.520378 0.108895 -1.183887 0.398551 0.108655 0.833979
GAAAAA 1.259666 0.819625 0.163512 -0.153139 -0.084673 -0.200633 0.546488 0.910347 -0.368383 -1.324075 0.040412 0.296944 1.480643 0.612111 1.190468 -0.478667 -0.415501 0.321096 0.031133 -0.100612 -1.475198 -0.250574 -0.608575 0.410812 0.312032 -0.469921 -0.428909 0.073090 0.181022 1.079301 0.605323 -0.270123 1.909151 -1.135741 0.006895 1.116247 -0.292335 -0.197873 -0.069529 1.075744 0.390016 -0.148131 0.600133 0.150341 -0.714329 -0.300571 0.849317 0.534383 -1.002071 0.990878
TTTTTCT -0.507019 -0.056937 0.367296 0.702482 0.030626 0.123921 0.183697 0.907373 -1.105327 0.031102 0.754246 0.545285 -0.508704 -1.172797 1.187010 -0.250041 -1.012068 0.868957 0.362127 0.092271 0.008879 1.190594 -1.265244 -0.985042 -0.705109 -0.422667 0.088988 0.358364 1.609584 -0.863201 -0.617299 0.175913 -0.468386 -0.167725 0.417590 0.697045 -0.819179 0.882316 0.585765 0.599195 -0.509954 -1.137790 -0.331422 -2.235129 0.286129 0.787747 -0.196409 0.806364 -0.324580 0.548683
TTTTTTTT 0.493514 0.085955 1.095733 0.795831 0.799814 -0.231805 0.021230 0.530469 -0.144845 1.145403 0.033747 1.154271 0.099507 -1.231773 1.236826 -0.841250 -1.266328 0.716632 0.595885 -0.212026 -0.644799 1.097113 -1.460719 -0.253809 0.697506 0.099142 0.599486 -0.356981 1.634350 -0.598069 -0.680965 -0.672413 0.340498 0.720968 0.223729 0.265820 -1.116350 0.563030 0.086644 0.424433 -0.714699 0.568807 -0.523780 -2.105651 -0.059600 -0.152131 -0.288892 0.857544 -0.544076 0.110393
TTATTT 0.069887 -0.299947 -0.751221 -0.194656 -0.198476 -0.143913 1.193236 -0.132593 -0.813867 0.357012 1.542594 1.536620 -0.445308 -1.248487 0.881189 0.432253 -0.985034 0.027699 0.175216 0.263657 -0.313788 1.016724 -0.836503 -0.082528 0.156363 0.628609 -0.328568 -0.359355 1.086103 -0.840276 -0.640950 -0.934187 0.108772 0.174999 0.236643 0.442922 -0.747154 0.483638 -0.092369 0.158989 0.235806 0.354739 0.004098 0.255113 0.551371 -0.479039 -0.526555 0.632786 0.504910 0.369209
TATTTA -0.629436 -0.126028 -0.589696 -0.513125 -1.086608 -0.749336 0.423454 -0.446430 -0.562074 0.136863 1.537983 0.860421 0.494628 -0.775572 0.395773 0.607874 -1.653441 0.624363 0.269405 -0.001128 0.351437 1.121044 -0.430651 0.150320 0.322610 0.418996 -0.466506 -0.688047 0.996116 -0.305297 -0.506298 -1.416016 0.161626 -0.813883 -0.629525 -0.037551 -0.984350 0.434594 0.186513 0.067592 0.468520 -0.143449 -0.234041 0.727865 0.536820 0.054216 0.700421 0.081157 0.229807 0.215333
TTTTTA 0.073513 0.330311 0.858585 0.011258 -0.140785 -0.406832 0.408372 0.733635 -0.596727 0.712522 -0.061854 -0.115567 -0.019835 0.299680 0.504763 -0.924250 -0.572412 -0.305576 0.148704 -0.323905 -1.243332 1.084875 -1.238551 -0.432893 -0.086811 0.731238 0.229262 -0.059118 0.456223 -0.483148 -0.905842 -0.691792 0.655857 -0.296986 -0.323192 0.487891 -1.703504 0.211710 0.302436 -0.157179 0.212530 -0.149167 -0.109531 -0.814223 0.514134 0.588943 -0.588025 0.757353 0.122950 0.162510
TTTTTC -0.305152 -0.822765 0.612532 0.408159 1.232339 -0.535000 0.133459 -0.204050 -1.175460 0.895139 -0.006824 0.558616 -0.201458 -0.582381 0.324514 -0.296667 -0.068426 0.757175 0.655472 -0.259838 -1.416639 0.893821 -1.017476 -1.033801 0.645571 -0.008021 1.050033 -0.448866 0.449418 -0.107802 -0.365804 -0.519024 -0.231102 0.222794 0.456025 0.395467 -0.369003 0.422883 0.116662 0.119709 0.554279 -0.588436 -0.375912 -0.531489 -0.644800 0.029224 -0.483446 0.655090 -0.219493 0.554962
TATATAC -1.081418 -0.525001 0.099430 -0.366663 -0.369966 0.273443 1.493956 -0.174002 -0.692678 0.061481 1.257603 -0.189986 0.197092 -0.914287 0.331066 -0.446452 -0.627484 -0.101935 -0.646014 -0.042762 0.121485 0.401974 -1.422645 0.261950 0.034254 1.392050 -0.204203 -1.269343 -0.547283 -0.378656 0.351523 -0.581550 0.755053 -0.126082 -1.302554 0.080054 -0.717793 -0.416168 1.598249 0.348395 1.252683 -0.709918 1.039093 0.785604 -0.313165 -0.281126 0.186108 -0.115731 -0.055949 -0.776276
GTATATA -0.712969 -0.526542 -0.450070 -0.440725 -0.801022 -0.108388 1.033591 -0.241724 -0.202539 0.063081 0.077297 -0.355449 0.909512 -1.036716 -0.856261 0.065953 -0.726066 -0.020598 -1.673842 0.136490 0.801996 0.433120 -1.854194 -0.118595 -0.421417 0.787719 -0.576961 -1.703646 0.179734 -0.398099 0.850414 -0.909745 0.426413 0.222281 -0.458211 -0.162650 -0.276840 0.171716 0.858898 0.244470 1.405484 -0.496220 1.032490 0.687495 -0.557610 0.810500 -0.032187 -0.452153 -0.290980 0.025021
CATTTT 0.436091 -0.526783 0.982787 0.325022 0.797246 0.000575 0.864630 1.090765 -1.512542 1.381419 0.829692 -0.168418 -0.476648 -0.325131 2.045071 -0.507142 -0.004378 0.537248 -0.496317 0.021223 -0.109938 0.735713 -0.333534 0.051612 0.502422 1.100612 0.354341 -0.882728 1.235871 -0.074599 -0.976572 -0.262242 -0.333926 0.173995 0.532869 0.982120 -0.250721 0.954481 0.098491 0.273667 -0.008538 -0.584723 -0.029491 -0.001991 -0.020731 1.495644 0.558684 0.632244 -0.173779 0.121218
TATTAT -1.634730 -0.577613 -0.322565 -0.087631 -0.699154 -0.558861 -0.241310 -0.089556 -0.257507 0.421983 1.287693 0.487421 0.975548 -0.592127 0.242144 -0.277899 -0.741209 0.731437 -0.134867 -0.084657 0.110666 0.678755 -0.196016 -0.556610 0.280010 -0.236517 0.145564 -0.864299 0.325092 -0.353203 -0.308033 -2.001214 0.168544 -0.613870 -0.958429 -0.298998 -0.989067 0.096201 0.181290 0.495687 0.373955 -0.579443 -0.459142 0.405983 0.066346 0.086457 1.111789 0.074348 -0.080566 1.067282
TGTATAT -0.279357 -0.138566 -0.506309 -0.359396 -0.268510 -0.599169 0.216397 -0.347557 -0.125042 0.657382 0.857967 -0.527648 0.738222 -1.475871 -0.839076 -0.800736 -0.679176 1.061191 -0.938941 0.088903 0.935325 0.829344 -1.817059 -0.176750 -0.727170 0.601594 -0.705079 -1.336435 0.399703 -0.349017 1.301039 -1.764912 -0.247928 0.121210 -0.182063 0.452441 -0.923963 0.832453 0.534591 0.707170 0.107103 -0.432790 0.748626 0.917572 -0.786861 0.673922 -0.140853 -0.901963 -0.589566 0.052197
TTTTATA -1.201541 -0.576818 0.679374 0.306537 0.388795 0.360864 0.473488 -0.323716 -0.550104 0.673128 0.547039 0.270242 0.427072 -0.563478 0.243790 -0.692114 -1.441831 0.465472 0.132346 -0.128991 -0.893781 0.456557 -1.188046 -0.400027 -0.095469 0.809846 -0.311224 -1.501015 0.760612 -0.867091 -0.563806 -1.169168 0.862118 -0.078482 -0.698714 -0.541163 -1.000120 -0.333064 0.708827 0.358958 0.751910 -0.144700 0.256849 -1.216885 -0.189887 0.371736 0.468484 0.740498 0.367247 0.611607
ATAATA -0.289712 -0.205685 -0.202654 -0.909543 -0.550877 -1.223841 1.253716 -0.386902 0.096061 0.154935 1.014471 -0.339732 0.464531 0.174728 0.348003 -0.172303 -1.185760 -0.104363 0.043017 0.302557 -1.001052 -0.147367 -0.326108 0.247317 -0.001702 -0.217837 -0.248115 -1.466581 -0.403864 -0.423828 -0.566981 0.914843 0.923564 -0.171036 -0.431429 0.205656 -1.096549 0.013445 0.833143 -0.637040 1.091036 -0.503380 0.328455 0.052856 0.000289 0.831528 -0.645854 -0.951610 -1.380994 0.589788
GAAAAG 0.470390 0.306672 0.050323 -0.400033 -0.132836 0.284162 0.717627 0.769413 -0.362704 -0.581490 -0.505528 0.534826 1.117961 0.719611 0.256295 -0.456240 -0.545133 0.861437 -0.023040 -0.199304 0.028789 0.300653 -0.973290 0.520317 0.259337 -0.280719 -0.169113 -0.383588 -0.133267 0.497178 -0.020788 0.158985 1.647021 -0.745255 0.638348 0.203022 -0.151851 0.180224 -0.463457 0.687785 0.808538 -0.144462 -0.127026 0.265408 -0.794369 0.025114 0.113443 0.660672 -0.728329 0.135011
GTTTTT -0.007861 -0.444346 0.477981 0.086900 0.978582 -0.380176 0.604105 0.152545 0.140915 -0.009264 -0.149676 1.024849 -0.233654 -0.307087 -0.124661 -0.614324 0.441980 0.599609 -0.901904 0.264458 -1.188979 1.473024 -2.106479 -1.011028 -0.190307 0.745201 0.171721 -0.155071 0.420832 -0.745316 -0.923112 -0.756515 0.404810 -0.161719 0.433374 0.208008 -1.095775 0.529068 -0.447539 0.514284 -0.168746 -0.154585 0.252789 -1.660529 0.430617 0.122819 -0.003913 0.681218 -0.507106 0.401489
AAAAAC 1.515919 0.189179 0.107221 -0.718722 0.096322 0.080682 -0.043258 0.459672 -0.857095 -0.900242 -0.025525 -0.102630 0.817931 -0.103349 1.214409 -0.330365 -1.080141 -0.521403 0.249948 0.096094 -1.006577 -0.287776 -0.875643 -0.358829 0.339384 0.130515 -0.386466 0.710420 0.087954 0.043726 0.020413 -0.823380 0.772681 -0.318383 -0.561461 0.674677 -0.474856 -0.355783 0.637312 0.220220 0.836858 -1.023491 0.624348 0.724543 -0.179281 -0.477036 0.314082 -0.367064 0.130889 0.444400
AATTTT -0.235751 -1.514065 0.578722 0.900620 0.928383 0.022267 -0.169390 1.268625 -0.331591 -0.155058 0.912550 0.434615 0.226582 0.223684 0.314884 -0.764443 -1.405820 0.362450 0.156255 -0.488876 -1.197252 1.086791 -1.198799 0.033193 -0.210941 -0.071697 -0.495818 0.148920 1.319458 0.495039 0.216867 -0.729895 -0.124464 -0.037130 0.143060 0.218775 -0.263885 -0.138203 0.234892 0.563884 1.202139 -0.082779 -0.616489 -1.266581 -0.409710 0.361619 -0.453040 0.527527 -0.070599 0.318898
TTCATT -0.310514 -1.019064 -0.597563 0.281702 0.823995 0.060578 0.681812 0.886670 -1.722910 1.354496 1.443638 0.227089 -0.060948 -0.857016 1.580850 -0.004623 0.165482 -0.102478 -1.022552 0.183107 0.072074 0.380418 -0.269835 0.291924 0.899740 0.803774 -0.151405 -0.145328 1.113778 0.463145 -0.446852 0.257241 -0.255011 0.377231 0.346902 0.403887 -0.979871 0.741657 -0.374409 0.265371 -0.042094 -1.038728 0.230106 0.205310 0.039100 0.856460 0.515137 1.407191 -0.108951 -0.003860
GCATTT 0.018915 -0.464076 1.257136 1.023971 1.009033 0.128192 0.441781 0.531423 -1.891335 1.001070 1.145720 0.091734 -0.658063 0.818877 2.145101 -0.257419 0.688800 0.713768 -1.168130 0.277937 0.153709 0.333764 -0.323461 0.165542 0.328402 0.717362 -0.469716 -1.218288 1.553160 -0.634495 -1.391333 -0.107035 0.181606 0.023891 0.500275 0.354903 0.235151 0.439668 0.602065 0.520031 -0.186517 0.059514 -0.771220 0.182167 0.142706 1.113535 0.735462 -0.025853 -0.793551 0.148341
GAAAAT 0.004669 0.531042 -0.546335 -0.184394 0.599676 -0.105160 0.347221 0.651331 0.410348 -0.287776 0.629316 0.810184 0.836412 -0.029062 0.735913 -0.705176 -0.579824 0.178801 0.685946 0.485375 -1.029181 0.090480 -0.415500 0.590614 0.090996 -0.501568 -0.752825 -0.569560 0.605659 1.275354 0.352320 -0.416334 1.080173 -1.045826 0.162492 1.021464 0.920009 -0.119401 -0.000477 1.751789 0.514623 0.212322 0.620147 -0.166064 -0.181117 0.190124 1.078373 0.103974 -0.770616 0.999171
TTCAAA -0.258320 0.297369 -0.830501 0.006681 1.121191 0.683958 0.553813 0.636541 -0.632009 0.215587 0.969183 0.356422 1.016616 -0.768710 -0.067955 -0.487718 -0.376431 -0.673482 -0.270043 0.011020 -0.096762 -0.121150 -0.758052 -0.950163 1.354045 -0.548040 0.182925 1.012589 1.674571 -0.007331 0.608302 0.117313 -0.037333 -0.200602 0.026622 0.559220 -0.808256 -1.181820 -0.224177 0.045880 1.724892 -1.181587 1.133432 -0.005745 -0.228437 0.270861 -0.000368 1.083172 -0.618021 -0.063202
TTTTCA 0.384549 -0.085218 0.121466 0.634359 0.814839 0.118989 0.642340 0.632832 -1.266083 1.396073 0.694551 0.339294 0.479865 -1.846382 1.089649 -1.198726 -0.001391 -0.582508 -0.309852 0.185579 -0.413588 0.736121 -0.831235 -0.128075 1.110116 -0.131279 1.200513 -0.193848 1.434105 0.007583 0.054463 0.455163 -0.828016 0.436267 0.268301 0.607565 -0.308522 -0.178850 0.011343 -0.114580 0.734621 -1.024282 -0.249648 -0.530574 -0.529255 0.532532 0.119537 1.591518 -0.598274 0.104216
TTTCTT -0.382485 -0.815368 -0.283519 0.587922 -0.044833 -0.557142 0.256704 0.501601 -0.964946 0.182580 1.053078 0.760478 -0.456743 -1.010777 0.954481 0.317106 -0.627411 0.861658 -0.222430 0.133972 -0.071429 0.965961 -0.872440 -0.266681 -0.229714 -0.199292 -0.604345 0.445378 1.874112 -0.603684 -0.516223 -0.010565 -0.613406 -0.284330 0.667474 0.559502 -0.155996 0.330491 0.327062 0.491984 -0.052217 -1.075133 -0.161914 -1.518624 0.212437 0.347025 0.243234 0.805176 0.033137 0.473805
ACTTTT 0.990414 0.034093 0.475986 0.290971 -0.019541 -0.465695 0.139613 1.031604 -0.733022 0.599667 0.470967 0.225688 0.551869 -2.274025 1.311346 -1.096723 -0.493507 0.289869 0.552674 -0.366186 -1.175395 0.819189 -0.088157 -0.125970 0.866399 1.108501 0.401601 0.157678 -0.265206 -1.160075 0.141027 -0.999221 0.368623 -0.286242 0.242874 0.550540 0.463093 -0.440399 0.668291 0.725462 1.232534 -0.633273 -0.393861 -0.780922 0.825814 0.062670 -0.918187 -0.070875 -0.043120 0.299017
CTTTTT 0.170992 -0.146557 -0.256675 1.123208 0.510412 1.081258 -0.005514 -0.063105 -0.221769 0.551966 0.471059 0.979425 -0.462248 -0.137035 0.414060 -0.769467 -1.377589 0.682080 0.890756 0.279994 -1.109208 0.767864 -1.300085 -1.386865 -0.094594 0.041249 1.379324 -0.070036 0.747673 -1.027538 -0.797331 -0.274757 1.089465 1.014563 0.251620 0.436706 -1.378914 -0.229460 0.706422 -0.196327 -0.558657 -0.284035 -0.167462 -0.549781 -0.229551 0.419848 -0.769351 1.545462 -0.179790 -0.999381
TTTTTTTTT 0.563723 0.081263 1.327926 0.859531 0.811102 0.009304 -0.136168 0.539595 -0.134292 1.175469 -0.250526 1.096056 0.112176 -1.051531 1.095973 -1.027979 -1.207914 0.696335 0.415492 -0.144630 -0.582790 1.165139 -1.429994 -0.388542 0.542841 0.031097 0.746456 -0.390884 1.360837 -0.503948 -0.603384 -0.534442 0.243080 0.962167 0.069925 0.068086 -1.017149 0.440098 0.154952 0.482207 -0.944302 0.472423 -0.479093 -2.150331 -0.320829 -0.067241 -0.348214 0.906103 -0.516701 0.147806
AAATTT -0.185974 -0.253063 -0.389244 -0.158712 0.956422 -0.162667 0.235594 0.756426 -0.471901 -0.019715 0.215248 0.458033 0.433857 -0.466060 0.821023 -0.947044 -1.153355 -0.181968 0.216210 0.465913 -1.058662 0.879907 -0.926960 0.204311 -0.142819 -0.443164 -0.636710 -0.080470 0.968203 0.198161 -0.349888 -0.644398 0.171844 -0.269397 0.633939 0.736120 0.643057 -0.118609 0.661878 1.231687 0.346675 -0.726470 0.176901 -0.594747 -0.198810 0.902009 0.073038 -0.194803 -0.116469 1.075756
TTTTCTTT 0.078217 -0.750722 -0.223209 0.535526 0.332810 -0.237995 -0.262818 0.641364 -1.264638 0.087561 0.127421 0.209503 -0.557121 -1.352235 1.536322 -0.121862 -0.726835 0.667716 0.052544 0.416208 0.250104 1.342541 -0.934315 -0.958934 -0.780166 -0.004381 0.238250 0.399650 1.192989 -1.357037 -0.922697 0.063289 -0.303446 -0.624489 0.614251 0.619569 -0.586716 -0.395731 0.191874 0.492587 -0.201593 -1.152087 -0.155426 -1.678194 0.235502 1.478263 -1.031425 0.617814 -0.159526 1.185476
TCATTT -0.459090 -1.069412 -0.273273 0.596045 0.239692 -1.501117 -0.030935 -0.579380 -1.631028 0.873094 1.112842 0.345564 -0.096048 -0.271581 0.161389 0.297028 0.647659 1.034327 0.322823 0.110566 -0.960856 0.255024 -0.543601 0.083326 0.463217 -0.671960 0.863869 0.363032 0.454524 0.123282 -1.101969 -0.120682 1.036519 -0.081251 0.313028 0.142338 -0.903869 0.680111 0.414066 -0.123741 0.976378 -0.695338 0.035870 -0.859665 -0.265346 0.536604 -1.001101 -0.524328 1.010629 0.972719
CAAAAA 0.687432 0.728482 0.194402 -0.943852 0.885830 0.742324 1.407783 0.363086 -1.084856 -1.215845 0.033938 0.085475 1.445352 0.247899 0.758962 0.092204 -0.865598 -1.245598 -0.402757 -0.064435 -0.931571 -0.358172 -0.723905 -1.318927 0.893666 -0.395165 0.253419 1.067809 1.060932 0.229378 1.005044 -0.227366 0.310807 0.091605 -0.077922 0.575480 -0.819604 -0.656179 0.159311 -0.162448 0.912359 -1.020828 1.485301 0.353537 -0.140887 -0.149953 -0.269802 -0.040068 -0.879586 0.582755
TGCATA -0.335418 -0.324266 0.163980 0.001362 -0.235285 0.226261 0.703818 -0.256210 -0.730148 0.262267 0.901846 -0.215943 0.341770 -0.286657 0.422100 -0.203611 -0.634153 0.141234 -0.169629 -0.105635 -0.535379 0.289363 -0.687456 0.302243 0.186949 0.331623 -0.071471 -0.248977 0.316308 -0.111122 0.112593 -0.340443 0.232412 -0.092006 -0.219238 0.042400 -0.623959 -0.127088 0.366334 0.609992 0.638076 -0.272633 0.599483 0.001809 -0.318029 0.194600 -0.148127 -0.275944 -0.203336 0.200986
TGCATT 0.399181 -0.598164 0.403112 1.241405 0.436367 1.043459 0.396178 0.399576 -1.533069 0.620102 1.341786 0.339642 -0.832920 1.064053 1.526062 -0.530674 0.948208 0.866600 -0.473206 0.373085 0.113708 0.214608 0.147806 -0.155810 0.761066 0.896833 -0.955993 -1.078201 0.687200 -0.692354 -1.113941 -0.198862 -0.042482 0.260405 0.510066 0.210635 -1.026247 1.344895 0.799794 0.655352 -0.294251 0.306372 -0.488329 1.282187 0.001221 0.463127 0.866258 0.041219 -0.483508 0.707830
TGTATG 0.019683 -0.296149 -0.161763 0.029160 -0.462724 0.203322 1.656605 0.032787 -0.337823 0.449917 1.238578 -0.542690 0.651636 -0.461856 -0.722482 -1.029635 0.625503 0.512632 -0.390208 0.445617 0.105459 0.208994 0.097982 0.302197 -0.397411 0.122162 -0.079326 -0.466170 0.131852 -0.699647 0.763735 -0.952895 0.360786 0.662223 0.052925 0.620532 -0.814891 0.540381 0.135456 0.454216 -0.363043 -0.037136 -0.114420 -0.281458 0.050315 0.250185 -0.344324 -0.657785 -0.081562 -0.391912
TTTCTTTT 0.134518 -0.664447 0.019039 0.554072 0.181026 -0.367327 0.038031 0.624754 -1.181095 0.215034 -0.051628 0.053272 -0.549295 -1.288027 1.661362 0.022691 -0.249339 0.889398 0.114138 0.140352 0.390827 1.356270 -0.843448 -0.444238 -0.345674 0.231071 0.299906 0.295315 1.171209 -1.183212 -0.657307 -0.377176 -0.420084 -0.763022 0.385908 0.397986 -0.570543 -0.836373 -0.151741 0.533263 0.136573 -1.105546 0.173575 -1.594876 0.177975 1.005665 -1.186237 0.768164 -0.271513 1.135269
TTCAAT 0.113645 -0.215949 -0.581061 -0.220642 1.100756 -1.359685 0.996335 0.371829 -0.770022 0.399262 1.825191 -0.401483 0.253552 -1.122250 -0.239142 -0.768089 0.265170 -0.128301 0.108535 0.081071 0.242772 0.091303 0.424225 -0.108654 0.932272 -0.221619 0.153911 0.913859 1.367469 0.013523 0.756911 0.629244 -0.569585 -0.569632 -0.209895 0.156681 -1.275135 -0.677714 1.134604 -0.668024 0.847450 -0.535135 0.282265 -0.085092 0.275574 0.423308 -0.471004 1.619110 -1.182566 0.143726
TTTTTG 0.442813 -0.803771 0.336997 0.453397 0.516667 0.010510 0.683144 0.560268 -0.397723 0.145312 0.030672 0.179399 0.265596 0.333731 0.334681 -1.286145 -0.103245 0.540690 -0.101765 0.325277 -0.049573 1.391443 -0.491229 -0.664235 -0.121551 -0.380384 0.748689 -0.049400 0.836862 -0.791089 0.518333 -0.591095 0.776609 1.092101 0.348497 0.387010 -0.712110 0.641222 0.142495 0.359680 -0.058207 0.192144 -0.584003 -0.390598 0.352294 0.376142 -0.662433 0.496393 -0.144074 0.907354
AATATT -0.916893 -1.302154 -0.486941 0.504207 0.819961 -0.129214 0.128479 0.386693 -0.766984 -0.329099 0.707710 -0.094451 0.036366 0.365814 0.481244 -0.442352 -0.257166 0.287837 0.571676 -0.306618 -1.205074 0.118143 -0.558031 0.639146 0.602659 -0.410184 -1.051790 0.274130 0.750025 1.261782 -0.146997 -1.017065 1.022046 -0.032233 -0.170611 -0.102144 -1.316064 0.264474 0.420092 0.036387 1.466790 -0.064601 -0.185810 -0.888863 -0.386560 -0.035040 -0.960313 -0.427491 -0.141622 0.269107
ATTTAT -1.326745 -0.616860 0.047681 0.163256 -0.331294 -1.380539 0.596298 -0.753632 -1.253083 0.313690 0.979629 -0.311523 0.630464 -0.713949 0.123892 -0.264005 -0.441780 1.023780 0.450562 -0.242576 -0.203902 0.112074 -0.382575 -0.000789 0.435990 -0.385124 -0.131632 0.189496 0.865355 -0.237656 -0.311045 -1.187822 1.046276 0.252897 -0.435281 -0.509168 -1.447736 0.323003 0.454088 -0.280976 0.293476 -0.322164 0.104209 -0.183696 -0.372246 -0.080760 -0.111244 0.122153 0.202826 0.873830
TTTTCT 0.564592 -0.377348 -0.231156 0.660350 0.189742 0.049054 -0.088260 1.054743 -1.069181 0.924937 -0.050476 -0.119134 -0.342735 -1.020792 1.408554 -0.278529 -0.308606 0.380004 0.085625 0.032197 0.239974 0.645749 -0.118093 -0.789172 -0.213669 0.335398 0.687545 0.084607 0.258225 -0.834008 -0.797783 -0.554241 -0.317871 -0.475533 0.055028 0.742012 0.089453 0.151076 0.490024 0.481945 0.468639 -0.701267 0.429682 -0.969808 0.363045 1.533060 -0.439447 0.391592 -0.428848 1.207273
ATTCAT -0.642918 -0.317160 -0.273124 0.534479 -0.095092 -0.988356 0.269876 -1.214669 -1.229548 0.625250 1.389064 0.637644 0.147107 -0.097194 1.637445 0.226714 0.619587 0.232272 0.075088 0.639428 -1.376090 -0.159591 -0.225273 0.108597 0.110910 0.331295 0.693829 -0.130013 -0.236393 1.181924 -0.813392 0.005774 0.438579 0.241467 -0.069872 0.380074 -0.840623 1.732322 0.091246 0.207777 1.133771 -0.584004 0.445706 0.112260 -0.948120 0.425696 -0.398934 -0.843967 0.209308 0.513660
AAGTTT 0.118504 -0.349913 -0.234670 -0.707202 1.113609 -0.322363 0.788034 0.815231 0.069444 -0.315695 0.005286 0.871412 -0.134140 -0.063199 -0.173146 -0.159694 0.545152 0.842034 -1.501866 0.376257 -0.540773 1.800476 -1.716898 -0.601202 0.269045 0.122336 -0.997709 -0.413151 0.123654 -0.627112 -1.552401 -0.332785 0.708572 -1.061023 0.814340 -0.021571 -0.474523 0.680343 -0.798685 0.226108 0.797332 -0.466040 0.549332 0.006361 0.181411 -0.185108 0.083657 0.930338 -1.008189 0.263579
TATCAT -1.602588 -0.475241 0.169692 0.381038 0.307268 -0.750482 -0.129043 -0.801920 -0.647993 1.130187 1.969617 0.562593 0.363844 -0.157932 -0.492242 0.092606 0.271414 0.741147 0.401217 0.406192 -1.017694 0.188911 -0.159613 -0.452469 0.062396 0.305008 1.146209 -0.372636 -0.234249 1.021456 -0.911530 -0.707739 1.321471 -0.548594 -0.642029 -0.001621 -0.337286 0.447637 0.286935 -0.060270 0.366820 -0.464679 0.355926 -0.064146 -0.898706 0.692306 -0.353572 -0.796690 0.163859 1.286609
TGAAAA 0.483774 -0.746741 0.030538 -0.976537 0.285271 0.074608 0.434667 0.695239 -1.766463 -0.674216 0.128047 1.298849 1.171669 0.907150 0.536674 -1.202667 -0.870834 -0.559609 0.720179 0.575126 -0.407636 -0.113211 -0.685327 -0.510341 -0.903780 -0.713719 -0.480570 0.442980 -0.361760 0.050322 1.040505 -0.855117 1.303874 0.707616 0.715228 -0.222322 -0.714749 0.644730 0.988026 0.262265 0.486319 -0.396631 -0.908224 1.077352 -0.365028 0.007200 -0.448299 -0.553079 -0.169417 0.974455
ATAATT -0.956125 -0.563032 -0.407955 -0.092118 -0.205328 -1.388471 0.884729 -0.414506 -0.693256 -0.136995 0.730897 -0.649267 0.181860 -0.101268 0.431987 0.018993 -0.210668 0.490505 -0.137553 0.229770 -0.694336 -0.416583 -0.464836 0.174842 -0.145523 -0.136799 -0.285271 -0.726880 0.081277 0.069868 -0.665126 0.149503 1.256045 0.298222 -0.259701 0.116868 -1.547280 0.754030 0.391046 -0.848267 1.187953 -0.424681 0.407620 -0.260606 0.150186 0.468011 -0.690497 -0.369692 -0.734742 0.357761
CATTAT -0.344949 -0.320671 -0.201996 -0.743264 -0.108266 0.471273 1.418573 -0.189553 -1.217358 0.853339 1.651666 1.075895 -0.429604 -0.479833 1.372826 0.273503 -0.720325 0.036967 -0.086135 0.379534 -0.517454 0.497753 -0.036064 0.016046 0.175163 1.314694 -0.326505 -0.791580 0.828637 -0.012366 -0.424803 0.179286 -0.331746 0.282535 1.069767 0.535774 -0.737455 1.479852 -0.437882 0.192799 -0.476016 -0.000404 0.292886 1.507040 0.005896 0.005355 0.383949 -0.091008 0.182721 -0.631202
TATTCT -1.015642 -0.922213 -0.222122 -0.088973 -0.404607 0.394202 0.188202 0.176895 -0.949980 -0.027388 1.327492 0.509488 0.468117 -0.478119 0.728656 0.550575 -0.780491 1.290186 -0.066395 -0.156015 1.058509 0.441424 0.015150 -0.038926 -0.128860 0.179183 0.167820 0.177333 -0.314634 -0.572478 -0.422227 -1.786372 -0.508606 -0.830699 -0.730773 0.003035 -1.293762 -0.743101 -0.521976 0.309359 0.029164 -1.687832 0.457899 -0.156209 0.188310 -0.048339 0.567235 0.425440 -0.664186 1.297552
TTATTA 0.196388 0.058458 -0.756835 -0.604314 -0.465490 -0.626665 1.160099 -0.448987 -0.725002 0.302020 1.453297 1.635324 -0.355837 -0.608404 0.403699 0.662416 -1.163204 -0.264776 0.352131 -0.077008 -0.360682 1.222074 -0.420024 0.120553 0.014751 0.909987 -0.789100 -0.773299 0.898552 -0.451539 -0.737203 -0.898784 0.229456 -0.042934 0.113926 0.547115 -0.590082 0.813815 -0.347986 -0.026196 0.317703 0.578233 -0.039773 0.495462 0.531202 -0.396809 -0.147507 0.016467 0.540471 -0.355720
AATAAT -0.433319 -1.156260 -0.169295 0.098310 1.229687 0.113083 0.363859 0.730991 0.170474 0.187004 1.260485 -0.193766 0.103902 1.160182 0.148394 -0.371572 -0.761327 -0.285675 0.278975 -0.289673 -1.165019 0.252617 -0.241533 0.799571 0.197524 -0.695663 -1.092550 -0.394225 0.557433 1.170397 0.588262 -0.898480 0.141167 -0.666272 -0.289063 0.047028 -0.707554 -0.216685 0.876102 -0.045960 1.520484 0.245282 -0.491489 -0.593020 -0.364883 0.124087 -0.829899 0.070542 -0.283777 0.052010
GTTTAT -0.177487 -0.377884 -0.615768 -0.598067 0.049754 -0.347201 1.534728 -0.554420 0.157293 0.056544 0.430109 1.732364 -0.380929 -0.485981 -0.027518 0.287482 -0.307747 -0.107289 -1.202649 1.179510 -0.777859 1.234096 -1.123721 -0.496594 -0.095783 0.717984 -0.635729 -0.638544 0.064475 -0.284416 -0.713756 -1.167348 -0.319255 -0.169720 0.375989 0.551701 -0.816695 1.024055 -0.022540 0.270398 0.273272 0.251222 0.784353 -0.066449 0.738227 -0.447295 -0.242160 0.399616 0.326822 0.177270
TTTTTTCT -0.428775 0.374510 0.578790 0.701099 -0.059525 0.243372 -0.097034 0.901832 -0.787380 0.181092 0.281956 0.812593 -0.411612 -1.535393 1.244994 -0.314410 -1.101566 0.782026 0.566125 0.027163 -0.010171 1.169405 -1.235826 -0.922469 -0.439025 -0.365635 0.203549 0.232186 1.810335 -0.751388 -0.123188 0.647520 -0.773583 -0.031751 0.668674 0.566091 -0.865515 0.895825 0.655108 0.217023 -0.943057 -0.932910 -0.449905 -2.522288 -0.078510 0.629383 0.158885 0.733340 -0.462352 0.347140
CAATTT -0.238215 -0.587494 0.659604 -0.376028 0.603956 -1.771935 1.071855 -0.038546 -0.996056 -0.365205 0.701187 -1.088187 0.137231 -0.600997 0.255159 -0.522968 0.020841 1.069916 0.569597 -0.800216 -0.511252 0.528964 0.071576 0.043197 1.012034 -0.073008 -0.126946 1.596084 1.656623 -0.741560 -0.166902 -0.028534 0.275145 0.124135 0.251541 -0.493771 -1.474697 -0.627957 1.041406 -0.779506 -0.034786 -0.319065 -0.297884 -0.026270 0.152581 0.255865 -0.809166 0.682744 -0.505985 0.331236
AAAATA -0.350111 0.196189 0.133800 -0.286349 0.084536 -0.361821 -0.024026 0.165248 -1.176587 0.142277 0.562131 0.674113 0.542141 0.553895 0.262376 -0.476524 -0.789853 -0.535833 0.085922 -0.125716 -0.754234 0.005432 -0.435591 0.743173 -0.126626 -0.180689 -0.827894 -0.045372 -0.437137 -0.397322 0.110195 -0.841812 0.899003 -0.207365 -0.458425 -0.174369 -0.858017 -0.384440 1.303167 0.521611 0.481406 -0.514432 -0.064344 0.748630 -0.800226 0.228584 0.046349 -0.587428 -0.124909 1.012136
GAAATA -0.315692 0.080479 -0.091078 0.215156 0.933016 0.159384 0.101342 0.797002 0.329021 0.252105 0.845787 0.137122 0.987271 0.742483 0.444499 -0.167022 -0.374379 0.510869 0.269758 -0.284058 -1.418116 -0.075941 -0.765903 1.125726 0.312635 -0.322111 -0.852391 -0.434593 -0.283879 1.778160 0.546807 -0.303168 1.952512 -0.764747 -0.521764 0.865538 -0.412186 -0.747311 0.523544 0.620060 0.759269 0.559154 -0.112335 -0.745958 -0.112324 -0.131760 0.243989 0.219579 -0.787114 0.372981
AAATAA -0.246650 -0.225589 -0.635731 -0.513201 0.978259 0.146213 0.459193 0.670030 -0.099112 0.001490 0.625718 0.234872 0.325606 0.340059 0.137314 -0.789981 -1.464420 -0.155302 0.462480 0.241510 -0.864562 0.024766 -0.362222 1.033518 0.231521 -0.775476 -1.063186 -0.005714 0.589167 0.429848 -0.169217 -0.466218 0.419446 -0.497923 0.467699 0.453139 -0.046272 -0.258682 0.382175 0.654106 0.917651 -0.364899 0.343447 0.253382 -0.625566 0.426979 0.448453 -0.506164 -0.585783 0.222577
AAGAAT -0.184104 0.082955 -0.607638 -0.391741 0.321747 -0.738452 2.005026 1.136270 -0.237044 -0.005804 0.165671 -0.519627 1.565993 0.577583 0.186497 0.072053 0.108831 0.323139 0.944429 0.180389 0.169466 -0.295367 -0.274869 -0.111907 0.485824 -0.551460 -0.383726 -0.549784 0.378733 -0.379126 -0.739268 0.960455 1.370343 -0.833503 0.088975 0.561361 -1.241741 -0.433106 -0.295455 0.300296 0.714520 0.336396 -0.224387 0.764464 -1.324689 -0.279818 -0.218397 0.499787 -0.523846 0.495789
TTTCAT -0.874753 -1.266424 -0.085585 0.264525 0.614768 -1.613486 -0.177833 -0.629821 -0.451197 0.495794 1.424459 0.685475 -0.335502 0.102267 0.101304 -0.135277 0.433393 0.967957 -0.843828 0.286400 -0.769416 0.926170 -1.004371 -0.115656 -0.171494 0.087647 -0.180830 0.188665 0.448212 0.240695 -0.808659 0.519352 0.207161 -0.710021 0.366876 0.221989 -0.161967 0.773655 0.439205 0.268898 0.862747 -1.274890 0.194086 -0.827141 -0.354674 1.385668 -0.085364 -0.734222 0.666064 0.890597
ATTATT -0.776848 -0.430823 -0.794221 0.426019 -0.085876 -1.461484 0.397755 -0.381772 -1.239120 -0.305040 0.522208 -0.304486 0.211095 -0.455577 0.472385 -0.231318 0.808662 0.483159 0.491542 -0.323119 -0.525390 -0.051623 -0.126073 -0.009696 0.028898 0.236668 -0.516127 0.557906 0.765634 0.534009 -0.905735 -0.781034 1.647826 0.443863 -0.246383 -0.396385 -1.838974 1.041984 0.314207 -0.243965 0.699581 0.333346 0.376061 -0.020630 -0.312257 0.101672 -0.681588 -0.237295 0.169431 0.415679
ATTTTC -0.776858 -1.052274 0.036450 0.264246 0.302399 -1.587689 0.127763 -0.027417 -1.487873 -0.331983 0.437498 -0.241747 -0.271474 -0.544911 0.299252 -0.106009 0.058249 1.101167 0.170447 -0.036756 -0.546768 0.338631 -0.563790 -0.075564 -0.276455 -0.795900 -0.664335 1.189417 1.143492 -0.389535 -1.117322 0.477989 0.416858 0.092627 0.898176 0.150755 -0.463308 0.438394 0.750020 -0.008249 0.313638 -1.613606 0.065448 -1.132071 -0.593243 0.296905 -0.607418 0.116060 0.551637 1.054836
TTCTAT -0.537836 -1.284992 -0.440676 0.378346 -0.331318 -0.103259 0.600867 -0.174718 -1.380431 0.652440 0.667055 0.690797 0.037071 -0.539244 0.708072 0.080783 -0.286201 1.489569 0.190208 -0.132113 0.427616 -0.309980 0.664182 -0.878919 -0.517001 0.525793 0.030141 0.584110 -0.397875 -0.535511 -0.648125 -1.357392 0.551736 -0.614779 -0.809434 -0.369310 -1.118385 -0.492122 -0.166721 -0.537284 -0.117493 -0.913592 1.216914 -0.625428 -1.117306 -0.265253 -0.169253 0.726480 -1.148832 0.782916
TTCTTC -0.002837 -0.977270 -0.743012 0.390145 0.598266 0.261353 0.189608 -0.195240 -1.270792 0.113460 0.970673 0.617469 -0.068885 -0.381006 1.284891 0.383439 0.016926 1.096006 0.163871 -0.219741 0.798564 0.211727 -0.298027 -0.197181 0.372477 0.507163 0.335260 0.637344 -0.029444 -0.603964 0.199040 -0.181405 -0.827790 -0.527874 -0.147864 0.231066 -1.042114 -1.058831 -0.422502 -0.127120 0.392737 -1.483141 0.355578 -0.417984 -0.181858 -0.123593 -0.104529 1.409009 -0.677949 0.432887
TTAATT -0.403911 -0.443788 -0.547240 0.043428 0.232442 -0.442500 0.677147 -0.190271 -0.722971 0.564189 1.410940 0.581161 -0.321954 -0.784670 0.578045 0.369513 -0.540875 0.381490 0.635853 0.026192 -0.673262 0.197536 -0.327428 0.834439 0.201401 0.468808 -1.383530 0.200670 1.019453 -0.299557 -0.837143 -0.196249 0.920318 0.494178 0.260346 0.259227 -1.733200 1.041856 -0.541358 -0.034966 0.982253 0.530834 0.231922 -0.089532 0.604077 0.140682 -0.370077 -0.279020 0.364422 0.323779
TTTATC -1.381078 -0.100950 0.907142 0.607694 1.392664 -0.114323 0.002169 0.121236 -0.807362 1.519718 1.510819 0.843079 -0.446490 -0.965372 -0.138425 0.078469 -0.601074 0.639305 0.694875 0.093641 -1.495342 0.137889 -1.003570 -1.065136 -0.372413 0.630557 0.491112 -0.778357 0.446951 0.402175 -0.646821 -1.110630 0.594661 -0.118919 -0.840511 0.344287 0.857025 -0.303387 -0.322554 0.154502 -0.084986 0.504140 -0.562232 -0.101467 -0.024849 0.297663 -0.428587 0.424514 -0.565251 1.398174
AGTTTT 0.674042 -0.192324 -0.255623 -0.002000 0.239721 -0.215030 0.518706 0.478142 -0.557360 1.469081 -0.152374 0.537046 -1.501080 -1.126100 0.634940 -0.015181 -0.712278 -0.282135 0.135827 -0.907706 -0.023954 1.213233 -0.205300 0.190716 0.805443 0.560248 0.569924 -0.459956 1.118203 -0.764989 0.315145 -0.336212 0.539672 0.307792 -0.409956 0.090797 -0.466007 -0.810035 -0.289693 -0.046563 0.843850 0.133245 -0.291501 -1.269095 -0.409357 1.675332 0.328429 -0.238327 -0.324271 1.326292
ATTTTA 0.008368 -0.664512 -0.426554 -0.285465 -0.510418 -1.467676 1.027198 -0.896786 -1.005581 0.344068 0.831454 0.310987 -0.272183 -0.441256 0.185631 0.085381 -0.462390 0.657473 1.075964 -0.577584 -0.485106 0.423088 -0.078984 0.725482 0.294133 0.151462 -0.622871 -0.007406 1.042511 -0.339756 -0.877624 -0.742175 0.918122 0.090411 0.694635 0.422023 -1.293072 0.520743 -0.026552 -0.416476 0.440925 0.270987 -0.000956 0.025181 -0.085941 -0.269804 -0.919145 0.050851 0.560128 0.243513
AATGAA 0.829461 -1.172025 0.182194 -1.252732 0.938306 -0.868545 1.231238 0.884489 -0.533691 -0.020890 0.732196 1.007199 0.936362 1.359679 -0.153174 -0.960488 -0.798797 0.449090 1.004573 0.661972 -0.012007 0.738384 -0.598878 -0.018905 -0.942088 -0.977492 -0.641173 0.404680 0.188381 0.401727 1.011005 -0.405028 0.975935 -0.493327 0.279035 -0.332459 -0.511979 0.588242 0.821625 0.030323 0.865672 0.627872 -1.275612 0.915257 -0.087265 -0.083847 0.067801 -0.330907 -0.412740 0.159846
CTATTT -0.349817 -0.734301 -0.238262 0.490351 -0.697027 -1.107840 1.035586 0.143981 -1.568310 1.035680 -0.259539 0.261306 -0.120331 -0.438247 0.802689 -0.529958 -0.367242 1.175015 0.174534 -0.592840 -0.207619 -0.356239 0.552876 -0.486656 -0.291767 0.377545 0.334956 0.999797 0.383247 -0.509165 -1.252920 -1.406252 0.682369 0.251516 -0.076865 -0.676550 -1.150119 0.857553 0.717557 -0.864298 -0.266730 -0.348372 1.039244 -0.850315 -0.999348 -0.194226 -1.035435 0.160731 -0.352449 0.868333
TATTCA -1.013133 -0.263680 -0.696153 -0.049168 -0.060527 -0.020202 0.192667 0.124250 -0.876894 0.368149 1.627591 0.145348 1.126180 -1.518748 0.194715 -0.278237 -0.219979 -0.036272 -0.777754 0.048871 0.504852 0.275083 -0.321674 0.146451 0.964658 -0.259447 0.467561 -0.225756 1.246356 0.329641 0.112310 -0.449273 -0.356330 -0.193370 -0.411676 -0.268667 -1.063714 -0.368246 0.180993 -0.347878 0.533826 -1.977660 0.087854 0.760040 -0.411909 0.056769 1.375220 1.190927 -0.080185 0.569260
AAATAT -1.119407 -0.323871 -1.057708 -0.120121 0.283009 -0.181431 0.120945 -0.021035 -0.585185 -0.147531 1.024228 0.536278 0.750112 -0.382486 0.075167 -0.415604 -1.371906 0.391720 0.296865 0.491848 -0.212679 0.145089 -0.047434 0.305924 0.212772 -0.616199 -0.590431 -0.366743 0.610864 0.187326 0.244988 -1.638063 0.298858 -0.610660 -0.327371 0.275328 0.372066 -0.195760 0.422325 0.895930 0.248297 -0.393612 0.096933 0.598944 -0.280225 0.334385 0.727026 -0.570642 -0.275963 1.099755
GTAAATA -0.785067 -0.542531 -0.108152 -0.693080 -0.102784 0.733276 -0.653376 -0.792196 -0.271997 0.596528 0.733225 1.144578 0.001398 0.523102 -0.794903 -0.697364 -0.129771 -0.790885 -0.267581 0.394398 -0.560832 0.260104 -0.948825 1.091601 0.174064 0.508146 -1.110026 -0.986489 -0.036797 -0.015082 -0.078518 -1.147222 0.373019 -1.206341 -0.369782 0.139434 -0.698459 -1.068824 0.727597 0.714343 -0.396353 -0.729235 -0.221587 0.270174 -0.530441 -0.068357 0.115273 0.196977 -0.788689 0.299280
TAAAAA 1.247135 0.866091 0.243188 0.055231 -0.800108 -0.664806 0.378846 1.254643 -1.137872 -0.385387 -0.665481 -0.141479 0.632900 0.609035 0.779443 -0.359293 -0.726051 -0.384521 -0.334425 0.371779 -1.664277 0.047709 -0.420914 -0.534524 0.048417 -0.517093 0.041497 0.249425 0.189864 -0.886249 0.831192 -1.318039 0.765874 -1.229410 -0.666184 1.077938 -1.638900 0.799792 -0.325837 -0.532322 0.537822 -0.874989 0.175052 0.810666 -0.155904 0.417496 0.333895 0.272588 0.646360 1.372719
TTTTCC -0.040206 -0.314565 0.326160 0.736211 0.622469 0.006130 0.542036 0.592385 -0.517354 1.257101 -0.953812 -0.141577 -0.278921 -1.010106 1.250466 0.173633 -0.718972 0.535308 1.348025 0.087660 -0.793679 0.818954 -0.631584 -0.858959 1.155882 0.054662 0.646623 -0.540851 0.238099 -0.375179 0.297610 -0.563117 -0.954122 -0.094639 0.710639 0.448610 -0.366356 0.191229 -0.256152 0.023037 0.057358 -0.366865 -0.090037 -1.338595 0.153907 0.686798 -0.072764 0.899367 -1.287431 -0.078543
AACTTT 0.456753 0.104619 -0.114721 -0.033809 0.898285 0.545549 0.410074 -0.108545 0.445949 0.187253 1.171076 1.022394 -1.283994 0.088879 0.303928 0.040169 -1.502682 0.325137 0.704863 0.319850 -0.335294 -0.166466 -0.830589 -0.973518 -0.148516 0.089935 1.182769 0.316883 0.193936 -0.938525 -0.571853 -1.120320 1.569097 1.051004 0.221164 0.619044 -1.255960 -0.305303 0.708749 -0.422770 0.876409 -0.146503 -0.399560 0.486656 -0.392595 0.769829 -0.465635 0.965208 -0.616967 -1.639412
ACATTT 0.328231 -1.351705 0.594977 0.056335 -0.627976 -0.704342 0.000914 -1.139187 -1.245256 0.130327 0.467586 -0.591031 1.050591 -0.029003 0.978882 0.015274 0.462141 0.844633 1.017188 -0.096399 -0.843956 0.026386 -0.768413 0.370421 1.023397 0.044912 -0.329371 1.300275 2.056031 -0.395248 -0.686733 -0.880383 0.747475 0.416696 -0.162168 -0.232775 -1.062858 -0.165472 -0.097761 0.099040 0.236035 -0.169422 0.773970 -0.436780 -0.319240 -0.348448 -0.304158 0.134054 1.250834 0.648061
CAGTTT 1.198468 -1.341245 -0.457523 -0.332458 0.522377 0.258792 0.659641 -0.189166 -0.886634 0.768641 -0.030091 0.696135 -2.049013 -0.841120 0.446002 -0.014874 -0.626576 0.042995 0.182520 -1.081295 -0.289836 1.063859 -0.620956 -0.190329 0.533879 0.795205 0.425018 0.006904 0.956684 -0.332765 0.524086 0.134519 0.802002 0.433331 -0.568604 -0.524839 0.208638 -1.216586 -0.355222 -0.373367 0.749898 0.038028 -0.329389 -0.505627 -0.667425 1.555836 0.605999 -0.560250 -0.778500 1.821189
GATTTT -0.161935 1.072464 0.629426 0.267822 0.201846 0.156204 0.424452 0.488752 -0.280180 0.683308 -0.331122 -0.633832 -0.002323 -0.756044 1.534176 -0.534419 0.077349 0.005028 0.040559 -0.603972 0.114187 0.738092 -0.741259 -0.993073 -0.384267 0.776795 0.171087 -0.495069 0.864791 0.394507 -0.581659 -0.762263 -0.198700 1.146105 0.739474 0.858934 -0.689609 0.187547 -0.409284 1.842584 1.670021 0.240831 -1.026056 -0.278502 0.265303 -0.230189 -0.274028 1.429431 -0.451961 1.015892
TATTTC -1.500522 -0.688767 -0.013023 0.225358 -0.116638 -1.672509 -0.555134 0.056555 -0.518930 0.073215 1.211014 0.304454 0.508052 -0.646052 0.153843 0.688564 -0.674016 1.151534 -0.606812 0.203737 0.231400 1.180121 -0.769612 -0.368805 -0.331044 -0.490254 -0.519260 0.217467 0.900852 -0.729782 -0.533889 -0.368925 -0.679086 -0.759820 -0.388814 0.056080 0.235176 0.252248 0.881743 0.149236 0.435674 -1.896928 -0.250242 -0.114401 0.318897 0.105266 1.087065 0.037331 0.381423 1.085876
TGCAAA 0.595532 1.153687 0.674827 1.448421 0.732656 0.829153 0.517877 -0.515731 -0.272510 -1.377377 0.534252 0.188582 -0.305144 0.217624 -0.220683 -0.419740 0.635885 0.179180 0.502146 0.166499 -0.739338 0.118601 0.005107 0.269619 1.475771 -0.264478 -1.175218 0.268302 0.335790 -1.694067 0.732096 -0.612675 0.449221 -0.134105 0.118387 0.114817 -1.131427 -0.316824 1.266589 0.651798 1.345186 0.457414 0.323013 1.186395 -1.270656 0.155154 -0.284828 -0.592288 -0.661780 1.371186
AGCATT -0.219036 0.254654 1.046527 0.380803 0.391384 0.187236 -0.291562 -0.359538 -1.990738 0.618950 1.285398 0.373738 -0.117665 1.103005 1.952156 0.312529 0.340945 -0.050927 -0.471086 -0.247060 0.691865 0.751491 -0.621157 0.869742 0.380798 0.036338 -0.029407 -1.101352 1.794557 -0.481828 -1.116166 0.331247 0.409752 -0.606980 0.950848 0.039802 -0.104547 0.650965 -0.750512 0.323786 0.228314 0.219160 0.109834 0.236142 0.025703 0.852143 1.105509 -0.644083 -1.255996 -0.759887
ATCATT 0.046672 -0.774687 0.482674 -0.871194 -0.028370 -0.586260 0.618999 0.904584 -0.844572 0.438513 1.398088 1.025856 0.032772 0.516045 1.006541 0.238799 0.337548 0.218615 -0.117052 0.159603 -0.994639 0.737769 0.358701 0.542732 0.933311 1.993078 0.430471 0.146599 1.245490 0.519063 -0.726232 0.323398 -0.668023 0.508810 0.504396 0.967331 -0.085479 1.136604 -0.341152 0.527760 -0.533116 -0.697312 0.506968 1.129729 -0.306339 1.296400 0.054932 0.467469 -0.083848 0.256549
TTACTT 1.033859 -0.775088 -0.665760 0.387409 -0.744139 -0.727487 0.493892 0.174143 -0.396045 0.120183 1.568191 0.767496 -0.315994 -2.121604 0.839109 -0.235039 -0.427148 0.377153 0.855372 -1.064284 -0.317372 0.956746 0.160682 -0.533643 0.719957 0.719081 0.010780 0.237303 -0.015015 -0.666018 -0.378844 -1.176760 0.781194 -1.042472 0.067335 0.501583 0.028886 -0.705566 0.149279 0.256968 1.300252 0.060120 -0.656167 -0.295088 1.111320 -0.746257 -0.583314 -0.131968 0.112441 0.044540
AAGATA -0.630253 0.889990 0.802499 -1.417331 -0.560727 -0.196360 0.516276 0.465062 0.475373 -0.336767 0.292314 0.336048 0.604865 0.776705 0.541764 0.030846 -1.348177 0.100784 -0.437459 0.451487 0.071990 0.649192 -0.029112 0.277298 0.491935 -0.836997 0.435269 -0.563683 -0.395625 -0.507920 -1.106298 0.311761 0.357343 -0.564291 0.325796 0.054625 -1.087358 -0.257664 0.109425 1.298260 1.072478 -0.283529 0.062547 0.575325 0.032215 -0.838304 0.652912 0.597706 -1.808560 0.840792
ATAGAA 0.003589 0.686557 -0.642894 -0.192545 -0.433520 -0.635359 1.204875 -0.166136 0.037598 0.176026 0.851695 0.093422 0.510028 0.828668 0.470745 -1.073582 -2.111047 0.261231 -0.834554 0.000733 -0.972444 -0.266821 -1.289208 0.847574 0.663430 -0.889138 0.198602 -1.556235 -0.093386 0.521956 0.739062 -0.124408 0.752212 -0.656387 -0.116507 -0.444603 0.307083 0.717088 0.296024 -0.035906 1.306109 0.109903 -0.351784 -0.276128 -0.540439 0.653823 -0.205518 0.119774 -0.026380 -0.603797
TATCAA -1.301962 -0.216814 0.541306 -0.021212 1.222589 -0.235872 -0.007134 0.266881 -0.814996 0.686795 1.586182 0.503453 -0.073748 -0.013134 -1.068595 0.404255 -0.949835 0.673278 -0.124729 -0.482339 -1.390692 0.211418 0.556057 -0.376393 -0.339655 -0.498385 0.527205 -0.026778 0.491325 0.350961 -0.905208 -1.704296 0.939100 0.015894 -0.285394 -0.155936 0.402668 -0.048038 0.821322 0.360277 1.090958 -0.214384 0.070477 1.045490 -1.347635 -0.849218 0.860347 0.093075 -0.584782 0.872899
GAAATT 0.185730 -0.980076 0.202236 1.031468 0.395138 -0.374515 -0.285560 1.283104 0.359109 -0.516408 0.911717 0.293386 0.912580 -0.000821 0.731636 -0.092815 -0.607310 0.902875 0.355113 -0.954500 -1.016316 0.429962 -0.350305 0.856769 -0.028309 -0.141798 -0.796720 0.270222 0.568824 1.512910 0.713945 0.045441 0.881792 -0.784428 0.113389 0.879096 0.138034 -0.791896 -0.448258 0.806109 1.180107 0.271322 -0.164900 -0.878313 -0.334388 -0.024706 0.843448 0.811828 -0.398018 0.460893
CAAATA -1.030557 0.309522 0.149010 0.051418 1.434595 1.085744 0.790033 -0.067889 0.203509 -0.731032 1.063105 -0.107699 0.689442 0.615479 -0.273201 -0.329657 -0.207223 -0.929992 0.175825 -0.361293 -1.053215 -0.015939 -0.598388 -0.124151 1.170561 -0.222160 -0.777632 0.186333 1.117214 0.591224 0.685435 -0.417252 0.178077 -0.225846 -0.785484 -0.208762 -0.980233 -1.086278 0.731193 -0.167528 1.752893 -0.198058 0.694440 -0.115658 -0.269738 0.293945 -0.955523 -0.210485 -0.883974 -0.078521
AAAATT -0.373337 -0.322329 -0.480949 0.011899 0.143593 -0.867957 0.006138 -0.020486 -2.063707 -0.397713 0.062619 0.349172 0.064391 0.007166 0.655318 -0.347049 -0.351773 -0.282684 0.259410 -0.037921 -0.538770 0.045310 -0.254970 0.836392 0.120223 -0.301971 -0.796417 0.715226 0.148521 -0.178338 -0.242957 -0.716704 1.128734 0.515666 0.539929 0.054132 -1.159257 0.286995 0.820307 0.399859 0.722381 -0.711224 0.143699 0.437639 -0.756041 0.125933 -0.391338 -0.641428 0.055869 0.948052
ATTGAA -0.500232 -0.861451 -0.106835 -0.763215 -0.456412 0.075426 0.497450 1.115859 -0.709854 -0.890172 0.720297 0.484049 0.793706 0.722672 0.529892 -0.239252 0.218616 -0.069186 0.810327 0.969854 0.144984 0.406107 -1.006405 -0.024721 0.154195 0.323019 -0.626102 0.118058 0.183210 0.812451 0.747574 -0.015348 1.638840 0.422505 1.476226 -0.513623 -0.809908 2.013664 0.050110 0.480506 1.205741 0.130524 -0.923960 1.362405 0.448590 0.618420 -0.036733 -0.307978 0.242636 0.352368
GAATTT 0.173195 -0.240752 -0.409487 0.028795 0.489321 -1.607401 1.068699 0.814402 -0.612336 0.602149 0.254789 -0.669924 0.633736 -0.163596 0.631769 -0.259609 0.708278 1.156501 1.180003 -0.856726 0.557816 -0.186997 0.259140 0.217759 0.376835 -0.897504 -0.151467 -0.426015 0.787850 -0.132357 -0.926696 0.364433 1.865204 0.312950 0.355813 0.277641 -1.743757 -0.468250 0.195637 0.099282 0.050434 -0.323346 -0.227075 -0.682246 -0.921771 -0.104252 -0.431357 1.250065 0.677756 0.516654
ATATTT -0.218477 -0.820715 0.047828 0.417395 -0.212938 -1.415939 1.329796 0.017041 0.258695 -0.156165 0.990975 -0.184921 0.075081 -1.126583 0.525514 -0.017898 -0.414496 -0.198050 0.129604 0.563446 -1.007102 0.698048 -0.730712 -0.645227 -0.091388 0.283487 -0.108593 -1.074714 0.175070 -0.762871 -0.641305 0.977025 0.620181 0.019495 -0.233780 0.737994 -0.048753 0.441904 1.125908 0.002835 0.795895 0.238212 -0.129572 -0.620934 0.009606 1.596734 -0.240461 -0.138164 -1.223274 0.892504
TTTAAA 0.510300 0.279296 -0.252292 -0.073420 0.610917 0.375187 0.171917 0.305637 -1.155755 0.519994 0.525859 0.483210 -0.315261 -0.183813 0.927325 -0.523695 -0.848601 -0.544110 -0.188462 0.524579 -1.150143 0.497080 -0.662152 -0.038859 -0.088574 0.388090 -1.142139 -0.434528 0.207270 -0.439765 -0.801246 -0.423557 0.557311 -0.259961 0.001193 0.761380 0.630358 -0.391525 0.055249 0.885155 0.717174 0.057105 0.406091 -0.110194 0.058926 0.740580 -0.203532 0.041124 -0.432355 1.189575
TATTAA -1.030717 0.580404 0.430278 -0.226213 -1.191755 -0.833531 -0.112108 0.698426 0.056421 0.389304 0.699562 0.223743 0.419187 -0.145553 0.218599 -0.277292 -0.888537 0.276300 -0.365026 0.471599 -0.432288 0.504491 -0.552481 0.298757 -0.051106 -0.311988 -0.184803 -0.222158 0.420567 -0.737590 0.220880 -1.591867 0.199516 -0.859190 -0.870293 -0.043670 -1.483963 0.322454 -0.248439 -0.328907 0.716991 -0.759944 -0.164167 0.693638 0.114350 0.592968 0.565033 -0.064914 0.500203 0.739652
TCAAGA -0.494624 0.518064 0.894317 -0.980335 0.451296 -0.165655 0.169996 0.781466 -0.086444 0.320228 1.156935 0.289235 0.149255 0.017606 -0.390398 -0.596595 -0.730692 0.025957 -1.512782 -0.178821 -1.214186 0.502979 -0.072730 0.109285 0.491720 -1.141978 0.453173 0.615315 0.505447 0.826211 -0.875608 0.061544 0.164278 0.218285 0.184623 -0.395524 1.374360 0.881081 0.363684 1.081539 1.748458 -0.479691 0.397139 0.487947 -1.100231 -1.408345 0.007278 1.998190 -0.940337 -0.195895
AAATTA 0.198445 0.218568 -1.232697 -0.568760 -0.092452 -0.298560 0.692866 -0.192398 -0.186723 0.051173 0.744102 1.059410 0.432177 -0.060125 0.446721 -0.154259 -1.421829 -0.290086 0.849637 0.135741 -0.495173 0.720649 -0.062855 0.854036 0.187466 -0.005553 -1.084752 -0.439692 0.764999 0.165038 -0.271179 -1.028333 0.492424 -0.681118 0.401429 0.764644 0.352410 0.235525 -0.257672 0.608145 0.751857 0.018915 0.393834 0.619283 0.131873 -0.000716 0.292906 -0.533327 -0.069620 0.137282
ATTCAA -0.632983 -0.123148 -0.184510 -0.133179 0.875096 -0.788062 -0.094318 -0.258673 -1.650514 0.264507 1.091317 0.481692 -0.319144 0.335950 0.942650 0.593701 -0.185360 -0.293499 -0.562175 0.345385 -1.824856 -0.237852 0.612422 0.151319 0.166442 -0.412022 0.098636 0.557492 0.412407 0.560601 -0.710152 -0.918801 -0.012244 0.631179 -0.002287 -0.008450 -0.165734 1.663302 0.427035 0.667941 1.958729 -0.159857 0.213366 0.831922 -1.477235 -0.812946 0.705155 -0.003021 -0.304827 -0.283753
ATGCAA 0.513014 1.015445 1.132166 1.085060 0.541504 0.306433 0.904555 -1.115062 0.513991 -0.772655 0.769329 0.015122 -0.007642 0.227029 0.186701 -1.049740 0.482174 1.134782 0.274130 0.670235 -0.552027 0.718188 0.114872 -0.318526 0.923711 -0.438902 -1.387077 0.019616 0.312406 -0.719566 0.257061 -0.004129 0.161468 -0.229360 0.012154 0.050149 -1.412362 -0.362019 1.310304 -0.051745 0.436185 0.798929 -0.201232 1.707565 -1.418957 0.354518 0.143629 -0.228399 -0.693704 1.394437
TTTGAA 0.031308 -1.666073 -0.227811 -0.336870 0.356081 0.274595 0.285776 1.578077 -0.324746 -0.851344 0.282905 1.345586 0.683129 0.020067 0.513577 -0.506558 -0.854857 0.409898 1.181598 0.271672 -0.108354 0.597666 -0.811505 -0.505261 -0.596439 -0.634562 0.415697 -0.309114 0.020527 -0.358034 0.504961 -0.383142 1.283321 0.420545 0.820074 -0.213810 -0.627500 0.093821 0.295639 0.339842 0.664631 0.300102 -1.321155 0.318447 0.226321 0.474099 -0.600554 0.149390 0.007775 0.723454
ATTTAA -0.229151 0.083369 0.607167 0.058702 -0.889156 -1.204274 0.758032 0.313908 -0.742610 0.821006 0.239453 -0.350479 0.029218 -0.057014 0.153954 -0.662349 0.212968 0.397085 0.143758 0.119538 -1.228824 -0.244436 -0.268305 0.828488 0.094558 -0.558253 -0.247475 0.873977 0.394722 -0.634830 -0.210413 -0.590432 1.088651 -0.221124 0.222614 -0.008434 -2.191703 0.412240 -0.169687 -0.938620 0.969472 -0.425947 0.333747 -0.396398 -0.531915 0.041413 -0.908451 0.138917 0.704262 0.705885
TTGAAA 0.823982 -0.578785 -0.335457 -0.079940 0.403497 -0.819842 0.462199 1.682220 0.087773 -0.350667 0.973195 0.288378 0.898649 -0.069203 1.428874 -0.051599 0.229735 0.620518 -0.288026 -0.002121 -1.111560 -0.817288 -0.287656 0.250997 0.315952 -0.842368 0.244207 0.170432 0.437192 0.764430 0.437480 -0.878834 1.564605 -0.694734 -0.009313 0.675423 0.440738 -0.412418 0.435948 1.314781 0.301320 1.013788 0.537386 -0.670974 0.806591 -0.230332 1.724194 0.413897 -0.986611 0.833445
TTTCTA -1.360372 0.358008 0.539338 0.376878 -0.292592 -0.584177 -0.106420 0.860528 -1.030377 -0.223982 0.762377 -0.197545 -0.093332 -0.344641 0.896969 -0.314281 -0.655273 0.940859 0.030248 0.722161 -0.221159 0.507508 -0.989826 -0.936670 -1.325258 -0.095472 -0.778004 0.181399 1.188447 -0.485980 -1.172165 -0.079403 -0.146564 -1.353480 -0.804541 0.272592 -0.333615 0.793148 0.894143 0.461799 -0.774255 -0.637318 -0.345689 -1.453098 0.199524 1.193710 0.451412 0.683652 0.410361 0.538616
ATTTCA -0.488970 -0.132237 -0.664633 0.103249 -0.096684 -0.662614 0.517673 -0.270493 -1.537720 0.779826 1.061033 -0.313765 0.313540 -0.903258 0.846102 -0.942580 0.804285 -0.111120 -0.376796 -0.044518 -0.306269 -0.154725 -0.611539 0.297977 0.965434 -0.181736 0.334805 0.917620 1.168738 0.609286 -0.203658 0.540965 0.364320 1.161614 0.249005 -0.106481 -1.438592 -0.347188 -0.256818 -0.231420 1.026601 -1.749034 0.288824 0.253324 -0.719072 -0.216626 -0.289142 1.139005 -0.008276 0.642213
TTTAAT 0.011845 -0.962871 -0.277362 0.161618 1.432779 -0.166912 0.483561 0.761939 -0.176491 0.829221 1.564935 0.033282 -0.641968 0.142793 0.733919 -0.466806 -0.657885 -0.315177 0.106371 -0.108113 -0.664559 0.965977 -0.324606 -0.084608 -0.509535 0.411787 -0.985450 -0.340678 0.604530 0.412516 -0.070619 -0.488844 -0.173680 -0.276622 -0.353997 0.318321 0.104701 -0.540081 -0.030693 0.197195 1.058734 0.537648 -0.615500 -0.549909 0.108439 0.662307 -0.712130 0.404334 -0.159985 0.362436
TAATTT -0.136294 0.218714 0.835247 0.464369 -0.249889 -0.859224 0.543155 0.789835 -0.129654 1.296503 0.982600 0.166191 -0.288783 -0.039308 0.910175 -0.489102 -0.377743 -0.227682 -0.217562 0.239151 -1.042200 0.416571 -0.832882 -0.264877 -0.312748 -0.240184 -0.208684 0.170897 0.406594 -1.232876 -0.409883 -0.990829 -0.743042 -0.545073 -0.077272 0.532993 -0.763382 0.338736 0.005761 0.008065 0.602501 -0.446970 -0.680888 -0.235508 0.512247 0.537641 -0.040756 0.286465 1.157824 0.968097
AAATGA 0.147043 0.496559 -0.253764 -0.796509 0.674178 0.412419 0.744006 0.280960 0.945550 0.147560 0.652560 0.253708 0.663187 -0.182802 1.195652 -1.145677 -0.369060 -1.115330 1.150661 0.295606 0.479822 0.234429 -0.226058 -0.146944 0.009074 -0.873933 -0.145989 -0.206140 0.637654 0.634287 0.021343 -0.288213 0.733235 -0.441917 0.644140 0.806480 -0.245177 -0.527299 -0.275200 1.843262 0.897043 0.100340 0.718487 0.333392 -1.142373 0.315241 0.371993 -0.734169 0.126364 0.941620
AACAAA 0.748891 -0.307303 0.273772 -0.592629 0.567975 -0.228958 -0.219622 0.588416 -0.103927 -0.335901 0.356233 -0.300704 -0.348280 0.166892 0.254728 -0.462851 -1.450969 0.698206 -0.543600 0.528143 -0.911619 -0.144896 -0.069767 0.784649 -0.506041 -0.635154 -0.188405 0.038636 0.462783 0.324533 0.263632 -0.037701 0.807665 -0.401103 0.396393 0.914935 -0.310366 -0.142004 0.130177 -0.615590 1.361012 -0.232446 0.495661 1.138893 -0.798115 0.512176 1.188419 0.469361 -1.275292 -0.048630
TTCATA -1.082881 0.362788 -0.699767 0.044641 -0.328939 -0.502848 0.487535 0.419195 -0.775174 1.167723 1.447534 0.676550 1.081878 -0.697731 1.029942 -0.731817 -0.363027 -0.357303 -1.048442 0.308124 -0.189825 -0.118669 -0.863377 0.169294 1.650475 -0.234448 0.833354 -0.240991 0.112303 -0.134039 0.298787 0.717330 -0.765593 -0.279700 -0.396658 -0.008407 -1.099129 -0.910487 -0.447003 0.043032 0.235424 -1.882874 0.035871 -0.154218 0.299000 1.037704 -0.230361 0.472067 -0.397999 -0.122527
TTTTAT -0.110009 -0.391329 0.173187 0.625934 -0.208681 -0.774295 0.489629 0.184504 -1.171684 0.819036 0.228259 -0.222501 -0.269051 -0.814243 1.063842 -0.608961 0.357258 0.084826 0.678885 -0.159593 -0.306014 0.598377 0.199595 -0.167724 0.135303 0.722420 0.059482 -0.092913 0.604289 -0.482652 -0.364004 -0.569196 0.265323 -0.178593 0.493682 0.851484 -0.458097 0.304042 -0.213685 0.510502 0.639348 -0.086374 0.214358 -0.461363 -0.059507 0.987835 -0.767889 0.262229 0.051547 0.985513
CTTGAA 1.088848 -0.251834 -0.603889 -0.026219 0.024351 0.009602 0.564414 2.254925 -0.059938 -0.242433 1.076834 0.178038 1.185935 -0.223845 1.587854 0.752218 0.574124 0.694971 0.536462 0.010971 0.111213 -0.942921 -0.499103 -0.694301 0.315628 -1.197246 1.657772 -0.233985 -0.353845 0.272172 0.124175 -0.159458 1.517509 -0.767525 -0.022062 -0.031631 0.060036 -0.364890 0.202017 1.113939 0.450261 1.317980 0.337786 0.198953 0.947869 -0.679269 0.442319 0.865677 -0.621728 0.102525
GTATTT -0.854717 -0.887750 0.336154 0.182552 -0.727955 -0.617468 0.828454 -0.509374 -1.051002 0.262936 0.567471 -0.433155 0.070751 -0.966272 -1.017773 -0.028991 0.092360 0.579170 0.359484 -0.368981 0.015590 0.111584 0.270064 0.409602 0.278362 -0.291472 -0.145209 0.775617 0.853562 -0.219475 -1.170887 -1.048954 1.360606 0.335621 1.875671 0.148138 -1.538025 -0.414259 0.185572 -0.018670 0.005018 -0.929659 -0.300378 -0.595015 0.228014 -0.329412 -0.111237 0.462921 0.597310 0.982862
CATTTA -0.069309 -0.598506 0.677619 -0.062351 1.206480 0.624471 0.711502 0.647772 -1.628163 1.404580 1.649284 -0.112936 -0.565752 0.221546 1.557392 -0.213953 -0.376881 -0.255413 -1.030839 0.244422 -0.376838 0.755281 -0.547808 0.055123 -0.092086 1.578269 -0.937789 -1.150871 0.671957 0.472742 -0.918345 -0.003456 0.284728 0.197166 -0.272036 0.470703 0.738712 0.037148 0.116388 0.207162 0.063756 -0.053234 0.123352 0.464860 0.196443 1.444629 0.119210 0.382023 -0.503402 0.178221
ATGAAA 0.747203 0.189073 0.242703 0.043247 -0.089682 0.097510 0.488259 0.270799 0.976194 0.011792 1.104425 0.539722 1.037142 -0.135342 1.521991 -0.705850 -0.225135 -0.139743 1.271336 -0.121422 -0.879836 0.048111 -0.372629 0.533621 -0.130406 -0.429268 -0.149757 -0.464063 -0.139880 1.694771 0.660585 0.167672 1.464162 -0.983486 0.736102 1.431061 -0.542373 -0.707083 -0.307514 1.312469 0.603736 0.280072 0.642491 -0.057936 -0.847611 0.307937 1.046575 -0.174262 0.005245 1.050007
ACGTTT 0.276762 -1.439064 0.574294 0.448443 -0.148882 -0.618351 1.174533 0.279210 -0.321358 0.765159 -1.493165 1.214313 -0.619047 -0.325893 0.537939 -0.890523 -0.515460 0.720199 -1.214824 1.337616 0.320868 0.280794 -0.957477 0.064067 0.222774 -0.532116 -0.291935 -0.601630 0.477404 0.693960 -1.452808 -0.838691 0.423984 0.260281 -0.011865 1.347954 0.421266 0.015308 1.125885 0.039589 1.025958 -0.575992 0.840887 -0.249108 1.292323 0.625921 -0.688753 0.461403 0.807017 -0.092347
GCTTTT 0.080522 -0.005491 0.048773 1.790448 0.741849 -0.077980 0.648959 1.037568 -0.335441 0.625613 -0.354445 -0.437473 0.691556 -0.529194 0.908296 -0.672521 0.798528 -0.175272 0.987902 -0.769254 -0.076482 1.135424 -0.984355 0.458596 -0.539451 0.600380 1.687249 -0.833112 0.636154 -1.565742 -0.319564 -0.871188 -0.210560 -0.568695 1.240804 0.509584 -0.066599 0.639619 0.424539 0.487978 0.733144 -0.129953 -0.205514 -0.093427 -0.009252 0.495461 -0.224400 1.248574 -0.106391 -0.177151
TTGAAT 0.186405 -0.769231 -0.839035 -0.039646 0.284665 -1.288200 1.574335 1.880797 0.067492 0.452879 1.188643 -0.366639 0.929635 -0.116843 1.155034 0.280141 0.957668 -0.004744 0.388961 -0.283226 0.484842 -0.941325 -0.116714 -0.348704 0.638516 -1.250269 0.501427 -0.975862 0.308801 0.029990 -0.221177 0.130039 1.102143 -0.243097 -0.097432 0.052277 -0.775399 -0.607134 0.482182 0.870112 0.375482 1.156180 0.090632 -0.527896 0.023398 -0.010260 0.629069 0.780351 -0.212249 0.436913
ATAGAT -1.001715 1.293238 -0.931379 -0.756766 -1.465787 -1.024555 1.664156 -1.344654 0.049701 -0.086401 0.993038 -0.220683 -0.084832 0.563042 1.063439 -0.742534 -0.378343 0.061675 -0.071893 0.652274 -0.873443 0.038500 -1.576261 0.340742 0.243955 0.043613 -0.214110 -0.856268 0.026091 0.145626 0.048683 0.149504 0.560108 0.447030 -0.448267 -0.288150 0.045531 0.255384 0.523125 0.299425 0.531058 -0.034757 0.281536 -0.451978 -0.589731 0.549551 -0.914672 0.075605 -0.005962 0.621933
ATTTCT -0.391486 -0.745081 -0.492907 0.311512 -0.158214 -0.444300 0.463305 -0.340852 -1.650410 -0.032565 0.690273 -0.404065 -0.327609 -0.133882 1.244103 0.381115 0.292076 1.597885 0.689306 -0.680541 0.372634 -0.009145 -0.060344 0.095503 -0.059723 0.090063 -0.106154 1.053393 0.073052 -0.169911 -0.591913 -0.665655 0.081692 0.358244 -0.125360 0.073879 -1.627586 -0.689472 -0.549581 0.134993 0.490016 -1.316052 0.279281 -0.763686 -0.163391 -0.414381 -1.282695 0.299484 -0.559098 1.458840
TGTAAAT -0.141416 -1.102586 -0.542260 -0.356071 0.094967 0.582028 -0.898713 -0.992680 -0.703223 0.593067 0.925936 0.908195 -0.073694 0.221215 -0.757841 -1.154066 0.423672 -0.366587 0.153766 0.660232 -0.659385 0.147438 -0.535002 0.699124 -0.103050 0.459436 -0.933417 -0.688006 0.053335 -0.186818 0.131039 -1.000005 0.128715 -0.845648 -0.119945 1.017086 -0.682568 -0.785144 0.510317 0.981062 -1.334291 -0.463053 -0.166774 0.350845 -0.912531 -0.189263 -0.162667 0.257461 -1.045268 0.452489
TTTCAA -0.637849 -0.973292 0.270319 -0.060747 1.505333 -1.419816 -0.429168 0.402661 -0.819765 -0.167690 1.119092 0.576155 -0.793023 0.364659 -0.340741 0.481358 -0.493190 0.451294 -1.159014 -0.080183 -1.111335 1.125004 -0.094884 -0.151951 -0.129037 -0.706139 -0.623959 0.640382 0.990654 -0.369490 -1.074363 -0.312193 -0.013187 -0.112310 0.561326 0.135419 0.694153 0.239279 1.063863 0.922345 1.249958 -1.052367 0.294839 -0.127207 -0.675880 -0.028160 0.892582 0.356333 -0.228966 0.256435
CCATTT -0.715905 -0.697326 -0.333714 -0.038918 -0.537075 -0.740097 0.596650 -0.520049 -1.723683 0.443347 0.214779 -0.162283 -0.716560 -0.705492 0.736141 -1.003523 -0.726108 1.199565 0.310142 -1.395969 -0.521530 -0.596255 -0.307909 0.335215 1.058702 -0.691669 0.629962 0.974548 0.624687 0.079937 -0.114550 0.073369 0.788937 0.548348 1.154024 -0.427850 -1.620652 0.620931 -0.195825 0.217088 -0.776598 -1.188275 0.223690 0.054591 0.479443 -0.409935 -0.639184 -0.027223 0.687800 0.014407
AGCATA -0.988902 1.273668 0.966676 -0.508455 -0.684810 -0.398768 -0.233094 -0.725872 -0.944033 0.356609 1.437759 0.775281 1.060331 0.578628 1.129160 -0.676608 -0.246102 0.084029 -0.685257 -0.268095 0.369908 0.077794 -1.095614 0.788384 0.560243 -0.136500 0.749967 -0.713748 0.981550 -0.551539 -0.387480 0.343519 -0.135630 -1.260327 0.095741 -0.008177 0.064836 -0.727312 -0.673122 0.106586 0.339823 -0.578614 -0.363424 0.283826 0.476534 1.263262 0.684294 -1.380601 -1.423800 -0.827672
GTCATT -0.140609 -1.161184 -0.517422 0.623366 0.065737 -0.935844 -0.769219 -0.856967 -1.825056 0.120331 0.522353 0.013363 0.133355 -0.437599 -0.609540 0.651939 0.748310 0.833729 -0.771958 0.689037 -1.052839 0.737674 -0.575228 0.168997 0.501933 -0.347612 0.971986 0.671133 -0.647331 0.625578 -0.763046 0.302238 0.977205 0.006943 0.360025 -0.051608 -1.271471 1.205036 0.726579 0.497494 1.177779 0.293664 -0.370433 -0.256234 -0.250122 0.917563 -0.717495 -1.029886 1.072603 0.530329
GTTTCT 0.166327 -1.221653 -0.686219 -0.055362 0.685064 0.175450 0.218759 -0.175475 -0.331634 -0.331349 0.463467 0.991817 -1.212397 0.062261 0.281532 0.628632 0.550233 0.858486 -0.531639 -0.246716 0.533917 1.017278 -0.576881 -0.354304 0.001053 0.758141 -0.051153 0.468663 -0.219054 -0.781423 -0.373590 -1.098547 -0.185032 -1.096330 -0.458937 -0.194355 -0.997031 -0.975474 -0.875696 0.327411 0.338120 -0.839472 0.669761 -1.335262 0.195804 0.554249 -0.191259 0.371406 -1.044557 1.021610
TCAATT -0.724140 -1.574271 0.406374 0.393925 1.371158 -0.171016 -0.322791 1.174056 -0.766690 -0.194888 1.415266 0.462370 -0.513076 0.236685 -0.126526 0.787678 -0.798608 0.126984 -0.377621 -0.882821 -0.893377 1.184222 0.456513 -0.001517 -0.093067 -0.520201 0.224012 0.082956 0.776814 1.079959 0.192503 -1.156399 -0.511845 0.166120 0.224480 -0.172426 -0.109249 0.530615 0.659678 0.591875 1.741945 -0.009767 -0.371964 -0.416429 -1.057825 -0.292768 0.124768 0.002964 0.188397 -0.175569
TGAATA -1.346889 -1.590798 -0.282618 -0.290579 0.194734 0.803034 0.256030 0.880405 -0.697069 -0.032530 0.789066 0.447238 1.106889 1.144531 -0.268791 -1.032566 -0.378272 -0.235228 1.057056 -0.057544 -0.598349 0.256891 -1.236292 0.191195 -0.221055 -0.192379 -1.000840 -0.624950 -0.401229 0.780494 1.118563 -0.581208 1.008302 0.201662 0.235979 -0.363342 -0.760946 0.086572 0.512184 0.184392 1.089405 0.471863 -1.104686 -0.200936 0.196906 0.370529 -0.735311 -0.502808 -0.413125 0.061623
TTAAAT -0.278897 -0.531797 -0.633593 -0.094935 0.818178 -0.130253 0.630235 0.206657 0.098675 0.587690 1.836542 0.451748 -0.179229 -0.003662 0.054512 0.400218 -1.170825 -0.215342 0.859700 0.267921 -0.881602 0.180270 -0.436571 0.668947 0.040306 0.212374 -1.509958 -0.525551 0.968962 0.300098 -0.223025 -0.221408 0.377429 -0.499214 0.087737 0.806970 -1.192065 0.322262 -0.262136 0.048344 1.048837 0.714095 -0.418189 0.058594 0.481441 -0.091532 -0.495608 0.165605 0.068289 -0.271069
AAACAA 0.162356 0.644755 -0.162398 -0.166555 0.435452 -0.391173 0.149198 0.062564 -0.494662 0.040862 0.203547 0.432782 -0.117502 0.626733 0.487521 -0.432793 -1.205331 0.258987 0.563065 0.566243 -1.007828 -0.653092 0.189062 1.411147 0.492906 -0.055581 -0.687996 0.338620 0.129958 -0.385104 -0.188479 -0.554930 1.050010 -1.045432 0.054078 0.789572 0.214888 -0.126169 0.701084 0.619413 1.148212 -0.181198 0.404149 0.317325 -0.811246 0.274650 1.191495 -0.042416 -0.070211 0.099663
ACTATT -0.383455 -0.332337 0.117658 -0.622797 -0.633425 -0.320294 -0.562091 0.443771 -0.194894 0.276942 0.478043 0.619451 1.222428 -2.104101 1.339491 -0.226633 -0.172689 0.669849 0.132176 -0.432648 -0.042174 1.148162 0.563867 0.200001 0.915987 -0.411242 -0.732515 -0.367590 0.172613 -0.770107 -0.262857 -1.305138 -0.044692 -0.631425 -0.973314 -0.645519 -1.033668 0.294699 0.760521 -0.109585 0.817500 -1.388590 -0.272580 0.509382 0.615453 -0.241124 1.250686 0.000005 0.144918 0.194452
GTTATT -0.767179 -1.044661 -0.120164 0.166141 -0.769495 -0.965741 0.303967 0.060303 0.357206 -0.074448 0.229059 0.968100 0.706196 -0.917408 0.214544 -0.487429 -0.188411 1.099875 -0.951098 -0.152704 0.305423 0.681260 -0.157260 -0.741683 0.517968 -0.550033 0.010286 -0.531978 0.385082 -0.497320 -0.847657 -2.098137 -0.293801 -0.994637 0.210584 -0.202423 -1.154136 0.728210 -0.155061 0.593021 0.117141 -0.667551 -0.037389 0.190119 0.833353 0.217880 1.261042 0.632841 0.294826 0.215649
GATATT -0.897354 -0.022673 0.015860 -0.595348 -0.762938 -1.091930 -0.638921 -0.222426 0.746641 -0.588288 0.824485 0.212626 0.769206 -0.185635 1.405971 0.488837 -1.017972 0.555847 -0.120447 -0.475422 1.147466 1.024520 0.232750 0.208764 0.332110 -0.500197 0.552222 -0.975321 0.336594 -0.388901 -0.498064 -0.715896 -0.467739 0.040009 0.042025 -0.159610 -1.451522 -0.000472 0.213720 1.486527 0.523883 -1.208868 -0.587119 0.294173 0.449299 -0.329669 0.853387 0.865391 -0.695551 1.342377
TAGCAT -0.562540 0.515532 1.014570 -0.660719 -0.394513 -0.210803 -0.752701 -0.802194 -1.809512 0.765286 1.408835 1.012212 0.866985 0.928169 1.365862 -0.261630 0.378761 -0.460848 -0.636041 -0.571818 0.188789 0.732846 -0.329774 0.175637 -0.017421 -0.036496 0.292910 -1.465858 1.254954 0.021650 -0.425652 -0.515832 -0.468355 -0.846158 0.586476 -0.191195 -0.451492 -0.461940 -0.198483 -0.129744 -0.019956 0.643771 0.396975 -0.004252 0.505137 1.395785 0.628664 -1.007238 -1.047179 -0.695698
TATCTA -1.663619 0.871314 0.267412 0.282582 -0.381542 0.431623 -0.088251 0.258700 -0.875655 0.367882 1.352498 -0.778721 -0.021509 -0.820092 -0.158703 0.399800 -0.745964 0.712293 0.433043 0.464712 -0.467979 -0.542645 -0.510561 -0.594770 -1.167235 0.725753 -0.358351 -0.454968 0.423395 0.087201 -0.739561 -1.311922 0.595314 -1.385387 -1.482291 0.055305 -0.695736 -0.046185 0.235676 0.247707 -0.351252 -0.130594 -0.211833 0.196263 -0.016459 1.153715 -0.244735 0.270423 0.368758 0.805395
TGAAAT -0.437631 -0.791376 -0.508720 -0.854535 0.305365 0.085630 0.356165 0.760752 -0.677001 -0.378003 0.460002 1.387569 1.198644 0.142014 0.218527 -1.365703 -0.785640 -0.535109 1.521647 0.834915 -0.286049 0.768574 -0.723999 -0.147099 -0.287664 -0.522582 -0.748174 -0.242015 0.573720 0.165030 0.987168 -0.604921 0.402157 0.107931 1.083217 0.058279 0.422907 0.925625 0.535280 0.931027 0.341669 0.063897 -0.662978 0.562643 0.319511 0.787900 0.447354 -0.777476 -0.076998 1.290528
TGTATATA -0.382052 -0.253199 -0.676697 -0.519931 -0.456218 -0.322665 0.481258 -0.370036 -0.322825 0.369519 0.370831 -0.724821 0.631179 -1.434568 -0.745656 -0.521826 -0.631861 0.440521 -1.187575 -0.065746 0.896729 0.801073 -2.245114 -0.079507 -0.874689 0.598778 -0.835897 -1.677432 0.092717 -0.489952 1.393892 -1.003248 -0.232590 0.295285 -0.046341 0.165100 -0.437153 0.811014 0.654512 0.757855 0.732893 -0.553587 1.252554 1.054450 -0.870891 0.689091 -0.390240 -0.723831 -0.752826 -0.312766
ATCTAT -0.770423 -0.389905 0.565515 -0.141191 -1.535537 -0.512510 0.310798 0.108724 -1.132375 0.906706 0.840479 0.931116 0.511850 -0.280628 0.233976 -0.732565 -0.704899 0.470241 0.088262 -0.073410 -0.130463 -1.038681 1.091970 -0.517045 -0.506507 0.669203 0.324772 -0.164442 0.806432 0.666847 -0.111836 -0.674563 0.331771 -0.656867 -0.930518 0.002213 -0.896176 0.994178 0.738776 0.152502 -0.758277 0.312855 1.564827 0.364417 -1.500917 0.013624 -1.077848 0.451229 -0.674659 0.932238
TTTCTC -0.596562 -0.170177 0.704337 0.358831 0.554033 0.541461 0.303370 0.757869 -0.465889 -0.040665 0.833910 0.362572 -0.768192 -0.452706 1.001244 0.334553 -1.094310 0.859206 0.210119 -0.133045 0.275306 0.672067 -1.191168 -0.475350 -0.635759 -0.848564 0.088448 0.654743 0.790193 0.075569 -0.794668 0.171468 -0.998976 0.050296 0.834679 0.307198 0.190542 1.321717 1.079769 0.403572 -0.238838 -1.294004 0.383587 -1.947609 0.545382 0.417856 -0.084352 0.471515 0.243987 0.675411
TGCAAT 0.925539 0.116339 0.791912 0.512190 0.901960 -0.670650 0.849292 -0.350739 -0.035985 -1.187094 0.935588 -0.424775 -0.139929 -0.122447 -0.239630 -0.740239 0.759050 0.858369 0.378169 -0.137641 -0.203846 0.894677 0.666399 -0.055331 1.093006 0.338792 -0.839948 0.264777 0.737190 -1.540694 0.670693 0.086128 -0.542276 -0.403947 0.038032 -0.581253 -1.983295 0.056335 1.715863 -0.181762 0.023701 0.972615 -0.459771 0.909243 -0.671239 0.670693 -0.718413 -0.109155 -1.272696 0.876163
ATGCTT 0.616708 0.352523 -1.548058 1.309796 -0.521157 0.721776 0.392539 -0.889853 1.383776 0.960368 1.769778 0.442204 0.995266 0.511795 0.749317 -0.227582 -0.350101 1.393378 0.437300 0.042269 -0.542514 0.958294 -0.087112 -1.262951 -0.276447 -0.740868 0.703398 0.835932 0.343662 0.457541 -0.305116 -0.622369 -0.131133 0.536177 0.390494 0.987813 -0.482991 -1.030980 1.168829 -0.161753 0.184195 0.219823 -0.049806 0.459880 -0.216326 0.452671 0.033977 0.690737 -0.576673 0.840837
TTAATA 0.039216 -0.037911 -0.506254 -0.276218 -0.106425 -0.632876 0.890648 -0.415885 0.212725 0.343963 1.499352 0.583281 0.014940 -0.512475 0.377808 0.713109 -1.574288 -0.330084 0.517459 0.597977 -0.959058 0.008680 -0.424918 0.709401 0.513237 0.257130 -1.083085 -1.343084 0.260486 -0.471776 -0.730459 0.668948 0.648909 0.085119 -0.011388 0.914626 -0.931164 0.580340 -0.062569 -0.069853 0.926465 0.282827 0.183141 -0.094137 0.614023 0.398887 -0.235878 -0.485101 -0.660838 -0.217327
TATGAA -0.973861 -1.102346 0.325950 -0.332219 0.240476 0.576836 0.340860 0.610918 -0.708941 0.002628 0.494875 0.979200 1.496544 0.067321 -0.060417 -1.192779 -1.081794 0.473596 0.956052 0.485368 0.192675 0.687857 -0.436239 -1.095138 -1.420599 -0.333608 -0.657898 -0.527750 -0.232935 0.594929 1.091506 -1.219616 1.424602 0.147885 0.246523 -0.488805 -0.406367 0.242166 0.197139 0.031623 0.552028 0.402599 -0.779455 0.563467 -0.559325 0.294611 0.435259 -0.431057 -0.272256 0.597088
AAGCTT -0.085269 0.323339 -0.125296 1.270196 0.284715 0.322627 0.453499 0.571118 -0.638852 -0.053146 0.326299 0.383032 1.073188 0.833890 0.173731 0.253483 0.190778 0.264425 0.717880 -1.117490 0.491681 1.161960 -0.984931 1.180347 -0.383228 0.194763 1.361703 -0.078240 0.165005 -1.098079 -0.693048 -0.405373 0.397466 -1.689953 1.311708 0.269814 -0.040667 0.003063 -0.066191 -0.397771 1.704680 0.169554 1.106782 0.393185 -0.191290 -0.395801 0.163366 1.136648 -0.871781 -0.197257
TACTAT -0.881310 -0.761834 -1.049160 0.399768 -0.478306 0.045426 -0.142485 0.481402 -1.063606 1.228338 -0.086663 -0.359500 0.734583 -0.222061 0.154977 -1.118599 -0.806317 0.053966 0.146408 -0.206954 -0.309687 -0.218814 0.533383 -0.985089 -0.164720 1.374323 0.330661 0.250626 -0.362450 0.199824 -1.343522 -0.941290 1.248185 -0.204502 -1.125428 -0.253958 -0.744563 0.834081 1.354621 -0.750589 -0.068823 0.363074 0.676256 -0.108508 -0.861064 -0.057140 -0.112903 0.377410 -0.880715 0.598695
TGAATT -0.583007 -2.142767 0.103895 0.246103 0.093402 0.030449 -0.059122 1.508199 -0.446454 -0.491063 1.058459 0.818130 1.046686 0.441062 -0.019047 -0.964612 -0.439418 0.185157 1.043572 -0.338713 -0.116316 1.164042 -0.710354 -0.262754 -0.326359 -0.043001 -1.142948 0.158511 0.522736 0.509316 1.271215 -0.817087 -0.099854 0.569361 0.675693 -0.186694 -0.321641 0.458826 -0.404550 0.154964 1.414354 0.212898 -1.440550 -0.563326 0.038724 0.234269 -0.273213 -0.026984 0.041248 -0.098076
AAGGAA 0.353171 0.467809 0.137437 -0.406649 0.510644 -0.156091 0.625438 1.209881 0.285293 -1.058927 -0.162536 0.587445 1.188697 0.222572 -0.257230 0.058620 -0.502724 0.475730 0.474145 0.212341 -0.205877 -0.090670 -0.633742 0.026263 0.149904 -0.257387 -0.024771 -0.111004 0.326360 0.593496 -0.092769 0.373997 1.997381 -1.107801 0.365695 0.440176 -0.512926 0.153499 -0.293641 0.039330 0.348110 -0.053904 0.260385 0.181795 -1.379746 -0.309991 0.907708 0.254614 -1.072573 -0.167060
GTTCAT -0.246748 -0.640811 -0.758475 -0.121408 0.551312 0.256177 0.757115 0.601636 -1.096791 1.749398 1.074967 1.154798 -0.016793 -0.200356 0.538305 -1.191564 0.639946 -0.566716 -2.090428 0.374045 0.326301 -0.289857 -0.466867 -0.044802 1.302426 0.114500 0.176522 -0.108979 0.066412 0.772703 0.522825 0.684950 -0.370296 -0.196272 0.043391 0.251908 -1.119038 -0.119834 -0.920178 0.203366 -0.446766 -1.127578 0.609181 -0.016463 -0.150280 1.211352 0.712933 1.121727 -0.048726 -0.136749
TTCCTT -0.093870 -0.953334 -1.188914 0.420488 -0.099466 0.762724 -0.255672 -0.482617 -0.688591 0.469626 0.936121 0.658368 -0.353404 -0.008159 0.924188 0.191513 -0.111076 1.242642 0.736794 0.000777 -0.049354 0.265845 -0.000256 -0.862494 0.312214 0.513919 0.585956 0.303294 0.221940 -0.964671 -0.105751 -0.168236 0.514166 -0.326928 0.390873 0.025191 -0.473407 -0.447686 0.014677 -0.100616 0.620334 -0.784602 0.415701 -0.139203 0.844979 0.316568 -0.028118 2.141534 0.067548 0.020708
TTGCAA 0.939607 0.099919 0.424499 0.992428 1.149669 0.278452 0.231231 0.408330 0.135567 -1.719288 0.600520 0.069019 -1.020654 -0.581355 0.564476 -0.166569 0.821044 0.502470 -0.377004 -0.058195 -0.506744 0.276881 0.727684 0.446416 1.459942 -0.046000 -0.223370 0.137152 0.748575 -1.885052 0.250885 -0.259031 0.144265 -0.034029 0.260283 -0.433974 -1.586138 0.469084 1.231284 0.545445 0.838368 1.364087 0.297325 1.255617 -0.544403 0.318345 0.104208 0.385372 -0.751484 1.188572
AAGATT -0.812899 1.178304 -0.057968 -0.326646 -0.008896 0.267610 1.060913 0.600635 -0.533416 -0.304248 -0.322887 -0.152770 0.244284 -0.208574 0.882700 0.233273 -0.490448 0.352840 -0.253046 0.087483 -0.219471 0.315212 -0.662023 -0.390627 -0.096597 0.312767 -0.555199 0.451457 0.768950 0.427828 -1.184001 0.002458 0.648252 0.773016 0.642316 0.384960 -0.422258 0.956483 -0.814598 1.362623 2.083061 0.407705 -0.546378 0.990157 -0.117511 -1.268817 -0.271343 1.308327 -1.194712 0.476237
AATGCA 0.935837 0.291175 0.584855 0.845915 0.654518 0.618979 1.376696 0.019211 0.252368 0.237732 1.179167 -0.006691 -0.093730 1.689702 0.752008 -1.266162 0.073708 0.904512 0.363348 0.988583 -0.132557 0.083260 0.174534 0.021180 1.020641 -0.965443 -1.532630 -0.516034 0.778204 -0.084728 -0.215547 0.031145 -0.460217 -0.589045 0.073063 -0.242016 -1.054137 -0.461924 1.294146 -0.140766 -0.146939 0.666185 -0.658106 1.442973 -0.919651 0.264070 0.582580 -0.127864 -0.068140 1.566251
GAGGC 0.135469 0.391038 0.143009 0.310732 -0.031442 0.079972 0.024652 0.007630 0.387939 -0.445942 -0.219118 0.598513 0.544393 0.362771 0.162995 -0.526350 0.224553 0.719013 0.326120 -0.493208 0.234836 0.106674 -0.284720 0.558361 -0.133609 0.184506 0.355023 0.207097 0.168874 -0.447290 0.225853 0.181037 0.196531 -0.063183 0.275750 -0.204172 -0.077206 0.031050 0.148395 0.329005 0.343540 0.266925 -0.024182 0.336600 -0.200897 -0.077443 -0.253696 0.228147 -1.049508 0.399357
TAGTTT 0.672766 -0.419025 0.060207 -0.463920 1.020721 -0.212095 0.653486 -0.074002 -0.097205 0.127789 0.406602 0.711766 -0.084714 0.120034 -0.203992 0.602180 0.694602 -0.111369 -0.864419 -0.037834 -1.688586 0.720737 -1.007654 -1.224108 -0.717997 1.252605 -0.923027 -0.530163 0.178280 -0.321036 -1.276457 -1.226063 0.359408 -0.562637 0.121920 -0.750753 -1.425902 -0.244907 0.570197 1.075512 -0.137285 -0.810798 0.147941 -1.451490 0.747299 0.491355 -0.105570 0.822010 -0.422960 0.047961
TCAATA -1.212921 -0.975478 0.456523 -0.085243 1.653160 0.355429 -0.575814 0.070177 -0.786515 0.314414 1.345402 0.178597 -0.800236 0.942676 -0.453424 0.541972 -0.792806 -0.179400 -0.330549 -0.418455 -1.591668 0.664434 0.152862 0.707959 -0.105131 -0.610365 -0.144814 -0.442474 0.028931 1.340677 -0.202183 -0.957637 0.132023 -0.111670 -0.140037 -0.145253 -0.311529 0.357040 1.301106 0.378324 1.545662 0.060859 0.081734 -0.348041 -0.803621 -0.552176 -0.512791 -0.291532 -0.167926 0.030552
ATGATA -0.575686 0.263668 0.191979 -1.249088 -0.880997 0.115217 0.003016 -0.680487 0.950153 0.327735 1.326772 0.133950 0.370591 0.274332 1.588728 -0.986661 -0.583773 -0.983798 0.675638 0.087678 0.450799 0.524299 0.010892 0.189909 -0.539637 -0.456930 0.658186 -1.050288 -0.616542 0.170488 -0.512809 0.255869 -0.136453 -0.163771 0.676167 0.277421 -1.445675 -0.793158 -0.391396 1.685288 1.140197 -0.278915 0.324070 0.166957 -0.307798 -0.014872 0.589649 -0.090434 -0.528153 1.421484
ATGTTT 0.104884 -0.765698 0.303213 -0.144479 -0.233345 -0.310290 0.564300 -1.319203 0.271721 -0.358320 0.532146 0.342408 -0.627491 -0.280867 0.532205 -0.312375 0.126654 -0.482815 -0.905741 0.827499 -0.943102 2.027539 -1.521271 -0.624862 0.103439 0.781083 -0.217817 0.345583 -0.305192 -0.417459 -0.063163 -0.565534 0.075170 -1.086684 1.239306 0.675054 -1.033779 0.323983 -0.397680 0.762862 0.405335 0.104845 1.405614 -1.517294 0.464563 0.174340 0.458905 0.046778 -0.499245 0.820386
TGATTT -0.881175 -1.871826 0.100329 -0.250368 -0.368315 -1.184767 0.525576 -0.446050 -1.099905 -0.088403 0.442388 0.264453 -0.753411 -0.036433 0.111629 -1.578754 0.474774 0.151311 0.571825 0.179007 -0.348009 0.416035 -0.189678 0.286449 -0.556458 -0.666620 -0.379042 0.688766 0.648308 -0.786100 -0.178921 -0.639977 1.009310 1.577570 0.266195 0.178481 -1.039631 0.620742 -0.071577 -0.466141 0.613766 0.372606 -0.060144 -0.993618 0.275618 -0.287214 -0.853313 0.236626 -0.412824 1.165686
CATTAA 0.155204 -0.098136 0.046916 -0.501627 0.650459 0.519600 1.082165 0.047060 -1.137301 0.926081 1.652489 0.547495 -0.420628 -0.001573 1.167345 0.482740 -0.980358 0.230020 0.300106 0.475971 -0.713272 -0.441129 -0.221720 0.957447 0.260401 0.827163 -1.137887 -0.386019 0.905227 -0.101967 -1.026924 0.860916 0.466645 -0.030749 0.851996 0.929825 -1.057447 1.156173 -0.879108 -0.143050 0.181375 -0.012846 0.255893 1.041683 0.284221 0.592842 0.406066 -0.005753 -0.311013 -0.831131
GCAATT -0.000665 -0.054289 0.853649 0.653784 0.766042 -1.482923 0.766264 -0.191874 -0.727637 -1.532132 0.631725 -0.593918 0.502332 -0.281049 0.456659 -0.509140 0.925920 0.964069 0.285347 -0.776185 -0.120326 0.773372 0.800311 0.147681 0.957940 0.451764 -0.576120 1.332883 1.673734 -0.771935 0.250536 -0.174730 -0.172036 -0.463436 -0.007681 -0.917292 -1.511508 -0.625103 0.942315 -0.488742 0.519489 0.735585 -0.364978 0.219964 -0.574292 0.536336 -0.614259 -0.196927 -1.605892 -0.147423
GCATTA 0.048325 0.172076 0.222902 0.082176 0.290012 0.786188 0.790073 -0.391028 -1.638020 0.495049 1.773057 0.687599 -0.442057 1.071433 1.663639 0.274742 0.247135 -0.164406 -0.111314 0.140785 0.061488 -0.369446 0.307026 0.059919 0.126301 1.195730 -0.789496 -1.219404 1.511143 -0.301939 -1.524715 0.429480 0.367350 -0.048593 0.720218 0.209116 -0.896776 1.084597 -0.273210 0.290419 -0.421185 0.594598 -0.082170 1.394209 0.246286 0.063868 0.700560 -0.268218 -0.464517 -0.947496
CCTTTT 0.152509 -0.528500 -0.117147 0.576800 0.974568 -0.859923 -0.368693 0.822721 -0.615149 0.429050 0.112679 -0.276992 -0.779388 -0.218989 0.526777 0.077746 -0.845665 -0.102100 0.110173 0.405404 -0.946298 2.209517 -1.729345 -1.245349 0.187781 -0.396110 0.047647 -0.586461 0.448352 -0.255608 -0.118156 0.143645 -0.109667 0.122391 -0.036251 0.282464 -0.390192 -0.287969 0.512885 -0.155812 -1.361716 0.009830 0.479031 0.157701 0.478979 -0.463674 -1.072292 1.210481 0.230529 1.073548
GTTTTC -0.427278 -0.711251 -0.088162 -0.112978 0.762774 -1.034722 -0.244577 -0.011657 -0.344559 -0.479374 0.338958 0.669387 -0.706840 -0.337733 0.053302 0.299345 0.730968 0.908175 -1.035199 0.543992 -0.342501 1.152230 -1.535841 -0.930616 -0.629496 0.123206 -0.982835 0.454943 0.561609 -0.560338 -0.994403 0.007626 -0.508323 -1.046687 0.775931 0.101984 0.072701 0.527558 0.308611 0.605772 -0.078566 -1.148330 0.126733 -1.030755 0.288661 0.434570 0.319594 0.428531 -0.290969 0.658761
TTTATG -0.263971 -0.332273 0.656049 0.671751 1.044035 0.290368 0.629081 -0.230187 -0.618364 1.025979 1.083730 -0.211061 0.454250 -0.969954 0.173065 -1.538268 -1.109857 0.737389 -0.159356 0.611560 -0.201557 1.280666 -0.295587 -1.495610 -0.862316 0.316477 -0.786369 -0.769542 0.060490 -0.212818 0.368464 -1.145463 0.786142 0.767536 -0.307350 0.767278 0.048633 -0.558094 -0.161539 0.260146 -0.516777 1.325445 -0.373228 -0.546629 -0.231716 0.345059 -0.192153 0.213732 -0.337970 0.971474
AGATTT -0.821883 0.595113 -0.462653 -0.129268 -1.197645 -1.448671 1.126916 -0.969357 -0.333575 -0.507263 0.147819 -0.377254 -0.535423 -0.098335 0.611991 -0.727797 0.355536 1.165072 0.683126 0.082017 -0.411367 0.368577 -1.418072 0.946569 0.464173 -0.380558 0.067151 0.618360 0.944274 -0.087901 -0.566956 -0.499500 1.019581 0.738550 -0.076553 -0.680918 -0.474515 0.490402 0.417453 0.010102 0.475724 -0.569446 -0.320633 -1.108005 -0.850111 0.204962 -1.065965 0.889494 0.477940 0.853014
ATCATA -0.907559 0.222511 0.808479 -1.537650 -0.662402 -0.814921 0.162780 0.112854 0.084006 -0.164872 1.595511 1.280018 0.886939 0.368114 0.556471 -0.560221 -0.318123 0.248597 -0.352897 0.419332 -1.050327 0.413149 -0.180619 0.544577 1.305998 0.938277 1.062416 -0.178316 0.533497 0.294822 0.214859 0.305946 -1.126996 -0.315234 -0.306070 0.537951 -0.238203 -0.067080 -0.246403 0.169499 -0.252131 -1.096012 0.121611 0.773955 0.150885 1.350370 -0.482552 -0.860268 -0.279392 0.242261
ATTAAA -0.339863 0.279793 -0.663580 -0.089398 0.056711 -0.848913 0.454081 -0.475553 -1.184677 -0.497160 0.295485 -0.130608 0.445006 0.266690 -0.220023 -0.129027 0.022021 0.002775 0.786993 0.145991 -1.027889 0.022765 0.053894 0.621275 0.405380 -0.059342 -0.865857 0.634476 0.581839 0.438056 -1.029282 -0.986296 1.673588 -0.180993 0.076652 0.094560 -1.115708 0.080492 0.670662 0.044906 0.850738 0.046680 0.942076 -0.014051 -0.509539 0.305411 -0.382982 -0.928102 -0.222630 0.689188
TACTTT -0.378533 -0.656827 -1.411426 0.528752 0.341653 1.087258 -0.574646 0.167307 -0.298790 0.439107 0.581512 0.339394 -0.136128 -0.036694 0.050648 -0.818888 -1.746650 -1.120405 0.406974 0.254756 -0.583442 0.219485 -0.283884 -0.633634 0.252926 1.143601 0.806731 -0.220519 0.353289 -0.512947 -1.348697 -0.307839 1.357444 0.208786 -0.207276 0.823513 -1.702505 0.030137 0.827545 -0.210128 -0.175485 0.614962 -0.160558 -0.508830 0.284197 0.287311 -0.586207 1.563377 0.144341 -0.746448
TATGTT -0.607199 -0.629977 0.135400 0.807898 -0.521600 0.028771 1.331172 -0.148086 -1.351721 1.160820 1.444564 0.008122 0.140268 -0.993041 -0.291369 -1.150979 -0.975082 0.854904 -0.429598 0.031522 0.755830 0.466976 -0.373399 -0.527783 -0.271113 -0.037240 -1.778348 -0.298112 -0.002073 -0.285761 0.420149 -0.661934 0.234142 -0.128712 -0.937668 0.469213 0.028971 -0.100839 -0.461424 -0.207526 -0.181203 1.061156 0.475055 -0.586869 0.150004 -0.660236 0.911487 0.762668 -0.173459 0.061486
TTCAGT 0.531155 -0.652181 -1.031248 0.462786 -0.654827 0.497118 1.172623 -0.056412 -1.374014 1.174410 0.599545 0.398266 -0.642235 -1.201689 -0.138186 0.644028 0.691921 -0.476417 -0.441482 -0.720013 -0.404433 -0.108281 -1.262483 -0.533911 0.045598 0.179172 0.618641 0.312275 0.784327 0.036654 0.713058 0.369820 -0.193616 0.385913 -0.345868 -0.580216 0.213587 -0.465505 -0.337690 -0.324455 1.346682 -1.696592 -1.088970 0.097163 -0.638902 0.571512 1.345683 0.265356 0.048836 1.746026
GTTCAA 0.250388 -0.081624 -0.809664 -0.469836 1.150891 -0.500782 0.840478 0.439437 -0.780383 0.574714 0.753039 0.420466 -0.095797 -0.753357 -0.868116 -1.020878 0.350114 -0.789993 -1.643932 0.227078 0.524428 -0.292959 0.016304 -0.528154 1.483429 -0.931634 -0.258582 1.325391 1.132133 -0.137470 0.450259 0.398611 -0.176263 -0.034979 -0.143590 0.115413 -0.799510 -0.580706 -0.107749 -0.561729 1.002298 -0.703179 1.070020 -0.171885 -0.023285 0.012923 0.852796 1.802616 -1.216445 -0.238672
TTTGAT -0.563113 -1.732301 0.031292 -0.349778 -0.318806 -0.276822 0.252465 0.097527 0.044264 -0.758285 0.593856 0.697775 -0.431821 0.005331 0.639078 -1.149392 -0.371547 -0.423210 0.438714 0.466961 -0.773534 0.745189 0.532958 -0.323452 -0.553506 -0.040467 0.703866 -0.156272 0.294044 -0.479725 -0.090650 -0.163090 0.648335 1.428325 0.223083 0.005288 -0.784036 -0.061135 0.160354 0.060930 0.770195 0.516551 -0.457670 -0.101584 0.361755 0.611449 -1.554310 0.586196 -0.817022 1.446484
AAACTT 1.093050 0.455559 -0.490697 -0.127900 0.166212 -0.021172 0.048348 0.238437 -0.269970 0.486344 1.200963 0.534268 0.367004 -1.410382 0.674049 -0.822817 -0.221852 0.923043 1.040062 0.087017 -1.337711 -0.158541 0.363068 0.665205 0.489299 0.527379 -0.320088 0.361407 -0.536240 -1.019757 0.314556 -0.598960 1.347299 -0.788659 0.351270 0.693004 1.088555 -0.386021 0.915033 0.996761 1.600683 -0.411451 -0.218238 0.077083 0.720436 -0.089693 0.240339 0.278583 -0.190255 0.225438
TTAAAA 1.066662 0.451081 -0.663153 -0.390824 0.426802 0.049564 0.627390 -0.280527 -0.863170 -0.117555 1.132305 1.246747 0.370141 -0.450175 0.666594 0.433099 -1.326423 -0.506748 0.617514 0.528798 -0.800743 -0.204460 -0.489180 0.787157 0.275543 0.480215 -0.900337 0.160487 0.587124 -0.405637 -0.086643 -0.586388 0.841658 -0.523117 0.343966 1.503377 -0.743359 0.464016 -0.255513 0.413444 0.584435 0.290219 0.597444 0.569877 0.428500 -0.073039 0.335296 -0.420158 0.014065 0.482123
AATTGA -0.050001 -1.079005 0.182739 -0.243261 0.430462 -1.151045 0.478527 2.435588 0.634468 -0.603794 0.806327 -0.611973 0.783255 0.100999 1.482685 0.004319 0.028743 -0.424944 -0.132000 -0.466097 0.226991 0.106545 -0.027579 0.580946 0.424283 -0.637191 0.155936 0.953051 1.137072 0.491394 0.247064 -0.545983 0.383675 0.490539 0.374764 -0.421426 -0.400870 -0.539242 0.281488 1.540319 1.159072 1.309963 -0.276474 -0.568303 -0.159259 -0.175772 0.511017 0.308879 -0.959598 0.259013
TCATTA -0.527600 -0.288117 -0.714020 0.619928 0.120653 -1.475636 -0.385522 -0.899058 -1.320139 0.268244 1.273785 -0.094228 0.179208 -0.092425 -0.436135 0.165128 0.949377 0.484126 0.078373 0.055516 -1.231925 0.104867 -0.452491 -0.434518 -0.112974 0.258134 -0.069124 0.123437 0.071227 0.996911 -1.356642 -0.330004 1.530117 -0.290174 -0.578636 -0.037279 -1.008298 0.792626 0.621688 0.007790 1.048868 -0.083724 0.160746 0.003138 -0.527219 0.905758 -0.802035 -1.231138 0.607869 0.365427
TCAAAA 0.060762 -0.343635 0.057538 -0.335499 1.234081 -0.786235 -0.379326 0.361909 -1.991955 -0.311049 0.364840 0.565333 -0.279865 0.753592 -0.047977 0.146172 -0.959902 -0.555969 -0.458877 -0.112540 -1.680538 -0.138149 0.359492 -0.144022 -0.058721 -0.624065 0.208478 0.003818 -0.189746 -0.007680 -0.491377 -0.999257 0.886019 0.058852 0.482522 0.737070 -0.205928 0.527295 1.348857 0.776827 1.002641 -0.739627 0.287122 1.210939 -1.600190 -0.927613 0.261470 -0.298874 0.372449 0.822914
CAATGA 0.693956 -1.568754 0.522797 -1.796612 1.544262 -1.114467 1.199068 -0.111856 -0.067040 0.330675 1.045820 -0.092059 -0.020137 0.951566 -0.570319 -1.273639 -0.437483 -0.005772 0.774554 0.415202 0.579761 0.822679 0.230142 0.045614 -0.530564 -0.637730 0.067566 1.510943 0.826080 0.009588 0.691684 -0.277669 -0.125744 -0.067516 -0.411377 -0.391079 -0.479674 0.187963 0.763749 0.032759 0.997627 1.054661 -0.753723 1.077582 -0.140993 -0.598838 -0.361783 -0.041635 -1.037451 0.091301
TTTTAA 0.347419 0.468284 0.892090 0.461963 -0.140424 -0.326425 0.586396 1.269300 -0.518793 0.754639 0.015657 0.006025 -0.425430 -0.648774 1.167340 -0.399427 -0.247335 -0.058302 -0.140349 0.141815 -1.050336 0.643990 -0.323618 0.275812 -0.485906 0.201832 -0.125301 -0.172500 0.061643 -0.988455 -0.207087 -0.624838 -0.266800 -0.557499 -0.104458 0.761165 -0.574324 0.330988 -0.541001 -0.004830 1.332663 -0.331793 -0.284632 -0.184185 0.020494 0.910514 -0.219093 0.365367 0.058710 0.661483
