AAAAA 0.107674 -0.283089 -0.374657 -0.146302 0.245439 -0.245043 -0.009434 -0.214246 -0.667947 0.315628 0.076919 -0.267781 -0.065467 -0.074109 -0.111222 -0.518201 -0.221999 0.321333 -0.142615 -0.606067 -0.584036 -0.984538 0.050458 0.306464 -0.404634 -1.001690 -0.063821 0.662292 -0.790231 0.994776 -0.415446 -0.351117 0.793701 -0.109527 -0.552539 -0.333919 -0.000829 -0.330708 0.490716 -0.133165 0.256131 -0.431768 0.542901 -0.218382 0.109514 0.211538 -0.245020 0.085075 0.685556 -0.184173
TTGT -0.001804 -0.048843 -0.335809 0.491451 0.055718 0.292573 -0.191826 -0.150411 0.319465 -0.513704 -0.482351 0.030046 0.244364 -0.139802 0.010510 -0.295621 0.582449 0.358955 0.663456 -0.212836 0.492708 -0.533197 -0.326161 0.490860 0.321000 -0.536989 -0.424480 0.285024 0.077642 0.819981 -0.398062 0.769043 0.460367 0.528582 -0.457990 -0.191532 0.618179 0.120225 -0.148446 -0.117666 -0.165987 -0.434170 0.270630 -0.361212 0.074221 0.338473 -0.032599 -0.437643 -0.744046 -0.618748
TTTTT -0.202505 0.421158 -0.085816 1.117566 -0.243531 -0.143088 0.018634 -0.582875 -0.001951 -0.114686 -0.365659 0.244777 0.643032 -0.231595 -0.317238 0.017611 -0.020474 0.711867 0.701502 0.015899 0.169868 -0.722138 -0.161034 0.241500 0.786828 -0.804002 -0.624289 0.608374 0.648580 0.906908 -0.829660 0.633794 0.010927 0.615583 -1.051581 -0.679250 0.404073 0.164645 -0.511784 -0.250725 0.562926 -1.022559 0.553027 0.023674 0.264120 0.455717 -0.406933 0.200786 -0.256072 -0.882510
ATATA -1.471644 -0.514409 0.288347 0.005764 0.442988 1.171543 -0.382605 -0.538743 -0.416988 0.020836 0.119277 -0.616380 0.085037 0.158643 0.216476 -1.233968 0.377265 0.129181 -1.064977 -0.597238 -0.716695 -0.057293 -0.119373 0.851383 0.143841 -1.126166 0.550118 0.218042 -0.396953 0.594795 0.527411 0.129999 0.718100 -0.286255 -0.104961 -1.273534 0.537717 0.148385 -0.602557 -0.333188 0.235601 -1.193495 0.260929 -0.708304 0.537122 0.463624 0.203372 0.487627 0.262349 -0.177389
TATAT -1.282179 -0.685584 0.375798 0.585104 0.157519 0.816229 -0.117269 -0.329804 -0.041701 -0.781346 -0.103008 -0.369437 0.303668 0.467098 0.396498 -0.993430 0.520511 0.166330 -0.271224 0.395151 -1.105868 -0.452680 -0.560462 0.935450 0.502519 -1.332754 0.442123 0.257669 -0.112260 0.668592 0.802567 0.348606 0.437623 0.505132 0.239366 -0.683600 0.799661 0.214312 -0.112028 -0.175380 0.467370 -1.432185 -0.450841 -0.197246 0.338067 0.935535 0.311674 -0.492492 -0.245923 -0.371905
ATAAA -0.431510 -0.612675 -0.049375 -0.267526 0.938365 0.257063 -0.053139 -0.315275 -0.828999 0.043238 0.299998 -0.290611 -0.092787 0.113386 0.226613 -0.828701 0.014868 -0.032816 -0.464211 -0.620307 -0.784678 -0.832426 0.151553 0.562333 -0.420785 -1.117578 0.113725 0.307905 -0.792292 0.953961 -0.237841 -0.240967 0.754671 -0.207114 -0.429313 -0.639061 0.303530 -0.217439 -0.052390 -0.306702 0.419078 -0.758754 0.689783 -0.691865 0.391764 0.451291 0.189946 0.120932 0.541737 -0.453369
AATAA 0.233432 -0.484932 0.322221 -0.540431 0.427519 0.093221 -0.433375 0.174938 -0.976507 0.322831 -0.738937 0.167068 -0.501089 0.411836 0.044773 -0.836614 -0.581845 0.173802 -0.458697 -0.449528 -0.407569 0.042147 0.075391 -0.080384 -0.567700 -1.036807 0.192413 0.854097 -1.257730 1.194533 0.214398 -0.061844 0.961043 -0.201064 -1.192109 -0.074492 0.320336 -0.069111 -0.726932 -0.200489 -0.057159 -0.378015 0.500870 0.013136 0.184961 0.286084 -0.497266 0.492181 0.513527 -0.463735
TATATA -1.455409 -0.481595 0.455600 0.155870 0.177458 1.043543 -0.216893 -0.493921 -0.036617 -0.232928 0.045213 -0.720772 0.415570 0.116695 0.513929 -1.149736 0.459544 0.094168 -0.741497 -0.124753 -0.924571 -0.369204 -0.378913 0.967343 0.378953 -1.119344 0.440823 0.381243 -0.083413 0.694658 0.486434 0.326090 0.479674 -0.045766 0.270879 -1.228802 0.596918 0.233947 -0.211962 -0.345814 0.193146 -1.302118 -0.040065 -0.566687 0.584887 0.611347 0.512259 0.014818 -0.047527 -0.269217
AAAAAA 0.106365 -0.176179 -0.314594 -0.237541 0.115698 -0.189337 0.001252 -0.096572 -0.831546 0.494455 0.079548 -0.216792 -0.254949 0.040429 -0.147621 -0.716569 -0.434746 0.295855 -0.263301 -0.632225 -0.829488 -1.167740 0.142612 0.358327 -0.555194 -0.925543 0.046953 0.908659 -1.229595 0.986816 -0.398667 -0.450710 0.700029 -0.286631 -0.520272 -0.248502 0.058889 -0.283746 0.582764 -0.198264 0.215051 -0.396439 0.498949 0.046468 0.223588 0.210440 -0.308333 0.079141 0.769634 -0.454209
CATTT -0.472267 0.853931 -0.455274 0.460857 -0.100650 0.290644 -0.434831 -0.873319 0.053887 0.149379 0.179086 -0.211669 1.019494 -0.739298 -0.320169 -0.406614 -0.241890 0.781921 0.246466 0.473322 0.263083 -0.643897 -0.651284 0.557389 0.464655 -0.938223 -0.090380 0.166006 0.589040 0.902371 -1.003015 -0.529989 0.189086 0.179210 -0.663089 -0.505563 0.179024 0.621538 -0.694186 0.412772 0.355217 -0.854765 0.647614 -0.101315 -0.003553 0.668733 -0.674224 0.459191 -0.049918 -0.449621
TGAAA -0.120621 -0.532756 -0.779834 -0.309845 0.555515 -0.779182 0.402482 -0.096124 -0.524885 0.125322 0.363217 -0.386720 0.355837 0.185496 -0.400409 -0.723523 -0.348356 0.512886 0.378911 -1.323540 0.336969 -0.998080 -0.675350 0.037540 -0.792816 -0.883725 -0.806153 0.409679 -0.758904 1.445013 -0.168861 -0.457216 0.792013 0.438378 -0.642315 -0.558369 0.526102 -0.413536 0.494059 -0.130122 -0.047972 -0.241433 0.555990 -1.115807 -0.024299 0.257544 -0.199286 0.188923 0.465996 -0.051647
AATTT 0.018822 0.093181 -0.530626 0.884111 -0.575683 -0.185080 -0.191931 -0.449066 -0.608158 0.336625 -1.091659 0.025328 0.214122 0.249996 -0.292815 -0.187179 -0.037436 0.494036 0.193021 -0.811007 0.065042 -0.668955 -0.459138 0.070013 0.439192 -0.818165 -0.182326 0.690677 -0.581195 0.798679 -0.333475 0.432106 -0.029426 0.169576 -1.265078 -0.472655 0.286388 0.163813 -0.022330 -0.339279 0.448480 -0.677881 0.145946 0.482446 0.170879 0.031828 -1.006574 -0.001734 0.223774 0.102929
ATATT -0.907467 -0.185860 -0.161053 0.620285 0.074379 0.689427 -0.466244 -0.442158 -0.373603 0.103662 -0.183253 -0.534901 0.235997 0.028173 -0.618317 -0.270864 0.423414 0.438622 -0.186194 -0.217386 0.216312 -0.113582 -0.026174 0.687862 0.344330 -0.888549 -0.156097 -0.066853 -0.001988 0.515266 0.470859 0.588631 0.613160 0.395760 -0.551991 -0.854157 0.294627 0.200971 -0.810404 -0.266713 0.467298 -1.272211 0.642189 -0.762609 -0.104503 0.274796 -0.329581 0.689797 -0.099518 -0.052268
TTTAT -0.620482 0.425366 -0.030896 1.011766 0.056936 0.196683 -0.222990 -0.470189 -0.174158 -0.101713 -0.368915 0.194077 0.656730 -0.000775 -0.244425 -0.506699 0.455210 0.408002 0.577836 -0.089111 -0.246382 -1.139274 -0.126588 0.535290 0.736597 -1.107395 -0.225732 0.505664 0.300690 0.466111 -0.250569 0.238332 -0.204712 0.533538 -0.576918 -0.457331 0.781403 0.465820 -0.497849 0.059621 0.607157 -1.135500 0.542780 -0.116890 0.264209 0.618493 -0.423607 -0.147985 -0.350420 -0.935041
TTCAA 0.599173 0.071047 -0.596449 -0.011893 -0.321767 0.730961 -0.604647 0.428432 0.159648 -0.108500 -0.859256 0.410760 -0.573897 -0.791482 -0.674198 0.113611 0.614682 0.206532 0.134736 -0.468280 0.244782 -0.695960 -0.407724 0.669414 -0.342353 -1.619322 -0.250104 -0.419185 -0.308072 0.577402 -0.386732 0.385423 0.612330 0.040080 -1.892315 -0.513118 -0.052404 -0.925213 -0.334872 0.378432 0.417673 -1.213539 0.475428 -0.065715 0.391561 0.364230 -0.479364 -0.722790 0.667111 0.182986
TTCAT -0.379280 0.388464 -0.732454 0.108761 -0.005451 0.789378 -0.800920 -0.496509 0.129157 0.506389 -0.262927 -0.081295 0.184704 -0.665825 -0.243629 -0.243684 0.659257 0.272784 0.780295 0.079830 -0.028053 -0.254264 -0.732303 1.072114 -0.215640 -1.443089 -0.070561 -0.417389 0.273008 0.076347 -0.141752 -0.117750 0.325101 0.279734 -1.045935 -0.111407 0.203200 0.522092 -0.985747 0.785367 0.251685 -0.834472 0.913821 -0.201773 0.149325 0.626713 -0.742641 -0.380025 -0.494558 0.103695
TCAAA 0.720056 -0.409534 -0.534067 -0.258428 0.052261 0.036611 0.357019 -0.084481 -0.415831 -0.064582 -0.418057 0.363593 -0.130660 -0.574394 -0.607884 0.019314 0.454226 -0.217357 -0.020918 -0.853186 -0.306679 -0.934096 0.007932 0.743847 -0.631232 -1.419112 -0.111738 -0.169066 -0.428847 0.920688 -0.627993 -0.146381 0.367036 -0.257473 -1.611814 -0.619074 -0.246232 -0.777210 0.034422 0.354793 0.203945 -0.601470 0.763024 -1.125098 0.473711 0.124242 -0.207334 -0.513472 0.476315 -0.412518
ACTTT -0.029740 -0.026000 -0.470605 0.155291 -0.587400 -0.214087 -0.286478 -0.276310 -0.465185 0.041875 0.684741 -0.108214 0.306340 0.201802 -0.037795 0.508340 -0.275177 1.219581 0.553033 0.545116 -0.046821 -0.993926 0.109737 0.400203 0.522844 -0.900698 -0.655161 0.169958 0.424926 1.281115 -0.881914 0.167030 -0.575743 0.588648 -1.136760 -0.605893 -0.257955 -0.480867 -0.145078 0.379941 -0.181959 -1.632186 0.142439 -0.028892 0.611710 0.186873 -0.007949 0.756381 -0.455661 -1.040310
TCATT 0.558401 0.493057 -0.304217 0.505710 -0.562360 0.639635 0.115462 -0.015188 0.051728 0.007185 -0.179198 -0.304868 1.048833 -0.119366 -0.630608 0.302987 0.273279 -0.092969 0.729885 -0.717856 -0.031066 -0.889962 -0.069108 1.222957 -0.314172 -1.155996 -0.154141 0.371958 -0.897675 -0.577320 0.122940 -0.100310 -0.591882 0.259247 -0.790371 0.057499 0.424254 0.122343 -0.732174 0.958365 0.232170 -0.625862 0.756444 -0.741081 -0.236223 -0.118807 -0.520740 -0.708287 -0.408040 -0.875184
TTGAA -0.129377 -0.520420 -1.079873 0.480186 -0.405810 -0.766101 0.532300 -0.348593 -0.159998 -0.007951 -0.468366 -0.861722 0.727004 0.601272 -0.356114 -0.622295 -0.117929 1.417864 0.678608 -1.588482 0.442739 -0.629712 -1.049784 -0.103605 -0.478996 -1.311080 -0.571172 0.669101 -0.570695 0.904317 0.455191 -0.068827 0.547617 0.437259 -0.303906 0.243325 0.574297 -0.018408 -0.149299 -0.327734 -0.170120 -0.398611 -0.017167 -1.082944 -0.147610 -0.054251 -0.121121 0.468951 -0.110208 0.243637
AATAAA 0.125584 -0.710497 -0.145970 -0.456052 0.753095 -0.089271 -0.345013 -0.062120 -1.266035 0.114337 -0.341862 -0.095060 -0.313099 0.262898 0.062674 -0.806412 -0.220537 -0.272210 -0.351732 -0.816281 -0.734679 -0.665182 0.025784 0.028613 -0.654170 -1.065583 0.138389 0.532139 -1.328275 1.362036 -0.071572 -0.287727 0.860681 -0.209636 -1.058496 -0.435045 0.105234 -0.196389 -0.229681 -0.358558 0.110883 -0.215836 0.637719 -0.317487 0.216649 0.318204 -0.228247 0.187742 0.674520 -0.443457
ATACA -1.353833 -0.088592 0.062322 0.244943 0.226681 0.613970 -0.073933 -0.669000 -0.224756 0.408988 0.311898 -0.337760 0.344921 -0.121196 0.521180 -0.936007 -0.055893 0.970279 -1.753382 -1.000980 -0.411066 0.205919 -0.341268 0.775637 -0.023093 -1.000771 -0.176190 0.498121 -0.340061 0.140837 0.018718 -0.182313 -0.082765 -0.644265 0.131270 -0.585427 -0.218651 0.915251 -0.303088 -0.091055 0.254153 -1.177189 0.753822 -0.078023 0.793541 0.755951 -0.545330 0.561353 -0.193567 0.273032
ATTAT -0.621848 0.617305 0.096781 0.443959 0.335860 0.881426 -0.600996 -0.462778 -0.047775 0.114054 0.241947 -0.772099 0.449888 -0.145326 0.009322 -0.630688 0.602540 0.169910 0.502604 -0.459550 -0.618546 -1.456597 0.084162 1.103344 -0.026377 -1.134104 0.095365 0.393037 -0.818607 -0.417342 0.053551 -0.397651 -0.233400 0.235588 -0.110244 0.484179 0.792209 0.461286 -0.311293 0.485851 0.483302 -0.809814 0.520167 0.016709 -0.232053 0.368843 -0.414304 -0.577893 -0.049904 -0.472240
TATTT -0.479151 -0.642009 -0.179327 0.644725 -0.076079 0.248365 -0.255704 -0.439131 0.058337 -0.565281 -0.382729 0.394724 0.318626 0.364902 0.308251 -0.389925 0.380695 0.374406 0.610739 0.087005 -0.609135 -0.347600 -0.330840 0.397076 0.669299 -0.945373 -0.314202 0.479556 -0.032801 0.832194 0.061027 0.456297 0.424752 0.615686 -0.477628 -0.307006 0.606181 0.072171 -0.293994 -0.346512 0.869128 -0.960116 -0.103210 0.122892 0.296082 0.718074 0.063348 -0.369425 -0.451183 -0.848189
TTTTC 0.208213 0.261905 -0.251211 1.176262 -0.128069 0.127400 0.099564 -0.403841 0.092939 -0.024041 -0.195434 0.665189 0.959490 -0.258739 -0.522307 0.319707 -0.106829 0.358050 0.483550 0.588004 0.138153 -0.378095 -0.147973 0.484581 0.573111 -1.111276 -0.267076 0.193393 0.591991 0.509597 -0.557819 0.402253 -0.175985 0.261234 -1.233797 -0.489355 0.392864 -0.151585 -0.184795 0.149440 0.539374 -0.600178 0.492601 -0.928968 0.028430 0.331609 -0.411842 0.257856 -0.327367 -0.545933
ACATA -1.377469 -0.116994 0.057262 -0.272931 -0.232052 0.898472 -0.475044 -0.571632 -0.201300 -0.015621 0.721397 -0.341191 0.731298 -0.020690 0.641070 -0.581638 0.200021 0.432286 -1.517889 -0.401681 -0.718476 0.123888 -0.423755 0.479013 0.413264 -1.110795 -0.045735 0.903206 -0.314521 0.296495 0.089468 -0.300171 0.365799 -0.373188 -0.003278 -1.126192 0.270316 0.275820 -0.173672 -0.051298 0.086619 -1.412446 0.991237 -0.305166 -0.047928 0.419182 0.162635 0.746291 -0.262574 0.522840
AAAAT -0.007027 -0.407535 0.021916 -0.127556 0.915340 0.032726 0.081173 -0.250185 -0.527395 0.118007 -0.192444 -0.598415 -0.003807 -0.276264 -0.258185 -0.595784 0.215387 0.016867 0.048025 -0.712872 -0.533589 -1.054838 0.100489 0.609771 -0.407605 -1.411738 -0.026536 0.269532 -1.078208 0.590837 -0.089133 -0.447957 0.464628 0.095554 -0.678344 -0.355607 0.375203 -0.087729 0.087108 0.115672 0.271108 -0.542989 0.794249 -0.708475 -0.137469 0.376780 -0.132396 -0.128814 0.641261 -0.190559
ATGAA -1.184622 0.267768 -0.264457 0.007413 -0.581671 -0.754773 0.825065 -0.336124 -0.893749 0.991970 -0.281556 -0.399875 -0.720687 0.317160 -0.763883 -0.554249 0.627284 0.702825 0.538047 -0.258677 -1.177652 -0.544226 -0.426434 1.159723 0.384666 -1.065012 0.153415 0.766924 -0.408878 0.594092 0.748509 -0.251556 0.659369 -0.126162 0.398256 0.271427 -0.325295 0.154280 0.112532 0.009245 -0.037561 -0.631282 0.231802 -0.051772 -0.246347 -0.484899 -0.977785 0.161671 0.912807 -0.699400
ATCAT -0.221597 -0.309625 -0.402944 -0.094292 0.086707 0.750549 -0.432121 0.126776 -0.657466 0.297301 0.176712 -0.027487 0.631001 0.694716 -0.710607 0.257879 0.299213 0.057752 0.581535 -0.021053 -0.790846 -0.555934 0.220337 1.597473 -0.237846 -1.070015 0.166867 -0.152439 -1.130107 -1.025831 0.758217 -0.777196 -0.044031 0.026790 -0.156095 -0.006836 0.942951 0.591354 -0.842054 1.227307 0.774123 -0.738231 1.097202 -0.697714 -0.073028 0.457026 -0.793688 -0.154743 -0.639956 -0.111093
ATCTT -0.242051 -0.601160 -0.902907 -0.298481 0.106963 0.195660 -0.560020 -0.302202 0.112123 0.942472 -0.665655 0.146418 0.344224 0.129090 -0.564783 0.014590 0.252893 0.720679 1.459488 -0.803559 -0.101714 -0.332692 0.385542 0.080045 0.065836 -0.310631 -0.074918 0.409635 -0.116406 0.710888 0.308517 -0.946503 -0.606804 -0.189552 -0.902315 0.392614 0.780101 -0.215428 -0.434844 0.337055 1.272289 -0.403681 0.399775 -0.430469 1.069950 0.427922 -0.541179 -0.153312 -1.198373 0.392711
CAATT 0.909295 0.085404 -0.517419 0.571582 -0.760064 0.358312 -0.867121 0.009280 -0.052436 0.002609 -1.450769 -0.114828 0.037474 0.006856 -0.612824 -0.021095 0.003628 0.224878 -0.259020 -0.856972 0.748254 -0.190027 -0.866603 0.089114 0.538537 -1.254864 0.022618 0.324042 -1.025827 0.307936 -0.531131 0.240899 -0.521217 -0.077724 -1.380132 -0.511956 0.513538 -0.116846 -0.004623 0.209388 0.792869 -1.039616 -0.542944 0.469676 -0.315451 0.052506 -0.984524 -0.260743 0.522309 0.693789
ATCAA 0.197790 -0.155775 -0.638973 -0.365090 -0.402389 0.619280 -1.209907 0.923375 -0.642048 0.048990 -0.522746 0.399554 0.309310 0.642785 -0.802435 0.439635 -0.048698 0.487357 0.031864 0.256744 -0.313005 -0.630282 -0.139097 0.795696 0.124606 -0.990992 0.307218 0.114098 -1.413608 -0.252294 0.589275 -0.330518 0.163731 -0.367457 -0.231837 -0.601346 1.015286 -0.155534 0.328897 0.702487 1.195814 -0.931424 0.503055 0.053244 -0.094253 0.338408 -0.888631 0.285690 0.502846 0.497484
ATTTT -0.161323 0.567502 0.040014 0.874265 -0.037920 0.155505 0.105027 -0.048399 0.193894 -0.148405 -0.002776 -0.305366 0.793215 -0.209092 -0.203932 -0.216532 0.149606 0.310074 0.810233 -0.584639 -0.005433 -1.140608 0.010403 0.907554 0.060159 -1.031699 -0.635385 0.705459 -0.546804 -0.062878 -0.134865 0.366156 -0.172639 0.922264 -0.723739 -0.203653 0.690626 0.331633 -0.860045 0.239826 0.349190 -0.941461 0.700699 0.133751 -0.067632 0.256963 -0.668128 -0.910991 -0.119153 -1.294521
AGTTT -0.560339 -0.088970 -0.148826 1.246672 -0.479746 -0.037792 -0.146587 -0.367045 -0.292441 -0.805070 0.012493 0.468524 0.361590 -0.363907 -1.211291 0.462505 -0.983058 0.339475 0.511502 0.113207 -0.005851 -0.550198 -0.595512 0.036938 0.205229 -0.557799 -0.701045 0.499084 -0.087471 1.261648 -0.803278 0.546625 0.981180 -0.367581 0.141887 -0.081757 -0.285611 -0.353973 -0.136152 -0.076754 0.670832 -0.550163 0.678374 -0.459638 0.430588 0.607206 -0.450844 0.077241 -0.316544 -1.151460
TCAAT 0.601696 -0.298477 -0.229680 0.063337 -0.679390 0.355743 -0.024792 0.150840 -0.062867 -0.099156 -1.282659 0.452599 -0.619306 -0.029128 -0.958095 -0.111264 0.472160 -0.108488 -0.462005 -1.175518 0.557271 0.234092 -0.690945 0.628200 0.173409 -1.383537 0.202882 -0.260907 -0.681896 0.582755 -0.324637 0.289270 -0.252501 -0.234688 -2.184220 -0.750661 0.280953 -0.282019 -0.476652 0.406036 0.450390 -1.168575 0.034089 -0.413399 0.275474 -0.367888 -1.050908 -0.441302 0.202610 0.351680
TAATT 0.244058 0.042959 0.562403 -0.279874 0.229170 0.048231 -0.398558 -0.356731 -0.091947 -0.103415 -0.305806 0.543444 -0.172842 0.052899 -0.253782 -0.723167 -0.383892 0.714416 0.184462 0.341386 0.278737 -0.118109 0.217225 0.149100 -0.141250 -1.004694 -0.211749 0.533016 -0.400473 0.887422 0.007922 0.170216 0.369018 0.438849 -1.142968 0.496856 0.608291 0.077072 -1.434371 -0.220805 0.327161 -0.494206 0.255268 -0.240183 -0.264845 0.561003 -0.331710 0.099118 -0.324266 -1.026137
TTAAA 0.415211 -0.308125 -0.604057 0.105076 -0.135296 0.273013 -0.281698 0.163424 -0.334304 0.300145 -0.644376 -0.201400 0.224073 0.221827 0.549871 -0.417033 0.159095 0.283878 0.699617 -0.353782 -0.776575 -0.019460 0.552053 0.280208 0.215515 -0.531183 -0.260486 0.937932 -0.916917 1.140711 -0.124477 0.459279 0.794971 -0.002844 -0.526014 -0.043991 0.147000 -0.029939 0.410505 -0.343030 0.776756 -0.686381 0.889980 0.129542 0.476879 0.118936 -0.129213 0.318505 -0.423532 -0.647710
TTTTTTT -0.113893 0.346396 -0.025005 1.290557 -0.091342 -0.169265 0.015125 -0.593255 0.107852 -0.148538 -0.461388 0.201312 0.637821 -0.297613 -0.256850 -0.009350 0.059156 0.718871 0.976322 -0.237022 0.198220 -0.673686 -0.170443 0.241694 0.943290 -0.773243 -0.767297 0.786275 0.665505 0.826754 -0.857537 0.708264 -0.168987 0.724179 -1.191172 -0.700521 0.611664 0.442970 -0.719316 -0.259754 0.537387 -1.046018 0.514093 0.170670 0.332252 0.362002 -0.462380 -0.049120 -0.457243 -1.036894
TTTCT -0.073438 0.152668 0.040260 0.519024 -0.306479 0.067093 0.184529 -0.668758 0.544418 -0.020473 0.031271 0.076498 0.809683 -0.378246 -0.258501 0.125048 -0.026666 0.655303 0.817542 -0.007555 0.145691 -0.300454 -0.133340 0.223176 0.441346 -0.718012 -0.843551 0.091964 0.785296 0.968435 -0.264049 0.467979 -0.070282 0.344843 -1.147407 -0.267957 0.203804 -0.364206 -0.500792 -0.107447 0.648579 -0.979915 0.311422 -0.299635 0.391035 0.464395 -0.308374 -0.068195 -0.472927 -0.428760
TTGAT -0.434871 0.115268 0.022423 0.667571 -0.261243 0.053463 -0.438322 -0.431585 -0.066474 0.137223 -0.185214 -0.304524 0.165800 0.561521 -0.946913 -0.731841 0.719899 1.004116 0.500262 -1.035118 0.878466 -0.864431 -0.013599 0.224016 0.224339 -0.915574 -0.743420 0.040711 -0.396442 0.056630 0.516365 0.250356 -0.418191 0.136325 0.221014 0.791252 1.152361 -0.318925 -0.421571 -0.358852 0.860161 -0.863004 0.334942 -1.204922 -0.314905 0.086457 0.084150 0.539992 -0.381316 0.013759
ATTCT 0.059263 0.848184 0.252082 1.331865 0.270850 1.186510 -0.009405 -0.934928 0.564102 0.591913 -0.360925 0.495410 1.195824 -0.694224 -0.004437 -0.360510 0.239126 0.358941 0.808927 -0.637694 0.234022 -0.208433 -0.278183 0.282936 0.462177 -1.412849 -0.229046 0.719800 -0.660091 -0.282123 0.389960 -0.400863 -0.169960 -0.252565 -1.055924 0.421377 0.531898 -0.415466 0.507189 0.717090 0.186892 -0.649011 -0.247592 -0.239459 -0.681584 0.087483 -0.433002 -0.789110 0.196330 0.207117
TACTT -0.826760 -0.602091 -0.370174 -0.678985 -0.695247 0.023293 -0.595342 -0.445908 1.060343 0.130536 0.247882 -0.322351 0.378662 -0.118797 -0.000960 -0.408945 0.195491 1.070278 0.413029 -1.315485 -0.101019 0.436256 0.398087 0.493029 0.347816 -0.854931 -0.243610 -0.006951 0.174254 1.013839 -0.147099 0.488873 -0.278043 0.129551 -0.672536 0.480858 0.505194 -0.434627 -0.973949 -0.686524 1.433543 -0.744711 -0.466996 -0.212839 1.672684 0.462906 -0.095311 -0.287948 -0.409049 0.075600
AATGA -0.590892 0.009498 0.001340 -0.231383 -0.289318 -0.930403 0.374036 0.279887 -0.969628 0.696443 0.227953 0.452766 -1.138295 0.716488 -0.763718 -0.623414 -0.178577 0.601853 0.099431 -0.840121 0.803448 -0.113331 -0.878434 0.068216 -0.075504 -0.956034 -0.362509 0.737721 -1.115091 0.971654 0.337022 -0.637556 0.160103 0.128917 -0.594980 -0.132969 0.697975 -0.019511 -0.164399 -0.002128 0.056789 -0.667308 0.210951 -0.037217 -0.097771 -0.405504 -0.890659 0.398954 0.637079 0.015593
TGAAT -0.817196 -0.384485 -0.834835 0.351363 0.172579 -0.666560 0.513817 -0.406364 -0.556809 0.627895 -0.484318 -0.228084 0.161322 0.805788 -0.729888 -0.910628 -0.392823 0.971420 0.446207 -1.773347 0.685454 0.099957 -1.281124 0.125270 -0.107742 -0.696429 -0.452703 0.392060 -0.627581 1.085527 0.744474 0.289501 0.507127 0.534515 -1.219201 -0.448446 0.619916 0.219163 -0.106474 -0.313135 -0.487216 -0.207348 -0.286550 -0.359059 -0.036789 -0.300038 -1.159758 0.237299 -0.130731 0.575058
AAATT 0.318350 -0.418199 -0.253369 0.149722 0.511905 -0.216123 -0.162308 -0.360427 -0.545031 -0.010449 -0.414324 -0.230564 0.399733 -0.220444 -0.132861 -0.537107 0.036978 0.285014 0.336171 -0.459907 -0.263650 -0.935513 0.174746 0.153391 -0.269370 -1.007995 -0.372332 0.369762 -0.427373 1.118002 -0.586436 0.017583 0.613887 0.275698 -0.991208 -0.388434 0.182251 -0.339934 -0.046371 -0.183071 0.312949 -0.445834 0.851699 -0.587051 0.166818 0.414737 -0.033429 -0.034355 0.185690 -0.292907
TATCA -0.209243 -0.782970 -0.431364 -0.197308 -0.139279 0.781651 -0.298882 0.269516 -0.522289 -0.446842 -0.053344 0.822800 0.531238 0.885011 -0.838450 0.442020 -0.120425 0.523132 -0.342889 0.456025 -1.123181 -0.376101 -0.448655 1.413398 -0.075043 -1.102337 0.035524 -0.394832 -1.246404 -0.971509 1.345872 0.124407 0.245181 0.179578 0.138542 -0.465629 0.621102 0.143989 0.007354 0.460814 0.860644 -1.093238 0.131396 -0.033874 0.052105 0.758580 -0.347742 -0.415098 -0.295234 0.080481
ACATT -0.764487 1.174953 -0.336161 0.466247 -0.465894 0.567751 -0.901921 -0.958196 0.034417 0.249810 0.499715 -0.398677 1.476388 -0.623314 0.581577 -0.409708 -0.084310 0.868461 -0.633019 -0.201313 0.066199 -0.661296 -0.947775 0.137036 0.102638 -1.350968 -0.418532 1.104999 -0.213664 0.355212 -0.753741 -0.816307 -0.257663 -0.137342 -0.142240 0.012066 0.180190 0.626739 -0.116266 0.554079 -0.240968 -0.903975 1.115160 0.172054 -0.415875 0.651189 -0.335123 0.273736 -0.369307 0.364461
CTTTT -0.363826 -0.155053 -0.217096 0.518908 -0.064038 0.047581 0.024041 -0.368923 0.608233 0.397201 -0.195024 -0.052488 0.540894 -0.471399 -0.261062 -0.336358 0.053248 0.683534 1.206168 -0.584708 0.292633 0.133445 0.148189 0.506497 0.557961 -0.636709 -0.476797 0.208058 0.633999 1.321289 -0.462536 0.442301 -0.578730 0.076469 -1.253106 -0.118959 0.352512 -0.210719 -0.671620 -0.169055 1.214384 -0.730750 0.188091 -0.172158 1.032528 0.440843 -0.531991 -0.446468 -1.056277 -0.218912
ATTCA 0.095005 0.929191 -0.432658 0.415567 -0.090553 0.881633 -0.826297 -0.428669 -0.242387 0.490392 -0.477979 0.393787 0.170362 -1.048235 -0.782842 -0.125208 0.486198 0.343285 -0.100143 -0.734000 -0.115555 -0.947538 -0.712307 0.869304 -0.474174 -1.531556 -0.391967 -0.281870 -0.489824 -0.557976 0.110928 -0.262328 -0.276447 0.156511 -1.074672 0.135068 -0.534436 -0.215355 -0.658148 0.699612 -0.149966 -0.923530 0.527997 0.271074 0.108012 0.389042 -0.750845 -0.826838 0.567629 -0.015085
TGCAT -0.379225 -0.535802 0.460630 -0.655111 0.528956 0.675725 -0.229437 -0.421109 -0.445149 0.390541 0.173256 -1.204266 0.833217 -0.802000 -0.658852 -1.284511 -0.105587 0.474639 1.216826 -0.401973 0.410987 -0.489720 -0.756085 0.914862 0.676696 -0.512764 0.847484 -0.248097 0.298332 0.447606 -0.634901 -0.043578 0.124745 -0.209216 -0.401840 0.096077 -0.111665 1.333692 -0.216270 1.514645 0.558946 -1.049487 -0.129489 -0.083141 -0.950824 1.271250 -0.175310 0.959914 -0.487598 -0.170374
GATTT -0.520745 0.586196 0.511926 1.282851 -0.354606 0.008546 -0.328073 -0.842072 -0.535725 0.150564 -0.000958 0.198589 0.153524 0.131214 -1.158955 -0.172529 0.212800 1.012293 0.012574 -0.342073 0.409239 -1.635529 0.829588 0.016942 0.407560 -0.711737 -0.451626 0.211221 0.766605 0.357893 -0.449887 0.554166 -0.241433 0.108353 -0.540939 0.034893 -0.077176 -0.703161 -0.417269 -0.493607 0.700785 -0.582999 0.447893 -0.888376 -0.050012 0.072282 -0.058366 0.527743 -0.030983 -0.261191
AACTT 0.007289 -0.157467 -0.615311 -0.611621 -0.652399 -0.147882 -0.648829 0.287028 -0.027635 0.417623 -0.194591 -0.318609 -0.028457 0.587499 0.230685 0.696226 0.034589 2.136841 0.863663 0.475304 -0.407986 -1.153981 -0.199550 0.466967 -0.310532 -0.733860 0.206201 0.431820 0.513873 1.148908 -0.121147 0.055280 0.096237 0.390618 -1.030306 0.155730 -0.496969 -0.798153 -0.091898 0.372304 0.163065 -1.864870 0.028757 -0.224960 0.999518 -0.221052 0.256881 0.613184 -0.099578 -0.666377
GCATT -0.027825 0.820013 -0.336236 -0.066792 0.357356 0.725618 -0.595975 -1.046356 0.131595 0.668919 0.015388 -1.190715 1.104499 -1.363293 -0.215253 -0.715290 -0.064561 0.582196 1.092377 -0.366583 0.514812 -0.906602 -0.870078 0.011944 0.404174 -0.901674 0.858167 0.389875 0.343565 -0.026455 -0.931714 -0.524778 0.454686 0.294371 -0.128746 -0.170708 -0.181053 0.863961 -0.401694 0.993494 0.774546 -0.550773 -0.149193 0.173361 -0.849014 1.092263 -0.414544 0.618713 0.364789 -0.550237
ATAGA -0.831258 -0.058060 0.314571 0.354416 -0.526682 1.353715 0.105174 -0.293650 -0.635270 0.603910 0.455451 -0.304962 -1.072031 0.359496 -0.074443 -0.997206 -0.236432 0.029823 -0.715701 -0.660151 0.020774 -1.226674 -0.051851 0.887147 -0.001613 -0.348646 0.876623 0.280155 0.082452 -0.423033 -0.237867 0.047555 0.512373 -0.630806 -0.506364 -0.821095 0.433289 -0.261539 -0.420910 -0.598776 0.364171 -1.660849 0.470143 0.067571 0.274650 -0.025744 0.157425 0.761251 -0.227448 0.318941
TTAAT 0.034460 -0.266061 -0.295114 0.488562 -0.005927 0.606268 -0.416867 0.104658 -0.446108 0.167285 -0.930910 -0.294754 0.156392 0.354130 0.368318 -0.421631 0.802694 -0.047262 0.878625 -0.454998 -0.407872 0.283398 0.440331 0.479154 0.317224 -0.554461 -0.403119 0.514423 -1.015336 0.419168 0.644687 0.524155 0.411902 0.352086 -0.372117 0.174856 0.527975 0.465133 -0.396422 -0.310312 0.788504 -1.120434 1.011261 0.212363 0.110337 0.041550 0.024057 0.030546 -0.698465 -0.549585
CTATT 0.282198 0.809698 0.416968 -0.045764 -0.446615 0.308744 -0.117182 -0.765319 0.573145 -0.027998 0.385289 -0.866320 0.923269 -0.443244 0.429038 0.184523 -0.140972 0.568059 0.809823 -0.148286 -0.500427 -1.210858 -0.628049 1.144866 -0.573466 -1.422372 -0.802437 0.325980 -0.910497 -0.268544 0.290455 0.287980 -0.515738 0.651565 -0.819606 0.470119 0.784103 0.182507 -0.427602 -0.482739 0.456532 -1.050029 -0.337505 0.503862 -0.403756 0.402067 0.268203 -1.162341 0.570987 -0.061962
ATGAT -1.171524 0.414950 0.386371 -0.068012 0.401418 -0.491291 0.172923 -0.147976 -0.332601 0.763011 0.357164 -0.154866 -0.751131 0.278531 -0.986792 -0.839290 0.971528 0.363984 0.706742 -0.135377 -0.001604 -0.455722 0.154558 1.275550 0.507381 -0.647076 -0.547720 0.147992 -0.617284 -0.063450 0.842837 -0.376292 -0.067358 0.222463 0.732685 0.258889 0.861098 0.154101 -0.250344 0.344532 0.585174 -1.061763 0.837883 -0.228913 -0.365143 -0.086808 -0.689657 -0.036732 0.386273 -0.733623
TATCT -0.515203 -0.860444 0.240742 0.716173 0.377062 1.191385 0.546512 -0.295252 0.712480 -0.380566 0.086708 0.703325 1.054653 0.245075 -0.037940 -0.097295 -0.159906 0.547065 0.246647 0.254583 -0.561635 0.338153 -0.142231 0.754714 0.408451 -1.132395 -0.206075 0.114798 -0.617911 -0.157586 1.142009 0.199758 0.591880 0.074707 -0.510186 -0.257981 0.846534 -0.532292 0.663195 0.368006 0.833534 -0.966191 -0.674636 -0.492882 -0.365614 0.594386 0.041025 -0.486971 -0.328330 0.353364
CATTA -0.446339 1.335905 -0.790159 -0.147923 0.108737 1.173750 -1.426241 -0.821432 -0.125415 0.230042 0.346137 -1.070680 1.138782 -0.810069 0.606140 -0.372860 0.237546 0.400057 0.836007 -0.205074 -0.486602 -1.196335 -0.476179 0.794422 -0.156737 -0.638572 0.192110 0.407368 -0.686757 0.380409 -0.763979 -0.823715 -0.039532 -0.216941 -0.128231 0.284358 0.108017 0.604029 -0.167615 0.634043 0.637670 -0.563549 0.855441 0.430446 -0.364077 0.356498 -0.380864 0.239062 0.378853 -0.403151
ATTAA 0.055462 0.865440 -0.004906 0.187502 0.157332 0.500831 -0.623018 -0.267618 -0.327640 0.324281 -0.010585 -0.753444 0.545918 -0.289429 0.085207 -0.587217 0.106063 0.324282 0.471035 -0.592437 -0.545870 -1.465696 0.114261 0.652680 -0.530853 -0.951196 0.010557 0.838219 -0.958813 0.247229 -0.169297 -0.323143 -0.105353 -0.170525 -0.295474 0.314761 0.343505 0.080486 0.008891 0.241120 0.301520 -0.486230 0.668706 -0.026888 -0.065739 0.084825 -0.180657 -0.090070 0.612297 -0.921486
TCATC 0.484698 -0.303642 -0.810986 -0.002787 -0.581329 0.339598 0.145367 0.282886 -0.110314 0.544183 -0.085376 0.260933 0.724337 0.292172 -0.660452 1.075404 -0.228913 -0.242615 0.725028 -0.078026 -0.525534 -0.134364 0.134811 1.258153 0.031630 -0.949085 0.354796 0.087347 -0.508390 -0.635463 0.134874 -0.626850 -0.597712 -0.450232 -0.768557 -0.182561 0.502744 0.381388 -0.454100 1.449816 0.541258 -0.125292 0.686993 -1.397204 0.315496 0.171231 -1.179511 -0.023986 -1.171422 -0.091937
CATCA 0.207490 -0.005022 -0.770487 -0.742538 -0.594988 0.703367 -0.700756 0.237865 -0.716352 0.489092 -0.125000 0.519933 0.987557 -0.217046 -0.630140 0.918801 -0.198745 0.420835 0.114312 -0.081290 -0.653180 -0.336723 -0.450038 0.972717 -0.185173 -1.033521 0.332437 -0.012446 -0.880574 -0.752145 0.015392 -0.882859 -0.075229 -0.383846 -0.262923 -0.505130 0.107795 0.721151 -0.383862 1.426185 0.430256 -0.668389 1.011507 -0.402633 0.042733 0.741091 -1.039132 0.305763 -0.688867 0.045788
GAATT -0.478499 0.224896 -0.837443 0.942847 -0.458808 -0.447844 0.283984 -0.868547 -0.689840 0.776777 -1.168031 -0.250309 0.225286 0.387522 -0.621923 -0.225705 0.054283 0.852958 0.448133 -1.303945 0.198142 -0.529743 -0.761540 -0.032050 0.363944 -1.006328 -0.065341 0.828504 -0.539113 0.439325 0.469701 0.744519 0.132713 0.196264 -1.184271 0.194807 -0.222580 0.081784 -0.062974 -0.349617 -0.399938 -0.201061 -0.475608 0.545653 -0.100376 -0.212246 -1.142732 -0.346875 0.416247 0.588024
ATGTT 0.262468 0.003450 -0.211229 -0.004549 0.015555 -0.270009 -0.686324 -0.702845 -0.578375 0.334952 -0.345571 0.531577 -1.156134 0.428546 0.332390 -0.565868 1.945701 0.301875 0.953127 -0.620063 0.218118 -0.148554 -0.738342 0.708259 1.165913 -1.303928 -0.938935 0.022809 -0.647525 0.258618 -1.014698 0.772704 1.478041 -0.518890 -0.222298 0.829003 0.403233 0.961698 0.078491 -0.178803 0.273959 -0.470514 0.731762 -0.421500 -0.584355 -0.193961 -0.389544 0.143850 -0.281785 -0.605469
GTTAT -0.298901 -0.789242 -0.944078 0.633270 -0.202758 0.531017 0.370675 0.093420 -0.228603 -0.517123 -0.109412 0.345484 -0.171699 0.859516 0.327085 -0.456903 0.452021 0.420828 0.482114 0.566339 -0.363109 -0.069936 -0.617568 0.835068 0.501085 -1.172837 -0.355558 -0.037847 -1.038888 -0.128456 -0.265486 1.325450 1.130057 0.012628 0.382522 -0.020596 0.332293 0.695055 0.449851 -0.437503 0.987312 -0.635715 0.027122 0.289767 0.018873 0.617034 0.521146 -0.472631 -0.609105 -0.079891
TGATA -1.483045 0.368367 0.140782 -0.256876 0.901548 -0.004400 0.377802 0.015427 -0.168001 0.735752 0.835203 -0.057711 -0.716037 0.334127 -0.963707 -1.116059 0.093487 0.873438 -0.291819 -0.450874 1.015911 0.279503 0.338384 0.969701 -0.034976 -0.236048 -0.718826 -0.127420 -0.765354 0.433975 1.146761 0.388268 0.651040 0.061291 0.156476 -0.818831 1.116084 -0.145013 -0.389975 -0.172847 0.355919 -1.398129 0.840826 -0.721150 -0.066597 -0.065789 -0.743099 0.715816 0.260890 -0.519741
TCATA -0.105378 -0.277742 0.099101 -0.187790 -0.086567 1.182334 0.367739 0.010693 -0.151682 0.177457 0.243937 -0.298755 0.090879 0.066840 -0.605034 -0.155332 -0.175273 -0.098199 -0.339241 -0.424298 -0.235566 0.420890 0.535837 1.886035 -0.402660 -0.768662 0.581827 -0.309835 -0.429765 -0.302214 0.547066 -0.103016 0.221365 -0.156164 -0.648172 -0.942104 0.213396 0.490001 -1.341401 0.640273 0.527498 -1.098591 0.866824 -1.338113 0.350296 0.043570 -0.617100 0.584856 -0.423260 -0.727661
TGCAA 0.719589 -1.254285 0.518446 -0.586439 0.280245 0.412580 -0.590190 0.632817 -0.574680 -0.340901 -0.576179 -1.015930 0.104234 -0.283497 -1.391148 -0.818842 -0.426857 0.427915 0.665108 -0.545308 0.395061 -0.909370 -0.387918 0.467206 0.748394 -0.475903 0.054849 -0.283619 -0.472099 0.938859 -1.089670 0.366690 0.109635 -0.385788 -0.733989 -0.407885 -0.149831 -0.106793 0.804929 1.101000 0.917060 -1.015694 -0.744642 0.054164 -0.832687 0.740227 -0.170357 0.761104 0.614431 0.533074
TCTAT -0.493658 -0.772731 0.170602 0.815680 0.130902 0.616353 0.767825 -0.853641 0.423426 0.090144 -0.106303 0.664831 0.368239 0.247806 0.423818 -0.524458 0.039854 -0.025298 0.630335 0.236404 -0.820118 0.448934 -0.449974 0.591177 0.677909 -1.559410 0.404949 0.437266 -0.319576 0.314790 0.601753 -0.282504 0.149147 -0.276406 -0.523622 -0.201748 0.870135 -0.248437 0.614861 0.308247 1.055375 -0.882543 -0.608898 -0.557626 0.134276 0.553470 0.032336 -0.774380 -0.601743 0.049788
TTTTA -0.645513 0.426362 0.126830 0.381818 -0.508654 0.164270 -0.540377 -0.539475 0.013738 -0.227968 -0.080255 0.318235 0.320191 0.183651 -0.424717 -0.223124 -0.613895 0.746573 0.230075 0.491488 -0.225532 -0.373298 -0.027138 0.192170 0.490152 -0.773752 -0.223235 0.632079 0.083162 0.914455 -0.316618 0.542351 0.246725 0.640762 -0.730125 -0.177729 0.335348 -0.000175 -0.945086 -0.494946 0.738804 -0.792044 0.106672 0.099342 0.016725 0.287196 -0.166283 0.374009 -0.127040 -1.282253
TTCTT 0.072332 0.011751 -0.137060 0.944966 0.182435 0.084982 -0.103857 -0.611459 0.130081 -0.527555 -0.529365 0.285129 0.586737 -0.232019 -0.112499 0.117547 0.546706 0.082807 0.843541 0.112401 0.332260 -0.395051 -0.115412 0.488139 0.339795 -0.792803 -0.556627 0.074167 0.392741 0.868986 -0.101628 0.891786 0.220747 1.119219 -1.489909 -0.320025 0.595915 0.001076 -0.790238 -0.225638 0.524608 -0.901940 0.539741 -0.141135 -0.111928 0.482774 -0.482226 -0.445186 -0.406405 -0.536976
ATGCA -0.053704 -1.165775 1.042478 -0.685005 0.458893 -0.075309 -0.112784 -0.194651 -1.273262 0.191638 -0.210391 -0.460372 -0.095315 -0.500012 -1.254213 -1.445339 0.175206 0.390038 0.512337 -0.295600 -0.191363 -0.585385 -0.743100 1.073881 1.270240 -0.834925 0.385036 -0.128015 -0.178606 0.645483 -0.526500 -0.212842 -0.440108 -0.541315 0.169945 0.099380 -0.830226 0.819946 0.320454 1.115130 0.796376 -1.105668 -0.489470 0.595730 -0.734565 0.945200 -0.238437 0.646406 0.281427 -0.318860
ATTGA -0.180241 0.406235 -0.357579 0.825778 -0.854140 -0.139759 0.005581 -0.242844 -0.271869 0.098829 0.164808 -0.937954 0.278690 0.236624 -0.535982 -0.549742 0.115414 0.663830 0.278283 -1.608562 1.098197 -1.340628 -0.978802 -0.009840 -0.700890 -1.236917 -0.223807 0.756092 -0.926911 -0.090054 0.336133 -0.620770 -0.476847 0.442669 -0.024585 0.697736 0.907989 0.088205 -0.287277 0.025337 0.032424 -0.676368 0.107748 -0.620456 -0.738147 0.020802 0.041508 0.465502 0.385895 0.208998
GAAAA -0.505774 0.213849 -0.416774 -0.035600 -0.904681 -0.218524 0.371488 -0.340797 -0.993116 0.923904 -0.242120 0.025862 -0.536056 0.185658 -0.272949 -0.649246 -0.266732 0.359789 0.384644 -0.520386 -1.370344 -1.074768 -0.074397 0.678337 -0.166403 -0.585172 0.023623 0.952294 -0.541111 0.884636 0.300536 -0.318838 0.757754 -0.126211 -0.102679 -0.008418 -0.606163 -0.425014 0.504538 -0.295442 0.090899 0.175981 -0.044897 0.293056 -0.101751 -0.061553 -0.927353 0.382574 1.086186 -0.636859
ATACT -1.404175 -0.397354 -0.084158 -0.004474 -0.094802 0.769622 -0.235646 -0.515635 0.575656 0.490957 1.526847 -1.103941 0.159082 0.214399 0.300530 -0.583414 0.229266 0.758272 -0.402722 -1.736549 -0.426778 0.901926 0.386408 0.779093 0.230532 -1.194868 0.144444 -0.510291 -0.647298 0.100961 -0.041669 0.961032 -0.078496 -0.166009 -0.906665 -0.139833 0.334476 -0.392601 -0.671490 -0.310453 0.697768 -1.189918 -0.758168 -0.262955 1.228911 0.210358 -0.329923 0.609849 0.159967 -0.150931
CTTCT 0.181234 -0.332196 -0.356152 -0.830176 -0.435793 0.026629 0.352517 -0.338492 1.144237 0.611245 0.197034 -0.398701 0.050785 -0.312910 -0.082611 0.490865 0.081815 0.864820 1.185830 -0.231483 -0.241589 -0.109631 -0.007384 0.210861 -0.170860 -0.618643 -0.868134 -0.350365 0.851674 0.937399 0.163813 -0.108036 -0.380347 -0.013381 -1.397315 0.173654 0.238741 -0.864072 -0.405106 -0.022912 1.059178 -0.907796 -0.074043 -0.088785 0.879206 0.355947 -0.228395 -0.121531 -0.940731 0.275440
AAAAG 0.229443 -0.700277 -0.147862 -0.151655 0.393406 -0.081964 0.112319 -0.094336 -0.615491 0.112367 0.179295 -0.098884 -0.413847 -0.629879 -0.277076 -0.591368 -0.528736 0.040743 -0.266352 -0.588249 -0.223175 -1.488290 0.121711 0.044169 -0.819355 -0.869343 0.306241 0.495658 -0.470585 0.708700 -0.730005 -0.499215 0.867730 -0.396442 -0.356999 -0.592277 -0.153879 -0.974163 0.501982 -0.496904 0.382390 -0.131385 0.694381 -0.544410 -0.123027 0.563884 0.329320 0.229374 0.401433 -0.574543
CCATT 0.360775 1.511706 -1.238396 0.689023 0.093848 0.533677 -0.650877 -1.216538 0.486749 0.330961 0.217548 -0.663538 1.103799 -0.531672 -0.021699 -0.775175 -0.186426 -0.075048 0.687925 0.650075 0.551508 -0.749848 -0.688707 0.743228 -0.032260 -0.469465 -0.180587 -0.805303 -0.192155 0.676781 -0.625002 -1.110773 -0.360229 -0.196033 -0.456791 0.635288 0.477691 0.439462 -0.446282 -0.058819 0.392027 -0.495951 0.404936 -0.249426 -0.049091 0.218009 -0.534659 0.304388 0.639699 -0.245369
GTTTT -0.000873 -0.069809 -0.202081 0.649079 0.021261 0.115897 -0.185976 -0.788332 0.357481 -0.161478 -0.238441 0.092840 -0.368410 0.180038 0.421143 -0.060184 0.673195 0.663029 0.702787 -0.357567 0.543517 -0.525169 -0.408381 0.595651 0.794193 -0.668471 -0.671680 0.035445 0.095621 0.513851 -1.137674 1.021345 0.806034 0.243966 -1.056360 -0.316041 0.765473 0.546586 -0.463026 -0.331451 0.200885 -0.613696 0.281123 -0.227064 -0.230984 0.039839 -0.486399 0.016042 -0.943820 -0.539487
TACAT -1.615216 0.233364 0.423486 -0.574829 -1.147464 0.563441 -1.394800 -0.460190 0.230009 -0.149902 0.707441 0.067469 1.387984 -0.099000 0.605496 -0.218196 0.325414 0.311611 -0.604090 -0.280038 -0.757144 0.150513 -0.444530 0.501883 0.795173 -1.312687 -0.121101 0.810460 -0.433522 0.592439 -0.840356 -0.541721 0.263885 -0.109324 -0.085328 -0.122587 1.009580 0.749016 -0.284245 0.245126 0.691819 -0.431856 1.025550 -0.117581 0.022264 0.515624 -0.399228 -0.158472 -0.281652 0.451682
TATGT -0.337494 -0.107279 0.058676 -0.615504 0.596575 0.625367 0.181264 -0.037765 0.359828 -0.864668 -0.055540 0.164727 -0.347713 -0.344042 -0.004193 -0.089869 0.881581 -0.097260 -0.192826 -0.511416 -0.672233 0.012279 -0.032766 1.762162 0.845505 -0.608623 0.376113 0.443415 0.497572 0.529675 1.154108 0.364276 1.026856 1.512849 0.225432 -0.210108 0.664722 0.136098 1.050827 -0.250530 0.072548 -1.301089 -0.518668 -0.136894 -0.263888 0.617560 -0.277331 -0.729416 -0.139767 0.014259
TGATT -0.543856 1.212684 -0.036154 0.251713 0.380933 -0.218576 -0.105593 -0.091319 0.238855 0.520733 0.354874 -0.409459 0.329037 -0.187312 -0.653674 -0.678798 0.419764 0.371329 1.097746 -0.829233 0.829705 -0.845938 -0.494873 0.880115 -0.199066 -0.529398 -1.231689 0.409577 -0.929213 -0.103660 0.614628 0.103769 -0.178968 0.712760 -0.003173 0.064402 0.822319 0.076623 -0.228425 0.533452 0.042485 -0.975327 0.563795 0.161319 -0.552548 -0.056115 -0.829064 -0.821156 0.341183 -0.865045
TCTTT 0.145870 0.261806 -0.002490 1.325901 0.001077 0.575716 0.064925 -0.678346 0.377777 -0.054421 -0.420299 0.768912 1.105216 -0.336916 -0.147029 0.140084 0.133644 0.630873 0.796530 -0.055774 0.388203 -0.133472 -0.259651 0.528010 0.830981 -0.989887 -0.474986 0.342416 -0.006397 0.299708 -0.253894 0.613069 0.308140 0.237923 -0.946952 -0.112376 0.577538 -0.005168 0.305730 -0.019715 0.478003 -0.779871 0.046427 -0.571318 -0.233256 0.323484 -0.215957 -0.229494 -0.290448 -0.169245
CTTAT -0.397894 -1.056347 -0.656932 -0.069310 -0.194229 0.120177 0.491248 -0.221722 0.258577 -0.060471 -0.307881 -0.296177 0.153972 0.771637 0.136306 0.265992 0.275437 0.660935 0.723505 0.160935 -1.119733 -0.242480 -0.118380 0.824561 0.495866 -0.474945 -0.142559 0.011500 0.060045 0.479680 0.733952 -0.056612 -0.135113 0.365386 -0.051315 -0.353378 0.586772 -0.012008 0.122708 -0.502207 1.815834 -1.944898 -0.168121 0.372887 1.225980 0.412439 0.471762 -0.500841 -0.789694 -0.149065
AATTA -0.011882 -0.136550 -0.221093 0.311204 -0.574407 0.229494 -0.381636 -0.381619 -0.493436 0.167113 -0.921270 0.051819 -0.271635 0.564838 -0.113863 -0.576360 -0.340770 0.530434 -0.339818 -0.851100 -0.518317 -0.160757 -0.357078 0.215803 0.239839 -0.925271 0.305667 0.777528 -1.094524 0.622725 0.107477 0.340046 0.042675 -0.087484 -0.955203 -0.232832 0.272697 0.023569 -0.161349 -0.432760 0.467417 -0.726237 -0.442489 0.762908 0.142404 -0.172390 -0.557983 0.051318 0.488149 -0.030061
TTACT -0.228571 0.102247 -0.579184 -0.191199 -0.801419 0.531541 -0.844118 -0.242950 0.312647 -0.124341 1.170165 -0.736129 0.734030 0.261938 0.795410 0.628824 0.508377 0.436590 1.318782 -0.506616 -0.479169 -0.309548 0.533189 0.420627 0.585512 -0.646765 -0.862290 -0.110620 -0.877853 0.673372 -0.566468 0.902553 -0.273373 0.588014 -0.937466 0.402941 0.282174 -0.380901 0.085921 0.224126 0.564515 -0.948895 0.073131 0.138930 0.207347 -0.013444 0.104316 0.178723 -0.362883 -0.894722
TTTCA 0.129092 0.380432 -0.204089 0.365225 -0.614177 0.101090 -0.200634 -0.049234 -0.456974 0.032383 -0.575685 0.831262 0.571403 -0.440802 -1.202643 0.323813 0.159146 0.238478 0.008286 -0.109742 -0.120900 -0.733840 -0.307211 0.757249 0.052062 -1.107495 -0.428569 -0.196071 0.196429 0.377958 -0.392704 0.076636 -0.263128 0.366948 -1.033283 -0.846932 -0.372351 -0.095629 -0.860981 0.421968 0.322269 -1.024827 0.962161 -0.773474 0.171513 0.302856 -0.553981 -0.046395 -0.238813 -1.166842
TAATA -0.575246 -0.400664 0.735440 -0.840609 0.336629 0.562747 -0.720879 -0.486823 -0.121582 -0.298715 -0.130951 0.677831 -0.424427 0.555364 0.076876 -0.973749 -0.488074 0.431067 -0.572119 0.323258 -0.416427 0.408674 0.402598 0.445080 -0.078060 -0.864476 0.151920 0.286039 -0.597046 0.648784 0.523607 0.028265 0.716761 0.262892 -0.730218 0.172469 0.783358 -0.083682 -1.442332 -0.405904 0.665091 -0.383987 -0.183699 -0.021325 -0.339569 0.621026 -0.253454 0.222034 -0.071794 -0.684288
CTAAA 0.613246 -0.316118 0.970573 -0.908030 0.585968 -0.269641 0.409455 -0.583660 0.013129 0.171863 0.030944 0.322562 0.539040 -0.650961 0.333006 -0.219983 -0.520648 0.326529 0.564776 0.497165 -0.896327 -0.847177 -0.304492 0.430772 -0.946811 -1.362196 -0.255312 0.633115 -0.308549 1.071469 0.026908 -0.655106 0.752274 -0.536913 -1.095499 0.107062 0.378652 -0.685782 0.194889 -0.414315 0.833768 -0.121205 0.604390 -0.997827 -0.309167 0.580015 0.383359 -0.329812 0.695572 0.232757
CCTTT 0.616334 -0.208266 -0.423383 0.441393 -0.330427 -0.230947 0.420976 -0.847631 0.078978 0.068016 -0.786265 0.521512 1.048677 -0.120509 -0.122982 0.426517 0.098109 0.730915 0.748266 0.173957 0.486614 -0.213069 0.185354 0.428462 0.878707 0.284405 -0.788381 0.158980 -0.038461 0.546972 -0.285823 -0.357796 0.208755 0.039502 -0.685205 -0.329937 0.075842 0.267087 -0.727729 -0.503597 0.614962 -1.512793 0.385220 -0.202866 0.206265 -0.288451 0.263229 -0.071216 0.306006 -0.282987
TAACA 0.095070 0.233458 0.398965 -0.600002 0.027370 0.158600 -0.634847 0.039382 0.039921 0.672560 -0.054770 0.419256 0.148110 -0.054345 1.029648 -0.643127 -0.725929 1.413489 -1.086935 0.041519 -0.269772 0.568070 -0.037266 0.137429 -0.502907 -0.889205 -0.409531 1.508504 -0.412457 0.535503 0.238034 -0.449158 0.569870 -0.478494 -0.211565 0.709487 -0.115425 0.759263 -0.510200 -0.006500 0.011200 -1.001108 1.215642 0.108942 0.182398 0.557079 -0.541481 0.716047 -0.863450 -0.152987
AAGTT 0.085900 0.188443 -0.796329 1.021185 -1.019890 0.646613 -0.234527 0.316224 -0.080191 -0.761196 -0.407749 0.042126 0.182485 -0.520702 -1.204045 0.003695 -0.846516 0.553934 0.579315 0.407731 -0.305207 0.180676 -0.319391 0.185575 0.388457 -1.501020 -1.148822 0.528242 -0.843063 1.046935 -0.147707 1.035218 1.791437 -0.812135 0.783443 0.212438 -0.064270 -0.686721 0.259751 -0.197260 0.137693 -0.551377 0.509983 -0.112971 0.025086 0.592589 -0.384590 0.298775 0.152156 -0.704484
AATCA 0.588912 -0.422164 -0.553585 -0.419905 -0.292107 0.112208 -0.037005 0.168843 -0.781878 0.669706 -0.897436 0.982167 -0.380076 0.435908 -1.206230 0.064623 -0.267254 0.231792 -0.448397 -0.845589 -0.582977 -0.313221 -0.392415 0.810001 -0.450205 -0.858764 0.173022 0.151281 -1.156185 0.136002 0.012479 -0.593125 -0.350468 -0.113934 -1.462244 -0.359355 -0.037126 0.027943 -0.751583 0.527004 0.180140 -0.274480 0.302226 -0.263289 0.590741 -0.026694 -1.418467 0.100608 -0.031176 -0.255862
TACAA -0.262182 0.257022 0.218849 -0.820505 -1.563834 0.353699 -1.735711 0.698004 0.208460 -0.620615 -0.205613 0.660248 0.539782 0.134730 -0.023895 0.421399 0.129035 0.522421 -0.878435 -0.435782 -0.095613 -0.084921 -0.030656 0.025900 0.693431 -0.954845 -0.115340 0.875745 -1.152072 0.990000 -0.882372 0.020913 0.256290 -0.306130 -0.478745 -0.461336 1.002021 -0.244986 0.407849 -0.003486 1.339898 -0.218494 -0.000937 0.331661 0.266291 0.088599 -0.841448 -0.013939 1.030874 0.488875
AAAGA -0.127407 -0.078180 -0.255819 -0.145962 0.013296 -0.128557 0.314626 -0.190254 -0.989744 0.480535 0.075280 -0.161568 -0.334379 0.079567 -0.425617 -0.503491 -0.349744 0.272232 0.002395 -0.620619 -0.368395 -1.299664 0.275376 0.089224 -0.450350 -0.888720 -0.021409 0.759212 -0.496081 0.940658 -0.087319 -0.225325 0.847719 -0.084250 -0.467515 -0.149458 -0.153199 -0.767445 0.527901 -0.195996 -0.010700 -0.347555 0.520604 -0.503114 0.066259 0.280200 -0.126813 0.377321 0.908409 0.144133
GCAAA 0.665889 -1.116593 -0.187588 -0.668580 0.934322 -0.082197 -0.429375 0.002833 -0.619462 0.125967 -0.417171 -1.217795 0.027515 -0.466678 -0.959995 -0.630305 -0.735974 0.152652 0.445355 -0.466187 -0.596308 -0.996442 0.072406 -0.078115 0.204093 -0.756501 0.011014 -0.019187 -0.476935 0.710808 -1.325320 -0.463666 0.695431 0.320842 -0.251587 -0.585018 -0.359835 -0.513478 0.660983 0.569450 0.868360 -0.317982 -0.376541 -0.477497 -0.241192 0.898835 0.000666 0.724325 1.126117 0.079173
AGATA -1.138267 -0.684748 0.298108 0.399244 -0.647227 1.316733 -0.670604 -0.540600 -0.537974 0.509039 0.651604 0.038398 -0.281038 -0.010234 -0.497071 -0.827159 -0.136245 0.019098 -0.573292 -0.987106 -0.617499 -0.843832 0.060223 1.033629 0.160965 -0.648200 0.388187 0.091268 0.585371 -0.362285 0.362758 -0.077003 1.025944 -0.529632 -0.213367 -0.480326 0.048135 -0.736000 -0.146850 -1.026154 0.451451 -0.739649 0.426115 -0.585034 0.302176 0.050838 0.252613 0.894090 0.155152 0.430437
TAGAA -0.714894 0.168058 -0.557117 -0.439642 -1.091435 0.166434 -0.026941 -0.960984 -1.000359 0.627635 -0.607577 -0.053708 0.253715 0.521015 -0.042534 -0.469769 -0.524243 0.974236 0.677854 -0.450992 -1.242016 -0.684566 -0.296820 0.734587 0.227989 -0.470068 0.021125 1.238414 0.121949 0.659063 0.253826 0.060625 0.708195 0.016106 -0.485490 -0.301280 -0.562591 -0.675478 -0.384337 -0.683563 -0.344928 0.963562 -0.288347 0.559250 -0.780925 -0.888341 -0.936999 0.014705 -0.226545 -0.326798
AGAAA 0.311421 -0.073141 0.191403 -0.011315 -0.401484 0.418114 -0.135794 0.283486 -0.726845 0.615076 -0.014901 0.229497 -0.916991 -0.051611 -0.154390 -1.005629 -0.587569 0.194802 -0.792407 -0.592829 -0.599793 -1.059683 0.314520 0.277947 -0.458250 -0.747235 0.434515 0.758811 -0.428585 0.411534 -0.664653 -0.241712 0.813596 -0.795147 -0.506067 -0.490565 0.230197 -0.673257 0.507695 -0.452049 0.495682 -0.807667 0.573405 0.077526 0.395207 0.221310 -0.089892 0.677222 0.384242 0.074112
TTTAA 0.067098 0.400196 0.069591 0.580840 -0.024641 -0.131002 -0.217420 -0.307198 -0.464253 0.069142 -0.488419 -0.007242 0.325899 -0.142535 -0.199160 -0.387922 -0.208402 0.428688 0.197319 0.019212 -0.288531 -0.719290 0.061617 0.058039 0.110723 -0.798214 -0.111594 0.732220 0.043598 1.201197 -0.460073 0.314081 0.201051 0.208003 -0.861884 -0.477074 0.282348 -0.050617 -0.208054 -0.198453 0.349027 -0.657348 0.719358 -0.178667 0.257379 0.195520 -0.300808 0.574742 0.237161 -0.964292
TGGAA 0.261273 0.644858 -0.256431 0.036391 -0.022169 -0.910783 0.774084 -1.472980 -0.713455 0.510900 -0.249130 -0.398450 0.377416 1.084316 -1.038778 -0.810471 0.137315 1.021213 -0.261180 -0.411484 -0.353683 0.006387 -0.329956 -0.171915 -0.466862 -0.051624 0.981763 0.499203 -0.131715 0.227501 -0.483598 0.586827 1.091724 0.004908 -0.538701 0.419954 0.096373 -0.858912 0.865689 0.574393 0.205955 -1.267509 0.838176 0.480028 0.399471 -0.264592 -0.450982 -0.217387 -0.398074 1.163044
CATCT -0.334033 -0.429535 -0.515607 -0.612667 -0.013552 0.852999 -0.116007 -0.355045 0.353165 1.211454 -0.199936 0.427964 1.120097 -0.544106 -0.099690 0.278074 0.050980 0.463301 1.427636 -0.530915 -0.445864 0.269322 -0.175014 0.204317 0.139968 -0.850889 0.601150 0.680382 0.081527 0.264311 0.252926 -1.601650 -0.134899 -0.561780 -0.859067 -0.201956 0.666332 0.196939 -0.058701 1.730692 0.849849 -0.360156 0.494939 -0.819464 0.405028 0.721223 -0.711406 -0.141512 -1.439019 0.684345
TTATT -0.217015 -0.260307 0.118165 0.825482 -0.222485 0.415153 -0.702224 -0.545430 -0.012888 -0.452186 -0.664351 0.240680 0.984358 0.049981 0.258905 -0.045586 0.587907 0.239259 0.929055 -0.254975 0.133543 0.015798 0.485583 0.497595 0.888471 -0.552761 -0.558750 0.530525 -0.087530 1.220345 -0.085665 0.777182 0.366976 1.104270 -1.085901 -0.161704 0.683122 0.187193 -0.792283 -0.376310 0.628457 -0.764652 0.627753 -0.144637 -0.201977 0.301876 -0.551954 -0.143994 -0.835740 -0.816547
AGCTT 0.664365 0.021331 -1.108138 -0.953212 -0.979677 -0.595931 0.600349 -0.269724 0.552024 0.056584 -0.081607 -0.340989 0.135315 -0.312993 -0.626020 0.572295 -0.039861 0.526115 -0.068219 -0.479208 -0.313557 -1.081506 -0.351584 -0.713256 -0.655620 -0.664684 -0.221007 -0.227617 1.189298 0.320159 0.629085 0.366265 0.641568 -0.244542 -0.223255 -0.894451 0.882809 -0.140775 -0.675224 -1.287677 2.264454 -0.696321 0.691187 0.300640 0.493951 0.578387 -0.476540 0.336777 -0.571299 -0.768628
GAAGA -1.145240 0.288198 -0.789561 0.057165 -0.795953 -0.393659 0.453012 -0.264459 -1.043789 0.960615 0.344261 -0.477399 -0.354919 0.220704 -0.806803 0.275222 -0.494916 0.571957 0.649701 -0.685182 -0.144658 -1.102673 -0.018385 0.031904 -0.036760 -0.792882 -0.174452 0.731696 -0.243319 0.638950 0.865288 0.035813 0.960758 -0.066081 0.162668 0.135433 -0.437665 -0.621719 0.435769 -0.487705 -0.402151 0.312507 0.035381 -0.216657 -0.346176 -0.072671 -0.848318 0.486560 0.682441 0.376952
GCATA -0.524358 -0.526521 0.000388 -0.866400 0.954980 1.092192 -0.225230 -0.642448 -0.092716 0.724294 0.187219 -1.221704 0.093517 -0.869270 -0.382647 -0.958014 -0.576501 0.461103 -0.019573 -0.218302 0.364350 0.370631 -0.309073 0.594432 0.194125 -0.689872 1.294695 -0.228993 0.372655 -0.220871 -0.112233 -0.354084 1.084328 0.153324 0.026273 -0.861487 -0.485012 0.965538 -1.136756 0.536201 1.115468 -1.019574 -0.122080 -0.531417 -0.392726 1.322813 -0.114526 1.700008 0.164135 -0.474674
AAATA -0.505457 -0.935994 -0.089388 -0.481658 0.538038 0.351141 -0.335264 -0.568496 -0.643015 -0.398809 0.124176 -0.276853 0.304163 0.168715 0.247349 -0.705928 -0.013553 -0.002328 -0.359948 -0.691975 -1.035204 -0.664558 -0.062033 0.533981 -0.066693 -1.326784 0.014856 0.310230 -0.720095 1.028838 -0.309969 -0.160196 0.903559 0.114681 -0.796793 -0.952517 0.260257 -0.535273 -0.024725 -0.662594 0.568558 -0.239051 0.145002 -0.600543 0.139266 0.287362 0.332050 -0.225808 0.471423 -0.039086
GTATT -0.104348 0.473080 -0.454680 0.775476 0.023444 0.486588 0.408032 0.089358 0.687997 -1.186486 0.089418 -0.296155 0.828491 -0.163182 -0.249234 -0.757231 -0.168048 0.714159 0.059147 -0.802603 0.482913 -1.318717 -0.106677 0.910382 -0.299466 -1.184306 -0.214244 0.724510 -0.884532 -0.835580 -0.420561 0.024298 0.102199 1.025043 -0.035184 0.889375 -0.167151 -0.591855 -0.506055 0.736822 0.442403 -0.315339 0.011994 0.657394 -0.709433 0.571085 -0.709570 -1.547358 -0.067541 -0.691695
TATTA -0.844347 -0.524002 0.044482 0.099928 -0.234132 0.602684 -0.485885 -0.524523 -0.001015 -0.520798 -0.167254 0.464805 -0.175557 0.963734 0.534809 -0.870895 -0.301970 0.449215 0.276179 0.395448 -1.231481 0.004476 -0.143436 0.440309 0.407324 -0.927143 0.262732 0.555189 -0.900720 0.642657 0.371276 0.378447 0.446688 0.326900 -0.228053 0.093075 0.957713 0.358991 -0.307203 -0.443957 0.872866 -0.892303 -0.676699 0.496515 0.306918 0.444750 0.321449 -0.537606 -0.372917 -0.927716
GATGA -1.170764 0.503250 0.197988 0.039141 -0.777869 -0.790045 0.343570 0.020682 -0.784661 1.251944 0.732201 0.121991 -1.258364 0.131397 -1.149553 -0.266029 0.516381 0.324962 0.671381 -0.481962 0.536168 -0.982605 0.165566 0.485856 0.718454 -0.606032 -0.637681 0.568070 -0.298888 0.023314 0.699284 -0.103052 0.096393 -0.184766 0.687103 0.487495 0.334571 -0.506830 0.163179 -0.310767 0.245253 -0.681533 0.509852 -0.471042 -0.661766 -0.399961 -0.630002 0.642752 0.812486 -0.520896
CTGAA -0.361812 0.003775 -0.775661 -0.079692 0.647500 -0.182679 1.553181 0.306357 -0.194338 0.730674 1.145398 -0.437057 1.003723 0.014172 -0.747811 -0.215965 -0.582458 1.519434 0.759262 -1.286728 -0.122506 -0.179166 -1.017913 0.060703 -0.403957 -0.263389 -1.404425 0.138085 -0.634822 1.094756 0.475505 -0.210503 1.025556 0.382447 -1.472738 -0.583658 0.421666 -0.275199 0.734563 -0.140836 -0.569289 0.045092 -0.121179 -0.348611 -0.041824 -0.428685 -0.981112 0.668255 0.385976 0.384874
GCTTT 0.155039 0.325861 -0.241986 -0.039555 -0.903477 -0.861083 0.447010 -0.168032 0.733139 -0.015147 -0.526946 -0.563689 0.487196 0.090599 -0.892812 0.192377 -0.442069 0.285283 0.001196 0.115764 -0.300381 -0.863818 -0.421268 -0.511933 -0.165293 -0.575864 -0.956901 -0.156334 1.180828 0.199858 -0.217646 0.431535 0.320421 0.589015 -0.570324 -1.040166 0.649512 0.099203 -0.795738 -0.729631 1.677237 -0.260457 0.736812 -0.258790 -0.071731 0.365841 -0.308379 0.408004 -0.169248 -0.653880
TAGTT -0.385308 -0.465031 -0.286024 0.043450 0.090652 0.868109 -0.525251 -1.034401 0.260512 -0.732830 -0.195587 -0.052944 -0.751316 0.448283 0.462044 -0.466096 0.060284 0.689055 0.228614 -0.180906 0.600637 0.155792 -0.726844 0.862865 0.353359 -1.098418 -0.708253 0.039394 -0.815841 -0.060144 -1.001500 1.063340 1.373161 -0.340014 -0.908095 -0.611596 0.347095 -0.528445 -1.126798 -0.622233 0.388959 -0.263689 0.208207 -0.051842 -1.137321 -0.486666 0.223472 -0.352245 -1.376260 -0.223784
TATGA -1.688429 -0.334776 -0.022949 -0.031178 -0.403733 -0.526713 1.250508 0.013800 -0.228470 0.118236 0.449833 0.018342 -1.184880 0.326005 -0.679040 -0.548606 0.499682 0.359008 0.422450 0.224819 -0.754431 -0.237460 -0.783969 1.303426 0.488434 -1.135426 0.046874 0.414594 -0.417064 0.231422 1.251408 -0.481318 0.434162 0.760118 0.631402 -0.020086 0.500783 -0.006060 0.152009 -0.155406 0.489675 -1.405675 -0.050664 0.368929 -0.388991 0.045672 -0.189492 -0.240785 0.652077 -0.587262
ACTAT -0.340746 0.049382 -0.163704 -0.276563 -0.256542 0.348741 -0.161039 -0.643188 0.116179 -0.150190 1.399982 -0.788027 0.088055 0.289066 0.561483 0.270392 -0.367551 0.304415 -0.089484 -0.201032 -1.054287 -0.541848 -0.090344 1.270631 0.184906 -1.872501 -0.358873 -0.189108 -1.304883 -0.163161 0.401616 0.336926 -0.942578 0.747907 -0.303607 0.200669 0.531374 -0.107522 0.084360 -0.279265 0.026015 -1.494105 -1.144451 0.752605 0.359653 0.612344 0.467069 -0.741646 0.263526 -0.082066
CTTCA 0.097265 -0.033468 -0.980730 -1.042363 -0.429937 0.263784 -0.617073 -0.003771 0.458820 0.728551 -0.371050 0.319690 -0.208787 -0.811479 -0.914464 0.392673 0.336459 0.731478 0.423439 -0.553290 -0.349027 -0.505848 -0.750635 0.483555 -0.832452 -1.003514 -0.538805 -1.055685 0.726366 0.585132 -0.013888 -0.043362 -0.331323 0.020918 -1.549763 -0.137944 -0.414816 -0.584617 -0.697118 0.291002 0.782275 -1.143427 0.659255 -0.324239 1.263727 0.643281 -0.472410 -0.394421 -0.738966 0.338037
TAAGA 0.564569 0.041075 0.813418 -0.078921 -0.891188 1.200120 -0.437533 0.305832 -0.544211 0.847735 0.223495 0.849647 -0.865877 0.156158 -0.177981 -1.261004 -0.932683 0.179581 0.028698 -0.002177 -0.331805 -0.664927 0.922564 0.369144 -0.209630 -0.438212 0.396977 1.040375 0.067578 -0.020363 0.092994 0.155377 1.199300 -0.301501 -0.534763 0.963863 0.532814 -0.655039 -0.361253 -0.755813 0.131174 -0.925844 0.469771 0.072514 0.138509 0.678515 -0.041330 1.093024 -0.376317 -0.254246
CAAGA 0.573878 -0.044509 0.033288 0.306752 -1.715351 1.157616 -0.953735 0.876883 -0.573609 0.394327 -0.104877 0.479554 -0.787932 -0.136986 -0.885765 -0.244304 -0.641332 -0.219199 -0.425233 -0.308154 0.013724 -1.346333 -0.055128 0.464065 0.198945 -0.623704 0.349373 0.082351 0.198886 -0.164939 -0.763095 -0.388985 0.433888 -0.981012 -0.628231 -0.256442 0.445327 -1.020419 0.628464 -0.029184 0.548317 -1.122194 0.064135 -0.052711 0.047239 0.204043 -0.420333 0.932728 0.675962 0.806623
TTACA -0.814815 0.284878 0.047093 -0.298840 -1.300581 0.701299 -1.695670 0.214551 -0.001781 -0.562452 0.140261 0.371608 1.185535 0.020637 0.684080 0.574737 0.736587 0.587944 -0.514708 -0.538252 -0.377829 -0.176278 0.103363 0.075880 0.831130 -0.501931 -0.847570 0.876750 -0.932311 0.854475 -1.028339 -0.011101 0.201750 -0.089775 0.086394 -0.146918 0.485355 0.602603 0.323929 -0.058698 1.439024 -0.687559 1.149701 0.242303 0.178615 0.266460 -0.567880 0.018592 -0.443301 0.240287
CAGTT -0.506429 -0.432728 -0.636910 1.199302 -0.126436 0.062802 -0.550695 -0.461597 0.023953 -1.018657 -0.350414 1.112510 0.352048 -0.374475 -0.519330 0.727813 -0.720655 0.713229 0.319088 -0.080840 -0.219649 0.054633 -1.564541 -0.234204 -0.232463 -0.659216 -0.975736 -0.470244 -0.839135 0.806441 -0.773059 0.633458 0.903939 -0.847755 0.634108 0.889406 -1.303431 0.092708 0.133673 -0.085801 1.053428 -0.556903 0.567719 -0.830494 -0.052106 0.799143 -0.452150 0.397468 -0.681076 -1.135352
AATCT 0.019196 -0.612579 -0.327683 -0.044426 0.491956 0.391694 0.165868 -0.600452 0.046465 1.190373 -1.037059 0.933848 -0.045687 0.328776 -0.483452 -0.401298 -0.307892 0.594401 0.854688 -0.994989 -0.191601 0.227057 0.164195 -0.357157 0.090531 -0.354673 0.328098 0.974634 -0.668554 1.081821 0.555052 -1.336548 -0.398761 -0.626659 -1.568467 0.166799 0.863668 -0.526186 0.055993 0.455623 0.976901 0.086232 -0.588561 -0.088058 0.777364 0.011838 -1.229651 -0.393770 -0.613848 0.580018
ATAGT -1.406080 -0.093199 0.051095 -0.118578 0.857520 1.314139 -0.382489 -0.954526 0.321191 -0.882250 -0.111022 -0.869156 -1.004945 0.153498 -0.202038 -0.409051 -0.841572 0.500211 -0.591398 -0.932716 0.705704 -0.027527 -0.623080 1.211908 0.063491 -0.388011 0.506625 0.289491 -1.018529 -0.087975 -0.546638 0.764586 0.847349 -0.678252 -0.383329 -1.128585 0.351506 -0.418753 -1.004954 -0.499662 0.476400 -1.159770 0.226081 -0.422041 -0.370764 -0.744011 -0.063088 -0.367770 -1.250964 -0.089586
GTTAA 0.664662 -0.191087 -0.906087 0.115850 -0.442404 0.737307 -0.365834 0.636604 -0.337563 0.504039 -0.599509 -0.110216 -0.306408 0.467045 0.867853 -0.583469 0.265839 0.394834 0.811181 0.210911 -0.124382 0.333917 0.110521 0.353272 0.108474 -0.695338 -0.612628 0.902088 -1.378124 0.307469 -0.144237 1.158781 1.453071 -0.400443 0.188124 0.637563 -0.241406 0.473726 0.255454 -0.410999 0.624045 -0.531581 1.202236 0.133659 -0.059214 0.255214 0.162077 0.449851 -0.879712 -0.582504
CACTT 0.947853 -0.546777 -0.858684 -0.473025 -0.329518 -0.128154 -0.544266 -0.354554 -0.434380 0.345289 0.739386 -0.361281 0.274433 0.462812 -0.362125 0.780462 0.005406 1.331712 -0.016395 0.082537 -0.110410 -0.285736 -0.532916 0.586378 0.830058 -0.901606 -1.203529 0.240487 0.501774 0.708424 -0.323978 -0.248927 -1.297111 0.403922 -0.157087 -0.519786 -0.509153 -0.579659 -0.167419 0.025704 0.003631 -1.701279 -0.158417 0.320302 1.412480 0.553819 0.127991 0.504962 -1.385896 -0.535961
TCCAA 1.295600 0.899952 -1.052803 1.334369 -0.036783 -0.068369 -0.560913 0.596161 -0.268524 0.106633 0.124291 -0.132584 -0.064320 0.557907 -0.162656 -0.470445 -0.714415 -0.449213 -0.254431 0.521197 0.252584 0.469651 -0.821824 1.381496 0.189427 -1.132461 0.234908 -0.058697 -0.334373 0.582201 -0.427846 0.141767 -0.721526 -0.628653 -0.673098 0.211317 0.860518 -0.728908 0.430623 -0.747805 0.768545 -0.298969 -0.165904 -0.378925 0.463027 -0.230946 -1.420420 0.844145 0.384844 0.433917
GTCAT 0.613778 0.592328 -0.443652 -0.667048 -0.740298 0.939189 0.722147 0.487846 -0.053088 0.334894 0.069312 -0.516548 -0.093363 -0.516391 -1.035492 0.367239 0.127524 -0.400075 0.209924 -0.716147 -0.008480 -0.266928 0.067723 2.028558 -0.245980 -0.859161 0.733594 0.132670 -0.833588 -0.435242 -0.289172 -0.100432 -0.138030 0.205151 -0.110910 -0.232092 0.239768 1.124337 -0.309816 0.809811 -0.077334 -0.438924 0.646196 -1.819993 0.308961 -0.513540 -0.505206 -0.747316 -1.358310 -0.761310
GGAAA 0.717886 0.462910 -0.588750 0.096604 -0.005366 -0.601800 0.302250 -0.856955 -0.848354 0.481176 -0.314153 -0.567486 -0.037766 0.679245 -0.782770 -0.791391 0.134889 0.951313 -0.108317 -0.027978 -0.535893 -0.477477 0.293926 -0.341443 -0.805380 -0.201345 0.547164 0.550622 -0.368804 0.490982 -0.650213 0.547918 1.095338 -0.475938 -0.199083 -0.014239 0.199811 -0.514983 0.781087 0.515668 0.111034 -0.316211 0.573906 0.349532 0.612467 -0.127184 0.056202 -0.252403 0.339527 0.635511
AAACA 0.592151 -0.374117 -0.450721 -0.379385 0.429859 -0.147407 -0.437475 0.206329 -0.501996 -0.002614 -0.108190 -0.049258 0.241060 -0.302453 -0.135510 -0.295826 -0.193079 0.484748 -0.667706 -0.668750 -0.437454 -0.773390 -0.267545 0.476378 -0.315839 -1.117352 0.217620 0.385083 -0.606872 0.555249 -0.441333 -0.843863 0.509782 -0.308051 -0.384169 -0.541685 -0.162998 -0.311219 0.431715 0.235480 0.342650 -0.570858 0.694832 -0.596960 0.280161 0.534960 -0.491647 0.633608 0.728703 -0.156797
TACTA -0.904910 0.165804 0.416812 -0.782537 -0.620057 0.320410 -0.864233 -0.882254 0.573063 0.213647 1.225485 -0.248992 0.138796 0.068343 0.346166 -0.381865 -0.697306 0.705817 -0.504420 -0.822141 -0.663922 0.561808 0.373616 0.934261 0.345803 -1.548281 -0.093429 0.010563 -1.251217 0.261346 0.018767 0.600971 -0.347911 0.152633 -0.537947 0.502905 0.580384 -0.270715 -0.816247 -0.966492 0.466132 -0.481979 -1.336695 0.196616 0.632566 0.150078 0.004607 -0.454609 0.635245 -0.446405
GTTCT 0.296702 -0.118463 -0.350929 1.082479 0.103772 1.071740 0.326576 -0.471302 0.526570 0.346470 -0.134097 1.285484 0.431700 -0.407638 0.049070 -0.193631 0.537747 0.419156 1.187289 0.040726 0.667408 0.973153 -0.696460 0.296786 0.680930 -1.179368 -0.953364 0.125889 -0.491421 0.175166 -0.317629 0.786681 1.458356 -0.740499 -0.566923 0.176915 0.002941 -0.497133 0.755764 0.426590 0.491176 -0.102521 0.006782 -0.833162 -0.584181 0.175828 0.212911 -0.353979 -0.628209 0.241882
ATATC -0.828150 -1.117710 -0.545716 0.804024 0.733474 1.393016 -0.299996 -0.104727 -0.312191 -0.085674 0.072969 0.074111 0.605911 0.779306 -0.939239 0.087819 -0.120339 0.377307 -0.723005 0.613778 -0.388268 0.087972 -0.191268 1.320265 0.311849 -1.087920 0.164864 -0.560023 -0.783175 -0.604835 1.646796 0.273798 0.684013 -0.060029 -0.248386 -0.865343 0.937047 0.195419 -0.013536 0.191650 0.617227 -0.991309 0.263619 -1.248857 -0.297718 0.656573 -0.708125 0.822030 -0.151168 1.366056
AGATT -0.305885 0.598776 0.607230 1.313645 -0.867281 1.098019 -1.177040 -0.720838 -0.422637 0.422662 0.187516 0.174702 0.006083 -0.283518 -0.617119 -0.536660 0.125382 0.184888 0.098919 -1.150298 0.169808 -2.202828 0.317146 0.457960 -0.013964 -0.675644 -0.147881 0.328753 0.909017 -0.607386 -0.355927 -0.030292 0.105636 -0.247225 -0.493537 0.674026 -0.192693 -1.081528 -0.189647 -0.831856 0.397340 -0.585626 0.242046 -0.488004 -0.158952 0.075130 0.006638 0.302759 0.142159 0.077776
TTGCA 0.788427 -1.139079 0.260187 -0.235086 -0.070306 0.436565 -0.342440 -0.369707 -0.298503 -0.423512 -0.654684 -0.878627 0.653975 -0.265887 -0.910435 -0.889540 -0.152996 0.852872 1.061237 -1.232640 0.782943 -0.904482 -1.194963 0.085053 0.390250 -0.871231 0.092190 -0.212311 -0.326877 0.206516 -0.677727 0.307164 -0.620764 -0.026724 0.071407 0.365106 -0.200491 0.583274 -0.247793 0.769203 0.938912 -1.001138 -0.676837 -0.154892 -0.803744 1.121426 0.548957 1.171071 -0.514240 -0.262361
CAGAA -0.442921 -0.081259 -0.866522 0.435597 -0.867575 -0.223009 0.276604 -0.398786 -0.686562 0.974152 -0.870270 0.514276 0.051877 0.047479 -0.527784 -0.144103 -0.674113 0.956387 0.288206 -0.937543 -0.945374 -0.779362 -1.052150 0.695398 -0.416638 -0.304791 0.542630 -0.459886 0.130595 0.272029 0.609843 0.121873 0.653561 -0.278102 -0.106581 0.580322 -1.741052 0.068478 0.295117 -0.381613 0.101951 0.027950 -0.852986 -0.291108 0.173884 0.107103 -1.572164 0.650399 0.696497 -0.210314
ATATG -1.402556 -0.617430 0.464915 -0.129754 0.230651 0.173111 0.461740 -0.058947 -0.624611 -0.121789 0.075957 -0.845025 -0.742087 0.148956 -1.115898 -0.749695 1.123805 -0.222495 -0.584692 -0.211887 -0.738385 0.450474 -0.426224 1.436755 0.999889 -0.923475 0.638844 -0.391339 0.442807 0.529587 1.258602 -0.111011 0.680732 0.863270 0.283843 -0.649815 -0.018550 0.285941 0.390233 -0.033292 0.316167 -1.918845 0.292995 -0.372629 -0.478714 0.119991 -0.115304 0.164807 0.281009 0.475766
TTGCT 0.791917 -0.201356 0.344311 -0.376970 -0.858366 -0.392602 0.586902 -0.263258 0.979316 -0.405940 -0.157336 -1.315677 0.861816 0.141534 -0.437448 -0.138158 -0.040046 0.311820 0.373008 -0.749796 0.008074 -0.702204 -0.932055 -0.125281 -0.389643 -0.857088 -1.357053 -0.266732 0.141063 0.085345 0.146073 1.007657 -0.285981 -0.211567 -0.755730 0.318236 1.016375 0.321135 -0.115125 -0.294948 1.325250 -0.400200 0.522861 -0.314831 -0.973875 0.363827 -0.055413 0.264300 -0.907635 0.055259
TGAAG -0.364067 0.391612 -1.239840 0.073567 -0.705426 -0.692723 0.810661 0.114801 -0.382517 0.183404 0.331530 -0.867532 0.450838 -0.040667 -1.165695 -0.290461 -0.827577 1.161967 0.883134 -1.134285 0.456857 -0.293145 -0.411786 -0.079619 -0.171846 -0.895819 -0.918027 0.412454 -0.259974 1.086933 0.902956 0.177891 1.221912 0.345488 0.684168 -0.294093 0.339340 -0.543123 0.215690 -0.204289 -0.608503 0.171153 -0.286514 -0.367540 -0.436103 -0.010134 -0.993211 0.287330 0.261969 -0.037989
TGCTT -0.276599 -0.877337 0.117620 -0.554497 -0.155251 -0.361273 -0.195293 0.144602 0.050023 0.626640 0.031246 -0.674041 0.463419 -0.255590 -0.457051 -0.623751 0.285977 0.437684 1.395033 -0.463711 0.002719 -0.312758 0.041171 0.712248 0.233078 0.396489 -0.840403 -0.331028 0.680387 1.665925 -0.137995 0.743029 -0.464306 -0.596264 -1.176047 0.383972 -0.100026 0.044111 0.563660 0.076074 1.298233 -1.129933 0.340400 0.275401 0.465828 0.613930 -0.333206 -0.651777 -1.374120 0.339976
CATAT -0.439900 -0.463730 -0.440392 0.309015 0.475937 1.150310 -0.075894 -0.163727 -0.190139 0.068766 0.085218 -0.606952 0.234013 -0.266392 -0.924229 -0.105438 0.118698 -0.029121 0.059988 0.664050 -0.144361 0.391245 -0.398761 1.754440 0.270739 -0.899036 0.749796 -0.858637 0.248766 0.097527 0.894769 -0.337163 0.744117 0.583265 -0.331014 -0.852975 0.117978 0.765028 -0.783068 0.485848 0.546174 -1.496899 0.552020 -0.866737 -0.225250 0.558321 -0.496852 0.933539 -0.031401 -0.001408
CTCTT 0.491599 -0.590234 -0.116737 0.459108 -0.936651 -0.508738 0.630237 -0.930602 0.629646 0.003404 0.105662 -0.071993 0.969035 -0.054778 0.376965 0.170936 0.407734 -0.014176 0.477064 -0.139437 0.086836 0.189792 -0.161144 -0.053669 0.498226 -0.844832 -0.661915 -0.042948 0.612155 0.359873 0.053537 0.693111 0.055838 -0.202963 -1.497574 -0.050036 0.106391 -0.992517 -0.518517 0.526207 0.298992 -0.767847 0.203408 -0.476520 -0.518547 0.325109 -0.556717 0.504102 0.064587 -0.989050
TAGCA 0.230641 0.282664 -0.809510 -1.279731 0.168939 0.768615 -0.497535 -1.180748 -0.880496 0.055873 0.380526 0.565433 0.508779 -0.441670 -0.171996 0.080679 0.182949 0.936263 0.132124 -0.388105 0.622299 -0.107710 -0.886672 0.166796 0.521162 -0.712938 1.553872 0.489996 -0.183537 -0.048015 0.107549 -0.129326 0.341815 -0.856996 0.358077 -1.504592 0.044651 -0.205705 -0.670675 -0.190786 1.635052 0.053592 -0.617658 0.824125 -0.946629 -0.248905 -0.298771 0.646817 -0.494004 -1.122599
AAGTA 0.079757 0.040911 -0.721721 -0.343015 -0.501419 0.340455 0.213512 0.506156 0.469077 -1.332652 -0.177184 -0.052423 0.078803 -0.279692 -0.635250 -0.809979 -0.727944 1.085334 -0.765926 -0.526136 -0.482358 -0.300440 0.686337 0.657630 0.472674 -0.998088 -0.037065 1.177458 -0.668625 0.270182 -0.007494 -0.261616 1.280339 0.024122 0.561196 0.339964 0.232019 -1.302965 -0.046268 0.161937 -0.107594 -0.286589 -0.185106 0.671962 -0.131253 0.427925 -1.112472 0.003837 0.489404 -0.805237
AGCAA 0.866341 0.148771 -0.809844 -1.038056 -0.566483 0.048766 -0.653767 -0.043270 -0.782163 0.070079 -0.010294 1.048393 -0.097386 -0.362088 -0.255295 0.665426 0.070239 0.701197 -0.674811 -0.462016 0.868462 -0.405498 -0.865822 -0.353844 -0.235103 -0.997757 1.437270 0.407866 -0.689916 0.220223 0.103825 -0.142996 0.602119 -1.026257 -0.204956 -1.064979 0.185330 -0.440841 0.386833 -0.205096 1.699885 -0.401274 -0.171040 0.557331 -0.162554 0.023256 -0.780541 0.536662 0.580899 -0.006601
AATGT 0.814450 0.202780 0.269972 -0.725382 0.196121 -0.467555 -0.594734 -0.286090 -0.504947 0.217997 -0.870283 0.939654 -1.460022 0.465025 0.466784 -0.519615 1.123107 0.370575 0.013609 -1.320866 0.268854 0.084583 -0.823066 0.905289 0.815840 -0.763323 0.052820 0.513882 -0.680159 0.613007 -0.429109 0.413450 0.780193 -0.256421 -0.559352 0.520764 0.632189 0.929949 0.683537 -0.402936 -0.278848 -0.278786 -0.352065 -0.126356 -0.393129 -0.317104 -1.070332 -0.001922 0.147261 -0.221173
TTCCT 0.463687 0.173214 -0.333199 0.870156 0.398360 0.248001 0.097837 -0.620368 0.693342 0.148954 -0.020225 -0.005144 0.218111 -0.510736 0.239525 -0.065824 0.630627 0.343792 1.211770 -0.152004 0.291001 0.495942 -0.409874 0.646392 0.170336 -1.047901 -1.025621 0.070073 0.283015 0.242806 0.109408 0.685507 0.054542 0.201893 -1.243189 0.428216 -0.025724 -0.758853 -0.348946 -0.087047 0.628960 -0.765201 0.154823 0.312463 0.094497 0.324513 -0.410957 -0.485489 -0.327808 0.072520
CCAAA 1.340447 0.453512 -0.966023 0.827435 0.098297 -0.487011 -0.294351 0.353213 -0.317248 0.427417 -0.074891 -0.361774 0.292345 0.384748 0.015765 -0.382212 -0.567714 -0.002443 -0.088562 0.483118 0.030082 -0.140698 -0.379595 0.760569 -0.099362 -0.486347 -0.059274 -0.011971 -0.316041 1.014759 -0.453364 -0.710331 0.024691 -0.984908 -0.613250 0.209186 -0.015232 -0.379451 0.326833 -0.664125 0.659954 -0.534401 -0.007689 -0.243224 0.463870 -0.526297 -0.854162 0.293073 0.733631 -0.061445
TGACA -1.369668 0.540226 -0.419570 -0.227608 -1.026314 -0.326938 0.091243 0.815112 -0.138096 -0.374854 0.563915 0.676613 -0.882007 -0.337062 0.115943 0.323832 -0.191466 0.883455 -0.401366 -0.301271 1.150849 -0.133015 -0.983154 -0.723551 -0.139539 -0.832898 -0.969128 0.397527 -0.822887 0.944378 0.092017 -0.801490 -0.477391 -0.029882 0.156179 -0.449422 1.222384 0.482217 0.565913 0.828011 0.032169 -1.687897 0.696418 0.217902 -1.189417 0.307933 -0.522605 0.567031 -0.240835 0.704416
TCCTT 0.294224 0.118358 -0.197258 0.736719 -0.007351 -0.048910 -0.025360 0.108527 -0.275441 -0.368407 0.182440 0.446810 0.886955 0.255190 -0.332036 0.467754 -0.002161 0.307465 0.899454 0.687910 -0.032948 -0.524190 -0.586171 0.961300 0.151023 -0.618979 0.459688 -0.036442 0.180744 0.665108 -0.675714 0.748238 -0.483482 0.638124 -1.101935 -0.010945 1.099528 0.114151 -0.071220 -0.531696 0.897978 0.232426 0.156156 -1.259313 -0.115080 0.067108 -0.774586 0.793644 -0.586443 -0.112229
ACCTT 0.503325 -0.613671 -0.723677 -0.312851 -1.229213 -0.157796 0.981375 -1.647913 -0.013684 0.117375 -1.099156 1.056274 1.143856 -0.116968 -0.066188 0.284295 -0.053786 1.139116 0.847936 -0.117924 0.154345 -0.207697 0.513997 0.609545 0.936282 0.460503 -0.497249 0.099249 -0.899560 0.133807 -0.053290 -0.366069 -0.110134 -0.055180 -0.341841 -0.030930 0.555445 0.209878 -0.255612 -0.351785 0.176638 -1.637107 0.375990 -0.417801 0.626799 -0.306171 1.069064 0.621994 0.483305 -0.449102
TAACT 0.444857 0.053509 0.522494 -0.949353 0.104359 0.241347 -0.595681 0.387300 0.580054 0.442775 0.531710 -0.073518 -0.044494 0.714483 0.990592 0.056859 -0.284233 1.906715 0.660683 0.607059 -0.380870 0.178215 0.125210 0.563255 -0.805122 -0.807997 0.206715 0.778737 -0.095942 0.749306 0.468934 0.557476 0.768402 0.294266 -1.475863 1.037361 0.021039 -0.877673 -0.612389 0.474237 0.101212 -1.301885 -0.083886 -0.378280 0.177040 -0.216792 -0.109719 0.919082 -0.176330 -1.030965
ACTTC 0.247589 -0.168082 -1.353207 -1.063671 -0.297537 -0.127016 -0.648790 -0.016408 0.228919 0.568643 0.525301 -0.158451 -0.658118 -0.244891 0.153703 1.031911 0.115122 1.406022 0.788690 0.489336 -0.147583 -0.872731 -0.057843 0.447982 -0.346341 -0.985915 -0.730557 -0.688730 0.731509 1.057443 -0.222987 -0.153845 -0.708828 0.242745 -1.391599 0.166552 -0.737375 -0.924969 -0.402052 0.167619 -0.023300 -1.618309 0.097183 0.124636 1.341265 0.376112 0.118804 0.067648 -0.432040 0.125636
AAAAC 0.155077 -0.494028 -0.426826 -0.842760 0.253993 -0.223968 0.345574 -0.427296 -0.439058 0.059402 0.398548 -0.126382 0.384297 -0.226801 0.342944 -0.509209 -0.409556 0.502700 -0.581969 -0.418413 -0.569399 -0.754352 0.208316 0.221139 -0.495009 -1.026978 -0.564834 0.324278 -0.649525 0.939592 -0.642765 -0.615839 0.019420 -0.088749 -0.720253 -0.411716 -0.309700 -0.186550 0.304004 0.126129 -0.124940 -0.454235 0.602017 -0.744099 0.594248 0.479404 0.440980 0.437107 0.792997 0.062445
CTTAA 0.644821 -0.320047 -0.651834 -0.551847 -0.640961 0.346826 -0.271533 0.515037 0.206804 0.860548 -0.766089 -0.672260 0.319676 0.288173 0.478982 -0.034645 0.068876 0.654032 1.047755 -0.383076 -0.865460 0.283440 0.975674 0.127336 0.085622 -0.072525 -0.480955 0.952272 -0.344227 0.875304 0.648993 0.089145 0.354426 -0.045266 -0.252022 0.444518 0.131568 -0.085148 0.069524 -0.576538 1.357545 -1.803740 0.980180 0.296302 1.417467 0.146158 0.184699 0.637647 -0.910072 -0.596140
TAATG 0.228905 0.003149 1.347082 -1.170962 0.368868 -1.066979 0.023063 -0.135040 -0.722848 0.366413 -0.240406 0.556514 -1.309808 0.678437 -0.519401 -1.244124 -0.097843 0.612487 -0.124681 -0.052930 0.476478 0.593002 -0.321412 0.252070 0.253726 -1.082024 0.164689 0.381335 -0.831953 1.212962 0.018895 -0.360758 0.530900 0.218389 -0.707358 0.985861 0.532326 0.530146 -0.767688 0.089265 0.180310 -0.721053 -0.085095 -0.161226 -0.524931 -0.017361 -0.802998 -0.030044 -0.172775 -0.632436
ATGCT -0.350737 -0.766407 1.414452 -0.769810 -0.321672 -0.858095 0.511017 0.129276 -0.386971 0.584839 0.202398 -0.888891 -0.335854 -0.126121 -0.622787 -1.207435 0.591100 -0.152459 0.688916 -0.147980 -0.900871 -0.266720 -0.401022 1.247975 0.298031 -0.515670 -0.888896 -0.188405 0.437354 1.134805 0.402692 0.668408 -0.527434 -1.240787 -0.928140 0.496056 0.186807 0.717621 0.534268 0.149138 1.389049 -0.514035 0.632428 0.625921 -0.644851 0.383383 -0.781304 -0.601087 -0.405395 0.238239
ACTAA 0.332049 0.309404 0.255795 -0.708004 -0.315915 0.160942 -0.805315 -0.250154 -0.198977 0.605511 1.019315 -0.193511 -0.809510 0.356172 0.061188 -0.337600 -1.370886 0.549871 -0.402526 0.025573 -0.442346 0.502511 0.553293 0.112653 0.015179 -1.270441 -0.345494 0.652373 -1.561862 0.673220 -0.012383 0.287430 -0.540259 -0.051226 -0.693767 0.917006 0.138944 -0.085828 -0.898359 -0.229881 -0.341379 -1.173249 -0.779965 0.387536 0.697852 0.327108 0.003156 0.430567 0.208175 -1.401724
TCCAT 0.238603 1.325888 -1.053258 1.051454 0.618669 0.246148 -0.594196 -0.675755 0.177147 0.259002 0.589852 -0.548947 0.100473 0.117418 -0.115665 -0.703223 0.004162 -0.421301 0.476096 1.086255 0.060884 0.381525 -0.816510 1.832769 -0.046658 -0.822368 0.537133 -0.861137 0.025052 0.572195 -0.309683 -0.350287 -0.582292 -0.206805 -0.245514 0.675920 1.010065 0.327345 -0.204061 -0.070021 0.825781 -0.100561 0.470083 -0.691592 0.376150 0.106085 -1.370659 0.822097 0.008478 -0.217240
CATTC 0.072065 1.350208 -0.777108 0.697174 0.424805 1.050055 -0.792011 -1.116774 0.574618 0.725213 -0.123956 -0.166207 0.994602 -1.527181 0.307192 -0.459008 0.047473 0.389605 0.359603 0.226104 0.351245 -0.246682 -0.965028 0.640156 0.129777 -1.673755 -0.004032 0.026554 0.114566 -0.064280 -0.370381 -0.889360 -0.030495 -0.245345 -0.793486 0.343052 -0.330395 0.208733 -0.182898 0.784247 -0.029310 -0.744139 0.361369 0.299488 -0.331738 0.815773 -0.745264 -0.235330 0.547826 0.596995
AACTA -0.175660 0.279369 0.711803 -1.231497 -0.390261 0.207209 -0.702519 -0.270419 0.293902 0.493800 0.242651 -0.027498 -0.188295 0.176877 0.859934 0.212489 -0.412956 1.606910 0.339023 0.604228 -0.933336 -0.575990 -0.595364 0.998750 -0.788940 -1.525307 0.331002 0.784811 -0.443404 0.505244 0.411244 0.224854 0.621270 -0.127731 -0.832883 0.189090 -0.015553 -0.717737 0.160030 -0.236569 0.342108 -0.806692 -0.643579 -0.228295 -0.091852 -0.274690 0.305955 0.072518 1.018838 0.065491
ATCTA -0.711623 -0.443904 0.427920 -0.242066 0.453221 0.685732 -0.401944 -1.152736 0.060315 1.183497 -0.197765 1.153255 0.393715 0.195347 0.178375 -0.510421 -0.468354 0.106384 1.111810 -0.026247 -0.844454 0.243378 -0.064272 0.184734 0.258678 -1.267800 0.366860 0.996336 -0.670302 0.597066 0.794570 -1.337654 -0.248212 -0.845266 -0.707422 -0.071106 1.139701 -0.454549 0.117002 0.291457 1.323617 0.180797 -0.435285 -0.770443 0.182372 0.425435 -0.283837 -0.573021 -0.656076 0.604992
AAGCA 1.014591 -0.061430 -0.727644 -0.432165 -0.132691 0.451231 -0.201570 0.036399 -0.434665 0.664199 -0.207615 -0.533481 0.124230 -1.038310 -0.866816 -0.507779 -0.970014 0.635176 0.234828 -0.285023 -0.409942 -0.158445 -0.129945 -0.182335 0.639055 -1.185351 0.459840 0.549195 -0.270281 0.298527 0.051576 -0.378065 0.647330 -0.638264 0.767421 -0.519105 -0.469467 -0.118560 0.153090 0.374190 0.593973 -0.657271 -0.590553 0.659185 -0.197951 1.203562 -0.830268 1.477075 0.796585 -0.734291
TCTAA 0.537670 -0.200800 1.383162 -0.211686 0.261155 0.458608 0.490039 -0.688562 0.412176 0.741350 -0.096532 1.283250 0.500515 -0.393582 0.339864 -0.538664 -0.842216 0.322008 0.717568 0.723121 -0.345216 0.377210 0.020238 0.123865 -0.189691 -1.610754 0.165231 1.273264 -0.320226 0.884406 0.602610 -0.534533 0.689397 -0.596907 -1.118791 0.663224 0.820893 -0.828573 0.189314 0.233972 0.542217 -0.311521 -0.016475 -1.303712 -0.357231 0.705263 0.051759 -0.167409 -0.381050 0.048034
TCACT 1.219891 -0.290067 -0.451294 -0.570154 -0.042183 0.537991 -0.365747 -0.605447 -0.531118 0.531434 1.091865 0.430938 0.433460 0.274576 -1.156327 1.002923 -0.135161 0.697172 -0.049511 -0.046004 -0.609834 -0.131947 -0.445188 1.037290 0.748467 -1.164434 -1.630537 -0.223417 -0.435473 -0.120669 0.046615 0.106696 -0.959947 0.577421 -0.927960 -0.376841 -0.124498 -0.445016 -0.332032 0.272901 -0.830841 -0.961967 -0.335087 -0.066171 1.332824 0.257519 -0.100578 -0.332152 -1.253290 -0.525148
AGTAA -0.075656 -0.321370 0.526931 -0.116866 0.489408 0.008378 -0.363643 -0.514425 -0.069784 -0.285743 0.173001 0.125577 -1.060339 0.306701 -0.613512 -0.009016 -1.722955 0.700837 -0.050473 -0.141202 -0.013672 -0.056155 -0.428483 0.002703 -0.751468 -0.119281 0.325844 1.140842 -1.280107 0.397512 -0.229787 -0.019015 0.919611 -0.767607 -0.303633 1.085078 -0.398205 -0.335019 -1.089708 0.011309 0.530706 -0.698844 0.078880 0.268720 0.122784 -0.027114 -0.319108 0.035914 -0.263580 -1.699113
CAATA -0.382677 -0.455161 -0.453466 0.021616 -0.138908 1.001804 -0.503597 0.179285 -0.137098 -0.291805 -0.610578 -0.388177 -0.407401 0.269777 -0.720191 -0.065888 0.124034 0.119465 -1.302063 -0.933164 0.492133 0.657340 -0.399162 0.817416 0.638474 -0.918744 0.557660 -0.692882 -0.831613 0.041366 -0.116277 0.329216 0.034165 -0.472640 -1.005843 -1.722097 0.460088 -0.123232 -0.368866 -0.151483 1.252069 -1.493812 -0.191189 -0.307373 0.067125 -0.234590 -0.666866 0.633047 0.583803 0.931971
AATTC 0.457790 0.730526 -0.935911 1.319788 -0.109583 0.477996 -0.559869 -0.735648 -0.094430 1.061755 -1.277398 0.447369 0.007703 -0.706035 -0.206170 -0.303681 0.207217 0.317929 0.065982 -0.807948 0.217136 -0.256730 -0.677711 0.133624 0.243329 -1.778544 -0.323681 0.638395 -0.703962 -0.293775 0.133168 0.009456 -0.359705 -0.264973 -1.550366 0.236589 -0.228469 -0.314223 0.239361 0.184927 -0.033209 -0.435901 -0.136045 0.793388 -0.067756 0.075536 -1.171020 -0.851791 0.769926 0.954824
CAATG 0.646579 -0.068538 0.353644 -0.736116 -0.420697 -0.960111 -0.365093 0.609774 -0.808149 0.116446 -0.772046 0.356937 -1.162731 0.644001 -0.967589 -0.232347 0.734118 -0.050380 -0.274685 -0.653153 0.827041 0.591353 -1.179931 0.360204 0.809907 -1.161641 0.136055 -0.232092 -0.833640 0.828674 -0.547450 -0.395708 0.076331 -0.090420 -1.013114 -0.141353 0.451545 0.291883 0.384136 0.511565 0.835977 -0.974952 -0.252062 0.150659 -0.490559 -0.454944 -1.259786 -0.190127 0.572828 0.656839
CTCAT 0.554641 -0.328598 0.067455 0.136177 -0.891102 0.320053 0.805428 -0.138476 0.501062 0.383835 0.146272 -0.577777 0.613361 -0.041478 -0.065244 0.442029 0.559775 -0.472793 0.485694 -0.786140 -0.383265 0.492682 0.259443 1.276827 -0.191917 -0.986778 -0.108800 0.064773 -0.124309 -0.697068 0.574502 -0.307218 -0.386603 -0.917004 -0.848227 -0.260095 0.004444 -0.230987 -0.932605 1.899488 0.281730 -0.895352 0.830855 -0.942487 -0.302996 -0.068350 -0.949787 0.137169 -0.425307 -1.044460
CATGA -1.364296 0.657347 -0.377458 -0.418787 -0.807714 -0.759918 0.469713 -0.211234 -0.489717 1.128455 0.538942 -0.201222 -1.079914 -0.266219 -0.697019 -0.258625 0.878845 0.189980 0.816245 0.261387 -0.335057 0.137562 -1.083214 1.339895 0.266162 -1.012078 -0.092250 0.260877 -0.275080 0.292766 0.370661 -1.378084 0.233935 -0.190367 0.677125 0.200165 0.189152 0.997256 -0.489050 1.027953 0.103035 -0.898395 1.017357 0.083111 -0.221856 -0.180836 -1.059402 0.343475 0.590536 -0.853122
CTAAT 0.344904 -0.175027 1.634582 -1.002134 0.374515 -0.314294 0.071104 -0.754655 0.274483 0.391095 -0.516362 1.128128 -0.187559 -0.011499 0.059475 -0.317033 -0.570992 0.596254 0.447595 0.926638 -0.116064 0.157357 -0.534646 0.150023 -0.410004 -1.059539 -0.150153 0.628732 -0.198294 1.083929 0.415307 -0.356862 0.374318 -0.085390 -1.722751 0.622161 0.889401 -0.014785 -1.219404 -0.396098 0.778351 -0.311912 -0.126962 -0.703639 -0.614549 0.427994 -0.268035 -0.376676 -0.181258 -0.093638
GTCAA 1.197176 0.224654 -0.588393 -0.914445 -1.036011 0.638211 0.400758 0.990089 0.060946 -0.231367 -0.660219 0.092641 -0.851704 -0.663607 -1.108693 0.399864 0.290750 -0.130105 -0.558455 -0.828361 0.442470 -0.675181 -0.158505 1.157811 -0.250797 -1.005050 0.700613 -0.118687 -0.838407 0.687737 -0.945247 0.237138 0.163347 0.032574 -0.875661 -0.710894 -0.212470 -0.311469 0.555133 0.327956 -0.094883 -0.495712 -0.028373 -1.537584 0.504618 -0.637675 -0.316218 -0.792893 -0.055460 -0.064017
TTTGA -0.950640 0.401905 -0.470862 0.748212 -0.255189 -0.578655 0.317398 -0.098545 -0.314374 0.297516 0.426211 0.309789 0.110184 0.002356 -0.894497 -0.177509 -0.252966 0.778277 0.644410 -0.144012 0.907060 -0.671796 -0.651528 -0.022364 0.201162 -0.711170 -0.978851 0.589807 0.267103 0.991175 0.136174 -0.099321 0.269490 0.719440 -0.261444 -0.579764 0.659200 -0.284949 -0.322215 -0.131540 0.038258 -0.709462 0.575498 -0.496294 -0.182064 0.041156 -0.454229 0.599431 0.212233 -0.758413
CGTTT -0.745456 0.878196 -0.941644 0.101377 -0.359519 -0.170977 0.783209 0.645346 -0.018794 0.411720 -0.220403 0.755326 1.026275 0.228082 -0.387527 -1.112867 -0.027563 0.321622 0.224598 1.036335 0.652227 -0.508894 -0.354042 0.183533 1.047410 -1.101938 -0.502347 0.158583 0.611505 0.428562 -0.784019 1.168926 -0.307321 0.498814 -0.827728 -0.749356 -0.592329 -0.135049 -0.486914 -0.532619 0.574350 -0.462339 0.645320 -0.599302 -0.081625 0.465313 0.668610 -0.353104 0.020031 -0.446820
CTGTT 0.761985 -0.209616 -0.699712 -0.191843 0.289730 0.743720 0.224059 -0.117631 0.399758 -0.211368 0.695276 -0.107516 -0.098038 0.116019 0.430440 0.440790 0.836548 0.861377 0.915327 -0.174439 0.003586 -0.188623 -0.814800 0.429460 0.281260 -0.162202 -1.690977 -0.837769 -0.498987 0.033545 -0.923326 1.249965 1.728166 0.183510 -1.270015 0.068423 0.647057 0.591642 0.308096 -0.664356 -0.068952 -0.482595 0.363676 0.004665 -0.449810 0.269599 -0.187478 0.813497 -0.722047 0.234978
GAACA -0.975529 0.109870 -0.558027 0.051336 -0.573599 -0.753861 0.340114 -0.628426 -0.578861 1.013690 0.034938 -0.113788 0.702826 0.314416 0.475006 -0.048037 -0.523014 2.061096 -0.989473 -0.503626 -0.623163 -0.372994 -0.829528 0.162749 -0.319004 -0.826078 -0.372868 1.369342 -0.004816 0.446161 0.059828 -0.399783 0.442243 -0.659187 0.102573 0.092675 -0.833187 0.475320 0.558858 0.085719 -0.816432 -0.368566 0.838667 -0.173021 -0.025328 0.010795 -0.854509 0.659257 -0.334657 0.921128
GTGAA -0.688346 -0.131977 -1.435192 -0.758652 0.255226 -1.174079 -0.159654 -0.203676 -0.199159 0.507591 -0.283681 -0.353756 0.012317 0.168539 0.017695 -0.576305 -1.009353 0.539112 0.417064 -1.435951 1.021314 -0.617542 -1.031106 0.587900 -0.798046 -0.267093 -0.531673 0.824925 -0.023291 1.253369 1.048520 0.541888 0.903448 0.138431 0.290368 -0.905154 0.254392 -0.372354 0.774154 -0.002828 -1.209755 -0.056615 0.144434 -0.832888 -0.027327 0.192684 -0.782263 -0.208367 0.168546 0.263199
TCGAA -0.465681 -0.704509 -1.072977 0.447394 0.636488 -0.888880 0.911972 -0.917201 -0.025759 0.770239 -0.387557 -0.883555 -0.220912 -0.244019 0.142121 1.426756 -0.199382 1.151024 -0.045279 0.327022 -0.197973 -1.018533 1.092303 0.271484 0.702719 -1.766598 0.149130 0.725460 -0.436441 0.619633 0.090320 0.420501 0.722881 -0.387195 -0.861260 0.081420 -0.485389 0.046531 0.477265 -0.095301 -0.549502 0.381160 0.210460 -1.076462 -0.090501 0.281586 -1.429565 -0.155003 -0.081674 0.574279
CTTGA -0.153166 -0.670042 -0.917378 -0.220785 -1.117200 -0.888696 0.484780 -0.184196 0.316978 0.384143 0.029557 -0.596765 0.055259 0.480675 -0.649215 -0.089263 0.193944 1.580697 0.888032 -1.550091 1.025969 -0.732684 -0.551211 -0.515670 -0.314981 -0.590664 -0.793728 0.247882 0.048987 0.857974 0.576091 -0.841461 -0.598026 0.275823 -0.068630 0.569032 0.908662 -0.344389 -0.383025 -0.535547 0.995072 -1.105622 -0.034331 -1.032060 0.603116 -0.126140 0.519920 0.653785 -0.494000 0.206286
AGCAT -0.222033 0.309828 -0.720399 -0.884366 0.430208 0.457796 -0.233518 -1.249029 -0.700606 0.840569 0.793249 0.108050 0.484656 -1.112927 -0.019326 -0.077378 0.335461 0.406411 0.444316 -0.236370 0.572683 -0.453284 -1.078340 0.040828 -0.233990 -0.899452 2.002013 0.126312 0.443331 -0.258206 -0.096963 -0.851655 1.083180 -0.430092 0.233185 -0.583343 0.040861 1.097528 -0.788642 0.579100 1.460225 -0.311481 0.215736 -0.099602 -0.533314 0.923246 -0.558525 0.781898 -0.198161 -0.851263
TACCA -1.268263 0.221387 -1.397180 -0.674125 -0.593686 0.189197 -0.086081 -1.679287 0.218838 -0.402982 0.131100 0.516589 0.765759 -0.294998 -0.134033 -0.914405 -0.481021 0.275159 0.106943 -0.397455 -0.411833 -0.033576 0.519913 0.649557 0.189833 0.102451 0.119825 -1.353163 -1.473579 0.513274 -0.695016 -0.183135 0.254084 0.020567 -0.126536 0.580799 0.406708 0.436346 -0.356520 -0.332624 0.790499 -0.133567 0.596712 -0.005284 0.791595 0.395815 -0.167514 0.621137 1.336439 -0.603144
GAATA -1.733011 -0.448028 -0.680623 0.436748 0.047811 0.109829 0.697471 -0.985745 -0.659002 0.666769 -0.286884 -0.819369 -0.080946 0.767153 -0.587318 -0.604144 -0.023945 0.957372 -0.516677 -1.263928 -0.084877 0.259580 -0.497581 0.712124 0.297476 -0.670722 0.420442 0.068729 -0.408793 0.371490 1.004355 1.000822 0.827233 -0.026877 -0.555792 -1.068434 -0.203429 0.117355 -0.340942 -0.667271 0.024419 -0.503943 -0.292891 -0.359560 0.094203 -0.416441 -0.794394 0.496502 0.270247 0.904151
GTTCA 0.400755 -0.034033 -1.308699 0.026431 -0.328192 0.948896 -0.611662 -0.192789 -0.062028 0.276765 -0.505798 1.107414 -0.565564 -0.821875 -0.556203 -0.045386 0.798197 0.339574 0.428726 -0.019738 0.424423 -0.008649 -1.268813 0.869121 -0.402989 -1.334557 -1.249582 -0.816518 -0.517903 -0.281428 -0.664587 0.866616 1.438298 -0.242130 -0.815458 -0.206864 -0.955331 -0.188174 -0.446184 0.232019 -0.174463 -0.379625 0.843337 -0.283959 0.010024 0.624094 -0.153275 -0.561237 -0.299492 -0.004980
AAATG 0.116549 -0.272644 0.432433 -0.675705 0.379294 -1.166030 0.548312 -0.074701 -0.862319 0.313085 -0.070868 -0.316587 -0.867803 -0.021271 -0.322675 -1.172833 0.944303 -0.184609 0.221647 -0.452176 -0.725315 -0.568572 -0.040928 0.703536 0.272484 -1.231172 0.042780 -0.051896 -0.528900 1.098713 -0.646260 -0.460532 0.809949 0.141049 -0.212682 0.263837 0.219242 0.291302 0.868271 0.219598 0.210397 -0.730312 0.822956 -0.502956 -0.291846 0.102761 -0.197713 -0.140756 0.600891 -0.402924
TCAAG 1.314045 0.194600 -0.345506 0.333316 -1.912521 0.950953 -0.316494 1.142792 0.298372 0.157400 -0.831751 0.379648 -0.509076 -1.161292 -1.501412 -0.020179 -0.353605 -0.363133 -0.266744 -0.217439 0.133381 -0.594153 0.453866 0.778218 0.045186 -1.173701 -0.078477 -0.167845 0.042559 0.099584 -0.295979 0.251952 0.627528 -0.793639 -0.694728 -0.756181 0.257856 -1.416551 0.133464 0.292924 -0.079255 -1.057008 0.153182 -0.170124 0.297692 0.453168 -0.936657 -0.095008 0.553103 -0.190832
CAACA 0.465950 -0.056852 -0.296468 -0.779678 -0.533808 0.496030 -1.196278 0.652518 -0.062193 -0.253840 -0.631124 0.378038 -0.052641 -0.445161 -0.633930 1.018054 0.197803 0.842537 -0.574502 -0.192676 0.063834 -0.324306 -1.067160 0.550691 -0.014685 -0.870199 0.380258 -0.247798 -0.537276 0.089604 -0.595446 -0.453497 -0.150930 -0.444224 -0.276369 -0.801396 -0.510995 -0.249754 0.252246 1.130673 0.903415 -1.011951 -0.018557 -0.084397 -0.103364 0.248229 -0.798065 0.637261 0.757081 0.314848
CAAAA 0.111776 0.049425 -0.517031 -0.637036 -0.427635 -0.063038 -0.983209 0.638928 -0.710266 -0.130083 -0.251836 0.645659 0.181366 0.227913 -0.029181 0.301917 -0.106965 0.929187 -0.491690 -0.203890 -0.293590 -0.673910 -0.141378 0.093809 -0.221435 -0.849912 0.344363 0.838774 -1.436593 0.599004 -0.082621 -0.487742 0.326616 -0.619898 -0.079437 -0.729848 0.637877 -0.026906 0.783671 0.223239 0.898965 -0.486352 0.496976 0.494564 0.023624 0.088504 -0.618035 0.431611 0.967165 0.123130
ATTTA -0.510559 0.430843 0.364837 0.124730 -0.152622 0.521279 -0.128687 -0.154925 0.278493 -0.251959 0.076137 -0.092236 0.479230 0.132062 0.339365 -0.602002 -0.123060 0.287874 0.345864 -0.481719 -0.614715 -0.687275 0.098054 0.972515 -0.143383 -0.903224 -0.327821 0.791257 -1.149897 -0.088003 0.333794 0.070648 -0.179547 0.763314 -0.320567 -0.064064 0.863406 0.256963 -0.828040 0.012822 0.477204 -0.815076 0.030679 0.418051 -0.116451 0.121427 -0.275158 -0.797794 -0.019149 -1.402211
AGTAT -1.001327 -0.694041 -0.059781 0.818426 0.769699 0.513059 0.521512 -0.463266 0.222991 -1.874100 0.434164 -0.148616 -0.155867 0.250025 -0.524796 0.221169 -0.864657 0.513329 -0.072779 -0.791756 -0.171106 -1.129164 -0.937178 1.084445 -0.433091 -0.606168 0.265656 0.767367 -1.135204 -0.652487 -0.241029 -0.301449 0.643900 0.238928 0.280108 0.545154 -0.429362 -0.706412 -0.216822 0.268010 0.979974 -0.776462 -0.188309 0.806129 -0.362648 0.343572 -0.488366 -1.517099 -0.404787 -0.754698
TCAGA -0.413269 -0.413924 -0.231222 0.654699 -1.690966 0.615955 0.191172 -0.069109 -0.632728 0.828472 -0.347287 1.384794 -0.124221 -0.057727 -0.758495 0.401426 -0.183422 0.300360 0.205323 -1.105042 -0.896369 -1.333643 -0.607116 1.099694 -0.754273 -0.405101 0.363506 -0.961693 0.501202 -0.733437 0.889183 0.446315 0.237201 -0.182552 -0.588829 0.564971 -1.143482 0.018214 -0.156891 -0.156243 -0.237366 -0.345408 -0.113167 -0.837380 0.311308 0.378043 -1.357644 0.190192 -0.244849 -0.252553
ACGTT -0.476024 0.932663 -1.430790 -0.345118 -0.417296 0.984360 0.966301 0.418386 -0.452239 0.082978 -0.208111 1.006234 0.497659 1.168315 0.360761 -1.233070 0.472203 0.117307 -0.038486 1.065803 0.517583 -0.363265 -1.069507 0.082626 0.228453 -0.843958 -1.102067 0.504999 -0.472808 0.655762 -0.522696 1.288630 0.103152 0.143459 -0.610587 -0.315900 -1.290817 -0.262985 -0.161591 0.106990 0.906138 -0.361403 0.341655 -0.983262 -0.222567 0.629864 1.006416 0.065422 0.188601 -0.105781
TCAGT -0.606878 -0.237804 -0.289551 0.419760 0.072993 0.000769 -0.323668 -0.207238 0.294629 -1.001517 -0.794215 1.454636 0.165330 -0.465820 -0.980392 0.975394 -0.665002 0.372190 -0.062311 -0.716320 -0.398978 -0.249839 -1.036269 0.556832 -0.940548 -0.084959 -0.192920 -0.784225 -0.598457 0.200913 0.144332 0.645681 0.351322 -0.435795 -0.039930 0.756891 -1.146227 -0.251458 -0.293652 0.429502 0.449820 -0.737039 0.549928 -1.196393 0.127055 0.513765 -1.184989 -0.761009 -1.137527 -1.429906
TCTCT 0.166632 -0.146082 -0.002238 0.355420 0.399776 0.880691 0.706834 -0.522514 1.048456 0.521727 -0.231653 0.475066 0.658134 -0.446602 -0.072183 0.128541 0.221801 0.758059 1.195938 -0.617755 0.127527 0.355593 0.019274 0.405997 0.376914 -0.701820 -0.347909 0.196331 0.086451 0.350480 0.477121 -0.348918 -0.112971 -0.679635 -0.877491 0.287893 0.623212 -0.590399 0.249475 0.345506 0.695067 -0.636587 -0.304643 -0.667616 0.407589 -0.002858 -0.138161 -0.535185 -0.855991 0.283200
TTCAG -0.321343 0.072690 -0.643762 0.474968 -0.218060 0.238344 -0.524375 -0.199242 0.121686 0.378433 -0.796828 1.696511 -0.357463 -1.178165 -0.414537 0.462906 0.414333 0.873461 0.110545 -0.781337 -0.330703 -0.777085 -0.977586 0.451480 -1.437498 -0.659483 -0.396634 -1.480599 0.207833 -0.270736 0.396322 0.648653 0.518362 0.211123 -0.857159 0.351538 -1.254129 -0.061141 -0.447654 -0.300916 0.426761 -0.784947 0.398722 -0.289507 0.090151 0.810945 -1.109929 -0.812210 -0.669546 -0.846802
TGATG -0.837179 0.749553 0.614405 -0.312850 0.091326 -1.166025 0.223943 0.148075 -0.553809 1.109934 0.815433 0.180532 -0.751036 0.265291 -1.402257 -0.962071 0.709004 0.247255 0.938967 -0.515123 0.850368 -0.374999 -0.137006 0.905990 1.040140 0.151842 -1.075920 0.039615 -0.253540 0.367316 0.331175 0.323278 0.385976 0.116100 0.680928 0.333601 0.886785 -0.158375 0.684130 0.280883 -0.120608 -0.974706 0.465430 -0.283804 -0.724509 -0.348962 -1.049295 0.198556 0.333341 -0.571135
AGTTA -0.317054 -0.503886 -0.980909 0.733105 -0.738488 0.908836 -0.443666 -0.014781 -0.621809 -0.815575 0.044234 0.161424 0.084216 0.200369 0.003343 0.439557 -0.169081 0.027383 0.841950 -0.022114 -0.782047 0.035022 -0.543990 0.180022 0.113451 -0.668025 -0.742493 0.578274 -1.590595 0.707612 -0.376963 1.147760 2.025796 -0.799357 1.011033 0.764524 -0.699897 -0.172006 0.648701 -0.481393 1.174399 -0.467982 0.998184 0.113620 0.037011 0.512271 0.174154 0.244965 -0.571339 -0.882686
TCAAC 0.780868 0.295102 -0.219642 -0.923474 -0.618386 0.697756 -0.420981 0.991943 0.585963 -0.204043 -0.703093 0.534570 -0.129900 -0.202427 -0.597731 1.428110 0.834144 0.925085 -0.051887 0.097681 0.259341 -0.530116 -0.889529 1.057331 -0.341103 -0.988445 0.344676 -0.282538 -0.105503 0.378919 -0.536091 0.279448 0.031286 -0.172306 -1.746459 -0.566670 -0.799283 -0.888012 -0.083237 1.230402 0.507902 -1.289080 -0.084773 -0.887937 0.194277 -0.418198 -0.501765 0.015487 0.996588 0.011801
CGAAA -0.125709 -0.814618 -0.490125 -0.491909 1.353062 -1.028025 0.360117 0.084440 -0.665616 0.416463 -0.163434 -0.880658 0.131085 -0.386229 0.014737 0.994444 -0.237832 0.531449 -0.052613 -0.062788 -0.376840 -1.226357 1.020040 -0.137423 0.264807 -1.792563 0.391964 0.567307 -0.760204 0.483536 -0.334722 0.026744 0.675372 -0.259167 -1.012648 0.093336 -0.842406 -0.147261 0.367006 -0.482390 -0.137427 0.294876 0.959631 -1.057770 -0.113759 0.308980 -0.047377 -0.019914 0.731539 0.302532
CTCAA 1.188539 -0.718944 0.209249 -0.121851 -1.140950 0.266657 0.420115 0.227009 0.498461 -0.102476 -0.645480 -0.089179 -0.072657 -0.227652 -0.398118 0.358086 0.630728 -0.492280 -0.346261 -1.062230 -0.082073 0.042995 0.101938 0.463587 -0.115319 -1.187131 -0.152995 -0.207371 -0.025735 0.384029 -0.063507 0.034433 -0.183480 -1.310529 -1.730327 -0.790851 -0.249287 -1.639745 0.109116 1.520874 0.342695 -1.066609 0.128160 -0.815204 0.120448 -0.094735 -0.675854 -0.025117 0.973906 -0.156984
GAGAA 0.100474 -0.284878 -0.130859 0.280220 -0.071988 -0.648459 0.300942 -0.347528 -0.802369 0.675112 0.822018 -0.395724 -0.814763 0.146736 -0.625026 0.210700 -0.139080 -0.510113 0.172293 -0.489633 0.332972 -0.926419 -0.198329 -0.119831 -0.400363 -0.699570 -0.055981 1.397593 -0.093408 0.602962 0.037855 -0.649607 0.976398 0.131787 -0.258236 0.061311 0.182400 -0.416229 0.530390 -0.262256 0.227318 -0.141495 0.796240 -0.027714 0.968616 0.376048 0.148807 0.071127 0.793924 0.142073
ATCGT 0.053915 -1.204873 -1.892185 -0.204256 -0.102364 0.527351 -0.022947 -0.385081 0.682028 0.244677 -0.292694 0.056817 -0.311869 1.532906 0.348428 -0.538410 0.131569 -0.130384 -0.333857 0.672130 0.114886 -1.394210 0.466272 0.828717 0.309841 -0.491021 0.178859 0.039091 -0.790293 -0.427465 -0.373230 0.153031 0.098805 -0.067218 -0.333599 0.538241 1.139226 0.448189 -0.148400 0.862354 0.179353 0.389140 0.107480 -1.365282 0.069506 1.011509 -1.169455 -0.138125 -1.536723 0.307497
GTCTT -0.194627 -0.069770 -0.878469 -0.251457 -0.758044 0.702696 0.666105 0.146262 0.796583 0.270247 -0.487451 -0.434490 -0.096849 -0.631397 -0.557263 -0.142965 0.027694 0.548816 1.176771 -0.323297 0.538287 0.308666 0.164967 0.238458 -0.068370 -0.562007 0.215279 0.057941 0.148356 1.586415 -0.405315 -0.026610 -0.508308 0.249157 -0.037753 0.232304 -0.065748 -0.370504 -0.077517 -0.160625 1.109350 -0.235058 0.032711 -1.150244 1.432938 -0.077877 0.195797 -0.692641 -1.881806 0.251155
TTCAC 0.767037 0.134607 -0.971268 -0.479732 0.287877 0.527358 -0.457351 -1.264004 -0.368843 0.385233 0.012000 1.281370 0.576991 -0.636802 -0.979460 0.130092 0.529554 0.281859 -0.062443 -0.113720 -0.325681 -0.195630 -1.018489 0.814535 0.301784 -0.951882 -1.797542 -0.160774 -0.163352 -0.241077 -0.109653 -0.001615 -0.554914 0.621183 -0.938825 -0.380457 -0.488355 -0.451359 -0.532237 0.051666 -0.502660 -0.778516 0.804335 0.287464 1.109127 0.756893 0.316114 -0.588132 -0.365945 -0.069837
CTGAT -0.735941 0.836042 0.178408 0.071275 0.988698 0.228250 0.830075 0.467247 0.383560 1.150310 1.484519 -0.032209 0.361832 0.005862 -1.315660 -0.453614 0.284832 0.967413 0.935943 -0.593145 0.586638 -0.142658 -0.179259 0.723691 0.228470 0.494723 -1.837932 -0.452741 -0.752131 -0.101622 0.819527 -0.069766 0.224016 0.281750 -0.514729 -0.132551 1.344201 -0.333168 0.245612 0.093482 0.103750 -0.738103 0.385094 -0.267906 -0.327260 -0.419587 -1.132075 0.596684 0.155720 -0.409358
GATAT -1.193694 -0.127028 0.154442 0.826084 0.737560 0.355945 -0.019521 -0.224489 -0.598825 0.027234 0.093980 -0.265100 -0.300534 0.652582 -1.520452 -0.166921 0.892191 0.913051 -0.466713 0.246592 0.314624 -0.041661 0.658919 0.704088 0.415037 -0.707645 -0.474261 -0.376849 -0.361602 -0.007506 1.681781 0.952627 0.441340 0.483893 0.297141 -0.612394 0.610514 -0.200235 -0.011970 -0.124633 0.869442 -1.509129 0.733771 -1.020455 -0.570956 0.228667 -0.294430 0.755668 0.083835 0.529130
ACTGA -0.536369 0.321268 -0.418641 -0.227669 0.391773 0.335657 0.408766 0.727934 -0.308789 0.852738 2.776324 -0.218060 0.051699 0.250077 -0.519174 0.092768 -0.016386 1.365345 0.490579 -0.843211 0.168535 -0.085004 -0.651064 0.014995 -0.252807 -0.205464 -1.599560 -0.079629 -1.067706 0.614922 -0.034437 -0.280277 0.536466 0.767676 -1.087666 -0.047120 0.513375 -0.513550 0.533417 0.099861 -0.498832 -0.637761 -0.387123 0.324343 0.516582 -0.341852 -0.519725 1.036690 0.568141 -0.149982
ACTTA 0.043857 -0.581531 -1.146755 -0.815707 -0.753247 0.362735 -0.673173 0.149656 -0.615304 0.205736 0.363403 -0.580252 0.103742 0.860196 0.768737 0.735026 0.166365 0.955403 0.902904 0.009925 -1.220880 -0.474378 0.476468 0.486949 0.386435 -0.374870 -0.516270 0.494450 -0.367087 1.060058 0.306423 -0.099240 -0.541159 0.450779 -0.150303 -0.266520 -0.301202 -0.643457 0.287230 -0.158169 0.679854 -2.040142 0.260800 0.679837 1.207610 0.037073 0.645953 0.642681 -0.832623 -0.831072
CATGT 0.413646 0.437404 -0.456545 -1.080739 0.179841 -0.187218 -0.767511 -0.485696 0.012355 0.329970 -0.091722 0.447614 -0.870506 -0.287514 0.690119 -0.320683 1.859880 0.116828 0.471558 -0.474622 -0.185890 0.439833 -0.958671 1.500966 1.029752 -0.754270 -0.047924 -0.148542 0.335126 0.164389 -0.779177 -0.495516 1.174543 -0.561346 0.309810 0.502277 0.636567 1.788849 0.307748 0.710072 -0.230977 -0.598637 0.691474 -0.397397 -0.190842 0.058793 -0.836971 0.274051 -0.151233 -0.525611
