TTGT -0.476898 -0.707637 -0.739200 -0.669656 0.079303 0.150310 0.403736 0.078306 0.260982 -0.588144 1.051202 -0.540043 0.101705 -0.272745 -0.486864 -0.244436 -0.128325 -0.623537 -0.065389 -0.711743 0.540479 0.549214 -0.607558 -0.021008 -1.122861 0.492503 -0.157647 -0.715827 -0.293729 -0.326225 -0.333338 -0.015955 -0.080955 -0.894820 -0.751090 0.360303 0.134765 0.238133 -0.000068 -0.424887 -0.220093 0.129982 -0.992517 0.724197 0.749549 0.080523 0.400517 -0.159401 0.064574 0.112325
AAAAAA 0.094324 0.490873 -0.591191 -1.075992 0.025216 -0.243657 0.803556 -0.546543 0.952901 -0.718823 1.286895 -0.348332 -0.782601 -0.030524 0.046090 0.023969 0.548567 -0.081703 -0.256062 0.036844 0.970321 0.442207 -0.638404 0.034602 0.013217 0.639304 0.074335 0.837880 0.529888 0.521598 -0.250296 1.420261 -0.576658 -0.226347 -0.095658 0.101213 -0.053750 0.181309 0.143220 -0.327492 -0.141811 0.331522 -0.165440 0.659409 0.779503 -0.856816 -0.144704 0.293503 0.329638 0.627311
TTTTTT 0.451543 -0.877368 -0.194869 -0.681768 -0.117786 -0.180943 0.477348 -0.341738 0.639253 0.248876 1.555189 -0.397532 0.118393 -0.915453 0.317606 -0.952098 0.563376 0.024868 -0.292353 -1.305169 1.128797 -0.005264 -0.680055 0.094861 -0.593675 0.349533 0.214740 -0.924775 -0.057719 -0.331025 -0.283179 0.001362 0.249746 -1.834561 -0.728039 -0.117108 -0.023891 0.690954 0.145287 -0.051124 -0.207459 0.609153 -0.483454 0.773541 0.359812 -0.360046 0.863662 -0.823022 -0.137421 -0.585837
TATATA -0.229852 -0.293438 0.021949 -0.583095 -0.217739 -0.777684 0.780715 -0.566611 0.616329 -1.242530 0.426024 -0.742193 -0.028231 0.089023 -0.314885 -0.228770 -0.286573 -0.245583 -1.294631 -0.668608 0.656056 0.744690 -0.306739 0.930529 -1.101207 -0.017559 -0.770450 0.114878 -0.041288 -0.820780 -0.150580 0.227994 -1.698212 -1.089203 0.597690 1.162954 0.505284 -0.763140 0.602396 -0.085246 0.348188 0.483174 -0.123166 1.110332 0.574853 -0.712058 0.010542 -0.070944 0.068872 0.089172
AATAAA 0.478710 -0.029731 -0.625561 -0.862157 0.560376 -0.924599 0.836385 -0.064206 0.551020 -1.536432 1.004343 0.266682 -0.982339 0.336437 -0.351928 -0.097614 0.036026 -0.240161 -0.708889 0.366511 0.789235 0.544815 -0.334284 0.245227 0.290592 0.519688 -0.314171 0.800706 1.095510 0.297187 -0.641482 1.291457 -0.538089 -0.558966 -0.260566 0.377379 -0.477542 -0.032599 -0.318071 0.011595 0.000047 0.724156 -0.003256 1.092917 1.167360 -1.621574 0.286070 0.642955 -0.486987 0.223195
TTTTTTT 0.438576 -0.713927 -0.353440 -0.591558 -0.049165 -0.149540 0.420796 -0.293576 0.583917 0.180328 1.520773 -0.314793 0.243218 -0.898563 0.158142 -1.011690 0.433166 0.038749 -0.649611 -1.342782 1.154905 0.396210 -0.851345 0.381860 -0.709655 0.344850 0.434116 -1.011292 -0.142420 -0.107338 -0.348170 -0.047477 0.371355 -1.778679 -1.029036 -0.308535 0.118581 0.752359 0.179298 -0.073033 -0.212985 0.436726 -0.533764 0.849489 0.652205 -0.189442 1.096960 -0.838913 -0.042967 -0.491602
TTTATT 0.010458 -0.765452 0.056735 -0.950572 -0.070195 0.266831 0.306335 -0.443659 0.512768 0.327587 1.743462 -0.419473 0.131389 -0.731315 -0.230535 -0.706755 -0.110092 -0.309442 -0.733950 -1.101286 1.234754 -0.136120 -0.528011 0.095965 -0.466893 0.314048 0.855043 -1.080587 -0.504170 -0.742555 -0.080503 -0.397194 -0.256434 -0.934362 -0.304543 0.504314 -0.089453 -0.055797 -0.001085 -0.321349 0.349040 0.476283 -0.429748 1.148018 0.205718 -0.909885 1.128776 -0.959093 0.230661 -0.481762
TTTTTAT 0.392706 -0.655211 0.397359 -0.961161 -0.034883 -0.090866 1.056700 -0.582339 0.702249 0.119830 1.092935 -0.295824 0.286682 -0.437603 -0.115259 -1.162369 0.185005 0.206602 -0.907629 -1.256355 1.522183 0.370492 -0.711953 0.501054 -0.783654 -0.017031 0.975935 -1.392562 -0.158063 -0.475030 -0.106525 -0.401326 -0.382354 -1.643014 -0.832070 -0.121087 0.199557 0.635643 0.784487 -0.292271 0.372185 0.700997 -0.776407 0.591615 0.193803 -0.664257 1.269024 -0.955922 0.383728 -0.599028
ATTTTT 0.281869 -0.221272 -0.795309 -0.080089 0.350316 -0.013872 0.166956 -0.087393 0.996247 -0.786797 0.774858 -0.377548 0.765903 -0.308361 0.800307 -1.028879 0.610994 -0.090724 -0.627259 -1.074415 0.677508 0.580124 -0.968885 1.116724 -1.105210 0.502829 1.230912 -0.760984 -0.394721 0.570423 -0.575172 0.466826 0.261038 -1.139831 -0.859039 -0.315758 -0.025583 0.249010 -0.006730 0.229944 0.143203 0.009584 -0.648165 0.385568 0.741133 -0.780352 0.967040 -0.619763 -0.092817 -0.226132
TAAAAA 0.682328 -0.069636 -0.428813 -0.668917 0.121863 -0.820009 0.837653 0.026982 0.256736 -0.798689 1.029646 0.418481 -0.758443 0.248899 -0.395995 0.017469 0.411795 -0.577887 -0.333567 0.056899 0.971808 1.172166 -0.065745 0.117425 0.190911 0.650426 -0.069753 0.554879 0.948300 0.377068 -0.618405 0.944274 -0.241808 -0.585912 -0.178694 0.392267 -0.490696 0.304688 -0.311492 -0.139027 -0.078603 0.656690 0.066700 1.219638 1.275139 -0.960171 0.199588 0.439210 -0.490289 0.354616
TTATTT -0.307503 -0.751936 -0.524227 -0.975699 0.486379 -0.373333 0.797923 -0.414059 0.099505 -0.049889 1.664464 -0.154613 0.163073 -1.214262 -0.711989 -0.227396 0.588787 -0.427572 -0.832115 -0.396702 1.192238 0.430636 -0.217450 0.377175 -1.129489 -0.774837 0.176660 -0.324398 -0.886945 -0.369968 0.422749 -0.291634 0.024411 -0.660743 -0.387211 0.164510 -0.570158 -0.696963 0.283234 0.130715 -0.080699 -0.097204 -0.533155 1.118480 -0.067468 -0.219453 0.312819 -0.892393 -0.483530 -0.472098
TTTTTTTT 0.515193 -0.832005 -0.164205 -0.487388 -0.050404 -0.149088 0.406294 -0.302831 0.535994 0.329346 1.406568 -0.443847 0.219789 -1.013599 0.377372 -0.920737 0.626774 0.236715 -0.499625 -1.300081 1.064321 0.206265 -0.701540 0.267029 -0.661416 0.363651 0.455162 -0.979697 -0.010114 -0.107500 -0.225478 -0.105357 0.397932 -1.798009 -1.010066 -0.370208 -0.037009 0.728950 0.231251 0.012365 -0.278557 0.293487 -0.472990 0.725655 0.464134 -0.182137 0.888881 -0.850560 -0.271062 -0.594996
TTCTTT -0.075613 -0.815214 0.008997 -0.385065 -0.248350 0.287781 -0.891548 0.042532 0.733925 0.220926 0.976501 -0.308015 0.216882 -1.666472 0.365515 -0.235065 0.093802 -1.059389 -0.538865 -0.926982 1.275858 -0.044359 -0.265746 0.425016 -0.744213 0.360126 0.559956 -0.362429 -0.153245 -0.321559 -0.350739 -0.017283 0.152627 -0.306830 -0.348581 -0.498918 -0.115649 -0.071632 0.811095 -0.049937 -0.441496 0.195699 -0.632945 0.575031 0.962305 -0.587182 0.671928 -1.282361 -0.306122 0.266434
CTTTTT 0.773285 -0.702867 -0.226381 -0.669077 0.721263 -0.275636 0.287094 -0.208983 0.332372 0.916386 0.943290 -0.410587 0.460737 -1.275134 -0.251728 -0.466449 -0.321627 -0.071459 -1.018981 -0.845889 1.131299 0.440243 -1.207055 0.133606 -0.208603 -0.244642 -0.000872 -0.936107 -0.439149 0.837847 -0.085868 0.058819 0.090627 -1.100252 -0.698600 -0.069853 0.554292 0.709681 -0.196365 -0.331010 -0.344019 0.189782 -0.329861 1.129307 0.803447 0.696762 1.789156 -0.731015 0.250448 0.478886
TATTTT -0.605323 0.257550 0.558736 -0.386573 0.163431 0.071918 0.159976 -0.597609 -0.092723 -0.456762 1.244924 -0.134801 0.206718 -0.658746 -0.797773 0.420218 0.601675 -0.434072 -0.703240 -1.546858 0.843130 1.292136 0.091810 0.574268 -1.132599 -0.733714 0.287401 -0.498067 0.168208 -0.243603 -0.507605 -0.066884 0.071691 -1.087896 -0.006336 -0.197562 -0.648705 0.138206 0.833842 0.102199 -0.514854 0.842848 -0.633820 0.609356 1.084283 -0.113172 0.793297 -1.098612 0.438542 -0.265819
GTATATA -0.369905 -0.343130 -0.100192 -0.137302 -0.357261 -0.370709 1.109109 -0.791532 0.268932 -1.386460 -0.470623 -0.825536 -0.300193 0.244315 -0.659396 -0.052145 -0.011121 -0.108679 -0.619858 -0.321471 0.245827 0.227334 -0.240255 0.218604 -1.464595 0.349980 -0.733873 0.243081 -0.003001 -1.000985 -0.946361 -0.384134 -2.034882 -1.161979 0.077434 1.348308 0.436863 -0.516556 0.436945 -0.494840 -0.097993 -0.152909 0.057091 1.147394 -0.062912 -0.409734 -0.035328 0.235273 0.197977 -0.184991
TTTCTT -0.453899 -0.504612 -0.278097 -1.110007 -0.071159 -0.089523 -0.180855 0.044998 0.318914 -0.341736 1.307845 0.158641 0.109734 -0.828060 0.123659 -0.156944 0.253956 -0.185230 0.272654 -1.711160 0.436535 -0.240993 -0.316829 0.264366 -0.634715 0.186349 0.374396 -0.550006 -0.666424 -0.468447 -0.482344 -0.010126 0.744323 -1.141459 -0.787624 -0.230365 -0.706431 0.115133 0.159544 0.019314 -0.272683 0.310804 -0.430017 0.555242 0.387296 -0.880046 1.176809 -1.173396 0.561187 0.098695
ATATTT 0.141140 -0.683743 0.318073 -0.306073 -0.344825 -0.380180 -0.128769 -0.386178 1.095749 -0.572093 1.016720 -0.461923 0.590358 -0.166539 -0.047890 -0.497392 -0.568864 -0.230164 -0.269291 -1.173236 0.246310 -0.221304 -0.695993 0.137745 -1.186396 0.119240 -0.663046 -0.216273 -0.290371 -0.665170 -0.290383 0.288311 -0.820258 -1.112195 0.546857 1.151788 0.139016 -0.136289 0.255682 -0.097135 0.709055 0.299924 0.040052 1.122425 0.526651 -1.967823 0.691047 -0.268914 0.471286 -0.341406
TAAATA 0.440764 -0.530054 -0.201693 -0.397876 -0.031544 -1.160892 0.377471 0.139594 0.521580 -1.279888 0.586266 -0.056954 -0.294295 0.199068 -0.244200 -0.116432 0.037427 -0.724654 -1.184141 -0.245809 0.575771 0.891397 0.092585 0.444966 0.035403 0.079730 -0.772783 0.522827 0.983986 0.138404 -0.676716 0.627523 -0.279335 -0.977754 0.092115 0.976865 -0.341096 -0.702662 -0.413790 -0.020569 0.110867 0.488577 0.389113 1.505449 1.279701 -1.218219 -0.122206 0.388989 -0.348896 -0.068483
TGTATAT -0.372885 0.094177 -0.399783 -0.520717 -0.628218 -0.620417 0.818936 -0.590840 0.206033 -0.955686 -0.021465 -0.846861 -0.580833 1.111379 -0.745955 -0.831920 0.732713 0.534119 0.473643 -0.463034 0.685861 1.151046 0.320185 0.291920 -1.072014 0.812374 -0.776503 -0.644817 -0.189283 -1.097883 -0.712860 -0.607916 -2.140797 -1.391534 -0.075334 0.831135 -0.121649 -0.428702 -0.143864 0.011733 -0.217165 0.143378 -0.557553 0.886267 -0.158408 0.205428 0.533668 -0.192694 0.058134 -0.236668
TTTTATA 0.148704 -0.265766 0.514911 -0.928577 -0.357422 0.315390 1.594754 -0.576214 0.601668 -0.398663 0.323718 -0.516104 0.133610 -0.229076 -0.168775 -1.220814 0.377208 0.009622 -1.094747 -1.136297 0.963053 0.460097 -0.797235 0.808140 -0.403308 -0.236644 0.823623 -0.774101 0.536809 0.116889 -0.558076 0.199378 -0.719305 -1.842931 -0.592760 0.092624 -0.011973 0.121129 1.484346 0.003264 0.474004 0.886907 -0.762465 0.569426 0.616577 -0.093002 0.459581 -0.684346 0.765598 -0.014531
CATTTT 0.235396 -0.732220 0.108821 -1.436734 0.526885 -0.258343 0.606251 -0.823790 1.195436 0.675407 1.270976 0.085311 -0.628840 -1.082279 0.496172 -1.005728 1.630575 -1.064976 1.037261 -1.018035 0.103674 -0.431392 0.101867 0.021978 -0.663952 0.395652 0.297964 -1.333597 0.082066 -0.498305 0.283360 -0.154916 0.497465 -1.361048 0.723471 0.534604 0.077065 -0.078018 0.297488 -0.286229 0.251798 0.204547 -0.196236 0.534705 0.677618 -0.043628 1.041280 -0.445626 -0.281985 -0.537026
AAGAAA 0.343946 0.213594 -0.094665 -0.799088 -0.196463 -0.298530 0.744370 -0.468271 0.456647 -0.052312 0.655981 0.476570 -1.558557 -0.679706 0.312278 -0.362587 0.655496 0.037860 -0.768896 0.051804 0.553818 0.613221 -0.482396 -0.445497 -0.550484 0.488412 -0.185281 1.119575 0.246338 1.107246 0.032953 1.245084 -1.028598 0.222734 -0.059164 0.336052 -0.654567 1.009093 0.125090 -0.538591 0.012368 0.222697 -0.643366 0.606400 1.265795 -0.867310 -0.301622 0.731935 -0.248003 0.372631
ATACAT -0.547533 -0.406827 -0.528460 -0.465558 -0.721227 -1.066826 0.431565 0.694740 0.598312 -0.911746 0.135692 -0.707567 0.133924 0.254718 0.107459 -1.113029 0.104376 0.458924 -0.800975 -0.967643 0.159452 0.885761 -0.659991 1.408539 -0.959079 0.519678 0.038732 -0.301251 0.562096 -0.173625 0.003664 0.613764 -0.954613 -0.385425 1.413857 0.724686 0.051804 -1.460215 0.413645 -0.130576 0.212521 0.058514 0.451671 1.091321 -0.348282 -0.834877 -0.930319 -0.848555 0.010489 0.471271
AATTTT 0.511766 -0.827782 -0.201003 -1.514234 0.024926 -0.145228 0.719127 -0.772553 -0.336305 -0.651311 1.176177 -0.118896 -0.010298 -0.937456 0.159072 -0.012625 -0.020569 0.723385 0.276464 -0.899640 0.627124 -0.238871 -0.839825 0.567213 0.143510 0.760661 0.558996 -0.428828 0.394791 -1.041077 0.112819 0.417011 0.105602 -0.913370 -0.323336 0.243412 -0.767495 0.724215 0.295501 -0.198501 -0.426557 1.133603 -0.132692 0.485744 0.955973 -0.853090 0.982916 -0.602461 0.145904 -0.231509
TCTTTT -0.078093 -0.364485 -0.425177 -0.830573 -0.463438 0.362137 -0.240141 -0.811597 -0.505345 -0.496237 1.503468 0.257031 0.369518 -0.937287 0.324213 -0.832246 0.795712 -0.802475 -0.511017 -0.797479 0.929916 0.195830 -0.720543 0.067473 -0.371018 0.727985 0.280147 -0.350848 -0.259172 -0.265826 -0.540134 -0.288936 -0.344459 -0.200751 -0.680456 -0.231487 0.743587 0.246228 0.738219 0.801977 -0.517444 0.061346 -0.749242 0.979594 -0.447906 0.129545 0.736365 -0.702261 0.302858 -1.318586
GAAAAA 0.477886 1.274835 -0.824408 -0.906416 -0.326719 -0.650793 0.997588 -0.379662 0.244693 0.021897 1.862290 -0.103838 -0.554681 -0.745215 0.251878 0.383469 -0.289380 -0.289294 -0.048991 0.453293 -0.068583 0.244749 -0.395584 0.440814 0.152581 1.156232 0.088451 0.860017 0.620485 -0.287211 -0.329932 1.212530 -1.246903 -0.163783 -0.336434 -0.567523 -0.646382 0.064445 -0.115633 -0.762815 -0.194965 -0.282132 0.242815 -0.281902 0.917277 -0.655547 -0.140027 0.765724 0.256535 0.039693
ATAATA -0.256320 0.068542 -0.590926 -0.224609 -0.299819 -0.549834 0.481707 -0.331280 0.631444 -1.144685 0.075539 0.121897 0.389750 0.296188 0.315400 -0.417172 -0.433813 -0.281346 -1.471553 -0.038472 -0.023068 0.288721 0.027231 0.748069 -1.012007 -0.006781 -1.068822 0.501615 0.910263 -0.256450 -0.338494 0.965795 -0.694228 -0.506700 0.660779 1.264379 0.699641 -0.746252 -0.286398 0.089560 0.710893 -0.204619 0.140251 1.223687 0.843198 -1.395864 0.203244 0.202252 -0.603934 -0.211804
GTTTTT 0.052145 -0.540157 -0.705308 -0.219598 -0.675377 0.135706 0.362729 0.125749 0.970414 -0.004505 1.430924 -0.266256 -0.204582 -1.037808 -0.416898 -0.554344 -0.620992 -0.125749 -0.791517 -0.698409 0.463487 0.335838 -0.830262 -0.051714 -0.640536 0.525001 0.844193 -0.949400 -0.342298 -0.706552 -0.067478 -0.717180 0.478846 -1.021929 -1.613706 -0.426717 0.001718 0.228004 0.536873 -0.602597 0.062735 -0.313395 -0.307387 0.424735 1.018839 -0.355294 0.157608 -0.684107 0.004552 -0.106890
TACATA 0.159532 -0.002123 1.266476 -0.160054 -0.548755 -0.038267 0.119871 0.232630 0.869050 -1.012210 1.132309 -0.054511 -0.640481 -0.175422 0.099364 -0.543548 1.000640 -1.345479 -0.482558 -0.870461 0.503059 0.626470 -1.105936 1.275339 0.692508 0.054034 0.541863 -0.266044 0.045527 -0.752197 -0.416833 0.070123 -0.480440 -0.693642 1.636521 1.960786 0.313984 -0.519740 0.493804 0.352123 0.043085 0.769955 0.382357 0.825061 1.218061 0.086269 0.181906 0.897171 -0.114308 0.414342
TATTTA -0.519962 0.099929 0.285336 -0.374571 0.526218 -0.198109 0.770754 -0.540105 -0.267622 -0.856795 1.380758 -0.233766 0.446337 -0.230437 -1.052225 0.789793 0.762633 -0.686225 -1.322502 -0.848119 0.735948 1.258661 0.214599 1.151287 -0.989254 -1.155581 -0.069787 0.045297 -0.177109 -0.129617 0.035109 -0.153980 -0.073405 -0.460377 0.336655 0.115952 -0.819457 -0.573022 1.111368 0.502883 -0.322318 0.116488 -0.599653 0.688162 0.823073 -0.311772 0.070044 -0.752070 0.103412 -0.023193
GCATTT 0.113026 -0.868102 0.291657 -1.707486 1.045247 -0.224136 0.409707 -0.325515 1.432660 0.300278 1.555236 0.093133 -0.495226 -1.334899 0.354451 -0.949103 1.388811 -0.544625 0.209889 -0.532766 -0.879266 -0.886705 0.827050 0.289337 -0.868543 0.744245 0.504687 -1.280992 -0.043141 -0.279932 0.404711 -0.610919 0.012011 -1.226147 0.681558 -0.457135 0.506512 -0.207175 0.590746 0.109062 0.413472 0.269728 0.437113 -0.129457 1.009572 -0.397953 1.114889 0.284268 0.692226 -0.054939
TTTCAT -0.613501 -0.504972 -0.281801 -0.470894 -0.749747 -0.985171 0.450549 0.594246 0.896258 -1.339211 0.721141 -0.141550 0.586426 -0.072542 0.736725 0.384914 0.420778 -0.922583 0.058514 -1.077695 0.211177 0.035287 -0.339797 0.575757 0.048895 0.567103 -0.110640 -1.561074 -1.005698 -0.185994 0.123782 0.281490 0.394876 -1.265007 -0.367676 0.624259 -0.444853 0.109562 -0.623786 -0.479025 -0.363431 -0.029762 0.095903 -0.153643 0.824461 -1.651017 0.808332 -1.132918 1.444486 0.215756
GCATAT 0.555271 -0.089606 1.436830 0.147130 -0.254277 -0.153363 -0.062337 -0.569915 1.263844 -1.313881 1.098687 -0.616901 -0.494875 -0.733134 -0.454055 -0.174556 1.450040 -0.395817 -1.122437 -0.623410 -0.177687 -0.010593 0.742230 1.299196 -0.501651 -0.052762 -0.413589 0.322921 0.258465 -0.960372 -0.459209 -0.168519 -0.435880 -0.692737 1.207567 -0.275933 1.042575 -0.910555 0.607006 -0.239978 0.396643 1.064360 0.052945 -0.651170 1.426965 0.544264 -0.005046 0.062903 1.399562 0.421123
AATATT 0.004049 -0.509267 -1.242314 -0.675205 0.232633 -0.349827 0.133726 -0.552982 0.208092 -1.748659 1.002214 -0.308364 0.110531 -0.167300 0.763883 -0.140670 0.243173 0.308685 -0.623487 0.539306 0.198853 0.332330 -1.330336 1.224646 -0.088909 0.532133 0.731989 -0.415883 0.287547 0.046398 -0.109970 0.738055 -0.312472 -0.279210 -0.427578 0.761336 -0.609220 0.289471 0.415190 0.531028 -0.409012 0.537713 -0.137288 -0.161478 1.062543 -0.991681 0.967282 -0.273869 -0.087494 -0.373526
AGAAAA 0.576732 0.565386 0.514539 -0.947435 0.347790 -0.425023 1.253380 -1.162091 0.625137 -0.475731 0.869430 -0.463889 -1.177018 0.153172 0.771152 0.327947 0.020273 0.439616 -0.095036 -0.054311 0.953839 -0.558996 0.653451 0.223326 -0.432805 1.070665 0.370502 0.330701 -0.135587 0.174464 0.661183 1.099748 0.086261 0.367907 0.004922 0.889937 -0.744564 0.570846 -0.037053 0.327813 -0.248969 -0.161973 -0.299071 1.313783 0.862785 -0.642339 -0.629830 0.747043 0.116193 0.153182
ACATAT 0.133322 -0.597140 -0.094091 -0.268579 -0.333423 -0.969594 0.088627 0.460307 0.490249 -1.112715 0.751307 -0.804932 0.536731 0.156846 -0.411504 -0.409100 -0.198638 0.519301 -0.468332 -1.134102 0.485513 0.965663 -0.122942 0.885192 -1.045522 -0.002542 -0.768493 -0.303520 0.157096 -0.238273 -0.324726 0.631848 -1.518314 0.062998 1.184357 0.808265 0.459962 -1.185847 0.874380 -0.138861 0.248928 0.191357 0.652508 0.854175 -0.020035 -1.581280 -0.925269 -1.079709 0.027547 0.358098
ATAAAA -0.165206 0.073403 -0.764267 -1.031890 -0.330244 -0.616228 0.924919 -0.529135 0.864308 -0.690673 0.434812 -0.219151 0.023868 -0.209130 0.750241 -0.219479 -0.359487 0.384050 -0.735252 -0.310576 0.160850 0.656534 -0.043695 0.605689 -0.960087 0.026224 -0.856333 0.717338 0.838810 0.026720 0.151580 1.232044 -0.808433 0.009405 0.365933 1.219642 0.720534 0.426454 0.152782 -0.288328 0.158203 -0.126366 -0.512313 0.448220 0.665804 -0.942773 0.214878 0.220517 0.065798 0.283942
TCATTT -0.579893 -0.710606 -0.618075 -0.008284 0.096372 -0.686045 0.385629 0.439730 0.364374 -1.304867 0.608105 -0.455412 1.246804 -0.072995 1.078779 -0.104626 1.065076 -1.107171 -0.041779 -0.474244 0.295692 0.340076 -0.687095 1.151686 -0.543297 0.447096 0.112634 -1.245240 -0.888995 0.987783 -0.256360 0.406488 0.186613 -1.105540 -0.956489 0.161654 -0.104867 0.340962 -0.526765 -0.205356 -0.584296 0.007123 -0.670155 -0.367314 0.498942 -0.966753 0.957366 -0.876617 0.679666 -0.268248
AATATA 0.424614 -0.392109 -0.541919 -0.859101 0.042730 -0.605921 0.575197 -0.594188 0.357322 -1.437182 0.639017 -0.572518 -0.114570 0.191056 0.614160 -0.165089 -0.528929 0.497212 -1.201300 0.238847 0.044211 -0.010051 -0.754092 1.015065 0.203954 0.350028 -0.608674 0.120944 0.810097 -0.743689 0.065236 0.871775 -0.832012 -0.242910 0.136041 1.100198 0.171860 -0.161368 0.385395 -0.227986 -0.145246 0.408036 -0.114059 0.742662 1.033387 -1.053169 0.280205 0.009668 -0.003395 -0.402275
AATAAT 0.665723 -0.517337 -0.592241 -1.194843 0.689520 -0.480599 0.576978 -0.217736 -0.310827 -1.746170 1.034780 0.196850 -0.518752 -0.185806 0.462459 -0.031714 -0.453664 0.594050 -0.813286 0.742755 0.267685 -0.010048 -0.548888 0.866949 0.706035 0.976936 0.156136 -0.202245 0.978280 -0.783618 0.166873 1.061323 -0.093208 -0.100607 -0.320539 0.465087 -0.543210 0.293234 0.170321 0.528406 -0.014320 0.626351 -0.414752 0.136743 0.979274 -1.201961 0.620632 0.122912 -0.323960 -0.546723
ACTTTT 0.259581 -0.432812 0.662186 -1.158263 0.126656 0.523783 -0.389459 -0.641375 0.844885 -0.601507 1.795167 -0.790661 0.620347 -0.163606 0.760029 -0.683001 0.724450 -0.413559 0.187489 -1.293452 0.698643 -0.418538 -0.209421 -0.469741 -0.079897 -0.584924 0.163472 -0.095936 0.261253 -0.538766 0.055700 0.195809 0.016801 -2.036555 -0.433333 0.039031 -0.180036 0.069915 -0.696953 -0.699627 -0.676499 0.901610 -0.315144 1.231196 -0.939286 -0.550365 -0.357987 -1.044824 -0.886301 -0.463523
CATATA -0.040225 0.767018 0.973820 -0.180738 -0.270023 0.261392 0.957855 -0.518625 0.827144 -1.118541 0.432709 -0.287658 -0.390542 -0.015643 -0.099271 -0.726183 1.442220 -0.607080 -1.075701 -1.047945 0.324209 0.204644 -0.265013 1.817382 0.508773 -0.420569 0.659445 -0.106022 0.397591 -0.519611 -0.750834 0.563779 -0.401237 -0.932679 0.792289 0.287214 0.834622 -0.600722 0.836766 0.035261 0.281372 1.237503 -0.691858 -0.289162 1.291651 1.096226 0.170977 0.059522 0.844667 0.704639
TATTAT -1.186396 0.532155 0.791618 -0.197480 0.279930 -0.150047 0.281077 -0.475003 -0.295858 -0.924878 1.013782 -0.530233 0.108081 0.210439 -0.906369 0.748276 0.466937 -0.563793 -0.761099 -0.746191 0.828616 1.743567 0.366165 0.926774 -1.017670 -0.861729 0.043531 -0.552332 0.497369 -0.306894 0.112154 0.046056 -0.169454 -0.957700 0.409956 0.176387 -0.463428 0.188754 1.040001 0.082513 -0.319846 1.223114 -0.737737 -0.132241 0.901096 -0.086340 0.475450 -0.535561 0.559228 -0.074723
TTCAAA -0.078700 -0.074004 -0.725595 0.247730 0.741326 0.394905 -0.830541 -0.198455 -0.336155 -0.839707 0.921396 -0.514084 -2.106944 -1.216406 0.271901 0.571781 0.583995 0.181795 0.253237 -0.389222 1.669668 -0.377302 -1.540862 -0.038571 -0.493103 0.432659 -0.776545 -0.189069 0.535032 0.384113 -0.643519 0.886237 -0.356932 -0.139741 0.018154 -0.115266 0.159306 0.064128 0.193725 -1.154419 -1.351362 0.705101 -0.912909 1.329028 0.079042 0.135657 0.534898 -0.400718 0.332516 0.306512
ATTTAT -0.520356 0.412155 -0.122838 0.308861 0.379169 -0.253353 0.233962 -0.156666 0.339739 -1.498963 0.352841 -0.347807 0.677523 0.537205 0.189088 -0.241268 0.564076 -0.037274 -0.377360 -0.740692 0.815394 1.238522 -0.308146 1.615529 -1.509816 -0.239733 0.686005 -0.515854 -0.264611 0.559980 -0.312912 0.436338 -0.324977 -0.832320 -0.270414 -0.256858 -0.090982 -0.165933 0.622820 0.360460 0.027313 0.380315 -0.919385 0.040935 0.788820 -0.722300 0.856073 -0.562853 0.315548 -0.067805
TAAAAT 0.678348 -0.494217 -0.284835 -0.826355 0.342245 -0.936631 0.539153 0.153934 -0.233706 -1.112264 0.804383 0.736611 -0.215339 0.067603 -0.271953 -0.104355 0.091526 -0.381524 -0.707425 -0.068745 0.349752 1.116521 -0.253353 0.732678 0.752516 0.642140 -0.088433 0.231600 1.098127 -0.232526 -0.452605 0.926702 0.415975 -0.537405 -0.265675 0.258966 -0.870884 0.070093 -0.216713 0.139217 0.113263 0.901279 -0.195818 0.938265 1.186213 -1.145936 0.701424 0.150753 -0.371446 -0.132465
TGAAAA -0.310284 1.127828 -0.503412 -1.138294 -0.147222 0.228903 0.722552 -0.894549 1.591135 -0.342832 0.032217 -0.433589 0.470311 -0.070463 -1.330586 -0.244139 1.272524 0.373105 0.293105 0.502647 0.632352 0.062115 -0.959269 -0.008613 0.424602 0.476829 0.757020 1.552307 0.207965 0.766442 0.242096 1.355672 -0.476897 -0.040071 -0.437627 0.586362 0.198023 0.435148 -0.402650 0.068460 -0.093023 1.457036 0.044104 0.150546 0.268184 -1.121263 0.698524 -0.147102 0.833950 0.395172
ATTCAT -0.833905 -0.326794 -1.135401 -0.400374 -0.458159 -1.398184 0.344410 -0.070577 0.668239 -0.915267 0.474554 -0.289485 0.576805 0.152695 0.953158 -0.060568 1.370230 -1.693189 -0.333952 0.398545 0.956364 0.335987 -0.677525 0.938483 -0.311930 0.401469 -0.562080 -0.934802 -1.177556 0.906187 0.468067 0.465255 -0.539153 -0.784448 0.370189 0.638489 -0.177331 -0.925612 -0.206607 -0.059044 0.570326 0.397838 0.562836 -0.579092 0.398234 -0.782994 0.394996 -0.775457 0.466982 -0.511649
TATATT -0.629485 -0.003608 -0.110750 -0.210537 -0.216703 0.179329 0.784680 -0.598600 0.205648 -1.136822 0.390189 -0.465193 0.471395 -0.071402 -0.117213 -0.725519 0.985508 -0.715113 -0.760942 -0.529725 0.287147 0.788831 -0.503992 1.261466 -0.486791 -0.393859 1.053109 -0.530468 0.133324 0.823166 -0.626862 0.559516 -0.164167 -1.354960 -0.043814 -0.096023 -0.518912 -0.097875 1.081321 0.537924 0.216337 1.171567 -0.718570 -0.034724 0.750173 0.154726 0.375706 -0.700398 0.896191 0.242627
TGCATT 0.071627 -0.581136 -0.844435 -1.393475 0.704655 -0.479035 -0.113418 -0.246722 1.821897 -0.170265 1.690198 0.155127 -0.098178 -1.287720 -0.882907 -1.294751 1.355349 -0.854348 0.076695 0.637481 -0.225484 -0.319515 0.965543 0.444541 -1.069312 0.570786 0.345625 -0.978979 -0.396835 -0.313971 0.992472 -0.224288 -0.297764 -1.344640 1.042431 -0.265952 0.375224 -0.182737 0.217807 0.576501 0.474483 0.143409 0.465116 -0.198079 0.758151 0.531637 0.460389 0.308544 0.892999 0.248758
TTGAAA 0.196919 1.502716 -0.578051 -0.975612 -0.006152 -0.202321 0.683738 -0.330707 -0.191799 0.327373 2.159591 -0.487242 -0.082806 -0.936529 -0.270632 0.104641 -0.359493 -0.573600 0.352980 0.320530 -1.243913 -0.044533 -0.756084 0.564300 -0.550342 1.319683 0.489882 0.737458 0.548507 -0.785430 -1.036039 0.306961 -1.431075 -0.849817 -0.859048 -0.615185 -0.565890 -0.353829 -0.563669 -0.798244 -0.548057 -0.010219 -0.847950 0.074675 1.123569 -0.565738 -0.712219 -0.465674 0.167677 0.077779
AACTTT 0.500885 0.096650 -0.199022 -0.695232 0.697807 -0.311042 0.679292 -0.711977 0.160550 0.869034 0.612033 -0.305628 0.072924 -0.740045 -0.407477 0.168480 -0.233479 -0.278536 -0.858574 0.127586 0.967972 0.195264 -0.673965 -0.336443 -0.363505 -0.304137 -0.416674 -1.091723 0.233466 1.206000 0.610871 0.487444 -0.611301 -0.242157 0.589883 0.761558 0.935447 0.819126 -0.430183 -0.204302 -1.457653 -0.471824 -0.345366 1.303764 0.936526 -0.120733 2.054974 -0.644233 0.366735 1.175007
TATAAA -0.415020 1.003494 0.432444 -0.993511 -0.165446 0.482088 1.226301 -0.589939 1.004732 -0.688257 0.566786 -0.462481 -0.372212 0.440869 -0.497293 -0.448200 1.065364 -0.243056 -0.795269 -0.649480 0.698180 0.748695 -0.098436 0.298460 0.277703 -0.586021 0.339466 0.367438 0.709370 0.783600 -0.895462 1.009796 -0.550359 -1.079903 0.069043 -0.438096 -0.195326 -0.072973 1.147717 -0.029537 0.289109 0.862684 -0.680769 0.256315 0.327275 -0.164309 -0.378253 -0.418631 1.145424 0.681743
TTCATT -1.165597 -0.340425 -0.783874 -0.818367 0.908232 -0.104961 -0.077643 -0.585319 0.441253 0.164761 0.376794 0.261850 -0.798190 -1.492932 -0.121339 -0.811717 1.096559 -1.565243 0.598841 -0.536563 0.482724 -0.169913 -0.666516 0.691638 -0.721286 0.592687 0.958882 -0.943882 -0.379099 -0.360738 0.031095 -0.001151 0.524865 -0.410462 0.551479 0.647422 -0.277043 -0.588861 0.461428 -0.741613 -0.187666 0.197225 -0.288643 1.045570 0.808120 0.673251 1.574309 -0.675961 -0.035572 -0.370473
ATGCAT 0.885977 0.006812 0.039894 -1.107722 0.536209 -0.377249 0.047930 0.245195 1.791969 -1.116800 1.149117 0.009231 -0.539497 -0.451106 -1.057386 -0.899469 0.918553 -0.399450 -0.354359 0.499759 0.585755 0.350483 0.908711 1.053669 -0.535702 1.121893 -0.018052 -0.490935 -0.236713 -0.424950 0.803375 0.424197 -1.118957 -1.138759 1.962401 -0.462953 0.502921 -0.431686 -0.073467 0.176115 1.114692 0.239007 -0.045374 -0.563790 0.517584 1.061381 0.273499 -0.091903 1.140888 -0.130360
AAAGAA 0.103218 0.233757 -0.810071 -0.878636 0.021622 0.338522 1.183385 -0.653581 1.327228 -0.587073 0.658573 0.324311 -1.183336 0.166261 0.011977 -0.092950 0.687612 0.412397 -0.608440 -0.519173 1.032102 0.793463 -0.414700 -0.475543 0.267628 -0.043601 -0.198161 0.729479 0.790929 0.761364 -0.138854 1.716526 -0.092614 0.377188 -0.201655 0.436672 0.141859 0.519820 -0.032893 -0.492517 0.102410 -0.301490 0.290942 0.471920 0.100350 -1.122574 -0.005833 0.262026 0.589735 0.263857
AAATAT -0.888611 0.620972 0.781509 -1.056269 0.073515 0.024554 0.545297 -0.995708 0.029757 -0.807176 1.282339 -0.824862 -0.649055 -0.050667 -0.562451 0.285760 0.338362 0.426775 -0.066139 -0.452355 1.027487 0.250375 -0.573504 0.606700 -0.336764 -0.537112 -0.020079 0.330779 0.266046 -0.171430 0.257370 1.104402 -1.179011 -0.124787 0.091780 0.093193 -0.455938 -0.224172 1.131267 0.206840 0.088846 0.791465 -0.739963 -0.412669 0.348470 -0.605287 0.070090 -0.458579 0.866385 0.465807
TTACAT 0.431536 -1.011552 -0.719026 -0.439528 0.198925 -0.423791 0.732884 0.861722 0.345320 -0.203829 1.169019 -0.970022 1.244661 0.301911 -0.311237 -0.466681 0.500938 -0.171328 -0.592516 -1.523205 0.112553 1.757650 -0.595495 1.601599 -0.491977 0.113295 -0.366586 -0.798063 0.450790 0.087431 0.083809 0.531359 -0.336528 0.479366 0.809231 0.577445 -0.084178 -0.926930 0.444422 0.685731 -0.873097 -0.833703 -0.307801 0.686227 0.029844 -0.757577 -0.950676 -1.290035 -0.040884 1.102353
CAAAAA 0.045042 0.531243 -0.552890 -0.306756 0.081214 -0.037765 -0.257513 -0.340381 0.109849 -0.582488 1.232823 -0.004845 -2.219213 -0.735985 0.272743 0.614048 0.445679 1.114297 0.306933 0.308826 0.885275 0.198494 -1.246205 0.137645 -0.014903 0.475621 -0.708119 -0.133902 0.911691 0.423371 -0.434916 0.951290 -0.219414 0.456559 0.526974 0.250071 0.516873 0.309635 0.399331 -0.424331 -0.634029 0.402377 -0.416005 1.089659 0.661799 -0.499280 0.307232 0.154110 -0.012168 0.661836
TGCATA 1.015742 -0.637173 0.728512 0.026684 -0.305665 -0.179239 -0.391323 -0.315700 1.498216 -1.546644 1.273871 -0.088408 0.158119 -0.829376 -1.122622 -0.904113 1.361240 -0.697580 -0.551848 -0.082536 0.269144 0.008934 0.713848 1.097132 -0.163328 0.561348 -0.113017 -0.088333 -0.004226 -0.884931 -0.044273 0.345771 -0.465065 -1.249605 1.512898 0.372891 0.800593 -0.616857 -0.327526 0.324094 0.098746 0.700277 0.379808 -0.329938 0.930378 1.010685 -0.334259 0.510828 1.508887 0.433692
TTCAAT 0.054456 0.117480 -0.411414 0.807371 0.833703 -0.213799 -1.078773 -0.424498 -0.158648 -1.171039 -0.117702 0.716965 -0.334815 -0.378528 -0.466708 -0.469117 0.117776 -0.813239 0.220168 -0.029747 0.830068 -0.444901 -1.511632 0.501503 -0.875157 0.533811 0.076646 0.029735 0.686303 -0.482392 -0.358045 1.471684 0.235016 -0.888631 0.036319 -0.405304 0.514960 -1.021974 -0.188137 -0.490979 -0.652544 -0.069547 -1.475322 2.018164 0.127336 -0.322045 1.454998 -0.747986 -0.119139 -0.194553
TTTTTC -0.119344 -0.575413 -0.085833 -0.989445 -0.593570 -0.291622 0.215289 -0.239100 0.031494 -0.022398 1.336048 -0.104123 0.259239 -0.635249 0.603536 -0.365617 0.817300 -0.663818 0.270670 -1.318834 0.766552 -0.665157 -0.587804 -0.185599 -0.230894 0.286484 -0.322453 -1.007040 -0.258367 -0.539979 -0.024815 0.156583 0.275142 -1.156879 -0.205871 -0.150442 0.130976 0.469258 -0.106702 0.147156 -0.131091 0.681796 -0.603980 0.298870 -0.509504 -0.342230 0.559236 -0.796714 0.307899 -0.834921
TCATAT -0.758688 -0.511569 0.320473 -0.279116 -0.351919 -1.313053 0.097930 0.034709 0.567043 -1.170664 0.872235 -0.176027 1.008471 0.363050 0.518147 0.382519 0.271075 -1.140047 -0.716932 -0.057699 0.165028 0.319559 -0.285638 0.685210 -0.324438 0.030816 -1.868839 -0.632402 -1.021900 -0.285160 0.048644 0.085069 -0.570629 -0.886406 0.492962 1.221743 0.340651 -0.206671 -0.155762 -0.832670 0.483443 0.330325 0.220265 0.134715 0.344687 -2.113181 0.402417 -0.625249 0.859666 -0.503228
ATATTA -0.207854 -0.183075 -0.377881 -0.179860 0.260404 -0.501197 0.560922 -0.359880 0.606660 -0.834740 1.253578 -0.573690 0.527250 0.309241 -0.495080 0.072872 0.062433 -0.673649 -1.285033 -0.071720 0.253901 0.624891 -0.600404 0.766126 -0.999603 -0.553027 -0.781723 0.328676 -0.509154 -0.460713 0.540587 -0.029839 -0.660672 0.134249 0.199739 0.699603 0.119383 -0.971800 0.099440 0.390227 0.531067 -0.403558 -0.129338 1.025120 0.488741 -1.753764 -0.065694 -0.439121 -0.391095 -0.300891
CATATT -0.413538 0.561648 1.143824 0.084267 -0.019829 -0.175626 -0.013568 -0.531787 0.685187 -1.028096 1.112300 0.098296 -0.259453 -0.830867 -0.565249 0.651300 1.553320 -0.792581 -0.781104 -1.679041 0.218431 0.955708 0.355536 1.363498 -0.606777 -0.597105 0.279757 -0.247074 -0.187412 -0.869518 -0.901321 0.008750 0.307945 -0.297428 1.186572 0.303389 -0.078752 -0.408150 0.268105 -0.079344 -0.406536 0.863909 -0.522292 0.121440 1.787256 0.880855 0.385763 -0.603731 0.411663 0.287947
TTATTA -0.310359 -0.534312 -0.514129 -1.027956 0.427928 -0.220922 1.193526 -0.529839 -0.123529 -0.146612 1.644232 -0.292070 -0.027427 -0.428652 -0.829287 -0.169359 0.692334 -0.448263 -1.292112 -0.182891 0.621643 0.614847 -0.176963 0.770778 -0.888815 -1.041010 -0.033079 -0.059837 -0.601999 -0.020126 0.940672 -0.466688 0.149635 -0.065486 -0.573207 0.354096 -0.579267 -1.310642 0.318507 0.485447 0.066819 -0.725482 -0.430167 1.094020 0.120980 -0.553164 0.048015 -0.581344 -0.475091 -0.375384
TTGCAT 0.660031 -0.730103 -0.186405 -0.181783 0.562754 -0.394407 -0.089039 -0.525283 1.670898 -1.120162 1.891542 0.029292 0.565287 -1.347708 -0.718898 -0.901726 0.661098 -1.144797 -0.113570 0.058870 -0.489926 -0.046980 0.455408 0.280018 -0.680247 0.853895 0.630438 -0.742031 -0.186342 -0.606301 0.624545 -0.515601 -0.519820 -0.880491 1.417601 -0.234595 0.331210 -0.202673 -1.174074 0.735313 -0.235993 0.890034 0.245329 0.082385 0.710147 0.988932 -0.167188 -0.352028 1.924377 0.681822
TTTTCT 0.275801 -0.892787 0.117293 -0.953165 0.006739 -0.153190 -0.083415 -0.338186 0.682930 0.726190 1.130058 -0.626771 0.294838 -0.887939 0.325245 -0.324947 0.151317 -0.862504 0.343954 -0.863521 0.909456 -0.169124 -0.592146 -0.474729 -0.127966 -0.162121 -0.347600 -0.522579 -0.058872 -0.293957 -0.326552 -0.029812 0.162966 -1.376625 -0.231656 0.474616 -0.070513 0.511520 0.059958 0.336543 0.069135 0.690910 -0.283828 0.847488 0.165354 0.167892 0.694992 -1.098011 -0.072123 -0.030538
AATGAA 0.310176 1.179636 -0.290303 -0.900285 -0.090013 -0.040752 1.059984 -0.975649 1.090068 -0.521610 -0.149891 0.845988 0.086051 -0.278550 -1.665837 0.369426 0.947537 0.634821 0.036323 0.606220 -0.100539 0.307447 -0.718513 0.425999 0.239950 0.883810 0.150247 1.222384 0.704442 -0.320658 0.415679 1.517301 -0.551197 -0.204278 -0.539276 0.451276 -0.395619 0.379640 -0.630741 0.393183 -0.086955 0.871190 -0.699423 0.595073 0.885813 -1.343089 0.867708 -0.479055 -0.479530 -0.217915
ACATTT -0.229066 -0.225269 -0.776396 0.064221 0.755086 -0.504601 0.341443 1.454768 0.363869 -1.013062 0.495728 -0.531770 0.772912 -0.287190 0.421307 -1.148409 0.765979 0.693045 -0.257602 -1.600882 0.345089 0.906669 -0.540328 1.100552 -1.416970 0.614429 1.328076 -0.866625 -0.049444 0.997550 -0.731723 0.673885 -0.330394 -0.456287 0.025662 -0.555396 0.040865 -0.838384 0.352731 0.456136 -0.157151 -0.037663 -0.020126 0.412142 0.142772 -0.757543 -0.416176 -1.092188 -0.595156 0.977297
ATTCTT -0.918543 -0.427230 -1.073657 -0.402563 -0.695791 0.033905 -0.398479 -0.960966 -0.586076 -0.814849 1.508314 0.075676 0.679248 -0.206278 0.423586 -0.482338 0.986250 -1.396227 -0.863313 0.103589 1.384866 0.424729 -0.827024 0.437716 -0.664772 0.699469 0.144010 -0.083486 -0.373735 0.693879 -0.683697 0.160647 -0.606939 0.236432 -0.581213 0.433094 0.100081 -0.695435 0.410262 0.929286 -0.046878 0.687100 0.011504 0.620105 -0.696911 0.114216 0.526369 -0.556140 0.287043 -1.657011
CATTAT -0.641903 -0.153141 -0.694164 -1.537817 0.798614 -0.818394 0.731865 -0.515040 0.606939 0.075740 0.982982 0.271555 -1.117747 -0.985986 -0.413922 -0.665909 1.303395 -0.680848 -0.128408 0.494611 0.075051 0.547561 -0.021933 1.167051 -0.805833 -1.086505 -0.122078 -0.489081 -0.889718 -0.302487 1.325569 -0.620939 -0.052010 0.035672 0.639034 0.530014 -0.147998 -1.450874 0.150487 -0.224460 0.517664 -0.059279 -0.254089 0.856267 0.743459 0.458058 0.347853 -0.663636 -0.628572 -0.435760
ATGAAA 0.807223 1.274153 -1.229788 -0.676682 -0.603557 -0.855375 1.357443 -0.247063 0.766884 -0.345742 1.823779 -1.011047 -0.486718 -0.440447 0.059711 1.375478 -0.445722 -0.518928 0.060458 -0.059232 0.185424 0.493118 -0.521419 0.395175 0.524266 0.776283 -0.076514 0.365095 0.118344 -0.537737 -0.023633 0.565069 -1.746064 0.192697 0.585515 -0.466297 -1.286780 -0.163316 -0.409609 -1.132070 0.240653 0.437917 0.250025 -0.342335 0.448530 -0.406656 -0.449116 0.000818 0.464419 -0.329102
CAATTT 0.356374 0.101737 -0.253012 0.540628 1.009993 0.179247 -0.966245 -0.005331 0.623429 -1.148537 0.158269 0.613904 0.205532 -0.004484 0.037522 -1.024939 0.410879 0.456080 0.261636 -0.847176 0.259620 -0.201260 -1.254081 1.281512 -1.208857 0.087162 1.279044 -0.233294 0.312981 0.529882 -0.431095 1.381831 0.775813 -1.057563 -0.185554 -0.828047 0.699233 -0.478135 -0.057847 0.360615 -0.492184 -0.569743 -1.418785 0.699028 0.985625 -0.731410 0.744475 -0.681427 -0.334079 0.012453
ATATAA 0.613060 -0.636653 -0.256783 -0.197673 -0.495022 -0.831924 0.534827 0.215848 0.239503 -1.396184 0.878420 -0.161089 0.367901 0.808171 -0.278565 -0.008106 0.114268 -0.424614 -0.613727 -0.181802 0.406548 0.565287 0.738580 0.267283 -0.457482 0.008463 -0.956779 0.585887 0.006192 0.154197 -0.623592 0.403324 -0.706212 -0.656482 0.729138 0.934025 0.169257 -0.572299 -0.234005 -0.212172 0.506730 0.654633 0.580081 1.242371 0.748139 -1.985724 0.057326 0.166633 -0.248850 -0.018549
GTTTAT -0.420399 -0.574212 -0.801000 -0.653087 -0.739608 -0.823959 0.768602 -0.642022 0.712785 -0.570082 1.395036 -0.212379 -0.650663 -0.684631 -1.738318 0.134781 -0.622622 -0.259667 -0.489721 -0.091201 0.490317 0.601862 -0.049124 0.021519 -0.834244 -0.349228 -0.194014 -0.681169 -0.507873 -0.253596 0.515296 -0.753908 0.146175 -0.397906 -1.323739 0.444581 -0.664010 -1.310706 0.576024 -0.570084 0.223160 -0.284466 -0.096544 1.161041 0.285360 -0.177685 -0.357714 -0.807446 -0.182651 -0.404582
TTTCAA -0.728589 0.042015 0.014167 -0.878541 -0.407921 -0.918583 0.389267 0.089192 -0.025686 -0.537831 1.039329 0.664126 -0.068742 -0.328811 0.623936 0.858913 0.039945 0.463709 0.057014 -0.500022 0.310292 -1.296682 -0.594930 -0.398677 -0.069752 0.927164 0.708635 -0.310360 -0.144652 0.071532 0.169178 0.276369 0.715016 -1.447710 -0.245294 -0.168119 -0.835746 -0.298543 0.695308 -0.421968 -0.244706 0.178903 -1.336655 0.117241 0.610903 -1.861610 0.286123 -1.361257 1.297879 0.932056
TTAATT -0.236481 -0.387961 -1.333774 -0.818750 0.043781 0.443288 0.515259 -0.038354 -0.186690 -0.935289 1.166036 -0.115389 0.199524 -0.442862 -0.485727 -0.705111 0.890635 -0.496786 -0.695807 0.420512 0.614430 0.497485 -0.573487 0.700595 -0.840013 -0.396824 0.848664 -0.087874 -0.886314 0.703595 0.216328 -0.226858 0.056705 -0.479596 -0.139675 0.170268 -0.364639 -0.591150 -0.072409 0.541547 0.022915 -0.344716 -0.062775 0.803712 0.558915 -0.835224 0.763408 -0.922438 -0.061933 -0.319497
ATTTTC -0.492021 0.056948 -0.617426 -0.295001 -0.126741 -0.517969 -0.181613 0.694204 0.470805 -1.370476 0.286246 0.112078 0.634256 -0.286695 1.264420 -0.334216 0.309146 0.040628 0.519435 -1.565883 0.127715 -0.307593 -0.448405 0.982091 -0.866680 0.275020 0.878998 -0.239148 -1.013908 0.608506 -0.614154 0.551280 1.054268 -1.203441 -0.749312 -0.295909 -0.707850 0.467223 0.068847 0.127887 -0.022171 0.091096 -0.571588 -0.086788 0.542111 -1.260897 1.185294 -0.788858 0.668481 0.557762
ATTATT -0.507686 -0.068172 -1.302347 0.277927 0.127734 0.304208 -0.024044 -0.414716 0.378544 -1.425938 0.603134 -0.740475 0.744203 0.499638 0.584701 -0.722322 0.424586 -0.674602 0.028518 0.284096 0.104500 0.779001 -1.145492 0.993058 -1.078724 0.055642 0.984540 -0.689677 -0.479311 1.335801 0.179558 0.554636 -0.223807 -0.759863 -0.333391 0.128259 -0.413179 -0.510719 0.093768 1.020621 0.228345 0.138404 -0.136558 -0.072850 0.712469 -0.913133 0.763481 -0.221494 0.056410 0.183046
AAATTT -0.017407 0.004619 0.281083 -1.363505 -0.367780 0.029446 0.370248 -1.000943 0.796511 -0.288787 1.719730 -0.806854 -0.523722 -0.436252 0.173875 -0.086474 0.410837 0.554866 0.700529 -1.246233 0.811497 -0.799402 -0.944827 -0.395055 0.359889 0.450281 0.291941 0.125644 -0.251435 -0.223860 -0.038435 1.344645 -0.247504 -0.466243 -0.377456 0.320989 -0.859323 0.215922 0.274232 -0.316995 0.024663 0.642091 -0.319361 -0.233664 -0.227527 -0.867716 0.213868 -0.490221 0.719933 -0.067135
AACAAA 0.316027 0.475988 -0.560635 -0.979283 -0.233711 -0.752567 1.641536 -0.691276 0.410205 -0.181830 0.406400 0.626828 -0.835150 0.153803 0.474430 0.021328 0.450733 -0.053303 -0.113439 0.347534 0.569624 -0.447718 -0.454256 0.027862 -0.114842 0.584930 0.133183 1.354104 1.446590 0.035144 0.040154 0.575084 -0.205869 -0.003467 0.827942 0.059200 -0.101554 0.062972 0.234754 -0.569879 -0.432164 -0.287666 -0.475709 0.815913 0.868087 -0.629881 0.571337 -0.287631 0.043423 1.072478
ATATAT -0.602434 0.115091 0.555934 -0.014544 0.039171 -0.643740 -0.031944 -0.511404 0.273581 -1.389368 0.349776 -0.486938 0.533423 0.338493 -0.922249 0.490069 -0.163775 -0.242373 -0.550313 -0.482848 0.800985 1.358804 0.424826 0.959358 -1.502187 -0.246195 -1.029262 -0.141829 -0.228801 -0.853876 -0.243711 -0.041504 -1.413086 -0.385840 0.674408 0.452438 0.112229 -0.376869 0.874139 -0.145492 0.047543 0.786560 0.156738 0.562746 0.380710 -1.381437 0.680162 -0.502046 0.339580 -0.245093
AAGTTT -0.416551 0.252536 -0.641789 -0.107855 -0.854004 -0.351790 0.368447 -0.228572 1.179540 -0.416304 1.821207 1.085349 -0.244192 -0.720974 -1.041912 0.606232 -0.768240 0.016005 -0.987317 -0.557491 0.805175 -0.099657 -0.812836 -0.720727 -0.530184 0.874001 0.841480 -0.365419 -0.076910 -0.281594 0.109588 -0.567563 0.323762 -0.660174 -1.561236 0.494142 0.123646 -0.297631 -0.186677 -1.022959 -0.222038 -0.521308 0.110462 0.219903 1.893654 -0.542917 -0.221357 0.383318 0.317823 0.173969
AGTTTT 0.150430 -1.710349 0.415878 0.050070 -0.195584 0.436484 1.564792 -0.003487 0.831110 0.060919 1.092539 -1.220464 0.352033 0.033128 0.293400 -0.203835 0.750308 -0.353434 -0.166306 -1.003452 1.331129 -1.316719 -0.600323 -0.942461 -0.784075 -0.198198 0.379902 -0.524445 0.111902 -1.218857 -1.086517 0.572427 0.365970 -0.390171 0.045039 0.366431 -0.303119 0.252537 -0.449220 0.730616 -0.094990 0.595047 -0.468700 0.740428 -0.154677 -0.236650 0.147827 -1.043411 0.214990 -0.265560
TATACA 0.065255 0.849811 1.264496 0.408298 -0.138954 0.523965 0.955399 -0.062102 1.017090 -0.675115 0.404049 0.060055 -1.087063 -0.006305 -0.127336 -0.559653 0.686455 -0.295372 -0.094638 -0.711218 0.465927 1.056417 -2.006267 1.133696 -0.374504 -0.396418 0.514177 -0.537941 0.417306 0.086723 -0.235256 -0.059370 -0.640476 -1.069300 1.278125 0.864166 0.339847 0.357255 1.965152 0.669515 0.154333 0.548306 -0.417397 0.791890 0.370599 0.244644 0.026421 0.526189 -0.172122 0.765175
ATACTT -0.224388 0.040432 0.834071 -0.394464 -0.209719 0.302427 -0.922643 -0.219933 0.664463 -1.346162 1.522745 -0.878326 0.842794 -0.423654 0.158626 -0.434492 0.346499 -0.455896 -1.270419 -0.769856 0.427637 -0.333251 -0.416546 0.416915 -0.053465 -0.610789 -0.549698 0.368263 0.304442 -0.235160 0.418536 0.189225 -0.256050 -1.612592 0.615289 0.531277 0.258326 -1.058263 -1.124625 -0.895129 -0.546936 0.373828 0.207578 1.417010 -0.707509 -0.967439 -0.914945 -1.034438 -0.563806 0.239481
ATTTTA 0.133759 -0.163937 -0.886262 -0.347596 0.608264 -0.004264 0.877961 -0.127717 0.528720 -1.126859 0.555642 -0.549867 0.662603 -0.135012 0.336385 -0.665442 0.619045 -0.390895 -0.864209 -0.527888 0.600750 0.550405 -0.600568 1.241668 -1.199362 -0.431996 0.496757 -0.054046 -0.811426 0.527053 0.468629 0.206469 0.363044 -0.278156 -0.607543 -0.111144 -0.541740 -0.547624 0.010176 0.647769 0.145542 -0.730041 -0.919108 0.202047 0.519470 -0.968380 0.508715 -0.643975 -0.498799 -0.201590
AATGCA 0.787202 0.180103 -0.052817 -1.023608 0.968532 -0.045537 0.006704 -0.076720 1.356635 -1.325063 1.226906 0.712383 -0.867002 -0.242742 -1.720563 -0.451560 0.308606 -0.137308 -0.218390 1.287658 0.723486 -0.047228 1.001061 0.297092 -0.051306 0.949485 -0.185318 0.164780 0.259064 -0.411805 0.215226 2.213513 -1.240357 -0.879914 1.491728 -0.860785 0.062437 0.386250 -0.002661 0.625029 0.696100 -0.571712 -0.188312 -0.232019 0.580203 0.648007 0.583470 0.224305 -0.014963 -0.290958
ATATCA -0.824967 0.490123 0.691653 0.185044 -0.141252 -1.645443 -0.351416 -0.550857 0.590286 -0.781000 0.912226 -0.551106 -0.840408 0.197005 -0.063368 0.555611 0.562987 -0.070116 0.461745 -0.382403 0.046222 0.922418 -0.875803 -0.004384 -0.679186 -0.446390 -0.808396 -0.542162 -0.255805 -1.112703 0.053694 1.230110 0.490133 -0.701455 1.088575 0.205134 1.338082 -1.600548 -0.147856 -0.985998 1.210467 -0.162589 -0.057346 0.589655 1.235909 -0.966989 0.078253 0.213105 -0.254718 0.157297
ATAATT -0.547165 -0.110074 -1.283623 -0.062349 -0.316190 -0.327446 0.149138 -0.431588 0.568320 -1.271901 0.011243 -0.054647 0.832980 0.044435 0.965159 -0.721720 -0.059150 -0.358958 -0.921255 -0.211427 -0.337575 0.403138 -0.198577 0.902707 -1.679340 0.041276 -0.124576 -0.254811 0.268121 0.635419 -0.383923 0.571493 -0.453779 -0.297432 0.249200 1.185993 0.292193 -0.324054 0.073478 0.491009 0.345715 -0.091308 -0.210750 0.500647 0.777233 -1.150151 0.721121 -0.200545 -0.204087 -0.182379
TATCAT -0.808614 0.067672 0.499381 0.266675 -0.366078 -1.430074 1.101850 0.054276 0.099555 -1.116520 0.721571 -0.078335 0.764230 0.827789 0.862928 0.157289 0.282385 -1.311971 -0.061243 0.117769 0.901745 1.389668 -0.656432 0.939102 -0.098157 -0.338248 -0.150093 -1.529952 -0.309447 -0.076233 0.697362 0.422924 -0.539736 -1.176013 -0.019948 0.601545 0.734768 0.290397 0.042203 -0.216777 -0.197171 0.223868 -0.312737 -0.969925 -0.015027 -1.333094 0.890264 -0.220838 1.285836 -0.655388
CTTTAT 0.436394 -0.439720 -0.856791 -0.974572 0.985636 -0.619318 1.223425 -0.635350 -0.380618 0.912551 0.752906 -0.026912 0.389593 -0.926008 -0.776653 -0.203270 -0.336425 -0.434024 -0.661676 -0.146361 1.366793 0.694243 -0.987740 -0.205458 -0.836302 -1.357450 -0.974541 -0.481065 -0.933533 0.271339 1.104256 0.088961 -0.525699 -0.337131 -0.079960 0.215614 0.017429 -1.118079 -0.393296 -0.160332 -0.185388 0.034755 -0.217825 1.469893 0.133174 0.616381 0.803289 -0.583895 0.038958 0.176421
ATATGT 0.468173 -0.434936 0.168731 0.868130 -1.711381 0.485998 -0.048355 0.450681 1.102139 -1.328762 0.690282 -0.882886 -0.267470 0.684048 -0.207932 -0.601677 -0.780482 -0.500987 -0.742505 -0.288534 -0.073778 0.610340 -0.163157 0.476964 -0.858755 0.301654 -1.427278 0.125336 -0.441227 -0.547436 0.306170 -0.253137 -0.759579 -0.163478 0.583098 0.110708 0.308836 -0.706125 0.650538 -1.655717 0.850087 0.694238 -0.999640 0.587318 1.246004 -0.392021 -0.022635 -0.523637 0.225874 0.128725
TATGCA 0.207091 -0.357402 0.525537 -0.301175 1.210990 -0.303862 0.025238 0.161443 1.585468 -1.780449 1.056260 -0.054896 0.045420 0.209282 -1.242606 -0.947097 -0.020245 0.396791 -0.613446 0.955920 1.172767 0.332599 0.628973 0.610570 -1.155480 -0.071005 0.103764 -0.007030 -0.293120 -0.159360 0.352220 0.455600 -1.796352 -1.087298 1.448514 -1.020941 0.431680 0.088432 0.688071 0.128044 1.251595 0.074287 0.048807 -0.140549 0.046169 0.528336 0.990678 0.218610 0.855039 -0.147906
TTAAAA 0.007163 0.257110 -0.951475 -1.584720 0.343256 0.496443 0.912263 -0.393729 0.797728 -0.340979 1.441825 -0.245801 -0.547287 -0.549942 -0.711841 -0.384088 0.908336 -0.370238 -0.790262 0.153561 1.315779 0.559077 -0.393055 0.015247 -0.001616 -0.619743 0.249631 0.683353 -0.298636 0.506085 0.318487 0.474535 -0.277959 0.294869 -0.411126 -0.313318 -0.044166 -0.756978 0.174758 -0.189117 0.195146 -0.566345 0.015364 0.781899 -0.309579 -1.093287 -0.154487 -0.497695 0.372998 0.501659
TCAAAA -0.594597 0.159423 -0.311053 -1.628951 -0.040929 -0.852680 0.842611 -0.639807 0.646585 -0.353189 0.583986 0.469937 0.219693 0.670747 0.479043 0.343923 0.945497 -0.261953 -0.295887 0.745764 0.733815 -0.509817 -0.632877 -0.386264 0.452909 0.718875 0.738202 0.630994 -0.150064 1.327851 -0.004128 0.774797 -0.477913 -0.780835 -0.613554 -0.054901 -0.076539 -0.004592 0.685107 -0.627371 0.329255 0.573476 -1.179299 -0.501026 0.062673 -1.842755 -0.424518 -0.666302 1.698450 0.945187
ATAGAA 0.473468 0.432439 0.818178 -0.522467 0.721152 -0.912554 1.331423 -1.106656 0.304094 -0.905774 0.444755 -0.708727 -0.376181 0.216501 0.446626 0.198631 -0.208805 0.160387 -0.578501 -0.034060 0.720656 -0.729200 1.278144 0.947239 -0.270005 0.784303 -0.540777 -0.352172 -0.485878 -0.441884 0.542863 1.085847 -0.879085 0.389946 0.256420 1.627825 -0.727135 -0.685720 -0.091316 0.615233 -0.449930 -0.013010 -0.233343 1.525016 1.275893 -0.475717 -0.573401 0.402545 0.461355 -0.247771
TTTAAA -0.511658 -0.055533 0.018521 -1.405746 0.258278 0.590418 0.333989 -0.647178 0.876582 0.227261 1.634662 -0.513764 -0.546775 -0.059025 -0.420504 -0.620611 0.163642 -0.175409 -0.522960 -0.782807 1.350297 -0.379204 -0.016282 -0.581342 0.489860 0.305753 0.914296 -0.311170 -0.076788 0.406342 -0.170048 0.572570 -0.559809 -0.057630 -0.227996 0.354786 0.125470 -0.226999 0.235558 -0.383989 0.686936 0.563090 0.283745 1.032169 -0.398415 -1.189587 0.281525 -0.280104 0.858211 0.431961
TTTGAA 0.245770 0.191926 0.380773 -0.570372 -0.438479 0.295375 0.452144 -1.007349 0.649878 -0.129758 0.712717 -0.381217 1.179312 -1.308707 -1.478765 0.332409 0.664381 0.728784 0.042009 -0.692866 0.157615 -0.301527 -1.469693 0.213252 -0.309139 0.256860 0.210065 0.885806 -0.048624 0.504950 0.120788 0.857501 -0.467873 -0.012612 -0.736664 0.695114 -0.417476 1.165891 -0.841874 0.405797 -0.853748 1.806822 -0.214602 0.499212 0.432756 -0.630440 1.327625 -0.258305 0.335125 0.168562
ATAAAT -0.106731 -0.294907 -0.750980 -0.864630 -0.268573 -0.790047 0.663316 -0.422613 0.298663 -1.149974 0.085413 0.227957 0.563056 -0.082217 0.671413 -0.311328 -0.681277 0.303284 -0.761054 -0.069446 0.087334 0.529151 -0.152876 1.119673 -0.554192 0.347518 -0.835716 -0.007122 0.948225 -0.883361 0.064914 0.901936 -0.674294 0.013142 0.383296 1.236808 0.259613 0.171102 0.286748 0.210452 0.402316 0.094579 -0.585257 0.788970 0.579008 -1.058459 0.687810 -0.085349 -0.289290 -0.233027
ATCTTT 0.526460 -1.103433 0.161173 -0.063444 -0.055198 -1.020944 0.249494 -0.459980 -0.058690 0.421796 0.828647 -1.499635 -0.006114 -1.111700 -0.427419 -0.026678 -0.381920 -0.550917 -0.494451 -0.714174 0.591893 0.946098 -1.972846 0.091879 0.040417 -0.906125 -0.114971 0.297320 -0.698449 0.412808 0.542238 0.553064 0.000504 0.055534 -0.455703 -0.071541 1.093482 0.027167 -0.914140 -0.325844 0.663421 0.108308 -0.278654 1.304457 0.167896 0.822561 1.830903 -0.519206 0.356115 0.552484
ATCATT -0.757819 -0.104814 -0.202377 -1.393178 0.544298 -1.100147 0.138934 -0.814813 0.780484 0.008077 1.134926 -0.029164 -0.874135 -0.503512 0.165156 -0.214964 1.506517 -0.999607 1.468989 -0.236265 -0.195545 0.890057 -0.389936 0.119657 -0.221537 -0.193920 0.952536 -1.328151 -0.231968 -0.289001 0.862932 0.350961 0.877246 -0.209263 0.732240 0.000695 0.621245 -1.669646 -0.235655 -0.556775 1.223198 -0.301169 -0.287738 0.470595 1.115963 -0.208347 0.404295 -0.269071 -0.312491 0.160121
TAATAT 0.069231 -0.442183 0.530717 0.034585 -0.501958 -0.499110 0.709154 0.307504 -0.352254 -1.103970 1.057547 -0.100324 0.079555 0.752215 -1.130888 0.119060 0.555684 -0.952589 -0.656768 -0.610467 1.198490 1.077959 0.850148 0.561967 -0.186447 -0.558556 0.177403 -0.216984 0.754631 0.055279 -0.530325 0.554294 0.056699 -1.355635 0.626647 -0.326680 -0.094619 -0.314703 0.357681 0.391124 0.364499 1.487258 -0.438079 0.128354 0.776731 -0.699249 0.671532 -0.128077 -0.051079 -0.131305
TTACTT -0.017998 -0.654251 0.341184 -0.930704 0.802073 0.760470 -0.515464 -0.089117 0.095436 -0.579808 2.100768 -1.065394 1.049166 -0.017208 0.145721 -0.083978 0.176436 -0.636182 -0.701367 -0.615318 0.305912 0.376531 -0.410919 0.570221 -0.284721 -1.006945 0.028895 -0.027375 -0.073233 -0.435670 0.527301 0.024521 0.180198 -0.938198 -0.625641 -0.382968 -0.621570 0.112473 -0.897745 -0.508190 -1.219800 -0.593684 -0.707248 1.353388 -0.579278 -0.960497 -0.134464 -1.546106 -0.737847 0.235055
ATTCAA -1.148607 -0.073280 -1.078699 -0.757136 -0.396772 -1.430602 0.436415 -0.645243 -0.300841 -0.565258 0.638884 0.899610 0.040653 0.207648 0.848395 0.785773 1.316162 -0.350989 -0.231715 1.467019 1.211912 -0.708092 -0.401477 0.118486 -0.521542 0.916168 0.484902 -0.482199 -0.089574 0.983818 0.191299 0.592896 -0.277727 -0.978417 0.479288 0.384483 -0.764497 -1.170688 0.823542 0.107268 0.409430 0.901665 -0.708520 -0.167669 0.382998 -1.071196 -0.217846 -0.931447 0.497528 0.322960
ATTTAA 0.846103 -0.625017 -0.863529 0.222604 0.045639 -0.248274 0.533115 0.476353 0.252858 -1.711127 0.664134 -0.510433 0.288948 0.752256 0.727138 -0.430318 0.404434 -0.626924 -0.142693 -0.273563 0.604094 0.723337 0.337173 0.945414 -0.868933 0.216459 0.780624 0.437986 -0.091445 1.169153 -0.741499 0.728097 0.235694 -0.707137 -0.494015 0.112105 0.053168 -0.008652 -0.711995 0.343850 0.249043 0.457264 -0.521009 0.366220 1.224305 -0.791810 0.755906 -0.107399 -0.721040 0.121597
GTAAATA -0.774048 -0.247870 -0.904233 -0.656781 0.786827 -0.535084 1.386505 0.855902 0.337569 -0.761450 0.017295 -0.374732 -0.489058 0.661137 -0.526228 0.214765 -0.822384 -0.663389 -0.607474 -1.058138 0.854611 0.448249 0.259581 -0.557766 -0.103469 -0.265520 0.000526 0.219764 1.035839 -1.091120 -0.738336 0.371245 -0.706450 -0.238537 0.665180 0.926537 -0.271192 0.035123 0.761093 -0.028831 -0.019439 0.475248 0.040548 0.301193 -0.050546 -0.401978 0.862992 1.152252 0.002928 -0.235763
TTCTAT -1.076695 -0.543394 -0.072602 0.171229 -0.366645 -0.076024 -0.857573 0.013767 1.276969 0.314608 0.401805 -0.607591 0.030262 -0.614455 1.158838 0.080335 -0.619729 -1.422022 -0.360721 -0.506183 1.727396 0.748439 -0.302666 0.775825 -1.505068 -0.127212 0.550331 0.295116 -0.076538 -0.525685 0.049920 0.098924 -0.801040 -0.472577 -0.337122 -0.050508 0.935352 0.429139 0.838253 0.626061 0.578527 0.026201 -0.993194 -0.172839 1.068038 -0.396324 0.880218 -0.707848 -0.464722 1.106645
CAGTTT -0.425931 -1.694136 0.521233 0.372959 0.108641 0.220772 1.167115 0.331285 1.053776 0.483911 1.185904 -0.841177 0.726203 0.366671 0.137868 0.189963 0.799429 -0.061376 -0.203074 -0.249134 1.194483 -2.200318 -1.127461 -0.404033 -0.806233 -0.031016 0.708960 -0.498720 -0.386586 -1.740258 -1.375905 0.737452 -0.033434 0.450307 0.300968 -0.008772 0.283565 0.726217 -0.298001 0.502222 0.196669 0.047548 0.069266 0.516821 0.194790 -0.438906 0.312942 -1.220387 -0.028375 0.633055
ATTGAA -0.828007 0.753031 -0.627647 -0.398408 -0.277901 0.177096 1.071027 -1.196250 0.746087 -0.798483 0.648168 -0.134048 0.410845 -0.709706 -1.345436 -0.448161 1.554471 0.164216 0.957913 0.506851 -0.747464 0.223104 -1.043061 0.375727 -0.565731 -0.028856 0.268622 0.618648 -0.026533 0.989280 1.054022 0.585285 -0.646560 0.342214 0.307752 1.071549 -0.571524 0.140951 -1.034442 0.160489 -0.326631 1.521690 0.518393 0.140059 0.532954 -0.992186 0.985544 0.105197 -0.080182 -0.506599
CTATTT -0.150939 -0.665947 -0.194500 0.016005 0.406001 -0.380506 -0.170588 0.012482 1.112814 -0.277864 0.535986 -0.537134 0.402624 0.190888 1.534449 -0.264169 -0.134153 -1.036495 0.160563 -0.471132 0.901790 1.075088 -0.645798 1.240639 -1.440401 0.143876 0.913689 0.317761 -0.684924 0.072681 -0.227696 -0.087980 -0.084489 -1.350347 -0.931503 -0.000993 0.466776 0.488441 -0.339350 1.651305 0.762694 0.016093 -0.826885 -0.223688 0.901983 -0.280210 0.583811 -0.524258 -0.855629 0.685958
ATATCT 0.340214 -0.431763 0.751659 0.495526 -1.121748 -1.692115 -0.534943 -0.274400 0.132962 -0.736214 0.813710 -1.285328 -0.075116 -0.342007 0.041179 0.041102 -0.370605 -0.586921 -0.839120 -0.527730 -0.304364 0.999959 -1.459689 0.506219 -0.099803 -0.568561 -0.902331 0.767537 -0.392949 -0.734449 -0.083427 0.430184 -0.523831 -0.124181 0.334122 0.352312 1.599116 -0.406656 -0.019272 0.117634 1.166508 0.068897 -0.326695 1.332893 0.435716 0.061181 1.057014 -0.361264 1.003218 0.422802
TGCAAA 0.240984 -0.389194 -0.888446 -0.543166 0.587545 0.185046 -0.735521 -0.615585 1.496004 -1.476285 1.144981 0.106144 0.014434 0.251288 -0.879158 -0.843467 0.005015 0.749559 0.369969 1.093366 0.724154 -0.045647 0.028461 -0.501124 -0.021440 0.355423 -0.217829 -0.081262 0.408204 0.959028 0.230140 1.704130 -1.056719 -0.706520 0.498781 -1.470975 0.770788 0.360641 -0.207533 -0.028769 -0.653885 -0.145747 0.437063 1.300298 -0.403248 -0.327524 -0.539723 0.359376 2.027528 0.315945
TTTATC -0.544770 -0.012229 0.934725 -0.786097 -0.237148 -1.321068 0.764342 -0.462446 -0.475907 0.317983 1.461647 -0.023934 0.423434 0.282778 -0.251639 -0.597463 -0.280359 -0.277005 -0.480930 -0.674615 1.567279 -0.124079 -0.597252 0.326147 -0.091311 -0.188527 1.207376 -1.265977 -0.331701 -0.683511 0.335726 0.081173 -0.271892 -1.081663 -0.231029 -0.036967 1.595094 0.617113 0.608607 -0.419007 0.007614 0.355747 0.030659 -0.194687 -0.587630 -1.268832 1.483366 -0.509259 0.974461 -0.976636
AGCTTT 0.611076 -0.456001 -1.099249 -0.854904 1.056670 0.471175 1.282205 -0.047872 -0.574244 1.189215 0.191003 0.820502 0.466247 -0.463650 0.836400 -0.166614 0.449641 -0.268261 0.401866 -2.179516 0.413366 0.115952 -0.886591 -0.823248 -0.822619 -0.055738 -0.670265 0.980725 -0.632214 -1.041731 0.149226 0.451981 0.325396 -1.547688 -0.126026 -0.310711 -0.257701 -0.541793 -0.709610 0.800208 -0.784774 0.598261 -0.304319 0.468757 -0.042298 -1.195738 0.204902 0.125682 1.344982 0.223727
AGCATT -0.137913 -0.787480 -1.125621 -0.714906 1.396091 0.379859 0.637391 -0.764371 0.704414 0.418261 0.964793 -0.074153 -0.931399 -1.399713 0.944360 -0.032269 2.355884 -0.503362 -0.541661 -0.747351 -1.075632 -0.539033 1.113500 0.343721 -0.532033 0.454914 -0.016765 -0.528715 0.019833 0.158343 0.619727 -0.781362 -0.511434 -0.395564 0.505818 -0.450340 0.750007 -0.856422 0.832194 0.170104 0.509691 0.362038 0.360503 0.014093 1.536066 -0.694551 0.631519 0.517306 0.450111 -0.363347
TACTTT 1.184354 -0.075435 -0.812064 -1.054522 0.985335 0.474492 0.285523 -0.276165 0.278292 0.860949 0.839681 -0.324945 0.921062 -0.692456 -0.809920 0.219593 -0.949482 -0.703613 -0.633571 0.174441 0.640089 0.321092 -2.117820 0.268214 0.234895 -1.002409 0.426314 -1.232182 0.114303 0.553573 0.067650 -0.455899 -0.416545 -1.008390 -0.369032 0.403810 0.341199 -0.014598 0.509412 0.049042 0.182643 0.462579 -0.838015 1.280057 0.582436 0.678428 1.212392 0.385521 0.343603 0.660733
TAAATT 0.044821 -0.467722 -0.982698 -0.035217 0.171653 -0.567098 0.065731 0.024152 0.231325 -1.313080 0.946137 0.223485 0.137893 0.061732 -0.047398 -0.382559 0.614903 -0.929975 -0.242119 0.133792 0.208796 1.208003 -0.304716 0.239837 -0.091881 0.193555 0.212589 -0.285963 0.719031 1.127747 -0.765772 0.472622 0.350171 -0.772886 -0.164520 0.396643 -0.923453 -0.332662 -0.362888 0.339602 0.002273 0.730991 0.321555 0.823378 0.903633 -0.856531 0.599985 0.043393 -0.299839 -0.093745
TTAAAT 0.598182 -0.209945 -1.048301 -1.544914 0.553687 -0.275954 0.747863 -0.127568 -0.453418 -0.704899 1.038035 0.273977 0.025118 -0.601063 -0.686180 -0.536198 0.221531 -0.121437 -1.400097 0.606921 0.638112 0.340756 -0.606308 1.039035 0.040986 -0.006632 0.301857 0.191253 -0.105604 -0.330299 0.227082 -0.092960 -0.079113 0.087566 -0.522698 0.247220 -0.451105 -0.379926 -0.028942 0.086478 0.181283 -0.233673 -0.566241 0.598983 0.569380 -0.975108 0.687275 -0.584557 -0.290001 -0.520911
ATGCAA 0.506294 0.047336 -0.022204 -0.252456 0.519423 -0.085195 -0.329708 0.145587 1.785274 -1.364490 0.541007 0.635156 -0.291103 0.571038 -1.183363 -0.742786 -0.173088 0.647732 -0.090114 1.134221 0.912348 0.029443 0.221243 0.116356 -0.331671 0.625112 -0.051573 0.101846 0.317631 0.670042 0.476645 1.753042 -1.127531 -1.187170 1.420293 -1.656555 0.407292 0.426528 -0.107530 -0.304123 0.290561 -0.982223 0.053206 0.863593 0.255901 0.278917 0.662662 0.196511 1.298273 -0.101371
TGATAT -0.343920 -0.153944 -0.613346 -0.431178 -0.505802 -0.685330 -0.322796 0.152897 1.125723 -0.354516 0.799325 -1.100795 1.349207 0.291084 -1.034736 0.232790 -0.002025 0.716043 -0.532339 -0.003082 -0.406010 0.545226 -0.366414 -0.341645 -1.606614 0.016695 -0.925764 0.473638 -0.488346 -0.748327 0.017255 0.330430 0.182243 -0.120035 0.915027 1.030819 0.701231 -0.344665 0.170657 -0.077740 1.132210 0.973343 0.049002 1.040131 0.386018 -1.914899 0.871963 0.040078 0.072674 -0.606327
GATTTT 0.304898 -0.870594 -0.130029 -1.058637 -0.776159 0.291345 0.533132 -0.161693 -0.723504 1.258718 0.791670 -0.915946 -0.337325 -1.024123 0.356208 -0.624718 0.653528 -0.427714 -0.032006 -0.784313 1.064067 -0.382497 -1.039132 -0.553471 -1.145160 0.867553 0.433082 -0.954932 0.342911 0.110191 -0.012937 -0.022209 -0.185328 -1.684782 1.083308 0.091629 -1.496330 0.405895 -0.691470 -0.377844 0.402671 0.929721 -0.118478 0.009104 -0.146776 -0.188585 -0.012606 -0.159351 -0.365915 -1.353371
AAAATA -0.249664 0.533128 0.120731 -0.851200 0.295223 0.075964 0.563851 -0.579861 0.761181 -0.851366 0.625844 -0.101906 -0.260567 0.721070 -0.607557 -0.223852 0.486428 -0.319233 -0.479721 0.161204 0.923110 0.629412 -0.535569 -0.185822 0.617892 -0.036898 0.754570 0.710800 0.570635 0.674397 -0.359166 1.044509 -0.625721 -0.610585 -0.304031 0.137718 0.203327 -0.050457 0.363007 0.265512 -0.151518 0.892447 0.143095 0.199441 0.639324 -1.054742 -0.098969 0.234754 0.853760 0.742282
GAAAAT 0.013271 1.358424 -0.142428 -1.084044 -0.585138 -0.444684 0.933959 -0.967282 -0.141213 -0.112082 2.155157 -0.965039 -0.918929 -0.665425 -0.290431 0.327179 -0.319230 -0.169938 0.196040 -0.077218 -0.034326 -0.303293 -0.803632 0.454329 0.374507 0.449566 -0.251953 0.645213 0.279986 -0.608568 -0.126658 1.290768 -1.283969 0.102784 -0.481088 -0.752247 -1.196535 -0.362118 0.095430 -0.624767 0.005550 0.098309 0.019138 -0.474588 -0.258629 -0.541302 -0.284610 0.068758 0.686439 -0.122571
TTAATA 0.090327 -0.254823 -0.711174 -1.132831 0.080886 -0.318889 0.712539 -0.258744 0.059200 -0.657833 0.814436 -0.042391 0.135411 -0.398212 -0.708440 -0.595724 0.315493 -0.479469 -1.859147 0.249594 0.455212 0.157957 -0.130652 0.681845 -0.702586 -0.382925 -0.524257 0.442997 0.011387 0.064090 0.015175 -0.071246 -0.250702 -0.226745 -0.065384 0.611391 -0.045380 -1.230644 -0.187211 -0.131136 0.542545 -0.700269 0.153016 1.475377 0.497301 -1.164127 0.096944 -0.386778 -0.465539 -0.407920
TTCTTC -0.279102 -0.301439 -0.403306 0.122530 -0.050983 0.482203 -1.399082 0.050319 0.721880 0.292448 0.124198 0.023619 -0.337087 -1.661421 0.533439 -0.021108 0.342115 -1.367967 -0.300196 -0.607311 1.810545 -0.005483 -0.283670 0.253664 -0.810664 0.281209 0.135525 -0.653203 -0.154048 -0.223125 -0.639441 0.067559 0.092437 0.045614 -0.131680 -0.928819 0.302253 0.039586 0.585670 -0.249444 -0.357995 0.120787 -0.582066 0.345482 0.993136 0.084836 0.715842 -1.116160 -0.269732 0.450071
TTTAAT 0.249788 -0.715903 0.187161 -1.389658 0.332613 0.020307 0.162465 -0.259768 -0.151835 -0.043771 1.518810 0.057820 0.109510 -0.393992 -0.400755 -0.266684 -0.540959 0.020849 -0.677570 -0.202481 0.657358 -0.511784 -0.572680 0.450985 0.503154 0.704425 1.044173 -0.909881 -0.048985 -1.078683 0.181562 0.655037 -0.344207 -0.044519 -0.066615 0.461445 -0.094801 -0.094073 0.036544 0.196333 0.216205 0.537065 -0.295591 0.884098 0.425781 -1.351252 1.294424 -0.521958 -0.010040 -0.424218
ATACAA -0.245850 -0.288086 0.226829 -0.894579 -0.825911 -0.017108 0.378790 0.406447 -0.737665 -0.728411 0.481976 0.566418 -0.403500 -0.033455 -0.672074 -0.099456 0.131428 0.769911 -1.295571 -0.794847 0.362416 0.370606 -1.490944 0.525940 -0.465700 0.182933 -0.750771 0.684882 0.908711 -0.333885 0.848286 1.556386 -1.081872 -0.642865 0.737035 1.379926 -0.260578 -0.296994 0.232997 0.154114 -0.265519 -0.809471 0.637949 0.408122 0.253785 -0.891954 -0.278218 -0.438439 -0.793242 0.495208
CAAATA 0.628525 -0.455415 -0.483849 -0.000723 0.994350 -0.000276 -0.643305 -0.672616 -0.136208 -1.945860 1.136828 -0.338566 -1.777867 0.027351 0.398448 0.083923 -0.331492 1.365298 -0.282495 0.757990 0.408394 0.199554 -1.290513 0.388202 0.321036 0.271800 -0.800206 -0.725914 1.176466 -0.013877 -0.453215 0.985859 -0.539119 -0.198302 0.283271 0.284186 0.817543 0.287661 0.619148 -0.139223 -0.708134 0.629174 0.054113 0.992065 0.675732 -0.644020 0.261836 0.424686 0.293604 -0.487907
AAAAAT -0.311189 0.205888 -0.633392 -0.840395 -0.279671 -0.211068 0.401014 -0.565208 1.268418 -0.838160 0.196476 -0.601716 0.108885 0.491591 -0.400343 -0.444502 0.499068 -0.295029 0.010820 0.122757 0.750346 0.279154 -0.799875 0.005022 0.185472 0.341579 0.460622 1.114712 0.027120 0.939796 0.005129 1.336106 -0.791310 -0.073456 -0.084364 -0.070405 0.095947 -0.381340 -0.246331 -0.358425 0.364298 0.753654 -0.016294 0.278977 0.296360 -1.161802 0.165127 -0.307912 1.208807 0.489731
GAATTT 0.854241 0.759259 -0.035854 0.470243 0.859496 -0.238362 -0.044164 0.621768 0.548696 -1.010828 0.367771 -0.961853 0.319491 -0.857515 1.126421 -0.193142 -0.414588 -1.189543 -1.162551 -0.392797 -0.113521 0.136045 -0.684484 0.851971 -1.065927 1.150599 0.976525 -0.466855 -0.570483 0.639267 -0.785231 0.714052 -0.547577 -0.190376 -0.774921 -0.892109 -1.365131 0.605812 -0.700803 0.580211 -0.209342 -0.074142 -0.815891 -0.503712 1.020962 -0.622576 0.892622 0.378500 -0.213145 0.239021
TAAAAG 0.338502 -0.609236 -0.771699 -0.086085 0.126892 -0.183316 1.202498 0.141425 1.061041 -0.540045 0.491724 0.316097 -0.805580 -0.120112 -0.332111 0.040104 0.633770 0.024312 -0.695636 -0.851150 1.266423 1.390575 0.330796 -0.786113 0.472791 0.058611 -0.677291 0.295299 1.353790 0.686407 -0.822266 1.189161 0.520628 0.056750 -0.451261 0.470726 -0.301639 0.437697 -0.449375 -0.288461 0.436731 0.566060 1.088424 1.058978 0.106992 -1.300978 -0.228914 0.663256 0.321413 -0.084700
TCAAGA -0.456495 0.285810 0.610444 -0.142399 -0.204176 -1.835812 0.341252 -0.468745 -1.037300 0.025007 0.671871 0.422089 -0.823555 -0.521445 1.310198 1.329442 0.154376 0.731303 -0.001647 0.354119 0.970643 -1.501642 -0.448086 -0.515645 -0.598090 1.514070 0.604838 -0.077258 -0.845082 0.766979 1.473549 0.645881 0.586644 -1.259551 0.175730 0.419386 -0.148688 -0.497112 0.444549 -0.933195 0.396880 0.479384 -0.874638 1.470838 0.842780 -0.162172 -0.703218 0.225742 -0.078058 -0.034708
ATTTCA -0.646737 -0.009152 -1.038318 0.453745 0.835040 -0.281630 -0.043498 0.201213 -0.057308 -0.890470 -0.284927 -0.483567 -0.284227 -0.648088 1.101543 -0.494539 1.073633 -0.699185 -0.018260 -0.427484 1.346158 -0.054791 -1.567161 0.733999 -1.127322 0.857475 0.947256 -0.117988 -0.726658 0.422645 -0.962664 0.815321 0.296746 -0.598011 0.502285 -0.272943 -0.371848 -0.634110 -0.130040 -1.153188 -0.241250 0.286568 -0.405044 0.434585 0.609465 0.326010 1.181774 -0.313493 -0.200331 -0.092296
ATAGAT 0.225490 0.466983 -0.330799 0.267016 0.038482 -0.285762 0.869602 -0.843740 0.208434 -1.214117 -0.002456 -1.235966 0.581149 -0.110131 0.242912 -1.103653 -0.317386 0.260050 -0.384219 -1.019542 0.844848 0.204325 0.423731 1.106469 -0.310030 0.388811 -1.007717 -0.496193 -0.424161 0.143262 0.174881 0.946442 -0.207353 0.188277 1.077697 0.875658 -0.670344 -1.107460 -0.766471 -0.017469 1.264347 0.168747 0.603065 1.386992 0.901687 -0.517220 -0.247288 0.496620 0.404821 -0.381857
ATCTAT -0.097840 -0.625265 -0.021461 0.389640 -0.364102 -1.345929 0.209235 -0.503775 0.259222 -0.548128 0.293432 -0.971425 -0.731010 0.127841 0.742398 -0.285011 -0.125932 -1.150168 -0.188397 -0.361170 0.420875 1.629686 -1.151194 1.031227 -0.850464 -0.279086 0.463892 0.739560 -0.361086 -0.613719 0.746076 0.246851 -1.317665 -0.274201 -0.075625 0.028427 1.380980 -0.176904 -0.124917 1.129243 1.880292 0.392888 -0.755862 0.185687 -0.059264 0.180474 0.591172 -0.811643 0.241318 1.085063
TGAATA 0.480466 0.124724 -0.818556 -0.983940 0.079513 -0.033870 0.547777 -0.710725 0.346084 -1.203555 -0.020307 -0.696237 0.229425 -0.305474 -0.869128 -0.220335 0.430314 1.079924 -0.251343 0.696153 -0.043691 -0.004293 -1.169535 1.256303 0.327027 0.583819 0.025095 0.648952 0.512061 -0.692271 0.477126 0.264020 -0.314280 -0.316791 -0.511616 1.634918 0.056250 0.748246 -0.286886 0.345657 -0.377568 2.012352 0.141819 -0.140370 0.859769 -1.081589 1.346587 0.758900 -0.255533 -0.936566
ACAAAA 0.263195 0.065348 0.037082 -1.213741 -0.221265 0.227357 0.714446 0.430240 -0.434803 -0.571688 1.042298 0.599969 -0.412406 -0.267987 -0.317591 0.177255 0.490068 0.441213 -0.522513 -1.018286 0.511001 0.207392 -0.775607 -0.073154 0.098860 0.766623 -0.534529 0.829647 0.382910 0.159767 0.400801 1.587627 -1.221875 -0.182385 0.117147 0.749522 -0.262628 0.518257 0.328999 0.136548 -0.561008 -1.011167 0.537440 -0.185673 0.565556 -0.616165 -0.144163 -0.125762 -0.634879 1.079481
AGCATA 0.979828 -0.348769 0.454930 0.483742 0.597071 0.461898 -0.074787 -0.351458 0.400219 -0.884119 0.843234 -0.615909 -0.973529 -0.633393 0.370291 0.578978 2.391431 -0.818127 -1.539468 -1.279037 -0.279228 -0.535601 0.997611 0.911421 0.241632 0.478656 -0.228015 0.507494 0.390172 -0.625860 -0.303629 -0.404715 -0.142986 -0.368577 0.835323 -0.155482 1.301291 -0.910417 0.231620 -0.283196 0.512434 0.855432 0.385214 -0.157519 1.514463 -0.306497 -0.222852 0.984151 0.940794 0.043424
ATTTCT -0.482053 -0.572573 -0.666685 -0.072732 -0.472142 0.488631 -1.174640 0.567214 0.591292 -0.233971 0.026578 -0.705927 0.523144 -1.282498 1.360440 -0.545187 0.313705 -0.811487 -0.387509 -0.175578 1.529682 0.667599 -0.532800 1.111424 -0.879284 0.341121 0.749099 -0.292645 -0.391319 0.647592 -1.043524 0.552149 0.308294 -0.352062 0.071887 -0.677518 0.040777 -0.003109 0.378723 0.481375 0.046046 0.288330 -0.808085 -0.090706 1.079531 -0.567262 0.764733 -0.730939 -0.592581 0.212838
AATTAT -0.195576 0.007934 0.023571 -1.118661 0.273398 -0.145576 0.526782 -0.616502 -0.644942 -1.038614 0.894770 -0.086921 0.282780 -0.536609 -0.215875 0.501812 -0.338804 0.465711 -0.198211 -0.111410 0.865781 0.567960 -0.348652 1.242448 -0.298197 -0.154207 0.274329 -0.063887 0.572403 -0.812619 0.136609 0.491292 -0.555014 -0.335817 0.247212 0.135743 -0.616359 0.083110 1.101221 -0.037738 -0.438602 1.134441 -0.342219 -0.196680 1.382568 -0.554684 0.567914 -0.344790 0.476142 0.041699
AATTTA 0.302402 -0.720941 -0.816793 -1.299708 0.390438 0.209987 0.957572 -0.847187 -0.604513 -0.927987 1.241443 -0.320458 -0.158384 -0.651198 -0.321295 0.467138 0.121218 0.375329 -0.577358 0.189561 0.596887 0.212064 -0.679793 1.152955 -0.016491 -0.384253 -0.139277 0.186735 0.063210 -0.567223 1.036030 0.423341 0.316921 0.498966 -0.069535 0.229339 -1.103387 -0.335031 0.314805 0.081020 -0.578371 -0.018301 -0.200953 0.703849 0.748522 -0.938422 0.177282 -0.667056 -0.327187 0.007309
ATTAAA -0.343289 0.255139 -1.174886 -0.435082 0.263086 0.367593 0.454206 -0.501837 0.983570 -1.365190 0.873042 -0.783480 -0.162640 0.911160 0.453088 -0.580209 0.409114 -0.250963 0.148362 0.167141 0.465242 0.595880 -0.747659 0.358897 -0.294102 0.010422 0.234924 0.092117 0.060506 1.622251 0.276848 1.479080 -0.482906 -0.261001 -0.499068 0.362322 0.087100 -0.632111 0.369678 0.610132 0.167359 -0.142062 -0.089075 0.038663 0.294117 -1.308655 -0.007186 0.299070 0.548469 0.448475
TAAAGA 0.523592 -0.491723 0.351178 -0.362556 0.009735 -0.778758 0.336875 0.119483 0.117818 -0.076602 0.274308 0.231975 -1.353926 -0.482616 0.119710 -0.435140 0.216348 -0.459798 -0.373941 0.314163 0.628902 1.136451 0.070006 -0.636551 -0.281324 0.311536 -0.209056 1.149566 0.425584 1.290558 -0.015880 0.875870 -0.602816 -0.532910 0.167570 0.046535 -1.057377 0.517015 -0.248454 -0.410100 0.447879 1.067017 -0.081553 1.209503 1.741210 -0.862145 -0.455601 0.839881 -1.154681 0.050341
TAATTT 0.799441 -1.070414 0.227528 -0.284281 -0.661968 -0.366411 0.419684 0.554622 -0.168640 -0.528754 1.330930 0.072549 0.485630 0.234407 -0.951360 -0.143516 0.422435 -0.793003 -0.023160 -1.126532 0.762001 0.197797 0.807765 -0.081578 0.107772 -0.044378 0.504730 -0.435527 -0.090951 0.161398 -0.594918 0.453201 0.684318 -1.307729 0.034107 0.104916 -0.342013 -0.269670 -0.196143 0.195907 0.101626 0.989615 -0.175828 0.772824 0.434691 -1.037571 1.001762 -0.369492 -0.448838 -0.294108
AATCTT 0.211362 0.245532 -0.400758 -0.757025 0.088384 -0.507474 -0.220763 -0.457794 -0.849713 -1.105772 1.306955 0.729626 -0.019174 -0.814745 -0.168186 -0.715837 0.398318 -1.031742 -0.624864 -0.168774 0.490878 -0.309852 -0.709203 0.259188 0.102756 1.003904 0.212454 0.210524 0.022388 0.072475 -0.048413 0.610786 -0.651376 0.917239 -0.487425 -0.948704 0.661237 0.038045 0.307232 1.209833 -0.266035 0.194627 -1.391789 1.691164 -0.917431 -0.681063 0.707875 0.111794 -0.306922 -1.325468
ATGATA 0.162363 0.628428 -0.172653 0.037818 -0.796871 -0.771590 0.678793 0.760920 0.239237 0.013890 0.091796 -1.706635 -0.430075 0.614558 -0.386753 0.977426 0.092082 -0.192870 -1.270102 -0.332803 0.358773 1.157601 -0.649901 -0.503741 -0.013691 0.469991 -0.218389 0.187357 0.524138 0.258566 0.522296 0.392417 -0.278589 -0.986116 2.181492 -0.311974 -1.324490 -0.579383 -0.333057 -0.450412 0.287165 1.405276 -0.301397 0.739118 0.544860 0.063786 -0.217906 -0.600888 0.407207 -1.131084
CTTGAA 0.623256 1.538220 0.222819 0.050292 0.159364 0.096130 -0.183322 0.060782 -0.795724 0.677131 1.326451 -0.258838 0.696999 -1.603498 -0.561048 -0.285441 0.089576 -1.261871 -0.106214 0.363160 -1.161374 -0.316362 -1.061426 0.258814 -0.285309 0.977162 -0.424225 0.653942 -0.127480 0.151016 -1.056049 0.092472 -2.187213 -0.836083 -0.648491 -0.465751 0.080019 0.020926 -1.269575 -0.135736 -0.999449 0.651859 -1.180560 0.474090 0.685352 -0.144150 -0.794253 -0.559142 -0.486185 -0.023736
TTATAA 0.210713 -0.660154 -0.724835 -1.068286 0.040505 -0.639191 1.094476 -0.092496 -0.335732 -0.562170 1.646901 0.069499 -0.521207 -0.032096 -0.848178 -0.200825 0.260601 -0.607798 -0.901346 0.103575 0.968393 0.635393 0.597109 0.161777 -0.201365 -0.869761 -0.065300 0.563643 -0.281916 0.292442 0.235073 0.013069 0.148001 -0.109913 -0.303104 0.353606 -0.240459 -1.112682 -0.182446 -0.101746 -0.040871 0.127077 0.354950 1.529154 0.400256 -0.239523 0.286142 -0.454181 -0.939203 -0.241519
TTGAAT 0.495067 1.035582 -0.041407 0.097320 0.631669 -0.396499 -0.334293 0.705117 0.035668 -0.179311 0.848324 -0.732243 0.296756 -1.130222 -0.524788 -0.073737 -0.607480 -1.609165 -0.643707 0.416167 -1.165346 -0.432960 -0.683682 0.691136 -1.238721 1.524465 0.030964 -0.136471 -0.514418 -0.492457 -0.725873 0.337306 -1.524928 -0.366015 -0.263106 -0.668187 -0.932961 0.193140 -0.620443 0.638315 -0.525172 0.626434 -1.154677 0.553707 1.012050 -1.035360 -0.087142 -0.062787 -0.292969 -0.419434
TATCTT -0.423495 0.470957 -0.126666 -0.592202 -0.377754 -0.139033 0.361978 -1.127813 -1.319055 -0.935844 1.879969 -0.013022 0.425977 -0.117175 -0.608451 -0.773731 0.127671 -0.912543 -0.465258 -0.225063 1.370711 0.499333 -0.521599 0.279838 -0.644440 -0.263243 0.377986 -0.492785 0.099970 0.036165 -0.094821 -0.183200 -0.560384 -0.089658 -0.149843 -0.162356 1.416946 0.167775 1.480629 0.458748 -0.744180 0.330968 -0.539134 -0.052235 -0.513759 0.004176 0.878315 -0.339329 0.766338 -1.416880
CATAAA 0.928004 -0.333892 0.425396 -0.240211 0.050168 -1.076967 0.078982 0.232664 1.073594 -1.138072 0.990486 0.761982 -0.821241 -0.173705 -0.365955 -0.415671 1.430041 -1.324487 -0.683870 -0.732891 0.509721 0.989838 0.131553 0.309740 0.980838 0.972963 0.048637 0.469635 0.791476 -0.007438 -1.038349 0.637965 0.412091 -0.213298 0.663387 0.940804 0.093861 -0.619760 -0.896142 -0.069413 0.023744 0.775101 0.398793 0.956149 1.356556 0.037662 0.215310 0.932961 -0.271169 0.763847
CTGAAA -0.184171 1.531171 -0.960856 -0.819525 -0.890245 0.116393 0.270670 -0.868843 1.689543 0.021358 0.002968 -0.881014 0.386998 -1.022445 -1.229231 -0.409705 1.604942 0.626670 0.493463 -0.326566 0.621000 -0.312885 -0.820837 0.107296 1.072818 -0.192829 -0.114374 2.113237 0.038149 -0.118071 0.148621 1.090208 0.918188 -0.220435 -0.488263 0.416490 0.176522 0.313498 -0.049495 0.187710 -0.593757 0.986385 -0.193062 0.347128 -0.383167 -0.540056 0.723602 0.267122 0.744434 0.842884
TTCATA -0.086693 -0.250008 0.589359 0.358443 0.125535 -0.184964 -0.437390 -0.213766 0.266933 -0.985228 0.059058 -0.123420 -0.578574 -0.839589 -0.392677 -0.301673 1.162566 -1.700542 -0.835648 -1.162634 1.131249 0.094619 -0.573847 0.925291 0.220776 0.702629 0.387861 -0.334834 0.070264 -0.779839 -1.400371 0.447852 0.309244 -0.305540 0.687886 0.767369 0.193247 -1.171155 -0.267260 -1.052118 -0.520302 0.909815 -0.678457 1.089184 1.038997 1.043840 0.882496 0.275483 0.324268 -0.052180
GTATTT 0.610503 -0.388450 -0.628207 0.439460 0.504973 0.491631 0.604212 0.385481 0.505023 -1.440155 0.172711 -0.680354 0.632240 -0.206543 0.403040 -1.133115 -0.122873 -0.352536 0.364485 -0.765033 0.516630 -0.071899 -0.772188 0.887073 -2.115402 -0.151777 0.585077 0.363910 -0.730510 1.221722 0.189403 0.039378 0.720922 -1.055364 -0.352598 0.374590 -0.096792 0.345608 0.716808 -0.838091 -0.502914 -0.274044 -1.466350 -0.737436 0.401479 -0.471494 0.604768 -0.040733 -0.083364 -0.390970
ACGTTT 0.598384 -0.956888 -0.292375 -0.725777 -0.655908 -0.940847 0.352603 -1.695202 1.514370 -0.206981 0.553479 -0.532517 -0.572170 0.681738 -1.117010 1.482205 0.223130 -0.122054 0.173749 -1.356124 -0.641365 0.020712 -0.519201 -0.358996 -0.647477 1.235719 0.173579 -0.847159 -0.367562 0.915100 -0.895041 -0.348445 0.300653 -1.315077 -0.993612 0.655107 -0.825836 -0.059058 0.892051 0.238947 -0.582253 0.446795 0.690993 0.500829 -0.948088 -0.086864 0.476166 -1.026500 -0.431060 -0.024840
CACTTT 0.416863 0.319368 -0.574709 -0.056011 1.339629 -0.197779 0.543718 0.320169 0.198613 -0.056037 0.742200 0.061851 0.435116 -1.522224 -0.396880 -1.005435 -0.028646 0.207827 -1.775593 -0.738589 1.464808 0.108140 -0.722571 -0.697689 -0.077666 0.003497 0.033530 -0.223012 -0.646421 0.763744 0.412471 -0.451571 0.056914 -0.569635 0.464063 0.208209 0.465716 0.667407 0.354250 -0.504972 -0.601681 0.381884 0.680977 0.720726 -0.494817 1.400042 1.908539 -0.629486 -0.877106 0.667308
TACGTA 1.425997 -1.334844 -0.446319 -0.634524 -0.088690 0.085477 0.774734 -1.018506 0.623386 -0.328214 0.234302 -0.805786 -0.015818 1.056655 -0.268758 0.437333 -0.758823 -1.622550 0.100955 -0.792212 -0.280966 0.007051 -0.963929 1.288161 -0.853506 -0.221232 0.253611 0.330882 -0.430970 0.482698 -0.289371 0.440318 0.025033 -0.463662 1.397887 0.859991 -0.124142 0.291119 1.678834 -0.518034 -0.484504 -0.168228 -1.007267 0.512613 -1.228097 -0.206892 -0.388633 1.459108 -0.216293 -0.390946
TGTAAAT -0.853783 -0.150742 -1.194973 -1.137332 0.524108 -0.924865 0.940302 1.261968 0.880418 -0.431800 -0.375803 -0.333997 -0.051075 0.126730 -0.519585 -0.412063 -0.652397 -0.535248 -0.098579 -1.077410 1.119577 0.781723 0.487326 -0.757817 -0.302748 0.182129 -0.217794 -0.267506 0.589536 -1.196893 -0.266190 0.468710 -0.420205 -0.289482 0.319939 0.278608 -0.258858 -0.115351 0.244343 -0.146546 0.135206 0.694695 -0.890023 -0.036523 -0.277073 0.184246 1.316496 1.296818 0.044404 0.236075
CCATTT -0.129233 0.160999 -1.086172 0.329656 0.639464 -0.171040 -0.142583 0.337590 1.074557 -0.825666 0.218033 0.232922 0.009735 -0.202461 0.856327 -0.222530 0.533340 0.160026 -0.564610 -0.647720 0.250231 0.588017 -0.257695 2.048154 -0.810556 -0.883239 1.293282 -0.427061 -1.690013 0.933321 -1.047720 0.454141 0.562248 -0.336974 -0.632589 0.192458 -0.438523 -0.268447 -0.812260 0.011419 -0.435848 0.266318 -0.980247 0.111953 0.577627 0.911474 0.591657 -0.859200 -0.269522 -0.595167
AGAATA 1.047249 0.170968 0.360795 -0.123198 1.365173 -0.953763 0.902863 -1.404009 -0.107934 -1.503976 0.276886 -0.587882 -0.291950 0.402013 0.860747 -0.026402 -0.452449 0.855256 -0.597247 0.559866 0.452519 -0.503075 0.039179 1.029237 0.146509 0.835483 0.123532 -0.324712 0.259462 -0.797100 0.423352 0.355796 -0.173880 0.112227 -0.163071 0.981099 -0.587793 0.689742 0.568270 0.249690 -0.103183 0.122430 -0.034978 1.069401 1.506831 -0.895998 0.247880 0.277622 -0.424196 -0.501061
ATAGCA 0.044326 -0.020612 -0.438289 0.655195 1.054626 0.176720 1.267191 -0.045732 -0.089335 -0.819131 -0.718426 -1.029758 -1.356125 -0.630784 -0.087294 0.303890 1.071104 0.139869 -1.361523 -0.680522 -0.806575 -0.636852 0.146809 1.065462 0.431924 0.852566 -1.171502 -0.135372 0.761294 -0.047284 0.497251 0.399319 -0.540258 -0.914648 0.576569 0.211873 1.339509 -1.595332 0.640250 0.895938 0.316802 1.100729 0.065091 0.485186 0.848801 -0.802288 0.596281 -0.042923 0.379631 -0.641267
TAGAAA 0.128612 1.768018 -0.979002 -0.532474 0.015407 -0.697820 1.648233 -0.275826 -0.222362 0.274660 1.549842 -0.314957 -0.900309 -0.321163 0.195774 -0.226928 -1.312959 -0.483298 -0.175753 0.074229 -0.235603 -0.211566 -0.684629 0.308657 0.416168 0.941059 0.794955 0.675737 1.200303 -0.386251 -0.108520 0.753948 -0.869886 -1.370681 -0.163662 -0.528546 -0.360548 -0.007342 0.969641 -0.292999 0.374637 -0.077694 0.718288 -0.317359 0.671501 -0.267063 0.036286 0.283251 0.519896 -0.691276
TCAATA 0.235542 -0.549904 -0.502394 -0.895218 0.281990 -1.211989 0.951067 -0.451412 -0.786578 -1.494273 0.639645 0.628680 -0.156343 0.535497 1.275817 0.276010 -0.174223 0.582535 -0.908189 1.322084 0.015042 -0.509442 -0.930723 0.608575 0.977079 1.063761 0.256170 -0.683191 0.525598 -0.286840 0.110671 -0.022708 0.028943 -0.896147 -0.088652 0.592625 -0.060949 0.009229 0.729262 -0.170507 0.527618 0.987068 -1.058635 -0.274467 0.443714 -1.227106 0.314333 -0.923754 0.651357 0.023508
GTTATT -0.761500 -0.029549 0.309372 0.160789 0.203102 0.025927 -0.064777 -0.594512 0.233079 -0.780269 1.110946 -0.530501 -0.466044 -0.113369 -1.376715 0.691174 -0.017376 -0.739065 -0.156176 -1.321707 -0.092408 1.943580 0.479603 0.569204 -1.341582 0.066249 0.007030 -0.372460 0.512977 0.201036 0.091351 -0.711338 0.789764 -1.023620 -0.561482 0.030589 -0.768298 0.179924 0.594470 -0.187186 -0.597395 0.490227 -0.997334 -0.156644 0.967846 0.052895 0.218423 -1.078510 0.224581 0.310301
GTTTCT -0.498663 -1.188252 -0.436717 0.581381 -1.059111 0.478946 -0.497856 0.635327 1.021527 0.179686 1.018302 -0.618806 -0.032231 -1.520061 0.243980 0.241376 -0.822307 -1.232576 -0.851142 0.057463 1.274759 -0.398067 -0.433574 -0.196648 -0.540481 0.297651 0.640127 -0.678767 0.058853 -1.190365 -0.596241 -0.367054 0.438740 0.284674 -0.827282 -0.368776 0.356483 0.192913 0.864038 0.126365 -0.249313 -0.291480 -0.686760 0.034447 1.292593 -0.680313 -0.061265 -0.952721 -0.136045 0.840048
TAGCAT 0.492179 -0.538085 -0.550167 0.046830 1.311489 0.381985 0.820941 0.170139 0.094632 -0.508309 0.409010 -1.113451 -1.169903 -0.930912 -0.046017 0.301257 1.770922 -0.686870 -0.904022 -1.103128 -0.645542 -0.445955 0.907215 0.988599 0.487607 0.856815 -0.523311 -0.139105 0.233571 -0.183237 0.830180 -1.202810 -0.080735 -0.815870 0.530463 0.094361 1.425835 -1.333163 0.589435 0.444463 0.623905 0.988962 -0.029262 -0.165116 1.087776 -0.631174 0.306885 -0.014302 0.812511 -0.519369
ATGTTT 0.512511 -0.824063 -0.776188 0.348734 -1.775279 0.522215 0.616329 0.560257 1.685726 -0.817074 1.757249 -0.575803 -0.420116 -0.516182 -0.567040 -0.414847 -0.857176 -0.171638 -0.252267 -0.439424 0.095580 0.338873 -0.460419 0.069992 -0.032136 0.157371 -0.423502 -0.932306 -1.111319 -0.589016 0.350419 -0.625710 0.060158 -0.153014 -0.736975 -0.701121 -0.384280 -0.607847 0.676159 -1.279639 0.476327 0.205270 -0.660595 0.432074 1.160890 -0.363792 -0.453919 -1.303652 0.109041 0.160644
GTCATT -1.584421 -1.240144 -0.639711 -0.071445 -0.193680 0.117990 0.190922 -0.184714 0.217981 -2.116363 -0.040359 -0.156064 1.464305 0.467503 0.618180 -0.046917 1.088146 -1.130999 0.405080 0.353340 -0.438713 0.222458 -0.447125 0.799231 -0.171880 0.791884 -0.355648 -1.407079 -0.566241 1.482781 0.344387 0.435708 0.076448 -0.789546 -0.942434 0.787651 -0.260729 0.675225 -0.598686 -0.802945 -0.368116 -0.116416 -0.120829 -0.344495 0.827087 -0.194695 0.410049 -0.570834 0.879522 -0.215691
TCAATT -0.619692 -0.798598 -0.182089 -1.172837 0.170880 -0.622973 0.638196 -0.502023 -1.035358 -0.860580 0.985178 0.689776 0.391684 -0.987589 0.767173 1.056553 -0.020917 0.465634 0.113587 0.822000 0.239145 -0.627366 -0.802310 0.626240 0.283276 0.892315 0.467329 -0.640464 0.166783 -0.618427 0.582658 0.276050 0.589860 -0.399054 0.166188 0.139168 -0.934777 0.005178 0.752424 -0.024774 -0.339617 1.228226 -1.244509 -0.298839 0.652119 -0.861321 0.308780 -1.566217 0.540444 0.265057
TGAAAT -0.410889 0.899111 -0.102840 -0.950228 -0.488727 0.053763 0.350914 -1.183649 0.913503 -0.485881 0.619284 -0.947832 -0.197655 -0.562734 -1.721355 -0.290236 1.238330 0.774980 0.826222 -0.209014 0.565851 -0.160766 -1.076495 0.357973 0.336528 -0.114693 -0.146136 1.211206 0.189094 -0.066667 0.689080 1.467481 -0.295971 -0.017543 -0.287380 0.266049 -0.701137 -0.112839 -0.256341 0.254166 -0.028231 1.577895 -0.319358 0.056358 -0.282694 -0.974102 0.477386 -0.266078 0.441979 -0.076512
ACTATT -1.545293 0.596970 0.213151 -0.118385 0.844343 0.194323 -0.361883 -0.236546 -0.508128 -1.461676 0.865560 -0.395810 -0.031583 -0.512181 0.179979 0.527813 0.447045 -0.643658 -1.270853 -0.858213 0.293082 1.295424 0.947612 0.341845 -0.534132 -1.332310 0.416212 0.555055 0.312387 -0.467064 0.317265 0.139747 0.481486 -1.256266 1.071204 0.233544 -0.920191 0.438107 0.883375 -0.332517 -1.006475 0.403524 0.012647 0.313259 0.335013 -0.204583 0.285077 -1.312445 -0.382192 0.450636
ATCATA 0.031915 0.256409 0.914039 -0.321723 -0.446315 -0.796715 -0.031507 -0.676194 0.351161 -1.290045 0.705735 -0.347159 -0.701800 0.063937 -0.463078 0.219441 1.629404 -0.911241 0.122536 -1.046074 0.146259 0.845084 -0.208664 0.697135 0.752800 -0.090554 0.372117 -0.627375 0.218608 -0.710069 0.099705 0.852759 0.609400 -0.173817 0.873192 0.249091 1.263675 -1.876292 -0.660123 -0.618860 1.034950 0.547157 -0.546774 0.374152 1.061823 0.129675 -0.321341 0.484891 0.032719 0.572945
TTTGAT -0.189829 -0.742262 -0.180018 -0.668935 -0.302353 -0.147195 -0.406219 0.187184 0.611695 -0.053752 0.955440 -1.113713 1.819910 -0.272701 -0.716034 0.107967 -0.165293 1.339893 -0.397066 -0.957029 -0.317913 0.389208 -1.237801 -0.635026 -1.137054 0.542427 0.373095 -0.121300 -0.319916 0.587800 0.187810 0.787388 0.813536 0.176963 0.814361 0.368869 0.176049 0.381438 -0.664264 0.561266 0.712731 1.360151 -0.481575 0.692698 0.359246 -0.726764 1.626989 -0.290061 0.388572 -0.346785
GAAATA 1.000733 0.813972 -1.058042 -1.015861 -0.038339 -0.377536 0.855535 -0.629141 -0.049416 -0.809826 1.233357 -0.695120 -0.420363 0.009447 0.628257 0.178058 -0.900983 0.090683 -0.689346 0.797484 -0.325894 0.245028 -0.860129 1.037227 0.736013 0.823693 0.389276 -0.215257 1.060435 -1.006735 -0.727061 0.367703 -1.345008 -0.238899 -0.860620 -0.077119 -0.473759 0.034387 -0.325055 -0.505298 -0.062113 0.206686 0.433449 -0.302419 0.793591 -0.818826 0.147519 0.515137 0.384084 -0.423789
GCTTTT 0.821205 -0.946129 -0.636594 -0.613916 0.193266 0.230812 0.724073 -0.546686 0.002656 1.179767 0.646709 0.841889 0.440816 -0.680898 0.949274 -1.065482 0.666179 -0.415082 1.076585 -1.761254 0.544238 0.162545 -0.807904 -0.880591 -0.999407 0.215197 -0.618248 0.202841 0.068305 -0.804743 -0.084237 0.089331 0.409921 -1.951033 -0.424726 -0.167727 -0.401599 -0.197933 -0.635118 0.563314 -0.660988 1.016816 -0.268850 0.305293 -0.411928 -0.626732 -0.261526 -0.115442 0.607860 -0.085018
TGTATATA -0.407802 -0.072011 -0.385810 -0.267717 -0.575430 -0.500608 0.828436 -0.811358 0.250507 -1.157183 -0.498444 -0.714955 -0.489853 0.473842 -0.519917 -0.792457 0.441791 0.194796 -0.273190 -0.421670 0.395939 0.747358 0.089453 0.246146 -1.096196 0.595626 -1.024693 -0.044385 -0.310316 -1.290431 -0.871623 -0.605610 -2.499474 -1.302409 -0.014896 1.023943 0.387254 -0.489530 0.158329 -0.411182 -0.218516 -0.062874 -0.355824 1.056398 -0.037637 0.169155 0.402155 -0.017192 0.039743 -0.095244
AATTGA 0.275861 0.047555 -0.144052 -0.323563 0.675924 0.038445 -0.244268 -0.521633 -0.986786 -0.232647 0.721797 -0.587430 0.019066 -0.950078 -0.085257 0.141533 -0.089524 0.164566 0.435680 0.633825 -1.572100 -0.402600 -1.264047 0.456314 -0.724909 1.038221 1.248433 0.548224 0.494640 -0.731272 0.285931 0.867482 -0.668113 -0.650473 0.347177 -0.781828 -1.040096 0.053328 -0.711872 -0.382164 -0.880091 0.827224 -0.769249 0.630616 2.068161 -0.830038 -0.232611 -0.554624 -0.469044 -0.387822
TATAAT 0.167039 0.258366 0.389571 -0.816943 -0.033869 0.001348 0.975008 -0.454323 -0.495951 -1.377794 0.113306 -0.150357 -0.094732 -0.208814 -0.399845 -0.339707 0.485919 0.084557 -1.135983 -0.437605 0.076823 0.501026 -0.110668 1.204087 0.567792 -0.041505 0.548971 -0.249993 0.933679 -0.342336 -0.456645 0.835447 -0.032678 -1.013696 0.164357 -0.271495 -0.397898 0.163285 1.115480 0.325694 0.245485 1.409628 -1.030720 0.077786 0.744669 -0.279388 0.658049 -0.617666 0.458315 0.077662
TGCAAT 0.158604 -0.656623 -0.058671 0.788516 0.372125 -0.163002 -1.071143 -0.147138 1.491371 -1.468517 0.298424 0.989002 0.132647 0.327215 -1.394996 -1.337992 -0.098418 0.117235 0.490132 0.930188 0.108469 -0.277275 -0.426507 0.270019 -0.635330 0.863504 0.387722 -0.139043 0.813032 -0.188941 0.671094 1.514837 -0.351329 -1.430701 0.376033 -1.502612 0.899265 -0.280931 -0.443093 0.751721 -0.144017 -0.630948 -0.269816 1.349680 0.290416 -0.402125 0.390280 -0.030950 1.091059 0.085598
ATGCTT 1.025220 0.142729 0.332429 -1.107371 1.153112 0.056560 0.309102 0.436382 0.426008 0.138052 0.288628 -0.505446 1.067844 -0.524459 -0.825473 0.182455 -1.570543 0.602955 -0.073645 0.527705 1.927101 1.077417 -0.468345 0.496346 0.005625 0.762308 -1.363185 -0.028710 -0.719088 0.364365 -0.356927 1.340954 -0.392489 -1.238678 0.514539 -1.046855 0.163442 -0.226928 -0.227543 -0.142570 -0.036903 -0.297328 -0.571951 -0.066390 0.857844 1.340854 0.534367 -1.383967 0.105968 -0.338800
CCTTTT -0.364877 -1.082975 -0.140495 -0.316823 0.028829 -0.623146 -0.166053 -0.267423 -0.073086 0.610931 1.109473 0.330439 0.403863 -0.370537 -0.730201 -1.246704 -0.050647 0.447983 -0.266543 -2.278213 0.662383 -0.996884 -0.571119 -0.389630 0.606843 -0.155782 0.146689 -0.721320 -0.176146 -0.078417 -0.824294 -0.308989 -0.325775 -1.103372 -0.055559 -0.047982 -0.746557 0.575199 -0.445362 0.109506 0.187107 0.510828 -1.627655 0.019818 0.121937 -0.261421 0.606875 -0.025994 0.106620 -0.138537
TTGCAA 0.098645 -0.633448 -0.215478 0.510503 0.180315 -0.106700 -0.542531 -0.626036 1.267397 -1.142334 1.620470 1.177198 0.471362 -0.483594 -0.874831 -0.773495 -0.380133 -0.086900 0.513222 0.742359 -0.391324 -0.383083 -0.305188 -0.742079 -0.868840 0.660982 0.714518 -0.403593 0.359266 0.654426 0.494124 0.943008 -0.641634 -0.871381 0.913069 -1.182054 0.253583 0.274513 -0.717504 0.586162 -0.885212 -0.434741 0.072883 1.628102 0.352290 0.069638 -0.271968 -0.456843 2.025759 0.535117
TCATTA -0.891559 -0.540692 -0.799737 -0.324400 0.109823 -0.305802 0.116958 -0.049989 0.137103 -1.691305 0.703980 -0.760069 0.800112 1.157987 0.691701 -0.188660 0.329119 -1.172569 -0.079639 0.505035 0.023734 0.229059 -0.998094 0.997264 0.074576 -0.010309 -0.061058 -1.498542 -0.569062 1.233996 0.610720 0.527278 -0.418155 -1.050364 -0.711054 0.618739 0.094676 -0.061087 -0.129687 0.177999 0.050309 -0.329513 0.367680 -0.448847 0.580664 -1.377139 0.680896 -0.110141 0.932983 0.272892
AATGTT 0.063909 0.609412 -0.385791 -0.399333 0.280540 0.769315 -0.143456 -0.342364 -0.025134 0.278093 0.160077 1.179035 -0.258575 0.101691 -1.237192 -0.375135 -0.270807 -0.085074 -0.991154 0.664975 0.326385 0.816337 0.352056 1.442142 -0.693049 1.363289 0.399614 -0.121657 -0.112118 -1.465639 0.717867 1.008188 -0.205837 0.532924 -0.231663 -0.393354 -1.250807 0.255150 0.153576 0.009580 0.398607 -0.050308 -1.085079 1.578602 0.521285 -1.293238 1.027403 -0.995971 0.194969 0.880030
ATACTA -0.839124 0.308049 0.301295 -0.076677 0.060820 -0.280247 -0.388234 0.478556 -0.052524 -1.237942 0.595198 -0.909089 -0.275021 0.139170 0.419687 -0.075672 0.342419 -0.780234 -1.649846 -0.257714 0.355688 0.497091 0.054471 1.207074 0.540726 -1.056402 0.345623 1.013761 1.000939 -0.471153 0.369874 0.368543 0.169106 -1.438586 1.602445 1.376292 -0.537107 -0.366708 0.158193 -0.580778 0.180025 0.176345 0.425723 1.128944 -0.151886 -0.862607 -0.390395 -0.407154 -0.185330 0.618769
ATACGT 0.747047 -1.362499 -0.021057 -0.844255 -0.323022 -0.994185 0.274167 -1.561508 0.761619 -0.689373 -0.107853 -0.870196 -0.196744 1.114480 -0.759623 0.710379 -0.128026 -0.925495 -1.063853 -0.754218 -0.450070 0.102780 -1.086424 1.584938 -0.769155 0.594666 -0.257701 0.208582 0.264267 -0.002317 -0.722547 0.497645 -0.254939 -0.835247 1.004061 0.849028 -0.297639 -0.135567 1.165414 -0.549046 -0.357558 0.763153 -0.152009 0.576548 -1.275288 0.219698 -0.589392 0.945639 -0.005676 -0.154928
ATGATT 0.142387 -0.648320 -1.051627 -0.594506 -0.785993 0.186658 0.669330 0.322679 0.157373 0.790474 0.608692 -1.191808 0.093921 -0.728006 -0.030350 0.229630 0.689783 -0.739440 -0.383886 0.282406 0.950815 0.320667 -1.348259 -0.290493 -0.468595 0.680777 0.289107 -0.475461 -0.308380 0.491470 0.404825 0.129993 -0.870586 -0.096233 2.148929 -0.172270 -1.848464 -0.346979 -0.859179 -0.266673 0.671753 1.008128 -0.119139 0.049884 -0.154295 -0.360933 0.126093 -0.531815 0.174318 -1.374589
CATACA 0.529990 0.318885 1.072543 0.501922 -0.065213 -0.141196 -0.049403 0.489960 1.044831 -1.433448 0.803003 0.593740 -0.142916 -0.222047 0.032376 -0.193729 1.499557 -1.065957 -0.470410 -0.866832 0.137618 -0.011492 -1.667784 0.810387 0.636233 0.672581 -0.147526 -0.966970 -0.322239 -0.445241 -0.238540 -0.111403 -0.011274 -0.375137 1.964283 1.459456 0.730008 -0.311912 0.314084 -0.141123 -0.286160 0.156246 0.422792 0.247231 0.326288 -0.211644 0.079293 0.683344 0.126426 0.586531
TATTCT -0.838960 0.135953 0.310528 -0.077224 -0.586164 0.490578 -1.092216 -0.058081 0.395106 -0.161536 0.604146 -0.772542 0.034210 -1.438690 0.089907 0.561621 0.046405 -1.209537 -0.094119 -0.461514 1.464179 1.093965 0.542069 0.668546 -1.182696 -0.823024 -0.049446 0.206057 0.081291 0.002158 -0.574057 -0.149693 0.147734 -0.540328 0.671424 -0.314024 0.171907 0.169279 1.824646 -0.088579 -0.625976 0.849979 -0.852808 0.000069 1.438261 -0.033401 0.240604 -0.906001 0.018250 0.387914
ATAGTT -0.694749 -0.730879 0.262302 0.277160 -0.319864 0.240447 1.505059 0.645976 0.378137 -0.474222 0.758390 -1.657223 -0.255994 -0.003542 -0.473784 0.124992 0.089762 -0.723862 -1.770888 -0.061234 0.517393 -1.207434 -0.275050 -0.391998 -0.754563 0.164501 0.089155 -0.858579 -0.114007 -1.481527 -0.771161 0.782059 0.022861 0.097674 0.473157 1.000231 0.104631 -1.082673 -0.683069 0.793603 -0.220225 0.396197 -0.280259 1.495865 0.472606 0.011433 -0.377409 -0.496150 0.439271 -0.523241
GATATT -0.678802 0.922780 0.836952 -0.117710 -0.601645 -0.307552 -0.358761 -0.306616 -0.764767 -0.382235 0.595655 -0.873597 -0.097626 -0.311985 -0.312176 1.102401 0.232886 -0.102412 -1.306364 -1.108192 -0.043752 1.631737 -0.046468 -0.123502 -1.300265 -0.226174 -0.053261 -0.192998 0.817886 0.267602 -0.165077 0.216653 0.483781 -1.354657 1.156936 -0.758920 -1.372479 -0.303298 0.371402 -0.053041 -0.573117 0.458282 -0.281786 0.324386 1.398034 0.684831 0.466364 -0.765514 0.585261 -0.959452
AACATT 0.028416 0.349743 -0.356721 -1.367047 -0.193234 -0.586726 1.481160 -0.541103 0.636722 0.838858 0.262501 0.741080 -0.535444 -0.907124 0.366260 -0.703884 1.439263 -1.165469 0.754807 0.325191 -0.479709 -0.034731 0.124401 0.259726 -0.826319 0.360538 0.317397 -0.107319 0.264520 0.007168 0.681959 -0.373734 -0.268503 -0.400545 1.065793 0.643350 -0.152708 -0.426071 0.364168 -0.481393 0.027703 -0.737120 0.130049 0.754963 1.406362 -0.421945 1.485783 -0.739378 -0.524139 0.967656
AATCAA -0.546507 0.487155 -0.064448 -1.252649 0.485668 -1.639262 0.602530 0.484249 -0.809124 -0.726561 0.774260 0.623448 -0.269557 -0.246313 0.336361 0.907938 0.688012 0.086848 -0.879685 0.689875 0.618778 -1.185650 -0.314663 0.261284 0.383912 0.899935 -0.273083 0.554603 0.068564 0.634507 0.378610 1.156607 -0.441011 -0.291063 -0.257381 -0.384361 -0.299245 0.039627 0.507339 0.118181 -0.317429 0.642926 -1.655282 0.230692 0.232664 -1.988297 -0.136439 0.009063 0.518378 0.366752
TCATAA -0.667640 0.007675 -0.929361 -0.739392 -0.608501 -1.008061 0.690069 0.222311 0.696623 -1.337058 -0.140967 0.665193 1.100442 0.290400 1.439383 0.280996 -0.190003 -0.887130 -0.940959 0.089721 -0.194803 0.200212 0.173007 0.324417 -0.455338 0.546202 -1.513174 -0.537102 -0.135560 0.050908 -0.221603 0.805863 -0.466843 -0.574477 0.041392 1.423947 0.677688 0.494058 -0.752249 -0.458122 -0.043429 -0.427287 -0.255289 0.245351 0.525017 -1.707116 0.659549 -0.602443 0.601052 -0.018441
TGATTT -0.275754 -0.114028 -1.403722 -0.347664 -0.089350 0.150587 -0.026517 0.480534 1.088117 -0.321551 0.425487 -0.843407 1.653723 0.142394 -0.144954 -0.347661 0.375143 0.927280 -0.580186 -0.167832 -0.325671 0.666638 -0.325323 0.144276 -1.546244 0.714007 1.036913 0.014622 -0.885745 0.327713 -0.165337 0.264638 1.251205 -0.519480 0.061191 -0.125085 -0.113185 0.376421 -0.012886 0.540425 0.554827 0.537711 -1.052279 0.228357 0.391985 -1.166320 1.737605 -0.409908 -0.271368 -0.183884
AGATTT 0.162272 0.508206 -0.497693 0.889346 0.349130 0.072385 0.596682 -0.905571 0.208083 -1.090243 0.122065 -1.030909 1.104788 -0.538331 1.276903 -0.815886 0.139771 0.424724 0.348082 -1.501054 1.087892 0.794361 -0.042956 1.427712 -1.074973 0.325934 0.383082 -0.332005 -0.550114 0.825416 -0.310822 0.741024 0.857962 -0.159034 -0.282320 -0.303523 -0.862511 0.373491 -0.558729 -0.228647 0.695309 -0.390967 0.188034 0.770026 1.215053 -0.677784 0.338986 0.284368 0.153061 -0.103332
ATATAC -0.369215 -0.160898 -0.041344 -0.323463 -0.374124 -1.003368 -0.415515 -0.085702 0.561768 -1.046696 0.087676 -0.427829 0.430841 0.369567 -0.474063 -0.288978 -0.129466 0.055797 -1.477386 -0.442985 -0.069807 0.282102 -0.986358 1.278786 -0.682070 0.075594 -1.115373 0.300648 -0.069428 -0.527882 -0.160283 0.182523 -0.987294 -0.975539 1.219954 1.059333 -0.261900 -0.838283 0.718773 -0.603665 0.134825 0.088515 0.791070 0.992467 -0.488698 -1.479451 -0.895771 -0.106980 -0.255852 0.456629
CATTTA -0.360094 -0.393117 0.332554 -1.662938 0.811720 0.027961 0.579350 -0.676598 1.067448 0.830124 1.243034 0.258143 -0.699807 -0.706863 0.004255 -1.009821 0.505621 -0.586385 -0.083419 -0.482573 0.071247 -0.551095 -0.085177 0.354634 0.255984 0.630206 1.060937 -1.398675 -0.060472 -0.781810 0.600093 -0.117837 -0.317648 -0.286996 0.883062 1.049886 0.950605 -0.453248 0.669205 -0.520011 0.866852 0.132876 0.654574 0.775953 0.495654 -0.810557 1.430273 0.023596 0.382221 -0.028417
TATCAA -0.785710 0.323054 0.642529 -0.394868 0.021016 -1.731719 1.223154 -0.588690 -0.441668 -0.215713 0.888986 0.729525 0.243447 0.557447 0.834717 0.730465 0.128211 0.325270 -0.061202 1.164270 1.167554 -0.033853 -0.520918 0.101865 -0.565222 -0.002221 0.852674 -0.056885 0.358213 0.168934 0.407335 0.318727 -0.437696 -1.446097 0.212578 0.129566 0.555621 0.066288 1.210055 -0.398819 -0.118206 0.718937 -1.502752 -0.734347 0.157911 -1.606197 0.162374 -0.828138 1.215005 0.293323
TTTATG -0.018113 -0.576573 0.929246 -0.856443 0.371179 0.800207 -0.139576 -0.182568 0.908033 0.316303 0.815685 -0.359073 0.243896 0.155933 -0.869231 -0.785562 -0.456177 0.877734 -0.124902 -0.312735 1.695759 0.130989 0.157696 0.274645 -0.555682 0.348709 0.775112 -1.008556 -0.074162 -0.718063 0.526047 -0.245495 -1.618740 -0.632527 -0.431708 -0.128229 -0.282204 0.467031 0.459171 -0.583096 1.118366 1.198960 -0.725091 0.530671 -0.193097 -0.762533 1.888370 -0.351244 0.088958 -0.278817
GTTCAT -0.914954 -0.307109 -0.551973 0.233273 0.264093 -0.118043 0.174234 -0.016122 0.771144 -0.320043 -0.397244 -0.295470 -1.770814 -0.765175 -0.784545 -0.157333 0.782328 -1.978475 0.178366 -0.326323 0.877021 0.220289 -0.158358 0.624449 -0.092840 1.574499 1.013660 -0.601435 -0.186860 -1.298076 -0.371741 -0.098878 0.690150 0.362093 0.310680 0.913309 0.024485 -0.671310 -0.334735 -1.380034 -0.556331 0.235345 -0.494908 0.985541 0.350690 1.322161 1.041678 -0.429985 0.456091 -0.137003
GAATAT 0.472353 0.676287 0.351987 0.408358 -0.121197 -0.869469 -0.382282 0.174757 0.680123 -0.658569 0.848282 -0.697267 -0.161701 -0.233931 -0.276432 0.179804 -1.079064 -1.312107 -1.310986 -0.214843 -0.056035 0.056177 -0.717193 0.331653 -1.131335 0.516368 -1.070497 0.150589 -0.720145 -0.342307 -0.411300 0.351288 -1.997811 -0.121744 0.452398 -0.377488 -0.610795 -0.055715 -0.321717 0.115155 0.750847 0.528020 0.312685 0.484181 0.991373 -2.067935 -0.177759 0.534689 -0.093895 -0.553073
AAACAA -0.050508 0.920950 -0.377492 -1.592414 0.534260 -0.722029 1.143688 -0.349057 1.115445 -0.510993 0.705187 -0.085231 -0.330015 0.369310 0.769445 -0.289329 0.000528 -0.279889 -0.245318 0.241152 0.293906 0.133077 0.483667 -0.223414 -0.050394 0.241339 -0.062465 0.935287 0.767811 0.784365 -0.263387 0.700566 -0.657369 0.128046 -0.200213 -0.301027 -0.414858 -0.169414 0.178813 -0.025102 -0.205228 0.052808 -0.262930 0.887546 -0.147964 -0.812197 -0.868211 -0.109094 0.214639 0.905274
TAAACA 1.077257 -0.269264 -0.480243 -0.557623 0.133514 -1.269277 1.717700 0.285803 0.262375 -0.402081 0.357682 1.105656 -0.496771 0.477018 -0.017913 -0.607821 0.611297 -0.889495 0.234823 0.320179 0.450324 0.092180 -0.055335 0.108663 0.114699 0.192373 0.346250 1.068503 1.186389 -0.023352 -0.674633 0.344162 0.406948 -0.476265 1.199403 0.026422 -0.161124 0.054366 0.006023 -0.717174 -0.049700 -0.185021 -0.306856 1.454748 0.866539 -0.565714 0.674023 0.077851 -0.820173 0.970350
